svm_type c_svc
kernel_type rbf
gamma 0.055555555555555552
nr_class 3
total_sv 577
rho 0.43047601018323284 1.1700075808116746 0.10209380055869018
label 1 2 3
probA -6.8642367630059979 -5.6131275009800525 -5.756177496507016
probB -1.3521989525262561 -0.11102440574566456 -0.24358312434066437
nr_sv 153 242 182
SV
1 1 1:-0.996041 2:-0.940024 3:-0.293536 4:-0.999649 5:-0.997719 6:-0.997689 7:-0.999911 8:-0.996325 9:-0.984432 10:-0.964459 11:-0.888827 12:-0.92341 13:-0.591629 14:-0.667679 15:-0.77185 16:-0.729201 17:-0.875425 18:-0.74946 
0 1 1:-0.998962 2:-0.977631 3:-0.707588 4:-0.999852 5:-0.999328 6:-0.99877 7:-0.999979 8:-0.998952 9:-0.993945 10:-0.997846 11:-0.983156 12:-0.954293 13:-0.645362 14:-0.582017 15:-0.854675 16:-0.852094 17:-0.99094 18:-0.936285 
1 1 1:-0.995835 2:-0.941237 3:-0.266009 4:-0.999539 5:-0.998028 6:-0.997494 7:-0.999914 8:-0.996144 9:-0.987323 10:-0.981691 11:-0.898933 12:-0.929586 13:-0.627828 14:-0.73633 15:-0.695122 16:-0.761827 17:-0.884485 18:-0.74838 
1 1 1:-0.99633 2:-0.94664 3:-0.273707 4:-0.999662 5:-0.997789 6:-0.997671 7:-0.999919 8:-0.996205 9:-0.987757 10:-0.969844 11:-0.887704 12:-0.932057 13:-0.604072 14:-0.68469 15:-0.731707 16:-0.750952 17:-0.87316 18:-0.74406 
0 1 1:-0.998995 2:-0.969554 3:-0.693852 4:-0.999596 5:-0.999032 6:-0.998805 7:-0.999962 8:-0.997959 9:-0.991914 10:-0.992461 11:-0.993262 12:-0.955528 13:-0.63914 14:-0.657351 15:-0.840955 16:-0.918434 17:-1 18:-0.941685 
1 1 1:-0.995767 2:-0.934028 3:-0.35016 4:-0.999634 5:-0.997693 6:-0.997692 7:-0.99992 8:-0.995673 9:-0.987303 10:-0.968767 11:-0.892195 12:-0.919704 13:-0.609163 14:-0.705346 15:-0.696138 16:-0.712887 17:-0.866365 18:-0.736501 
1 1 1:-0.995884 2:-0.936522 3:-0.351472 4:-0.999568 5:-0.997911 6:-0.997689 7:-0.999908 8:-0.995807 9:-0.987815 10:-0.975229 11:-0.904548 12:-0.932057 13:-0.570701 14:-0.730255 15:-0.696646 16:-0.76944 17:-0.889015 18:-0.75594 
0 1 1:-0.998916 2:-0.965717 3:-0.682183 4:-0.999668 5:-0.999177 6:-0.998686 7:-0.999968 8:-0.998204 9:-0.993171 10:-0.992461 11:-0.992139 12:-0.957999 13:-0.616516 14:-0.702309 15:-0.818089 16:-0.916259 17:-1 18:-0.934125 
0 1 1:-0.999005 2:-0.972327 3:-0.696285 4:-0.999665 5:-0.999276 6:-0.998784 7:-0.999973 8:-0.998707 9:-0.995085 10:-0.992461 11:-0.989893 12:-0.956763 13:-0.636312 14:-0.582625 15:-0.819106 16:-0.89342 17:-0.992072 18:-0.917927 
0 0.57540523273118382 1:-0.999305 2:-0.980971 3:-0.788081 4:-0.99965 5:-0.999557 6:-0.999471 7:-0.999991 8:-0.999892 9:-0.998627 10:-1 11:-0.995508 12:-0.96294 13:-0.622172 14:-0.425881 15:-0.713415 16:-0.881457 17:-0.96376 18:-0.897408 
1 1 1:-0.997386 2:-0.930299 3:-0.447908 4:-0.999533 5:-0.99837 6:-0.997551 7:-0.999886 8:-0.994419 9:-0.98197 10:-1 11:-1 12:-0.960469 13:-0.70871 14:-0.795869 15:-0.900407 16:-0.944535 17:-1 18:-0.966523 
1 1 1:-0.997288 2:-0.934966 3:-0.453613 4:-0.999604 5:-0.998587 6:-0.997879 7:-0.999917 8:-0.994796 9:-0.98388 10:-1 11:-1 12:-0.965411 13:-0.701923 14:-0.783111 15:-0.88872 16:-0.924959 17:-1 18:-0.956803 
1 1 1:-0.997405 2:-0.933023 3:-0.435919 4:-0.999611 5:-0.998379 6:-0.997868 7:-0.999878 8:-0.994975 9:-0.982784 10:-1 11:-1 12:-0.961705 13:-0.770362 14:-0.834751 15:-0.894817 16:-0.959761 17:-1 18:-0.958963 
1 1 1:-0.999334 2:-0.984341 3:-0.961808 4:-0.999618 5:-0.998258 6:-0.997886 7:-0.999932 8:-0.994535 9:-0.981023 10:-0.966613 11:-0.966311 12:-0.901174 13:-0.647624 14:-0.825638 15:-0.91311 16:-0.947798 17:-1 18:-1 
1 1 1:-0.99792 2:-0.928649 3:-0.669324 4:-0.99876 5:-0.981097 6:-0.95245 7:-0.999726 8:-0.957528 9:-0.852961 10:-0.797523 11:-0.781022 12:-0.712168 13:-0.731335 14:-0.797691 15:-0.805894 16:-0.797716 17:-0.86863 18:-0.740821 
1 1 1:-0.998189 2:-0.959574 3:-0.803341 4:-0.999311 5:-0.990106 6:-0.978542 7:-0.999864 8:-0.980112 9:-0.920671 10:-0.829833 11:-0.743964 12:-0.668931 13:-0.677036 14:-0.742406 15:-0.743902 16:-0.698749 17:-0.852775 18:-0.715983 
1 1 1:-0.999305 2:-0.979852 3:-0.891952 4:-0.999524 5:-0.994644 6:-0.985847 7:-0.99993 8:-0.991937 9:-0.954564 10:-0.756597 11:-0.737226 12:-0.641754 13:-0.621606 14:-0.704131 15:-0.753049 16:-0.65416 17:-0.826727 18:-0.717063 
1 1 1:-0.997384 2:-0.930258 3:-0.411653 4:-0.999673 5:-0.998394 6:-0.997871 7:-0.999883 8:-0.994437 9:-0.980735 10:-1 11:-1 12:-0.96294 13:-0.743778 14:-0.792224 15:-0.88313 16:-0.958673 17:-1 18:-0.967603 
1 1 1:-0.997838 2:-0.943468 3:-0.46028 4:-0.999551 5:-0.998449 6:-0.997661 7:-0.999905 8:-0.996088 9:-0.984809 10:-1 11:-1 12:-0.964175 13:-0.701923 14:-0.794046 15:-0.91311 16:-0.939097 17:-1 18:-0.967603 
1 1 1:-0.996481 2:-0.8852 3:-0.0103108 4:-0.999534 5:-0.994692 6:-0.989481 7:-0.999924 8:-0.994946 9:-0.964948 10:-0.980614 11:-0.961819 12:-0.939469 13:-0.690611 14:-0.845079 15:-0.867886 16:-0.868407 17:-0.91846 18:-0.895248 
1 1 1:-0.996683 2:-0.879424 3:-0.077467 4:-0.999574 5:-0.994868 6:-0.989723 7:-0.99993 8:-0.994756 9:-0.964137 10:-0.97846 11:-0.962942 12:-0.938233 13:-0.673077 14:-0.860267 15:-0.888211 16:-0.857531 17:-0.921857 18:-0.896328 
1 1 1:-0.996633 2:-0.878642 3:-0.114603 4:-0.999561 5:-0.994436 6:-0.989924 7:-0.999931 8:-0.994019 9:-0.966529 10:-0.980614 11:-0.966311 12:-0.938233 13:-0.683824 14:-0.835358 15:-0.881098 16:-0.856444 17:-0.929785 18:-0.889849 
1 1 1:-0.996373 2:-0.882022 3:-0.0714457 4:-0.999473 5:-0.994539 6:-0.990055 7:-0.999926 8:-0.994346 9:-0.966008 10:-0.980614 11:-0.964065 12:-0.934527 13:-0.600113 14:-0.846902 15:-0.882114 16:-0.862969 17:-0.92299 18:-0.892009 
1 0 1:-0.999138 2:-0.97726 3:-0.860538 4:-0.999225 5:-0.992273 6:-0.975069 7:-0.999923 8:-0.995273 9:-0.964504 10:-0.649973 11:-0.640651 12:-0.583694 13:-0.655543 14:-0.783111 15:-0.826728 16:-0.247417 17:-0.673839 18:-0.550756 
1 1 1:-0.996686 2:-0.877825 3:-0.091693 4:-0.999524 5:-0.994844 6:-0.990004 7:-0.999922 8:-0.994804 9:-0.973152 10:-0.980614 11:-0.966311 12:-0.936998 13:-0.656674 14:-0.850547 15:-0.879065 16:-0.865144 17:-0.915062 18:-0.87365 
1 1 1:-0.996748 2:-0.876847 3:-0.119139 4:-0.999499 5:-0.994719 6:-0.989222 7:-0.999928 8:-0.994786 9:-0.967813 10:-0.979537 11:-0.966311 12:-0.939469 13:-0.622172 14:-0.85966 15:-0.869919 16:-0.861881 17:-0.915062 18:-0.885529 
1 1 1:-0.9968 2:-0.87201 3:-0.0977968 4:-0.999608 5:-0.994558 6:-0.989249 7:-0.999932 8:-0.994428 9:-0.966737 10:-0.97846 11:-0.968557 12:-0.940704 13:-0.676471 14:-0.851154 15:-0.875 16:-0.857531 17:-0.926387 18:-0.883369 
1 1 1:-0.996674 2:-0.873194 3:-0.0937994 4:-0.999602 5:-0.994952 6:-0.988964 7:-0.999929 8:-0.994689 9:-0.966648 10:-0.980614 11:-0.968557 12:-0.939469 13:-0.677036 14:-0.852977 15:-0.879573 16:-0.860794 17:-0.919592 18:-0.889849 
1 0 1:-0.997867 2:-0.964714 3:-0.81155 4:-0.999051 5:-0.982515 6:-0.939027 7:-0.999899 8:-0.994317 9:-0.940492 10:-0.856758 11:-0.811342 12:-0.666461 13:-0.639706 14:-0.702309 15:-0.653963 16:-0.309407 17:-0.673839 18:-0.641469 
1 1 1:-0.972195 2:-0.8933 3:-0.739362 4:-0.998916 5:-0.979734 6:-0.929452 7:-0.999857 8:-0.996437 9:-0.957667 10:-1 11:-0.935991 12:-0.660284 13:-0.713235 14:-0.735115 15:-0.679878 16:-0.473627 17:-0.570781 18:-0.490281 
1 1 1:-0.996274 2:-0.90699 3:-0.0928482 4:-0.999597 5:-0.994392 6:-0.988072 7:-0.999929 8:-0.995026 9:-0.965585 10:-0.987076 11:-0.962942 12:-0.941939 13:-0.694005 14:-0.856015 15:-0.892785 16:-0.867319 17:-0.933182 18:-0.893089 
1 1 1:-0.999829 2:-0.992905 3:-0.945851 4:-0.999623 5:-0.999194 6:-0.998112 7:-0.999988 8:-0.9994 9:-0.99499 10:-0.854604 11:-0.896687 12:-0.914762 13:-0.667421 14:-0.648238 15:-0.838415 16:-0.764002 17:-0.924122 18:-0.900648 
0 1 1:-0.999842 2:-0.993089 3:-0.945979 4:-0.999524 5:-0.998927 6:-0.997893 7:-0.999984 8:-0.999337 9:-0.994914 10:-0.862143 11:-0.907917 12:-0.924645 13:-0.598982 14:-0.585662 15:-0.832317 16:-0.830343 17:-0.939977 18:-0.910367 
1 1 1:-0.999817 2:-0.992613 3:-0.944109 4:-0.999534 5:-0.998979 6:-0.997867 7:-0.999983 8:-0.999236 9:-0.994314 10:-0.858912 11:-0.895564 12:-0.915998 13:-0.682127 14:-0.656744 15:-0.824695 16:-0.798804 17:-0.930917 18:-0.907127 
1 0 1:-0.999824 2:-0.996576 3:-0.968398 4:-0.999632 5:-0.998809 6:-0.995714 7:-0.999971 8:-0.999309 9:-0.995479 10:-0.687668 11:-0.693431 12:-0.735639 13:-0.607466 14:-0.55407 15:-0.766768 16:-0.495378 17:-0.788222 18:-0.528078 
1 1 1:-0.998574 2:-0.956135 3:-0.784718 4:-0.999258 5:-0.990903 6:-0.966644 7:-0.999852 8:-0.990897 9:-0.943693 10:-0.648896 11:-0.611454 12:-0.388511 13:-0.683258 14:-0.691373 15:-0.705793 16:-0.524742 17:-0.664779 18:-0.480562 
1 1 1:-0.998527 2:-0.954454 3:-0.783098 4:-0.999191 5:-0.990543 6:-0.965647 7:-0.999858 8:-0.990674 9:-0.941836 10:-0.652127 11:-0.606962 12:-0.372452 13:-0.651584 14:-0.692588 15:-0.710366 16:-0.500816 17:-0.680634 18:-0.454644 
1 0 1:-0.999696 2:-0.99281 3:-0.961904 4:-0.999653 5:-0.998462 6:-0.994499 7:-0.999966 8:-0.999294 9:-0.993336 10:-0.719978 11:-0.754071 12:-0.684991 13:-0.525452 14:-0.612394 15:-0.749492 16:-0.4236 17:-0.721404 18:-0.528078 
1 0 1:-0.999698 2:-0.991102 3:-0.963784 4:-0.999571 5:-0.998223 6:-0.994348 7:-0.999967 8:-0.999183 9:-0.993246 10:-0.711362 11:-0.805727 12:-0.684991 13:-0.461538 14:-0.55407 15:-0.755589 16:-0.393148 17:-0.733862 18:-0.559395 
1 0 1:-0.999635 2:-0.990671 3:-0.954815 4:-0.999667 5:-0.998098 6:-0.993476 7:-0.999956 8:-0.999038 9:-0.992675 10:-0.716747 11:-0.768669 12:-0.714639 13:-0.446267 14:-0.628797 15:-0.748984 16:-0.522567 17:-0.727067 18:-0.529158 
1 0 1:-0.999698 2:-0.991344 3:-0.963177 4:-0.99955 5:-0.998296 6:-0.994561 7:-0.999963 8:-0.999317 9:-0.99267 10:-0.728595 11:-0.801235 12:-0.683755 13:-0.567873 14:-0.526124 15:-0.73628 16:-0.483415 17:-0.733862 18:-0.61879 
1 0 1:-0.999703 2:-0.991086 3:-0.961271 4:-0.999636 5:-0.998428 6:-0.994189 7:-0.999965 8:-0.999059 9:-0.992791 10:-0.705977 11:-0.809096 12:-0.698579 13:-0.502262 14:-0.580194 15:-0.752033 16:-0.459489 17:-0.785957 18:-0.586393 
1 1 1:-0.998358 2:-0.957408 3:-0.821914 4:-0.999204 5:-0.991015 6:-0.969196 7:-0.999856 8:-0.991162 9:-0.951628 10:-0.707054 11:-0.620438 12:-0.362569 13:-0.663462 14:-0.707169 15:-0.740346 16:-0.535617 17:-0.710079 18:-0.475162 
1 0 1:-0.999842 2:-0.997293 3:-0.974223 4:-0.999607 5:-0.998158 6:-0.994546 7:-0.999954 8:-0.999181 9:-0.994386 10:-0.666128 11:-0.665357 12:-0.656578 13:-0.551471 14:-0.526124 15:-0.773374 16:-0.65851 17:-0.816535 18:-0.574514 
1 1 1:-0.995481 2:-0.864591 3:-0.353683 4:-0.998319 5:-0.976375 6:-0.919873 7:-0.999712 8:-0.977758 9:-0.838084 10:-0.696284 11:-0.544076 12:-0.176035 13:-0.664027 14:-0.709599 15:-0.745935 16:-0.504078 17:-0.593431 18:-0.421166 
1 1 1:-0.995765 2:-0.868553 3:-0.384782 4:-0.998432 5:-0.977215 6:-0.922357 7:-0.999734 8:-0.979199 9:-0.843879 10:-0.687668 11:-0.545199 12:-0.167387 13:-0.66629 14:-0.718712 15:-0.744919 16:-0.491028 17:-0.577576 18:-0.417927 
1 1 1:-0.995825 2:-0.871899 3:-0.396298 4:-0.998465 5:-0.976828 6:-0.921428 7:-0.99973 8:-0.978904 9:-0.841396 10:-0.690899 11:-0.535093 12:-0.157505 13:-0.703054 14:-0.712029 15:-0.740346 16:-0.506253 17:-0.578709 18:-0.407127 
1 1 1:-0.995812 2:-0.869448 3:-0.381872 4:-0.998426 5:-0.977229 6:-0.920767 7:-0.999733 8:-0.977638 9:-0.838273 10:-0.677975 11:-0.531724 12:-0.172329 13:-0.652715 14:-0.709599 15:-0.746443 16:-0.484502 17:-0.585504 18:-0.410367 
1 0 1:-0.999748 2:-0.992781 3:-0.936706 4:-0.999567 5:-0.99575 6:-0.984811 7:-0.999958 8:-0.998701 9:-0.986772 10:-0.448573 11:-0.567659 12:-0.576282 13:-0.52319 14:-0.72904 15:-0.819614 16:-0.0831974 17:-0.596829 18:-0.462203 
1 1 1:-0.99598 2:-0.883815 3:-0.447953 4:-0.998618 5:-0.9794 6:-0.930077 7:-0.999749 8:-0.980337 9:-0.857371 10:-0.698438 11:-0.540707 12:-0.168623 13:-0.673643 14:-0.703524 15:-0.74187 16:-0.497553 17:-0.611552 18:-0.422246 
1 1 1:-0.99589 2:-0.869511 3:-0.400255 4:-0.998442 5:-0.978031 6:-0.924438 7:-0.999743 8:-0.979431 9:-0.846969 10:-0.679052 11:-0.544076 12:-0.190859 13:-0.659502 14:-0.705954 15:-0.734756 16:-0.48994 17:-0.576444 18:-0.37689 
1 1 1:-0.996982 2:-0.907083 3:-0.563368 4:-0.998731 5:-0.983445 6:-0.942967 7:-0.999797 8:-0.984439 9:-0.883821 10:-0.67259 11:-0.540707 12:-0.176035 13:-0.632919 14:-0.694411 15:-0.735264 16:-0.452964 17:-0.599094 18:-0.403888 
1 1 1:-0.997527 2:-0.923627 3:-0.646332 4:-0.999007 5:-0.987308 6:-0.955526 7:-0.999828 8:-0.988312 9:-0.910214 10:-0.66182 11:-0.548568 12:-0.167387 13:-0.659502 14:-0.686513 15:-0.726118 16:-0.446438 17:-0.594564 18:-0.390929 
1 1 1:-0.996343 2:-0.892289 3:-0.504852 4:-0.998612 5:-0.981693 6:-0.939538 7:-0.999781 8:-0.982775 9:-0.873704 10:-0.69413 11:-0.539585 12:-0.161211 13:-0.643665 14:-0.695626 15:-0.733232 16:-0.462751 17:-0.588901 18:-0.387689 
1 1 1:-0.997752 2:-0.949823 3:-0.72634 4:-0.998935 5:-0.987533 6:-0.955867 7:-0.999828 8:-0.991088 9:-0.940968 10:-0.756597 11:-0.664234 12:-0.482397 13:-0.68948 14:-0.7339 15:-0.738313 16:-0.53453 17:-0.670442 18:-0.546436 
1 1 1:-0.997009 2:-0.927026 3:-0.709725 4:-0.998853 5:-0.987128 6:-0.954962 7:-0.999782 8:-0.987212 9:-0.932435 10:-0.769521 11:-0.667602 12:-0.461396 13:-0.677036 14:-0.718104 15:-0.744919 16:-0.591082 17:-0.682899 18:-0.510799 
1 0 1:-0.999547 2:-0.985343 3:-0.922541 4:-0.999345 5:-0.995373 6:-0.98213 7:-0.999948 8:-0.997652 9:-0.983512 10:-0.599354 11:-0.693431 12:-0.602224 13:-0.522059 14:-0.707776 15:-0.808435 16:-0.190865 17:-0.703284 18:-0.487041 
1 0 1:-0.999527 2:-0.985768 3:-0.914343 4:-0.999557 5:-0.995198 6:-0.982056 7:-0.999947 8:-0.997532 9:-0.978589 10:-0.595046 11:-0.673217 12:-0.598518 13:-0.571267 14:-0.736938 15:-0.806911 16:-0.238717 17:-0.684032 18:-0.549676 
1 0 1:-0.999635 2:-0.988574 3:-0.93132 4:-0.999546 5:-0.995524 6:-0.983145 7:-0.999953 8:-0.998102 9:-0.981039 10:-0.579968 11:-0.667602 12:-0.586164 13:-0.529412 14:-0.695626 15:-0.799289 16:-0.202828 17:-0.645527 18:-0.566955 
1 0 1:-0.999083 2:-0.975729 3:-0.855918 4:-0.999288 5:-0.993297 6:-0.973459 7:-0.999919 8:-0.995753 9:-0.964384 10:-0.680129 11:-0.657496 12:-0.60593 13:-0.618778 14:-0.755164 15:-0.841463 16:-0.315933 17:-0.655719 18:-0.553996 
1 0 1:-0.99919 2:-0.977262 3:-0.861033 4:-0.999364 5:-0.993044 6:-0.974757 7:-0.999925 8:-0.995184 9:-0.95948 10:-0.639203 11:-0.638405 12:-0.5874 13:-0.625566 14:-0.755164 15:-0.827744 16:-0.243067 17:-0.677237 18:-0.614471 
1 0 1:-0.999026 2:-0.974299 3:-0.851271 4:-0.999253 5:-0.992331 6:-0.972508 7:-0.999905 8:-0.994682 9:-0.956846 10:-0.666128 11:-0.647389 12:-0.594812 13:-0.649887 14:-0.776428 15:-0.834858 16:-0.360522 17:-0.669309 18:-0.611231 
1 1 1:-0.995299 2:-0.868866 3:-0.343122 4:-0.998437 5:-0.977801 6:-0.924555 7:-0.999738 8:-0.977075 9:-0.848526 10:-0.693053 11:-0.512633 12:-0.180976 13:-0.692308 14:-0.701094 15:-0.748476 16:-0.492115 17:-0.593431 18:-0.399568 
1 1 1:-0.990992 2:-0.87555 3:-0.489227 4:-0.998768 5:-0.98185 6:-0.938009 7:-0.999752 8:-0.981132 9:-0.881354 10:-0.853527 11:-0.532847 12:-0.209389 13:-0.667421 14:-0.707776 15:-0.748984 16:-0.479065 17:-0.579841 18:-0.394168 
1 1 1:-0.99342 2:-0.882452 3:-0.412087 4:-0.998374 5:-0.976495 6:-0.919951 7:-0.999721 8:-0.97842 9:-0.856877 10:-0.827679 11:-0.540707 12:-0.187153 13:-0.683258 14:-0.714459 15:-0.763211 16:-0.517129 17:-0.626274 18:-0.424406 
1 0 1:-0.999592 2:-0.984028 3:-0.902594 4:-0.999294 5:-0.995833 6:-0.984397 7:-0.999947 8:-0.998046 9:-0.980953 10:-0.434572 11:-0.59461 12:-0.505868 13:-0.582014 14:-0.673755 15:-0.801321 16:-0.0918978 17:-0.566251 18:-0.484881 
1 0 1:-0.99963 2:-0.986388 3:-0.91496 4:-0.999448 5:-0.995768 6:-0.985169 7:-0.999952 8:-0.99837 9:-0.983334 10:-0.418417 11:-0.592364 12:-0.504632 13:-0.56052 14:-0.634265 15:-0.800813 16:-0.0473083 17:-0.488109 18:-0.426566 
1 0 1:-0.999172 2:-0.977498 3:-0.856866 4:-0.99923 5:-0.992455 6:-0.97278 7:-0.999916 8:-0.9954 9:-0.960255 10:-0.634895 11:-0.642897 12:-0.598518 13:-0.664593 14:-0.762454 15:-0.837398 16:-0.324633 17:-0.660249 18:-0.62311 
1 0 1:-0.99954 2:-0.986161 3:-0.902117 4:-0.999512 5:-0.995074 6:-0.983919 7:-0.99995 8:-0.998095 9:-0.980914 10:-0.560582 11:-0.575519 12:-0.489809 13:-0.479638 14:-0.663426 15:-0.796748 16:-0.0429581 17:-0.526614 18:-0.470842 
1 0 1:-0.99887 2:-0.974064 3:-0.839091 4:-0.99921 5:-0.991948 6:-0.971141 7:-0.999905 8:-0.994823 9:-0.955986 10:-0.708131 11:-0.654127 12:-0.603459 13:-0.667421 14:-0.787971 15:-0.840447 16:-0.362697 17:-0.659117 18:-0.607991 
1 1 1:-0.998909 2:-0.975683 3:-0.843283 4:-0.999177 5:-0.991929 6:-0.97101 7:-0.999906 8:-0.994892 9:-0.9566 10:-0.716747 11:-0.653004 12:-0.599753 13:-0.723416 14:-0.787971 15:-0.84248 16:-0.408374 17:-0.689694 18:-0.606911 
1 0 1:-0.999348 2:-0.977421 3:-0.857882 4:-0.999282 5:-0.993358 6:-0.978847 7:-0.999934 8:-0.996874 9:-0.973465 10:-0.470113 11:-0.514879 12:-0.394688 13:-0.482466 14:-0.675577 15:-0.788618 16:0.0190321 17:-0.494904 18:-0.402808 
1 0 1:-0.999344 2:-0.97888 3:-0.86173 4:-0.999228 5:-0.993535 6:-0.979192 7:-0.999937 8:-0.99715 9:-0.974604 10:-0.508885 11:-0.517125 12:-0.404571 13:-0.508484 14:-0.678615 15:-0.776931 16:-0.00924415 17:-0.492639 18:-0.392009 
1 1 1:-0.995823 2:-0.870174 3:-0.412682 4:-0.998481 5:-0.975719 6:-0.920835 7:-0.999737 8:-0.978556 9:-0.847597 10:-0.677975 11:-0.538462 12:-0.172329 13:-0.687783 14:-0.723572 15:-0.747459 16:-0.487765 17:-0.595696 18:-0.408207 
1 1 1:-0.998997 2:-0.972928 3:-0.77395 4:-0.999186 5:-0.991118 6:-0.97116 7:-0.9999 8:-0.996484 9:-0.968941 10:-0.668282 11:-0.631668 12:-0.56887 13:-0.643665 14:-0.758202 15:-0.813008 16:-0.37466 17:-0.594564 18:-0.441685 
1 1 1:-0.995976 2:-0.875371 3:-0.444767 4:-0.99852 5:-0.978256 6:-0.927404 7:-0.999767 8:-0.981194 9:-0.856584 10:-0.682283 11:-0.539585 12:-0.176035 13:-0.653846 14:-0.708384 15:-0.740854 16:-0.425775 17:-0.559456 18:-0.406048 
0 1 1:-0.999915 2:-0.99634 3:-0.994936 4:-0.99965 5:-0.999273 6:-0.998936 7:-0.999994 8:-0.999467 9:-0.997111 10:-0.97846 11:-1 12:-0.951822 13:-0.660068 14:-0.693803 15:-0.721545 16:-0.922784 17:-1 18:-0.99568 
0 1 1:-0.99984 2:-0.998491 3:-0.994789 4:-0.999638 5:-0.999173 6:-0.999097 7:-0.999997 8:-0.999733 9:-0.996488 10:-1 11:-0.996631 12:-0.959234 13:-0.683258 14:-0.641555 15:-0.768293 16:-0.910821 17:-1 18:-1 
0 1 1:-0.999948 2:-0.998077 3:-0.995529 4:-0.999705 5:-0.999376 6:-0.998891 7:-1 8:-0.999824 9:-0.997256 10:-0.966613 11:-1 12:-0.943175 13:-0.63009 14:-0.657351 15:-0.788618 16:-0.890158 17:-1 18:-0.99892 
1 0 1:-0.999435 2:-0.986334 3:-0.933694 4:-0.999623 5:-0.997323 6:-0.991309 7:-0.999942 8:-0.997788 9:-0.986458 10:-0.783522 11:-0.823695 12:-0.755405 13:-0.627262 14:-0.704739 15:-0.822663 16:-0.53888 17:-0.816535 18:-0.672786 
1 1 1:-0.999509 2:-0.98936 3:-0.931493 4:-0.999586 5:-0.997361 6:-0.990988 7:-0.999934 8:-0.997644 9:-0.987335 10:-0.772752 11:-0.802358 12:-0.764052 13:-0.636312 14:-0.758202 15:-0.826728 16:-0.631321 17:-0.847112 18:-0.671706 
1 1 1:-0.999137 2:-0.984583 3:-0.920465 4:-0.999503 5:-0.997442 6:-0.989076 7:-0.99993 8:-0.997007 9:-0.979217 10:-0.829833 11:-0.809096 12:-0.764052 13:-0.708145 14:-0.747874 15:-0.835366 16:-0.587819 17:-0.852775 18:-0.760259 
1 1 1:-0.999264 2:-0.985669 3:-0.928296 4:-0.999513 5:-0.996975 6:-0.989076 7:-0.999926 8:-0.996593 9:-0.984402 10:-0.825525 11:-0.821449 12:-0.736875 13:-0.673643 14:-0.761239 15:-0.843496 16:-0.642197 17:-0.88222 18:-0.696544 
1 1 1:-0.99751 2:-0.972243 3:-0.920083 4:-0.999628 5:-0.997496 6:-0.989154 7:-0.999917 8:-0.995934 9:-0.980429 10:-0.955843 11:-0.895564 12:-0.73811 13:-0.66629 14:-0.723572 15:-0.806911 16:-0.642197 17:-0.884485 18:-0.718143 
1 0 1:-0.99952 2:-0.987815 3:-0.935482 4:-0.999593 5:-0.997487 6:-0.99161 7:-0.999946 8:-0.997933 9:-0.987457 10:-0.770598 11:-0.822572 12:-0.75664 13:-0.628394 14:-0.660996 15:-0.822154 16:-0.526917 17:-0.83239 18:-0.660907 
1 0 1:-0.99948 2:-0.98917 3:-0.954798 4:-0.999654 5:-0.997705 6:-0.989719 7:-0.999955 8:-0.998521 9:-0.988173 10:-0.800754 11:-0.828186 12:-0.675108 13:-0.669118 14:-0.678615 15:-0.779472 16:-0.456226 17:-0.798414 18:-0.668467 
1 0 1:-0.99577 2:-0.933891 3:-0.350361 4:-0.998856 5:-0.996861 6:-0.997059 7:-0.999917 8:-0.99565 9:-0.987332 10:-0.968767 11:-0.892195 12:-0.919704 13:-0.539027 14:-0.59599 15:-0.606707 16:-0.721588 17:-0.865232 18:-0.737581 
0 1 1:-0.997287 2:-0.934872 3:-0.452992 4:-0.998588 5:-0.997727 6:-0.997472 7:-0.999913 8:-0.994819 9:-0.983964 10:-1 11:-1 12:-0.965411 13:-0.61086 14:-0.614216 15:-0.832825 16:-0.914084 17:-1 18:-0.956803 
0.5031705340557121 1 1:-0.99741 2:-0.932946 3:-0.434713 4:-0.998559 5:-0.997517 6:-0.997231 7:-0.999874 8:-0.994979 9:-0.98285 10:-1 11:-1 12:-0.961705 13:-0.605204 14:-0.647023 15:-0.823171 16:-0.95106 17:-1 18:-0.957883 
1 1 1:-0.997916 2:-0.928565 3:-0.669471 4:-0.997474 5:-0.980203 6:-0.951349 7:-0.999721 8:-0.957511 9:-0.852753 10:-0.797523 11:-0.781022 12:-0.712168 13:-0.542421 14:-0.758202 15:-0.791159 16:-0.792278 17:-0.86863 18:-0.741901 
1 1 1:-0.996474 2:-0.885049 3:-0.00886391 4:-0.998432 5:-0.993852 6:-0.988777 7:-0.999917 8:-0.994963 9:-0.964951 10:-0.980614 11:-0.961819 12:-0.939469 13:-0.56957 14:-0.769745 15:-0.839939 16:-0.864057 17:-0.91846 18:-0.894168 
1 1 1:-0.996681 2:-0.879127 3:-0.0754937 4:-0.998702 5:-0.994047 6:-0.989353 7:-0.999925 8:-0.994776 9:-0.964013 10:-0.97846 11:-0.962942 12:-0.938233 13:-0.572964 14:-0.778858 15:-0.854167 16:-0.849918 17:-0.920725 18:-0.895248 
1 0 1:-0.99663 2:-0.87864 3:-0.114731 4:-0.99834 5:-0.993222 6:-0.988952 7:-0.999928 8:-0.994029 9:-0.96611 10:-0.979537 11:-0.966311 12:-0.938233 13:-0.506787 14:-0.735723 15:-0.822154 16:-0.854269 17:-0.929785 18:-0.890929 
1 0 1:-0.999135 2:-0.977207 3:-0.860518 4:-0.997999 5:-0.99113 6:-0.974364 7:-0.999914 8:-0.995268 9:-0.964515 10:-0.647819 11:-0.640651 12:-0.583694 13:-0.432692 14:-0.704131 15:-0.807419 16:-0.247417 17:-0.670442 18:-0.551836 
1 0 1:-0.996687 2:-0.877822 3:-0.0928636 4:-0.998693 5:-0.993862 6:-0.989171 7:-0.99992 8:-0.994755 9:-0.97356 10:-0.979537 11:-0.966311 12:-0.936998 13:-0.471154 14:-0.769745 15:-0.843496 16:-0.860794 17:-0.915062 18:-0.87149 
1 1 1:-0.996749 2:-0.876967 3:-0.120636 4:-0.998484 5:-0.993791 6:-0.988491 7:-0.999925 8:-0.994784 9:-0.967553 10:-0.979537 11:-0.966311 12:-0.939469 13:-0.507353 14:-0.789186 15:-0.827236 16:-0.860794 17:-0.91393 18:-0.885529 
1 1 1:-0.996799 2:-0.872088 3:-0.0984829 4:-0.998654 5:-0.993504 6:-0.988192 7:-0.999926 8:-0.994425 9:-0.966454 10:-0.977383 11:-0.968557 12:-0.940704 13:-0.540158 14:-0.755772 15:-0.850102 16:-0.854269 17:-0.925255 18:-0.883369 
1 0 1:-0.996663 2:-0.873115 3:-0.0953642 4:-0.998298 5:-0.994337 6:-0.988262 7:-0.999924 8:-0.994675 9:-0.967021 10:-0.981691 11:-0.968557 12:-0.939469 13:-0.46776 14:-0.795869 15:-0.841463 16:-0.858619 17:-0.919592 18:-0.889849 
1 0 1:-0.997865 2:-0.964735 3:-0.811298 4:-0.997757 5:-0.981098 6:-0.938086 7:-0.99989 8:-0.994299 9:-0.940383 10:-0.854604 11:-0.811342 12:-0.665225 13:-0.498303 14:-0.653706 15:-0.640244 16:-0.310495 17:-0.673839 18:-0.643629 
1 0 1:-0.97228 2:-0.893262 3:-0.739944 4:-0.997788 5:-0.978659 6:-0.928458 7:-0.999845 8:-0.996408 9:-0.957434 10:-1 11:-0.935991 12:-0.659049 13:-0.562783 14:-0.700486 15:-0.678862 16:-0.461664 17:-0.568516 18:-0.492441 
1 1 1:-0.996272 2:-0.90683 3:-0.0914158 4:-0.99888 5:-0.993523 6:-0.987492 7:-0.999927 8:-0.995025 9:-0.965438 10:-0.987076 11:-0.962942 12:-0.941939 13:-0.535068 14:-0.783718 15:-0.876016 16:-0.859706 17:-0.930917 18:-0.893089 
1 0 1:-0.998575 2:-0.95614 3:-0.784695 4:-0.998054 5:-0.990182 6:-0.965435 7:-0.999845 8:-0.990911 9:-0.943489 10:-0.646742 11:-0.611454 12:-0.386041 13:-0.500566 14:-0.643985 15:-0.689024 16:-0.512779 17:-0.661382 18:-0.479482 
1 0 1:-0.998525 2:-0.954463 3:-0.78354 4:-0.9981 5:-0.989795 6:-0.964566 7:-0.99985 8:-0.990671 9:-0.941701 10:-0.65105 11:-0.605839 12:-0.372452 13:-0.496041 14:-0.641555 15:-0.695122 16:-0.495378 17:-0.678369 18:-0.456803 
1 0 1:-0.998355 2:-0.957438 3:-0.82164 4:-0.998203 5:-0.98997 6:-0.968167 7:-0.999844 8:-0.99114 9:-0.951719 10:-0.705977 11:-0.620438 12:-0.362569 13:-0.49491 14:-0.651883 15:-0.72002 16:-0.506253 17:-0.707814 18:-0.470842 
1 0 1:-0.995485 2:-0.864662 3:-0.3549 4:-0.997092 5:-0.975189 6:-0.918927 7:-0.9997 8:-0.977737 9:-0.83813 10:-0.696284 11:-0.545199 12:-0.176035 13:-0.503959 14:-0.673755 15:-0.736789 16:-0.492115 17:-0.592299 18:-0.423326 
1 0 1:-0.995763 2:-0.868668 3:-0.384822 4:-0.997542 5:-0.976024 6:-0.921773 7:-0.999724 8:-0.979219 9:-0.843884 10:-0.687668 11:-0.545199 12:-0.167387 13:-0.497738 14:-0.687728 15:-0.735264 16:-0.48124 17:-0.576444 18:-0.416847 
1 0 1:-0.995819 2:-0.871913 3:-0.397206 4:-0.997093 5:-0.975794 6:-0.920339 7:-0.999715 8:-0.978892 9:-0.84093 10:-0.688745 11:-0.536216 12:-0.157505 13:-0.5181 14:-0.674362 15:-0.728659 16:-0.493203 17:-0.577576 18:-0.408207 
1 0 1:-0.995809 2:-0.869559 3:-0.381727 4:-0.997523 5:-0.976227 6:-0.920388 7:-0.999724 8:-0.977623 9:-0.838263 10:-0.677975 11:-0.531724 12:-0.171093 13:-0.539593 14:-0.671932 15:-0.736789 16:-0.469277 17:-0.584371 18:-0.408207 
1 0 1:-0.999748 2:-0.992781 3:-0.936629 4:-0.998111 5:-0.994766 6:-0.983898 7:-0.999953 8:-0.998697 9:-0.986763 10:-0.447496 11:-0.568782 12:-0.576282 13:-0.331448 14:-0.616646 15:-0.784045 16:-0.126699 17:-0.596829 18:-0.460043 
1 0 1:-0.995973 2:-0.883844 3:-0.447821 4:-0.997068 5:-0.978308 6:-0.929731 7:-0.999741 8:-0.980339 9:-0.857191 10:-0.699515 11:-0.54183 12:-0.169858 13:-0.492081 14:-0.657959 15:-0.731707 16:-0.479065 17:-0.610419 18:-0.421166 
1 1 1:-0.995887 2:-0.869387 3:-0.400634 4:-0.996983 5:-0.976995 6:-0.923397 7:-0.999727 8:-0.979422 9:-0.847275 10:-0.676898 11:-0.544076 12:-0.189623 13:-0.550905 14:-0.674362 15:-0.722561 16:-0.471452 17:-0.576444 18:-0.37905 
1 0 1:-0.99698 2:-0.907118 3:-0.564012 4:-0.997544 5:-0.982465 6:-0.942405 7:-0.99979 8:-0.984437 9:-0.883771 10:-0.671513 11:-0.540707 12:-0.174799 13:-0.474548 14:-0.651276 15:-0.725102 16:-0.438825 17:-0.597961 18:-0.406048 
1 0 1:-0.997519 2:-0.92362 3:-0.646125 4:-0.998008 5:-0.986363 6:-0.954514 7:-0.99982 8:-0.988298 9:-0.909854 10:-0.660743 11:-0.548568 12:-0.168623 13:-0.491516 14:-0.626367 15:-0.70376 16:-0.43665 17:-0.593431 18:-0.390929 
1 0 1:-0.99634 2:-0.892249 3:-0.504616 4:-0.997589 5:-0.98057 6:-0.939171 7:-0.999774 8:-0.982759 9:-0.874002 10:-0.695207 11:-0.540707 12:-0.162446 13:-0.482466 14:-0.647023 15:-0.721545 16:-0.460576 17:-0.587769 18:-0.387689 
1 0 1:-0.997753 2:-0.949861 3:-0.726672 4:-0.997972 5:-0.986554 6:-0.955064 7:-0.99982 8:-0.991038 9:-0.940825 10:-0.75552 11:-0.663111 12:-0.482397 13:-0.501697 14:-0.6774 15:-0.724085 16:-0.516041 17:-0.668177 18:-0.549676 
1 0 1:-0.997008 2:-0.92699 3:-0.70981 4:-0.997299 5:-0.986302 6:-0.954559 7:-0.999772 8:-0.987209 9:-0.932321 10:-0.768444 11:-0.667602 12:-0.460161 13:-0.441742 14:-0.673755 15:-0.732215 16:-0.569331 17:-0.682899 18:-0.507559 
1 0 1:-0.999545 2:-0.985323 3:-0.922308 4:-0.998245 5:-0.994343 6:-0.981407 7:-0.999945 8:-0.99765 9:-0.98357 10:-0.599354 11:-0.693431 12:-0.602224 13:-0.404412 14:-0.608141 15:-0.77998 16:-0.219141 17:-0.704417 18:-0.488121 
1 0 1:-0.999525 2:-0.985749 3:-0.91415 4:-0.998339 5:-0.994154 6:-0.981253 7:-0.999936 8:-0.997521 9:-0.978526 10:-0.5972 11:-0.673217 12:-0.598518 13:-0.404977 14:-0.62819 15:-0.776931 16:-0.262643 17:-0.682899 18:-0.548596 
1 0 1:-0.999632 2:-0.98857 3:-0.931453 4:-0.99824 5:-0.994604 6:-0.982235 7:-0.999944 8:-0.998094 9:-0.981052 10:-0.574583 11:-0.667602 12:-0.582458 13:-0.460407 14:-0.583232 15:-0.77185 16:-0.25503 17:-0.637599 18:-0.569114 
1 0 1:-0.99908 2:-0.975673 3:-0.855514 4:-0.998043 5:-0.992336 6:-0.972909 7:-0.999909 8:-0.995741 9:-0.964316 10:-0.676898 11:-0.657496 12:-0.60593 13:-0.483597 14:-0.669502 15:-0.825711 16:-0.31702 17:-0.653454 18:-0.556156 
1 0 1:-0.99919 2:-0.977256 3:-0.8606 4:-0.998397 5:-0.991812 6:-0.973651 7:-0.999919 8:-0.995161 9:-0.959356 10:-0.638126 11:-0.637282 12:-0.58987 13:-0.470023 14:-0.668287 15:-0.800813 16:-0.256117 17:-0.674972 18:-0.615551 
1 0 1:-0.999023 2:-0.974291 3:-0.851191 4:-0.997828 5:-0.99138 6:-0.971581 7:-0.999898 8:-0.994677 9:-0.956688 10:-0.665051 11:-0.648512 12:-0.596047 13:-0.371041 14:-0.702309 15:-0.813008 16:-0.357259 17:-0.669309 18:-0.610151 
1 1 1:-0.995299 2:-0.868964 3:-0.343258 4:-0.99746 5:-0.976622 6:-0.923684 7:-0.99973 8:-0.977113 9:-0.848201 10:-0.693053 11:-0.51151 12:-0.179741 13:-0.56957 14:-0.663426 15:-0.738313 16:-0.473627 17:-0.592299 18:-0.401728 
1 1 1:-0.990971 2:-0.875554 3:-0.489106 4:-0.998047 5:-0.980713 6:-0.937984 7:-0.999749 8:-0.981146 9:-0.881328 10:-0.853527 11:-0.53397 12:-0.211859 13:-0.529412 14:-0.668287 15:-0.735772 16:-0.475802 17:-0.578709 18:-0.393089 
1 1 1:-0.99342 2:-0.882534 3:-0.411895 4:-0.997328 5:-0.975642 6:-0.919608 7:-0.999717 8:-0.978477 9:-0.856894 10:-0.827679 11:-0.540707 12:-0.185917 13:-0.546946 14:-0.687728 15:-0.756098 16:-0.507341 17:-0.626274 18:-0.422246 
1 0 1:-0.99959 2:-0.984047 3:-0.902567 4:-0.997494 5:-0.994818 6:-0.983586 7:-0.999938 8:-0.998025 9:-0.981037 10:-0.439957 11:-0.595733 12:-0.507103 13:-0.419683 14:-0.541312 15:-0.769309 16:-0.133225 17:-0.562854 18:-0.489201 
1 0 1:-0.99963 2:-0.986386 3:-0.915143 4:-0.998193 5:-0.994919 6:-0.984164 7:-0.999949 8:-0.998373 9:-0.98332 10:-0.418417 11:-0.591241 12:-0.507103 13:-0.478507 14:-0.518226 15:-0.762195 16:-0.0538336 17:-0.490374 18:-0.427646 
1 0 1:-0.999169 2:-0.977486 3:-0.856959 4:-0.998274 5:-0.991383 6:-0.971877 7:-0.999908 8:-0.995375 9:-0.960005 10:-0.633818 11:-0.642897 12:-0.598518 13:-0.516968 14:-0.685298 15:-0.817581 16:-0.334421 17:-0.659117 18:-0.62419 
1 0 1:-0.999542 2:-0.986169 3:-0.901777 4:-0.998412 5:-0.994118 6:-0.983087 7:-0.999941 8:-0.998075 9:-0.980957 10:-0.559505 11:-0.574396 12:-0.487338 13:-0.423643 14:-0.557716 15:-0.764228 16:-0.119086 17:-0.520951 18:-0.475162 
1 0 1:-0.998867 2:-0.974078 3:-0.839124 4:-0.997686 5:-0.990966 6:-0.970025 7:-0.999895 8:-0.994831 9:-0.955954 10:-0.705977 11:-0.653004 12:-0.603459 13:-0.527149 14:-0.72418 15:-0.82063 16:-0.357259 17:-0.656852 18:-0.606911 
1 0 1:-0.998908 2:-0.975634 3:-0.843259 4:-0.997881 5:-0.990862 6:-0.970253 7:-0.999898 8:-0.99489 9:-0.956427 10:-0.716747 11:-0.654127 12:-0.599753 13:-0.520362 14:-0.709599 15:-0.82622 16:-0.387711 17:-0.690827 18:-0.605832 
1 0 1:-0.999349 2:-0.977407 3:-0.857947 4:-0.997574 5:-0.992341 6:-0.977818 7:-0.99993 8:-0.996886 9:-0.973362 10:-0.47119 11:-0.516002 12:-0.392217 13:-0.453054 14:-0.592345 15:-0.752541 16:-0.0494834 17:-0.499434 18:-0.398488 
1 0 1:-0.999344 2:-0.978873 3:-0.861284 4:-0.99788 5:-0.992355 6:-0.978193 7:-0.999929 8:-0.997147 9:-0.974532 10:-0.509962 11:-0.519371 12:-0.407041 13:-0.403281 14:-0.583232 15:-0.736789 16:-0.0342577 17:-0.489241 18:-0.395248 
1 0 1:-0.995816 2:-0.87025 3:-0.412796 4:-0.99743 5:-0.974514 6:-0.91971 7:-0.999725 8:-0.978541 9:-0.84769 10:-0.676898 11:-0.538462 12:-0.173564 13:-0.536765 14:-0.683475 15:-0.738313 16:-0.468189 17:-0.594564 18:-0.406048 
1 0 1:-0.998991 2:-0.9729 3:-0.773319 4:-0.998001 5:-0.990087 6:-0.970118 7:-0.99989 8:-0.996471 9:-0.969059 10:-0.668282 11:-0.631668 12:-0.56887 13:-0.506222 14:-0.684083 15:-0.787602 16:-0.363785 17:-0.593431 18:-0.440605 
1 0 1:-0.995976 2:-0.875429 3:-0.445487 4:-0.997117 5:-0.977421 6:-0.926502 7:-0.99976 8:-0.981197 9:-0.856613 10:-0.682283 11:-0.538462 12:-0.17727 13:-0.509615 14:-0.6774 15:-0.73374 16:-0.426862 17:-0.560589 18:-0.406048 
1 0 1:-0.999435 2:-0.986378 3:-0.933701 4:-0.998451 5:-0.996477 6:-0.990709 7:-0.999937 8:-0.99777 9:-0.986318 10:-0.784599 11:-0.823695 12:-0.755405 13:-0.523756 14:-0.590522 15:-0.789634 16:-0.535617 17:-0.816535 18:-0.674946 
0.36463385261211623 0 1:-0.999478 2:-0.989156 3:-0.954648 4:-0.998724 5:-0.996794 6:-0.989224 7:-0.999949 8:-0.998511 9:-0.988183 10:-0.799677 11:-0.828186 12:-0.676343 13:-0.568439 14:-0.524909 15:-0.744919 16:-0.456226 17:-0.795017 18:-0.664147 
1 0 1:-0.996673 2:-0.879093 3:-0.0751583 4:-0.996933 5:-0.992923 6:-0.988624 7:-0.99992 8:-0.994734 9:-0.963855 10:-0.97846 11:-0.962942 12:-0.938233 13:-0.449661 14:-0.701701 15:-0.811484 16:-0.847743 17:-0.920725 18:-0.895248 
0.74093218679933859 0 1:-0.995482 2:-0.864749 3:-0.354693 4:-0.99523 5:-0.973946 6:-0.917684 7:-0.999697 8:-0.977722 9:-0.837552 10:-0.695207 11:-0.544076 12:-0.17727 13:-0.317308 14:-0.6452 15:-0.724593 16:-0.495378 17:-0.592299 18:-0.422246 
1 0 1:-0.995769 2:-0.868644 3:-0.385298 4:-0.995455 5:-0.974429 6:-0.920469 7:-0.999711 8:-0.979217 9:-0.843968 10:-0.687668 11:-0.544076 12:-0.166152 13:-0.380656 14:-0.649453 15:-0.720528 16:-0.474715 17:-0.576444 18:-0.417927 
1 0 1:-0.995819 2:-0.869541 3:-0.381649 4:-0.995406 5:-0.974943 6:-0.919315 7:-0.999713 8:-0.977646 9:-0.837956 10:-0.677975 11:-0.531724 12:-0.171093 13:-0.412896 14:-0.62819 15:-0.726118 16:-0.455139 17:-0.584371 18:-0.411447 
1 0 1:-0.995892 2:-0.869493 3:-0.399604 4:-0.994684 5:-0.975666 6:-0.922359 7:-0.999723 8:-0.979421 9:-0.847244 10:-0.677975 11:-0.542953 12:-0.192094 13:-0.344457 14:-0.633657 15:-0.710874 16:-0.460576 17:-0.575311 18:-0.37689 
1 0 1:-0.996346 2:-0.892348 3:-0.504508 4:-0.99607 5:-0.979251 6:-0.938585 7:-0.999766 8:-0.982745 9:-0.874148 10:-0.693053 11:-0.539585 12:-0.163681 13:-0.383484 14:-0.594168 15:-0.70935 16:-0.446438 17:-0.586636 18:-0.388769 
1 0 1:-0.999189 2:-0.977275 3:-0.860811 4:-0.996817 5:-0.990104 6:-0.9724 7:-0.999912 8:-0.995161 9:-0.959534 10:-0.64028 11:-0.636159 12:-0.588635 13:-0.371041 14:-0.582625 15:-0.765752 16:-0.253942 17:-0.674972 18:-0.612311 
1 0 1:-0.995301 2:-0.868875 3:-0.343536 4:-0.995458 5:-0.974976 6:-0.922381 7:-0.999717 8:-0.977059 9:-0.848108 10:-0.693053 11:-0.51151 12:-0.180976 13:-0.417986 14:-0.624544 15:-0.724593 16:-0.461664 17:-0.593431 18:-0.400648 
1 0 1:-0.999628 2:-0.986422 3:-0.915021 4:-0.996349 5:-0.993511 6:-0.982807 7:-0.999935 8:-0.998374 9:-0.98332 10:-0.421648 11:-0.591241 12:-0.505868 13:-0.315611 14:-0.391859 15:-0.719004 16:-0.154976 17:-0.483579 18:-0.425486 
1 0 1:-0.999173 2:-0.977463 3:-0.856859 4:-0.996418 5:-0.990191 6:-0.970786 7:-0.999903 8:-0.995391 9:-0.960025 10:-0.632741 11:-0.642897 12:-0.599753 13:-0.367081 14:-0.609356 15:-0.793699 16:-0.333333 17:-0.656852 18:-0.62203 
1 0 1:-0.998867 2:-0.974053 3:-0.839042 4:-0.995803 5:-0.989706 6:-0.968701 7:-0.999889 8:-0.994833 9:-0.955828 10:-0.705977 11:-0.653004 12:-0.600988 13:-0.343891 14:-0.640948 15:-0.794715 16:-0.36161 17:-0.655719 18:-0.605832 
1 0 1:-0.999345 2:-0.977411 3:-0.858064 4:-0.995308 5:-0.991102 6:-0.976701 7:-0.99992 8:-0.996881 9:-0.973384 10:-0.470113 11:-0.517125 12:-0.390982 13:-0.247172 14:-0.501215 15:-0.722561 16:-0.108211 17:-0.493771 18:-0.401728 
1 0 1:-0.995815 2:-0.870281 3:-0.412799 4:-0.995326 5:-0.973194 6:-0.918565 7:-0.999719 8:-0.978557 9:-0.847286 10:-0.676898 11:-0.538462 12:-0.174799 13:-0.368213 14:-0.655529 15:-0.726118 16:-0.462751 17:-0.594564 18:-0.407127 
1 0 1:-0.998998 2:-0.972907 3:-0.773039 4:-0.995843 5:-0.988519 6:-0.968851 7:-0.999887 8:-0.996462 9:-0.968947 10:-0.663974 11:-0.632791 12:-0.570105 13:-0.398756 14:-0.604496 15:-0.761179 16:-0.375748 17:-0.592299 18:-0.442765 
1 0 1:-0.995982 2:-0.875434 3:-0.445314 4:-0.994989 5:-0.975971 6:-0.925211 7:-0.999742 8:-0.981215 9:-0.856574 10:-0.682283 11:-0.539585 12:-0.17727 13:-0.305995 14:-0.630012 15:-0.721037 16:-0.404024 17:-0.560589 18:-0.407127 
-1 1 1:-0.99509 2:-0.936008 3:-0.281111 4:-0.999814 5:-0.998214 6:-0.997889 7:-0.99985 8:-0.994645 9:-0.981845 10:-0.900915 11:-0.840539 12:-0.913527 13:-0.800339 14:-0.837181 15:-0.838415 16:-0.623709 17:-0.736127 18:-0.613391 
-1 0 1:-0.998329 2:-0.971693 3:-0.679986 4:-0.999915 5:-0.99967 6:-0.999002 7:-0.999924 8:-0.997081 9:-0.989909 10:-0.75552 11:-0.857383 12:-0.924645 13:-0.671946 14:-0.753949 15:-0.916667 16:-0.168026 17:-0.597961 18:-0.617711 
-1 0 1:-0.998388 2:-0.974529 3:-0.698536 4:-0.999919 5:-0.999685 6:-0.999032 7:-0.999923 8:-0.997496 9:-0.990637 10:-0.74475 11:-0.846154 12:-0.924645 13:-0.663462 14:-0.752126 15:-0.920224 16:-0.179989 17:-0.537939 18:-0.62095 
-1 1 1:-0.995626 2:-0.939195 3:-0.253315 4:-0.999922 5:-0.998474 6:-0.998124 7:-0.999904 8:-0.995603 9:-0.985459 10:-0.945073 11:-0.869736 12:-0.924645 13:-0.789027 14:-0.863913 15:-0.844512 16:-0.672648 17:-0.802945 18:-0.652268 
-1 1 1:-0.996116 2:-0.944491 3:-0.259548 4:-0.999925 5:-0.998456 6:-0.99811 7:-0.999909 8:-0.995666 9:-0.986371 10:-0.932149 11:-0.857383 12:-0.927116 13:-0.789027 14:-0.869988 15:-0.849593 16:-0.668298 17:-0.785957 18:-0.646868 
-1 0 1:-0.998456 2:-0.966514 3:-0.687729 4:-0.999912 5:-0.999477 6:-0.999114 7:-0.999908 8:-0.996654 9:-0.988575 10:-0.749058 11:-0.883212 12:-0.927116 13:-0.707579 14:-0.808019 15:-0.907012 16:-0.421425 17:-0.671574 18:-0.649028 
-1 1 1:-0.995584 2:-0.932074 3:-0.341357 4:-0.999919 5:-0.998355 6:-0.998151 7:-0.999912 8:-0.99506 9:-0.985436 10:-0.936457 11:-0.865244 12:-0.913527 13:-0.792421 14:-0.873633 15:-0.838415 16:-0.634584 17:-0.797282 18:-0.657667 
-1 1 1:-0.995664 2:-0.934096 3:-0.339408 4:-0.99991 5:-0.998383 6:-0.998244 7:-0.999898 8:-0.995333 9:-0.986172 10:-0.939688 11:-0.87872 12:-0.92588 13:-0.803733 14:-0.876671 15:-0.835366 16:-0.702012 17:-0.81427 18:-0.670626 
-1 0 1:-0.998439 2:-0.970816 3:-0.682663 4:-0.99992 5:-0.999527 6:-0.999211 7:-0.999912 8:-0.9971 9:-0.989385 10:-0.738288 11:-0.864121 12:-0.927116 13:-0.677602 14:-0.794654 15:-0.908028 16:-0.375748 17:-0.621744 18:-0.663067 
-1 0 1:-0.99832 2:-0.962535 3:-0.675383 4:-0.999913 5:-0.999441 6:-0.999142 7:-0.99991 8:-0.996848 9:-0.989571 10:-0.741519 11:-0.885458 12:-0.932057 13:-0.701357 14:-0.81045 15:-0.911585 16:-0.358347 17:-0.640997 18:-0.61879 
-1 0 1:-0.998412 2:-0.969088 3:-0.689319 4:-0.999907 5:-0.999675 6:-0.999198 7:-0.999915 8:-0.997207 9:-0.991432 10:-0.725363 11:-0.86749 12:-0.928351 13:-0.674208 14:-0.740583 15:-0.91565 16:-0.277868 17:-0.582106 18:-0.545356 
-1 0 1:-0.998342 2:-0.969672 3:-0.724623 4:-0.999897 5:-0.999796 6:-0.999519 7:-0.999908 8:-0.997622 9:-0.99167 10:-0.685514 11:-0.846154 12:-0.920939 13:-0.628959 14:-0.662819 15:-0.870427 16:-0.156063 17:-0.414496 18:-0.50432 
-1 0 1:-0.99836 2:-0.968621 3:-0.772217 4:-0.999857 5:-0.999846 6:-0.999691 7:-0.999903 8:-0.997497 9:-0.992813 10:-0.598277 11:-0.847277 12:-0.92341 13:-0.588801 14:-0.511543 15:-0.844004 16:0.0396955 17:-0.237826 18:-0.37257 
-1 1 1:-0.997322 2:-0.928532 3:-0.437329 4:-0.999882 5:-0.999134 6:-0.998174 7:-0.999891 8:-0.994252 9:-0.981213 10:-0.991384 11:-1 12:-0.957999 13:-0.986991 14:-1 15:-0.999492 16:-0.981512 17:-1 18:-0.944924 
-1 1 1:-0.997203 2:-0.933887 3:-0.442388 4:-0.99993 5:-0.999335 6:-0.998465 7:-0.99992 8:-0.994682 9:-0.983362 10:-0.995692 11:-0.997754 12:-0.96294 13:-0.978507 14:-0.996355 15:-1 16:-0.961936 17:-1 18:-0.935205 
-1 1 1:-0.99737 2:-0.932003 3:-0.427102 4:-0.999897 5:-0.999118 6:-0.998326 7:-0.999883 8:-0.994832 9:-0.981986 10:-0.992461 11:-0.998877 12:-0.959234 13:-0.984163 14:-0.998177 15:-0.999492 16:-0.986949 17:-1 18:-0.940605 
-1 1 1:-0.999237 2:-0.983328 3:-0.960502 4:-0.999954 5:-0.998974 6:-0.998385 7:-0.999925 8:-0.994343 9:-0.98041 10:-0.897684 11:-0.925884 12:-0.880173 13:-0.930995 14:-0.986027 15:-0.987297 16:-0.894508 17:-1 18:-0.957883 
-1 1 1:-0.997395 2:-0.925512 3:-0.661427 4:-0.999066 5:-0.981166 6:-0.952628 7:-0.999687 8:-0.95536 9:-0.845461 10:-0.657512 11:-0.721505 12:-0.687461 13:-0.824095 14:-0.832321 15:-0.822154 16:-0.669386 17:-0.824462 18:-0.695464 
-1 1 1:-0.997846 2:-0.956844 3:-0.795774 4:-0.999481 5:-0.990398 6:-0.978698 7:-0.999841 8:-0.978898 9:-0.916922 10:-0.732903 11:-0.683324 12:-0.641754 13:-0.809955 14:-0.815917 15:-0.789634 16:-0.576944 17:-0.807475 18:-0.666307 
-1 1 1:-0.999127 2:-0.978302 3:-0.888448 4:-0.999748 5:-0.995085 6:-0.986038 7:-0.999916 8:-0.99115 9:-0.951504 10:-0.654281 11:-0.67434 12:-0.613342 13:-0.800339 14:-0.813487 15:-0.79624 16:-0.550843 17:-0.773499 18:-0.661987 
-1 1 1:-0.997332 2:-0.928884 3:-0.397655 4:-0.999923 5:-0.999226 6:-0.99844 7:-0.999888 8:-0.994266 9:-0.979964 10:-0.990307 11:-0.997754 12:-0.960469 13:-0.979072 14:-0.99757 15:-0.998476 16:-0.989125 17:-1 18:-0.948164 
-1 1 1:-0.997754 2:-0.942001 3:-0.452036 4:-0.999917 5:-0.99922 6:-0.998177 7:-0.999909 8:-0.995976 9:-0.984456 10:-0.988153 11:-0.994385 12:-0.961705 13:-0.980204 14:-0.996962 15:-0.998984 16:-0.968461 17:-1 18:-0.941685 
-1 1 1:-0.996251 2:-0.882675 3:0.0186778 4:-0.999823 5:-0.995353 6:-0.990099 7:-0.999905 8:-0.994414 9:-0.962074 10:-0.928918 11:-0.935991 12:-0.935763 13:-0.861991 14:-0.931349 15:-0.925305 16:-0.713975 17:-0.824462 18:-0.827214 
-1 1 1:-0.996383 2:-0.875989 3:-0.0636022 4:-0.999818 5:-0.995292 6:-0.989478 7:-0.999912 8:-0.994285 9:-0.961441 10:-0.921379 11:-0.937114 12:-0.932057 13:-0.8569 14:-0.929526 15:-0.925305 16:-0.668298 17:-0.819932 18:-0.829374 
-1 1 1:-0.996364 2:-0.875702 3:-0.095925 4:-0.999801 5:-0.99514 6:-0.990164 7:-0.999915 8:-0.993377 9:-0.964792 10:-0.922456 11:-0.940483 12:-0.930821 13:-0.868213 14:-0.933779 15:-0.928354 16:-0.673736 17:-0.844847 18:-0.823974 
-1 1 1:-0.996128 2:-0.878586 3:-0.0571312 4:-0.999811 5:-0.994961 6:-0.990321 7:-0.999906 8:-0.993613 9:-0.963734 10:-0.925687 11:-0.938237 12:-0.929586 13:-0.854638 14:-0.932564 15:-0.92378 16:-0.698749 17:-0.834655 18:-0.816415 
-1 1 1:-0.996404 2:-0.873993 3:-0.0757215 4:-0.999804 5:-0.995272 6:-0.990457 7:-0.999905 8:-0.994103 9:-0.971158 10:-0.923533 11:-0.941606 12:-0.929586 13:-0.864253 14:-0.928919 15:-0.92378 16:-0.699837 17:-0.822197 18:-0.785097 
-1 1 1:-0.996487 2:-0.873216 3:-0.100534 4:-0.999816 5:-0.995101 6:-0.989684 7:-0.999907 8:-0.994314 9:-0.966517 10:-0.920302 11:-0.941606 12:-0.932057 13:-0.858597 14:-0.931956 15:-0.924797 16:-0.693312 17:-0.8188 18:-0.804536 
-1 1 1:-0.996543 2:-0.868345 3:-0.0828692 4:-0.999823 5:-0.995215 6:-0.989769 7:-0.99991 8:-0.993761 9:-0.964103 10:-0.919225 11:-0.944975 12:-0.933292 13:-0.861991 14:-0.935601 15:-0.927846 16:-0.681349 17:-0.834655 18:-0.812095 
-1 1 1:-0.99641 2:-0.869122 3:-0.0784054 4:-0.99981 5:-0.995265 6:-0.989721 7:-0.999911 8:-0.993971 9:-0.965368 10:-0.922456 11:-0.946098 12:-0.933292 13:-0.862557 14:-0.930741 15:-0.928354 16:-0.686786 17:-0.825595 18:-0.816415 
-1 0 1:-0.997339 2:-0.961233 3:-0.806997 4:-0.999256 5:-0.982901 6:-0.937932 7:-0.99986 8:-0.992985 9:-0.934848 10:-0.73398 11:-0.740595 12:-0.650401 13:-0.709842 14:-0.725395 15:-0.652439 16:-0.211528 17:-0.524349 18:-0.590713 
-1 1 1:-0.971324 2:-0.88844 3:-0.729674 4:-0.999005 5:-0.979461 6:-0.928805 7:-0.999804 8:-0.994625 9:-0.952808 10:-0.976306 11:-0.900056 12:-0.642989 13:-0.751697 14:-0.750304 15:-0.679878 16:-0.347471 17:-0.344281 18:-0.410367 
-1 1 1:-0.99618 2:-0.904678 3:-0.074487 4:-0.999826 5:-0.995066 6:-0.988512 7:-0.999926 8:-0.994765 9:-0.963886 10:-0.971998 11:-0.953958 12:-0.940704 13:-0.928167 14:-0.95808 15:-0.941565 16:-0.840131 17:-0.907135 18:-0.87149 
-1 0 1:-0.999579 2:-0.994978 3:-0.966376 4:-0.999945 5:-0.999251 6:-0.996044 7:-0.999951 8:-0.998649 9:-0.993468 10:-0.420571 11:-0.460977 12:-0.678814 13:-0.682127 14:-0.724787 15:-0.808943 16:-0.191952 17:-0.525481 18:-0.262419 
-1 1 1:-0.998227 2:-0.953293 3:-0.77935 4:-0.999423 5:-0.991232 6:-0.966463 7:-0.999829 8:-0.989909 9:-0.940467 10:-0.544426 11:-0.56429 12:-0.36504 13:-0.778846 14:-0.746659 15:-0.723577 16:-0.473627 17:-0.595696 18:-0.439525 
-1 0 1:-0.998167 2:-0.951487 3:-0.776765 4:-0.999405 5:-0.990842 6:-0.965595 7:-0.999835 8:-0.989662 9:-0.938492 10:-0.547658 11:-0.563167 12:-0.36504 13:-0.774321 14:-0.750911 15:-0.723577 16:-0.450788 17:-0.611552 18:-0.433045 
-1 0 1:-0.999475 2:-0.991332 3:-0.959767 4:-0.999946 5:-0.998865 6:-0.99487 7:-0.999951 8:-0.998753 9:-0.991429 10:-0.532579 11:-0.620438 12:-0.631872 13:-0.648756 14:-0.756987 15:-0.808943 16:-0.195215 17:-0.481314 18:-0.334773 
-1 0 1:-0.99949 2:-0.98955 3:-0.961433 4:-0.999941 5:-0.998887 6:-0.994883 7:-0.999952 8:-0.998644 9:-0.99127 10:-0.527194 11:-0.699045 12:-0.630636 13:-0.66629 14:-0.749089 15:-0.8125 16:-0.18869 17:-0.525481 18:-0.38121 
-1 0 1:-0.999415 2:-0.989144 3:-0.953102 4:-0.99993 5:-0.998631 6:-0.993968 7:-0.999939 8:-0.998437 9:-0.990703 10:-0.52504 11:-0.65525 12:-0.675108 13:-0.667986 14:-0.770352 15:-0.808435 16:-0.364872 17:-0.518686 18:-0.342333 
-1 0 1:-0.999485 2:-0.989671 3:-0.960778 4:-0.999945 5:-0.998985 6:-0.994936 7:-0.999948 8:-0.998732 9:-0.990694 10:-0.521809 11:-0.682201 12:-0.629401 13:-0.675905 14:-0.752126 15:-0.803354 16:-0.290919 17:-0.515289 18:-0.438445 
-1 0 1:-0.999502 2:-0.989708 3:-0.958998 4:-0.999945 5:-0.998952 6:-0.994524 7:-0.999952 8:-0.998526 9:-0.990891 10:-0.518578 11:-0.699045 12:-0.650401 13:-0.673643 14:-0.761239 15:-0.813516 16:-0.247417 17:-0.587769 18:-0.449244 
-1 1 1:-0.998046 2:-0.954892 3:-0.8149 4:-0.999418 5:-0.991439 6:-0.969044 7:-0.999833 8:-0.990303 9:-0.948392 10:-0.625202 11:-0.581134 12:-0.351452 13:-0.789593 14:-0.763062 15:-0.752541 16:-0.484502 17:-0.646659 18:-0.443844 
-1 0 1:-0.999568 2:-0.995616 3:-0.971432 4:-0.999928 5:-0.998944 6:-0.994825 7:-0.999935 8:-0.998451 9:-0.992203 10:-0.419494 11:-0.411567 12:-0.570105 13:-0.670249 14:-0.741191 15:-0.814024 16:-0.425775 17:-0.578709 18:-0.359611 
-1 0 1:-0.999563 2:-0.996686 3:-0.988977 4:-0.999982 5:-0.999973 6:-1 7:-0.999957 8:-0.998923 9:-0.993652 10:-0.592892 11:-0.658619 12:-0.820877 13:-0.766403 14:-0.829283 15:-0.879065 16:-0.276781 17:-0.583239 18:-0.706263 
-1 1 1:-0.99483 2:-0.858869 3:-0.339455 4:-0.998584 5:-0.976396 6:-0.918199 7:-0.99966 8:-0.975813 9:-0.83008 10:-0.604739 11:-0.517125 12:-0.168623 13:-0.757919 14:-0.734508 15:-0.747967 16:-0.437738 17:-0.523216 18:-0.399568 
-1 0 1:-0.995123 2:-0.863236 3:-0.365989 4:-0.998669 5:-0.977197 6:-0.921295 7:-0.999685 8:-0.977239 9:-0.836641 10:-0.598277 11:-0.518248 12:-0.163681 13:-0.747172 14:-0.735115 15:-0.751016 16:-0.407287 17:-0.508494 18:-0.396328 
-1 1 1:-0.995149 2:-0.866274 3:-0.381326 4:-0.998646 5:-0.976724 6:-0.919805 7:-0.999673 8:-0.976773 9:-0.834822 10:-0.595046 11:-0.504773 12:-0.147622 13:-0.747738 14:-0.7339 15:-0.743902 16:-0.4323 17:-0.506229 18:-0.37797 
-1 0 1:-0.995156 2:-0.864355 3:-0.366849 4:-0.99867 5:-0.976856 6:-0.919605 7:-0.999681 8:-0.975875 9:-0.8315 10:-0.583199 11:-0.501404 12:-0.162446 13:-0.739819 14:-0.730255 15:-0.751016 16:-0.409462 17:-0.508494 18:-0.386609 
-1 1 1:-0.995387 2:-0.878485 3:-0.435332 4:-0.998817 5:-0.979445 6:-0.928408 7:-0.999705 8:-0.978648 9:-0.851873 10:-0.617663 11:-0.514879 12:-0.163681 13:-0.74095 14:-0.72661 15:-0.748984 16:-0.435563 17:-0.545866 18:-0.392009 
-1 1 1:-0.995198 2:-0.864409 3:-0.383329 4:-0.998706 5:-0.977796 6:-0.923785 7:-0.999689 8:-0.977501 9:-0.840152 10:-0.581045 11:-0.512633 12:-0.187153 13:-0.743213 14:-0.722357 15:-0.739329 16:-0.424687 17:-0.494904 18:-0.346652 
-1 0 1:-0.996422 2:-0.902609 3:-0.551797 4:-0.99906 5:-0.983519 6:-0.941717 7:-0.999759 8:-0.983146 9:-0.878349 10:-0.583199 11:-0.509264 12:-0.166152 13:-0.738688 14:-0.733293 15:-0.746951 16:-0.390973 17:-0.525481 18:-0.37797 
-1 0.66347435912451624 1:-0.997126 2:-0.919894 3:-0.636146 4:-0.999234 5:-0.987566 6:-0.954645 7:-0.999801 8:-0.987116 9:-0.904566 10:-0.574583 11:-0.518248 12:-0.163681 13:-0.743213 14:-0.72661 15:-0.74187 16:-0.405111 17:-0.526614 18:-0.357451 
-1 1 1:-0.995775 2:-0.887517 3:-0.489227 4:-0.998945 5:-0.981895 6:-0.937785 7:-0.999744 8:-0.98112 9:-0.870157 10:-0.60797 11:-0.504773 12:-0.162446 13:-0.746041 14:-0.727217 15:-0.741362 16:-0.399674 17:-0.523216 18:-0.354212 
-1 1 1:-0.997362 2:-0.946904 3:-0.718129 4:-0.999226 5:-0.987853 6:-0.955144 7:-0.9998 8:-0.989969 9:-0.936593 10:-0.676898 11:-0.622684 12:-0.474985 13:-0.775452 14:-0.763062 15:-0.747967 16:-0.483415 17:-0.599094 18:-0.510799 
-1 1 1:-0.99659 2:-0.923442 3:-0.702122 4:-0.999164 5:-0.987255 6:-0.954125 7:-0.999753 8:-0.98603 9:-0.928532 10:-0.696284 11:-0.637282 12:-0.445337 13:-0.777149 14:-0.756379 15:-0.754573 16:-0.535617 17:-0.626274 18:-0.483801 
-1 1 1:-0.994586 2:-0.862762 3:-0.324753 4:-0.998704 5:-0.977852 6:-0.923889 7:-0.999685 8:-0.975168 9:-0.842737 10:-0.599354 11:-0.478944 12:-0.17727 13:-0.738688 14:-0.718712 15:-0.753049 16:-0.409462 17:-0.522084 18:-0.354212 
-1 1 1:-0.990307 2:-0.870494 3:-0.475544 4:-0.998961 5:-0.982035 6:-0.936719 7:-0.999711 8:-0.979332 9:-0.875814 10:-0.808293 11:-0.505896 12:-0.204447 13:-0.733032 14:-0.727825 15:-0.755081 16:-0.426862 17:-0.513024 18:-0.368251 
-1 1 1:-0.992805 2:-0.877028 3:-0.395441 4:-0.998667 5:-0.976439 6:-0.918359 7:-0.99968 8:-0.976665 9:-0.849451 10:-0.773829 11:-0.51151 12:-0.184682 13:-0.752262 14:-0.735115 15:-0.766768 16:-0.458401 17:-0.561721 18:-0.397408 
-1 0 1:-0.995117 2:-0.864939 3:-0.395468 4:-0.99866 5:-0.975769 6:-0.91983 7:-0.999682 8:-0.976577 9:-0.840839 10:-0.583199 11:-0.507019 12:-0.162446 13:-0.745475 14:-0.738153 15:-0.751016 16:-0.404024 17:-0.531144 18:-0.386609 
-1 0 1:-0.995335 2:-0.870317 3:-0.430164 4:-0.998817 5:-0.978169 6:-0.926583 7:-0.999719 8:-0.979194 9:-0.851628 10:-0.588584 11:-0.507019 12:-0.164917 13:-0.730769 14:-0.729648 15:-0.749492 16:-0.355084 17:-0.483579 18:-0.37797 
-1 0 1:-0.999622 2:-0.994458 3:-0.992511 4:-0.999982 5:-0.999751 6:-0.999541 7:-0.999961 8:-0.99868 9:-0.994911 10:-0.553043 11:-0.800112 12:-0.760346 13:-0.763009 14:-0.865735 15:-0.901423 16:-0.282219 17:-0.663647 18:-0.660907 
-1 0 1:-0.999527 2:-0.996752 3:-0.992827 4:-0.999993 5:-0.999778 6:-0.999486 7:-0.999964 8:-0.99898 9:-0.994149 10:-0.652127 11:-0.681078 12:-0.783817 13:-0.734729 14:-0.866343 15:-0.909045 16:-0.235454 17:-0.582106 18:-0.712743 
-1 0 1:-0.999617 2:-0.996367 3:-0.992799 4:-0.999998 5:-0.999925 6:-0.999653 7:-0.999967 8:-0.998968 9:-0.994054 10:-0.567044 11:-0.720382 12:-0.761581 13:-0.718891 14:-0.834143 15:-0.897358 16:-0.146275 17:-0.591166 18:-0.714903 
-1 0 1:-0.999631 2:-0.996208 3:-0.993915 4:-1 5:-1 6:-0.9994 7:-0.999967 8:-0.999169 9:-0.994705 10:-0.588584 11:-0.745087 12:-0.750463 13:-0.729072 14:-0.832928 15:-0.918699 16:-0.207178 17:-0.546999 18:-0.703024 
-1 0 1:-0.999202 2:-0.984705 3:-0.931094 4:-0.999843 5:-0.997896 6:-0.991461 7:-0.999927 8:-0.997199 9:-0.984198 10:-0.628433 11:-0.739472 12:-0.720815 13:-0.785068 14:-0.830498 15:-0.849085 16:-0.406199 17:-0.677237 18:-0.564795 
-1 0 1:-0.999279 2:-0.987846 3:-0.929032 4:-0.999839 5:-0.997748 6:-0.991181 7:-0.999916 8:-0.99711 9:-0.985549 10:-0.617663 11:-0.70466 12:-0.731933 13:-0.786199 14:-0.838396 15:-0.847561 16:-0.504078 17:-0.711212 18:-0.545356 
-1 0 1:-0.998909 2:-0.982997 3:-0.917491 4:-0.999794 5:-0.997777 6:-0.989303 7:-0.999916 8:-0.996373 9:-0.977233 10:-0.712439 11:-0.723751 12:-0.73811 13:-0.823529 14:-0.824423 15:-0.86687 16:-0.468189 17:-0.742922 18:-0.674946 
-1 1 1:-0.999025 2:-0.983887 3:-0.924851 4:-0.999789 5:-0.997495 6:-0.98934 7:-0.999907 8:-0.995908 9:-0.981798 10:-0.685514 11:-0.736103 12:-0.707227 13:-0.818439 14:-0.849939 15:-0.874492 16:-0.509516 17:-0.770102 18:-0.614471 
-1 1 1:-0.997228 2:-0.97019 3:-0.916055 4:-0.999817 5:-0.997886 6:-0.989483 7:-0.999897 8:-0.99527 9:-0.978299 10:-0.894453 11:-0.842785 12:-0.707227 13:-0.788462 14:-0.811057 15:-0.84248 16:-0.53888 17:-0.783692 18:-0.637149 
-1 0 1:-0.999306 2:-0.986185 3:-0.932287 4:-0.999867 5:-0.998156 6:-0.991695 7:-0.999931 8:-0.997389 9:-0.985435 10:-0.611201 11:-0.738349 12:-0.725757 13:-0.769796 14:-0.818348 15:-0.847561 16:-0.402936 17:-0.701019 18:-0.548596 
-1 0 1:-0.999292 2:-0.987708 3:-0.952409 4:-0.999899 5:-0.998149 6:-0.989874 7:-0.999945 8:-0.998094 9:-0.986368 10:-0.682283 11:-0.750702 12:-0.635578 13:-0.739819 14:-0.793439 15:-0.819106 16:-0.331158 17:-0.668177 18:-0.552916 
-1 1 1:-0.994135 2:-0.932871 3:-0.276418 4:-0.999599 5:-0.997773 6:-0.997626 7:-0.999755 8:-0.992871 9:-0.979179 10:-0.817986 11:-0.79562 12:-0.90488 13:-0.734163 14:-0.744228 15:-0.801829 16:-0.517129 17:-0.569649 18:-0.477322 
-1 0 1:-0.994817 2:-0.935772 3:-0.242527 4:-0.999728 5:-0.997948 6:-0.997886 7:-0.999829 8:-0.993941 9:-0.982642 10:-0.85245 11:-0.814711 12:-0.913527 13:-0.691742 14:-0.777035 15:-0.806911 16:-0.458401 17:-0.597961 18:-0.521598 
-1 0 1:-0.995385 2:-0.941132 3:-0.250326 4:-0.99973 5:-0.997923 6:-0.997897 7:-0.999832 8:-0.993781 9:-0.983404 10:-0.823371 11:-0.802358 12:-0.917233 13:-0.697398 14:-0.787363 15:-0.806911 16:-0.445351 17:-0.582106 18:-0.50432 
-1 0 1:-0.994771 2:-0.928666 3:-0.334684 4:-0.999725 5:-0.997851 6:-0.997868 7:-0.999845 8:-0.993122 9:-0.982073 10:-0.845988 11:-0.81808 12:-0.906115 13:-0.704186 14:-0.790401 15:-0.798272 16:-0.404024 17:-0.609287 18:-0.512959 
-1 1 1:-0.994858 2:-0.930671 3:-0.331503 4:-0.99971 5:-0.997902 6:-0.99801 7:-0.999825 8:-0.993495 9:-0.98326 10:-0.842757 11:-0.829309 12:-0.915998 13:-0.710973 14:-0.787363 15:-0.787602 16:-0.480152 17:-0.624009 18:-0.517279 
-1 1 1:-0.997053 2:-0.926934 3:-0.432511 4:-0.999816 5:-0.9989 6:-0.997971 7:-0.999862 8:-0.993445 9:-0.979719 10:-0.941842 11:-0.973049 12:-0.949351 13:-0.927036 14:-0.951397 15:-0.973069 16:-0.853181 17:-0.938845 18:-0.868251 
-1 1 1:-0.996918 2:-0.932126 3:-0.437466 4:-0.999868 5:-0.999118 6:-0.998272 7:-0.999889 8:-0.994105 9:-0.981695 10:-0.949381 11:-0.970803 12:-0.954293 13:-0.915724 14:-0.944714 15:-0.972561 16:-0.820555 17:-0.937712 18:-0.860691 
-1 1 1:-0.997192 2:-0.930298 3:-0.420131 4:-0.99983 5:-0.998877 6:-0.998174 7:-0.999854 8:-0.994364 9:-0.980621 10:-0.938611 11:-0.96968 12:-0.950587 13:-0.920249 14:-0.947145 15:-0.972053 16:-0.865144 17:-0.92752 18:-0.863931 
-1 1 1:-0.998793 2:-0.98119 3:-0.958422 4:-0.999839 5:-0.998598 6:-0.998154 7:-0.999879 8:-0.993069 9:-0.977825 10:-0.691976 11:-0.819203 12:-0.822112 13:-0.813348 14:-0.912515 15:-0.952236 16:-0.632409 17:-0.874292 18:-0.861771 
-1 0 1:-0.995733 2:-0.92003 3:-0.65416 4:-0.998508 5:-0.980064 6:-0.951711 7:-0.999502 8:-0.950831 9:-0.839031 10:-0.421648 11:-0.640651 12:-0.665225 13:-0.740385 14:-0.794654 15:-0.813008 16:-0.467102 17:-0.740657 18:-0.644708 
-1 0 1:-0.996727 2:-0.952995 3:-0.791264 4:-0.99913 5:-0.989541 6:-0.978206 7:-0.999709 8:-0.975871 9:-0.912069 10:-0.534733 11:-0.587872 12:-0.609636 13:-0.730204 14:-0.769137 15:-0.776423 16:-0.393148 17:-0.699887 18:-0.603672 
-1 0 1:-0.998354 2:-0.975417 3:-0.884923 4:-0.999537 5:-0.994431 6:-0.985623 7:-0.999839 8:-0.989104 9:-0.946799 10:-0.423802 11:-0.535093 12:-0.57134 13:-0.717195 14:-0.758202 15:-0.778963 16:-0.32137 17:-0.621744 18:-0.584233 
-1 1 1:-0.997062 2:-0.926573 3:-0.38626 4:-0.99986 5:-0.999016 6:-0.998252 7:-0.999849 8:-0.993701 9:-0.978329 10:-0.941842 11:-0.96968 12:-0.953057 13:-0.917421 14:-0.948967 15:-0.97002 16:-0.877107 17:-0.94111 18:-0.87581 
-1 1 1:-0.997433 2:-0.940405 3:-0.444033 4:-0.99984 5:-0.998983 6:-0.998019 7:-0.999872 8:-0.995278 9:-0.982642 10:-0.931072 11:-0.960696 12:-0.950587 13:-0.914593 14:-0.944714 15:-0.969512 16:-0.829255 17:-0.910532 18:-0.849892 
-1 0 1:-0.995633 2:-0.956535 3:-0.800872 4:-0.998651 5:-0.981659 6:-0.936495 7:-0.999656 8:-0.988914 9:-0.928423 10:-0.500269 11:-0.636159 12:-0.631872 13:-0.629525 14:-0.691981 15:-0.648882 16:-0.179989 17:-0.261608 18:-0.539957 
-1 0 1:-0.968877 2:-0.882534 3:-0.723506 4:-0.998203 5:-0.978172 6:-0.927449 7:-0.999524 8:-0.989759 9:-0.947508 10:-0.91384 11:-0.852892 12:-0.621989 13:-0.654977 14:-0.716889 15:-0.674797 16:-0.240892 17:-0.0498301 18:-0.307775 
-0 1 1:-0.995713 2:-0.902267 3:-0.0655694 4:-0.999719 5:-0.994689 6:-0.988127 7:-0.999887 8:-0.993755 9:-0.960201 10:-0.920302 11:-0.929253 12:-0.935763 13:-0.876697 14:-0.933171 15:-0.930894 16:-0.695487 17:-0.819932 18:-0.825054 
-1 0 1:-0.997042 2:-0.949056 3:-0.773374 4:-0.999079 5:-0.990438 6:-0.965339 7:-0.999704 8:-0.987096 9:-0.935664 10:-0.353796 11:-0.480067 12:-0.332922 13:-0.705317 14:-0.708384 15:-0.722053 16:-0.346384 17:-0.436014 18:-0.384449 
-1 0 1:-0.997022 2:-0.947266 3:-0.768755 4:-0.999048 5:-0.989997 6:-0.964831 7:-0.999709 8:-0.986921 9:-0.933154 10:-0.347334 11:-0.472207 12:-0.339098 13:-0.695136 14:-0.710207 15:-0.715955 16:-0.322458 17:-0.454134 18:-0.38121 
-1 0 1:-0.996954 2:-0.950997 3:-0.808995 4:-0.999088 5:-0.990644 6:-0.968195 7:-0.999718 8:-0.987795 9:-0.943482 10:-0.453958 11:-0.508141 12:-0.329216 13:-0.722285 14:-0.723572 15:-0.747459 16:-0.356172 17:-0.493771 18:-0.37365 
-1 0 1:-0.99281 2:-0.851834 3:-0.327681 4:-0.997821 5:-0.97513 6:-0.91667 7:-0.999366 8:-0.971268 9:-0.823254 10:-0.442111 11:-0.474453 12:-0.157505 13:-0.692308 14:-0.708384 15:-0.743394 16:-0.377923 17:-0.399773 18:-0.37689 
-1 0 1:-0.993231 2:-0.856708 3:-0.352192 4:-0.997939 5:-0.975845 6:-0.919925 7:-0.999412 8:-0.972795 9:-0.830326 10:-0.431341 11:-0.472207 12:-0.153799 13:-0.675905 14:-0.704739 15:-0.743902 16:-0.336596 17:-0.371461 18:-0.363931 
-1 0 1:-0.993091 2:-0.859982 3:-0.372004 4:-0.997876 5:-0.975267 6:-0.918698 7:-0.999388 8:-0.971997 9:-0.8288 10:-0.41734 11:-0.458731 12:-0.129092 13:-0.668552 14:-0.704131 15:-0.737805 16:-0.350734 17:-0.362401 18:-0.338013 
-1 0 1:-0.993154 2:-0.857575 3:-0.358046 4:-0.997949 5:-0.975433 6:-0.918187 7:-0.999409 8:-0.971579 9:-0.824553 10:-0.402262 11:-0.455362 12:-0.150093 13:-0.670249 14:-0.702309 15:-0.742378 16:-0.32137 17:-0.372593 18:-0.349892 
-1 0 1:-0.993713 2:-0.871735 3:-0.428461 4:-0.99824 5:-0.978337 6:-0.926786 7:-0.999498 8:-0.974591 9:-0.844994 10:-0.461497 11:-0.468838 12:-0.152563 13:-0.668552 14:-0.698663 15:-0.742886 16:-0.338771 17:-0.421291 18:-0.354212 
-1 0 1:-0.994856 2:-0.897437 3:-0.541749 4:-0.998504 5:-0.982405 6:-0.940487 7:-0.999559 8:-0.979408 9:-0.87214 10:-0.405493 11:-0.455362 12:-0.151328 13:-0.667421 14:-0.699271 15:-0.739837 16:-0.332246 17:-0.372593 18:-0.339093 
-1 0 1:-0.995886 2:-0.915268 3:-0.62818 4:-0.998793 5:-0.986555 6:-0.953545 7:-0.999655 8:-0.984096 9:-0.897719 10:-0.419494 11:-0.464346 12:-0.151328 13:-0.679864 14:-0.692588 15:-0.73628 16:-0.315933 17:-0.390713 18:-0.319654 
-1 0 1:-0.99399 2:-0.881131 3:-0.479687 4:-0.998332 5:-0.980669 6:-0.936494 7:-0.999524 8:-0.976869 9:-0.864001 10:-0.455035 11:-0.458731 12:-0.150093 13:-0.679299 14:-0.695018 15:-0.734756 16:-0.335508 17:-0.398641 18:-0.315335 
-1 0 1:-0.996116 2:-0.942509 3:-0.710312 4:-0.99878 5:-0.986943 6:-0.954214 7:-0.999634 8:-0.986993 9:-0.931694 10:-0.521809 11:-0.550814 12:-0.460161 13:-0.718326 14:-0.73147 15:-0.739837 16:-0.421425 17:-0.440544 18:-0.461123 
-1 0 1:-0.995206 2:-0.919084 3:-0.696051 4:-0.998725 5:-0.986387 6:-0.953201 7:-0.999587 8:-0.982729 9:-0.923584 10:-0.555197 11:-0.580011 12:-0.429277 13:-0.716063 14:-0.71932 15:-0.747459 16:-0.452964 17:-0.489241 18:-0.422246 
-1 0 1:-0.992503 2:-0.85574 3:-0.310899 4:-0.997964 5:-0.97663 6:-0.92275 7:-0.999404 8:-0.970439 9:-0.836155 10:-0.442111 11:-0.434026 12:-0.163681 13:-0.663462 14:-0.685298 15:-0.746443 16:-0.340946 17:-0.391846 18:-0.309935 
-1 0 1:-0.988409 2:-0.864067 3:-0.466878 4:-0.998336 5:-0.980825 6:-0.935548 7:-0.999501 8:-0.975017 9:-0.869267 10:-0.709208 11:-0.456485 12:-0.189623 13:-0.664027 14:-0.693803 15:-0.75 16:-0.30397 17:-0.361268 18:-0.326134 
-1 0 1:-0.990952 2:-0.870774 3:-0.38507 4:-0.998021 5:-0.975238 6:-0.916747 7:-0.999463 8:-0.972559 9:-0.841829 10:-0.656435 11:-0.467715 12:-0.169858 13:-0.684389 14:-0.708991 15:-0.760671 16:-0.346384 17:-0.443941 18:-0.366091 
-1 0 1:-0.993167 2:-0.858763 3:-0.382444 4:-0.997985 5:-0.974488 6:-0.918381 7:-0.999409 8:-0.972047 9:-0.833509 10:-0.424879 11:-0.4621 12:-0.150093 13:-0.673643 14:-0.707169 15:-0.744919 16:-0.359434 17:-0.405436 18:-0.357451 
-1 0 1:-0.993327 2:-0.863868 3:-0.419025 4:-0.99811 5:-0.976793 6:-0.925357 7:-0.99944 8:-0.974917 9:-0.846403 10:-0.41734 11:-0.458731 12:-0.157505 13:-0.658371 14:-0.698663 15:-0.741362 16:-0.310495 17:-0.351076 18:-0.341253 
-1 0 1:-0.99808 2:-0.980641 3:-0.921008 4:-0.999538 5:-0.996844 6:-0.98881 7:-0.99982 8:-0.993423 9:-0.978361 10:-0.43888 11:-0.585626 12:-0.673873 13:-0.71267 14:-0.765492 15:-0.860264 16:-0.285481 17:-0.542469 18:-0.49568 
-1 0 1:-0.99628 2:-0.966741 3:-0.911741 4:-0.999572 5:-0.99726 6:-0.989006 7:-0.999811 8:-0.993071 9:-0.974561 10:-0.743673 11:-0.75744 12:-0.675108 13:-0.673643 14:-0.718104 15:-0.831809 16:-0.307232 17:-0.550396 18:-0.518359 
-1 0 1:-0.998537 2:-0.98469 3:-0.949987 4:-0.999696 5:-0.9976 6:-0.989288 7:-0.999878 8:-0.996283 9:-0.983025 10:-0.443188 11:-0.606962 12:-0.576282 13:-0.657805 14:-0.698663 15:-0.805386 16:-0.137575 17:-0.372593 18:-0.406048 
-1 0 1:-0.993794 2:-0.925851 3:-0.330129 4:-0.999441 5:-0.997383 6:-0.997641 7:-0.999717 8:-0.991089 9:-0.979646 10:-0.756597 11:-0.782145 12:-0.899938 13:-0.666855 14:-0.71932 15:-0.767276 16:-0.387711 17:-0.456399 18:-0.424406 
-1 0 1:-0.993959 2:-0.927813 3:-0.327914 4:-0.999403 5:-0.99741 6:-0.997793 7:-0.999704 8:-0.99131 9:-0.980649 10:-0.750135 11:-0.793375 12:-0.911056 13:-0.67138 14:-0.716282 15:-0.755589 16:-0.410549 17:-0.465459 18:-0.436285 
-1 1 1:-0.996621 2:-0.924786 3:-0.426918 4:-0.999708 5:-0.998649 6:-0.99782 7:-0.999781 8:-0.992577 9:-0.978149 10:-0.882606 11:-0.947221 12:-0.941939 13:-0.878959 14:-0.904617 15:-0.95376 16:-0.792278 17:-0.858437 18:-0.807775 
-1 1 1:-0.996484 2:-0.930246 3:-0.433112 4:-0.999763 5:-0.998879 6:-0.998129 7:-0.999833 8:-0.993263 9:-0.97973 10:-0.891222 11:-0.943852 12:-0.948116 13:-0.867647 14:-0.894897 15:-0.950203 16:-0.721588 17:-0.856172 18:-0.789417 
-1 1 1:-0.996819 2:-0.928684 3:-0.416214 4:-0.999708 5:-0.998614 6:-0.998052 7:-0.999811 8:-0.9934 9:-0.978861 10:-0.876144 11:-0.944975 12:-0.943175 13:-0.875 14:-0.900365 15:-0.951728 16:-0.752039 17:-0.844847 18:-0.802376 
-1 0 1:-0.998159 2:-0.979184 3:-0.957028 4:-0.99967 5:-0.998197 6:-0.998029 7:-0.999814 8:-0.991492 9:-0.975837 10:-0.530425 11:-0.743964 12:-0.794935 13:-0.733032 14:-0.850547 15:-0.936484 16:-0.466014 17:-0.762174 18:-0.805616 
-1 0 1:-0.993715 2:-0.916082 3:-0.649813 4:-0.997665 5:-0.979134 6:-0.95098 7:-0.999168 8:-0.946626 9:-0.833893 10:-0.276252 11:-0.58338 12:-0.649166 13:-0.68552 14:-0.76853 15:-0.805386 16:-0.407287 17:-0.673839 18:-0.61987 
-1 0 1:-0.99527 2:-0.949531 3:-0.787588 4:-0.998605 5:-0.988923 6:-0.97773 7:-0.999465 8:-0.97281 9:-0.908611 10:-0.40657 11:-0.519371 12:-0.591106 13:-0.684389 14:-0.734508 15:-0.769309 16:-0.410549 17:-0.605889 18:-0.572354 
-1 0 1:-0.997393 2:-0.972811 3:-0.882329 4:-0.99921 5:-0.993851 6:-0.985119 7:-0.99972 8:-0.986739 9:-0.94396 10:-0.299946 11:-0.43178 12:-0.547869 13:-0.673077 14:-0.715067 15:-0.769309 16:-0.280044 17:-0.489241 18:-0.532397 
-1 1 1:-0.996666 2:-0.924542 3:-0.378744 4:-0.999742 5:-0.998746 6:-0.998101 7:-0.999797 8:-0.992534 9:-0.97636 10:-0.879375 11:-0.941606 12:-0.94441 13:-0.866516 14:-0.895504 15:-0.949695 16:-0.77379 17:-0.861835 18:-0.815335 
-1 1 1:-0.996984 2:-0.938575 3:-0.439284 4:-0.999721 5:-0.998706 6:-0.997834 7:-0.9998 8:-0.994469 9:-0.980586 10:-0.866451 11:-0.930376 12:-0.943175 13:-0.861991 14:-0.893074 15:-0.952236 16:-0.748777 17:-0.80974 18:-0.780778 
-0 1 1:-0.965995 2:-0.877236 3:-0.718824 4:-0.996914 5:-0.977063 6:-0.92651 7:-0.998889 8:-0.984836 9:-0.94312 10:-0.85245 11:-0.820326 12:-0.604694 13:-0.611425 14:-0.688943 15:-0.670224 16:-0.349647 17:0.114383 18:-0.230022 
-0 1 1:-0.99524 2:-0.900101 3:-0.057435 4:-0.999549 5:-0.994335 6:-0.987818 7:-0.999829 8:-0.992545 9:-0.958109 10:-0.866451 11:-0.907917 12:-0.932057 13:-0.84276 14:-0.910693 15:-0.922764 16:-0.597607 17:-0.734994 18:-0.784017 
-1 0 1:-0.995602 2:-0.947601 3:-0.804776 4:-0.998569 5:-0.989987 6:-0.967588 7:-0.999502 8:-0.985018 9:-0.940064 10:-0.335487 11:-0.439641 12:-0.30945 13:-0.686086 14:-0.691981 15:-0.742378 16:-0.384448 17:-0.346546 18:-0.330454 
-1 0 1:-0.991501 2:-0.866453 3:-0.419137 4:-0.997242 5:-0.977304 6:-0.925516 7:-0.999007 8:-0.970472 9:-0.839237 10:-0.359181 11:-0.438518 12:-0.143916 13:-0.649321 14:-0.674362 15:-0.738821 16:-0.439913 17:-0.320498 18:-0.330454 
-1 0 1:-0.994311 2:-0.911261 3:-0.62133 4:-0.998075 5:-0.985735 6:-0.95287 7:-0.999376 8:-0.980867 9:-0.892918 10:-0.308562 11:-0.426165 12:-0.143916 13:-0.661765 14:-0.661604 15:-0.728659 16:-0.353997 17:-0.284258 18:-0.295896 
-1 0 1:-0.991858 2:-0.876177 3:-0.472573 4:-0.997398 5:-0.979791 6:-0.935626 7:-0.998997 8:-0.973067 9:-0.860912 10:-0.353796 11:-0.416058 12:-0.142681 13:-0.652715 14:-0.673755 15:-0.730183 16:-0.486678 17:-0.301246 18:-0.277538 
-1 0 1:-0.993546 2:-0.914996 3:-0.691357 4:-0.998061 5:-0.985603 6:-0.952222 7:-0.999266 8:-0.979364 9:-0.920122 10:-0.444265 11:-0.536216 12:-0.416924 13:-0.68552 14:-0.695626 15:-0.742378 16:-0.480152 17:-0.375991 18:-0.390929 
-1 0 1:-0.986139 2:-0.859257 3:-0.459293 4:-0.997315 5:-0.979956 6:-0.934756 7:-0.999039 8:-0.970876 9:-0.86362 10:-0.621971 11:-0.419427 12:-0.174799 13:-0.636312 14:-0.668894 15:-0.745935 16:-0.359434 17:-0.251416 18:-0.299136 
-1 0 1:-0.988701 2:-0.865501 3:-0.378256 4:-0.996999 5:-0.97421 6:-0.915378 7:-0.998985 8:-0.968238 9:-0.834851 10:-0.557351 11:-0.434026 12:-0.164917 13:-0.648756 14:-0.68955 15:-0.759654 16:-0.413812 17:-0.342016 18:-0.345572 
-1 0 1:-0.995141 2:-0.963697 3:-0.909327 4:-0.999186 5:-0.996664 6:-0.988632 7:-0.999659 8:-0.990534 9:-0.972136 10:-0.609047 11:-0.691185 12:-0.649166 13:-0.619344 14:-0.647023 15:-0.821138 16:-0.271343 17:-0.370328 18:-0.457883 
-1 1 1:-0.996019 2:-0.92251 3:-0.421323 4:-0.999529 5:-0.998343 6:-0.997722 7:-0.99969 8:-0.991253 9:-0.976045 10:-0.814755 11:-0.922515 12:-0.935763 13:-0.834842 14:-0.850547 15:-0.939533 16:-0.721588 17:-0.767837 18:-0.75162 
-1 1 1:-0.995926 2:-0.928494 3:-0.428193 4:-0.99958 5:-0.998593 6:-0.997964 7:-0.99975 8:-0.992054 9:-0.977733 10:-0.823371 11:-0.915778 12:-0.941939 13:-0.832014 14:-0.843256 15:-0.932419 16:-0.666123 17:-0.766704 18:-0.738661 
-1 1 1:-0.996192 2:-0.926987 3:-0.411561 4:-0.999523 5:-0.99832 6:-0.997933 7:-0.999718 8:-0.992069 9:-0.977197 10:-0.801831 11:-0.915778 12:-0.936998 13:-0.831448 14:-0.8548 15:-0.936484 16:-0.681349 17:-0.738392 18:-0.74622 
-1 0 1:-0.997274 2:-0.976687 3:-0.955083 4:-0.999364 5:-0.997756 6:-0.997841 7:-0.9997 8:-0.989374 9:-0.973986 10:-0.365644 11:-0.66648 12:-0.755405 13:-0.683824 14:-0.790401 15:-0.915142 16:-0.356172 17:-0.637599 18:-0.7473 
-1 0 1:-0.990783 2:-0.91101 3:-0.645635 4:-0.99634 5:-0.978123 6:-0.950191 7:-0.998437 8:-0.941786 9:-0.8281 10:-0.187938 11:-0.53397 12:-0.633107 13:-0.635747 14:-0.739976 15:-0.799797 16:-0.435563 17:-0.601359 18:-0.591793 
-1 0 1:-0.99326 2:-0.945829 3:-0.784298 4:-0.997704 5:-0.988137 6:-0.97722 7:-0.999007 8:-0.969 9:-0.904928 10:-0.294561 11:-0.455362 12:-0.56887 13:-0.646493 14:-0.700486 15:-0.75813 16:-0.459489 17:-0.501699 18:-0.537797 
-1 1 1:-0.996048 2:-0.922358 3:-0.375672 4:-0.99956 5:-0.998425 6:-0.997963 7:-0.999642 8:-0.991146 9:-0.974828 10:-0.800754 11:-0.913532 12:-0.938233 13:-0.819005 14:-0.841434 15:-0.934451 16:-0.756389 17:-0.765572 18:-0.759179 
-1 1 1:-0.99639 2:-0.936208 3:-0.434163 4:-0.999516 5:-0.998392 6:-0.997714 7:-0.999643 8:-0.993052 9:-0.978558 10:-0.786753 11:-0.901179 12:-0.938233 13:-0.822398 14:-0.840219 15:-0.935976 16:-0.745514 17:-0.695357 18:-0.719222 
-0 1 1:-0.96196 2:-0.871414 3:-0.713582 4:-0.994883 5:-0.975945 6:-0.925436 7:-0.997414 8:-0.978983 9:-0.937627 10:-0.782445 11:-0.785514 12:-0.5874 13:-0.572964 14:-0.662211 15:-0.666159 16:-0.442088 17:0.260476 18:-0.159827 
-0 1 1:-0.994458 2:-0.897498 3:-0.0491237 4:-0.999257 5:-0.993932 6:-0.987628 7:-0.999674 8:-0.990884 9:-0.956625 10:-0.802908 11:-0.885458 12:-0.928351 13:-0.819005 14:-0.885176 15:-0.916667 16:-0.630234 17:-0.645527 18:-0.740821 
-1 1 1:-0.982627 2:-0.853817 3:-0.451394 4:-0.995716 5:-0.978911 6:-0.9337 7:-0.997973 8:-0.966026 9:-0.857747 10:-0.526117 11:-0.384615 12:-0.169858 13:-0.613688 14:-0.643985 15:-0.740854 16:-0.464927 17:-0.146093 18:-0.265659 
-1 0 1:-0.985305 2:-0.859996 3:-0.368495 4:-0.995372 5:-0.973083 6:-0.914654 7:-0.99806 8:-0.963128 9:-0.82853 10:-0.453958 11:-0.393599 12:-0.156269 13:-0.611425 14:-0.665249 15:-0.754573 16:-0.447526 17:-0.234428 18:-0.315335 
-1 0 1:-0.993429 2:-0.960334 3:-0.905809 4:-0.99846 5:-0.995992 6:-0.988121 7:-0.999345 8:-0.9875 9:-0.968863 10:-0.485191 11:-0.627176 12:-0.620754 13:-0.589367 14:-0.58384 15:-0.803862 16:-0.306145 17:-0.212911 18:-0.38013 
-0.60873657346716703 1 1:-0.994713 2:-0.918902 3:-0.414652 4:-0.999056 5:-0.997788 6:-0.997478 7:-0.999402 8:-0.988209 9:-0.972737 10:-0.688745 11:-0.883212 12:-0.927116 13:-0.774321 14:-0.77096 15:-0.917175 16:-0.690049 17:-0.618347 18:-0.664147 
-1 1 1:-0.99458 2:-0.924793 3:-0.422521 4:-0.999136 5:-0.998051 6:-0.997702 7:-0.999465 8:-0.989547 9:-0.975207 10:-0.710285 11:-0.877597 12:-0.933292 13:-0.770928 14:-0.751519 15:-0.910061 16:-0.671561 17:-0.594564 18:-0.640389 
-1 0 1:-0.988096 2:-0.938965 3:-0.774955 4:-0.995371 5:-0.986672 6:-0.976378 7:-0.997176 8:-0.961807 9:-0.898247 10:-0.1944 11:-0.361033 12:-0.533045 13:-0.58767 14:-0.643985 15:-0.744919 16:-0.530179 17:-0.348811 18:-0.471922 
-1 1 1:-0.994638 2:-0.919085 3:-0.365777 4:-0.999095 5:-0.997791 6:-0.997669 7:-0.999325 8:-0.988474 9:-0.971652 10:-0.675821 11:-0.874228 12:-0.930821 13:-0.760747 14:-0.76367 15:-0.912602 16:-0.723763 17:-0.613817 18:-0.683585 
-0 1 1:-0.994856 2:-0.932666 3:-0.429485 4:-0.999019 5:-0.99777 6:-0.997466 7:-0.99929 8:-0.990031 9:-0.97585 10:-0.659666 11:-0.857383 12:-0.928351 13:-0.758484 14:-0.755164 15:-0.911077 16:-0.723763 17:-0.516421 18:-0.62851 
-0 1 1:-0.951846 2:-0.862026 3:-0.70317 4:-0.989914 5:-0.973594 6:-0.923224 7:-0.991908 8:-0.967608 9:-0.927601 10:-0.64028 11:-0.728243 12:-0.555281 13:-0.472285 14:-0.623937 15:-0.658537 16:-0.435563 17:0.407701 18:-0.0788337 
-0 1 1:-0.992569 2:-0.893208 3:-0.0392326 4:-0.998493 5:-0.993114 6:-0.987078 7:-0.999162 8:-0.987596 9:-0.952348 10:-0.697361 11:-0.851769 12:-0.922174 13:-0.780543 14:-0.843864 15:-0.906504 16:-0.696574 17:-0.492639 18:-0.693305 
-0 1 1:-0.993119 2:-0.915822 3:-0.407853 4:-0.998426 5:-0.997252 6:-0.99723 7:-0.998877 8:-0.985164 9:-0.969831 10:-0.5972 11:-0.855138 12:-0.919704 13:-0.746606 14:-0.716889 15:-0.896341 16:-0.71615 17:-0.508494 18:-0.604752 
-0 1 1:-0.993116 2:-0.921611 3:-0.415412 4:-0.99857 5:-0.997498 6:-0.99745 7:-0.998917 8:-0.986858 9:-0.972905 10:-0.632741 11:-0.845031 12:-0.92588 13:-0.741516 14:-0.692588 15:-0.884146 16:-0.734638 17:-0.486976 18:-0.579914 
-0 1 1:-0.993148 2:-0.91601 3:-0.356134 4:-0.998498 5:-0.997247 6:-0.997428 7:-0.998861 8:-0.985711 9:-0.969141 10:-0.588584 11:-0.845031 12:-0.924645 13:-0.733032 14:-0.707169 15:-0.892276 16:-0.732463 17:-0.507361 18:-0.62851 
-0 1 1:-0.993164 2:-0.929578 3:-0.424124 4:-0.998383 5:-0.997185 6:-0.997232 7:-0.998747 8:-0.987381 9:-0.973309 10:-0.581045 11:-0.821449 12:-0.920939 13:-0.723416 14:-0.699878 15:-0.890244 16:-0.740076 17:-0.373726 18:-0.562635 
-0 1 1:-0.990415 2:-0.889495 3:-0.0263619 4:-0.997493 5:-0.992457 6:-0.986725 7:-0.998301 8:-0.984378 9:-0.948784 10:-0.625202 11:-0.824818 12:-0.917233 13:-0.76414 14:-0.81288 15:-0.89939 16:-0.727026 17:-0.385051 18:-0.647948 
-0 1 1:-0.98584 2:-0.973878 3:-0.950866 4:-0.993662 5:-0.994776 6:-0.994027 7:-0.996114 8:-0.97717 9:-0.9723 10:0.099623 11:0.444133 12:-0.351452 13:-0.430995 14:-0.167679 15:-0.660569 16:-0.323545 17:0.527746 18:0.482721 
-0 1 1:-0.984481 2:-0.973372 3:-0.953454 4:-0.993096 5:-0.994405 6:-0.992536 7:-0.995315 8:-0.975538 9:-0.970421 10:0.098546 11:0.536216 12:-0.182211 13:-0.433824 14:-0.222357 15:-0.678354 16:-0.349647 17:0.446206 18:0.368251 
-0 1 1:-0.991594 2:-0.919045 3:-0.409597 4:-0.997961 5:-0.997049 6:-0.997231 7:-0.998413 8:-0.984614 9:-0.970711 10:-0.570275 11:-0.822572 12:-0.920939 13:-0.718891 14:-0.650668 15:-0.871443 16:-0.725938 17:-0.394111 18:-0.534557 
-0 1 1:-0.980346 2:-0.968773 3:-0.947107 4:-0.991183 5:-0.993734 6:-0.993514 7:-0.993202 8:-0.971594 9:-0.967248 10:0.137318 11:0.509264 12:-0.305744 13:-0.38914 14:-0.147023 15:-0.622967 16:-0.333333 17:0.580974 18:0.541037 
-0 1 1:-0.982793 2:-0.966638 3:-0.940117 4:-0.992328 5:-0.993814 6:-0.992358 7:-0.994659 8:-0.974319 9:-0.969366 10:0.0683899 11:0.273442 12:-0.274861 13:-0.442873 14:-0.219927 15:-0.640244 16:-0.349647 17:0.559456 18:0.416847 
-0 1 1:-0.978327 2:-0.968216 3:-0.949305 4:-0.990371 5:-0.993361 6:-0.991943 7:-0.992223 8:-0.969541 9:-0.965211 10:0.135164 11:0.602471 12:-0.134033 13:-0.390271 14:-0.184083 15:-0.650407 16:-0.325721 17:0.540204 18:0.441685 
-0 1 1:-0.969938 2:-0.960064 3:-0.941445 4:-0.986463 5:-0.991962 6:-0.992726 7:-0.985877 8:-0.961906 9:-0.95846 10:0.217017 11:0.581134 12:-0.218036 13:-0.326357 14:-0.108748 15:-0.589939 16:-0.285481 17:0.621744 18:0.615551 
-0 1 1:-0.973521 2:-0.958382 3:-0.933166 4:-0.988121 5:-0.992156 6:-0.991619 7:-0.98891 8:-0.965414 9:-0.961339 10:0.112547 11:0.387984 12:-0.188388 13:-0.381222 14:-0.171324 15:-0.60315 16:-0.338771 17:0.617214 18:0.489201 
-0 1 1:-0.967241 2:-0.959208 3:-0.942029 4:-0.985488 5:-0.991554 6:-0.991083 7:-0.984387 8:-0.959271 9:-0.956307 10:0.210555 11:0.648512 12:-0.0339716 13:-0.330882 14:-0.147023 15:-0.613313 16:-0.274606 17:0.642129 18:0.528078 
-0 1 1:-0.961265 2:-0.953594 3:-0.93682 4:-0.982698 5:-0.990524 6:-0.99205 7:-0.978825 8:-0.954642 9:-0.951642 10:0.273021 11:0.628299 12:-0.151328 13:-0.286199 14:-0.0808019 15:-0.564533 16:-0.238717 17:0.661382 18:0.652268 
-0 1 1:-0.965858 2:-0.952236 3:-0.928572 4:-0.984807 5:-0.990855 6:-0.991084 7:-0.982777 8:-0.958817 9:-0.954831 10:0.159935 11:0.423919 12:-0.132798 13:-0.342195 14:-0.159174 15:-0.578252 16:-0.30832 17:0.654587 18:0.50108 
-0 1 1:-0.957977 2:-0.952202 3:-0.936801 4:-0.981502 5:-0.990135 6:-0.990383 7:-0.976146 8:-0.951216 9:-0.949285 10:0.243942 11:0.650758 12:0.0179123 13:-0.284502 14:-0.116646 15:-0.595528 16:-0.211528 17:0.691959 18:0.583153 
-0 1 1:-0.948651 2:-0.943994 3:-0.929906 4:-0.977706 5:-0.988577 6:-0.991178 7:-0.966897 8:-0.943624 9:-0.941617 10:0.310716 11:0.669848 12:-0.0673255 13:-0.242647 14:-0.0631835 15:-0.529472 16:-0.159326 17:0.702152 18:0.647948 
-0 1 1:-0.954932 2:-0.944241 3:-0.922264 4:-0.980311 5:-0.989083 6:-0.990223 7:-0.973138 8:-0.949075 9:-0.946663 10:0.20517 11:0.465469 12:-0.0648548 13:-0.30543 14:-0.144593 15:-0.548272 16:-0.233279 17:0.673839 18:0.519438 
-0 0.94860316379290877 1:-0.944765 2:-0.942171 3:-0.929178 4:-0.976237 5:-0.988047 6:-0.989331 7:-0.963153 8:-0.940004 9:-0.93963 10:0.321486 11:0.694554 12:0.0846201 13:-0.249434 14:-0.0923451 15:-0.561992 16:-0.136487 17:0.701019 18:0.576674 
-0 1 1:-0.390962 2:-0.419884 3:-0.527428 4:-0.770746 5:-0.887323 6:-0.939201 7:-0.361587 8:-0.411953 9:-0.428036 10:0.589661 11:0.766423 12:0.698579 13:-0.156674 14:-0.0370595 15:-0.261687 16:0.635672 17:0.753114 18:0.697624 
-0 1 1:-0.391678 2:-0.417317 3:-0.519778 4:-0.767301 5:-0.88232 6:-0.938963 7:-0.364963 8:-0.414836 9:-0.409607 10:0.565967 11:0.747333 12:0.728227 13:-0.156109 14:-0.0692588 15:-0.329268 16:0.643284 17:0.703284 18:0.768898 
-0 1 1:-0.300493 2:-0.348616 3:-0.516546 4:-0.736628 5:-0.869161 6:-0.931559 7:-0.276256 8:-0.328016 9:-0.342902 10:0.635972 11:0.793375 12:0.8147 13:-0.11595 14:-0.0200486 15:-0.247967 16:0.718325 17:0.793884 18:0.587473 
-0 1 1:-0.0611772 2:-0.102578 3:-0.253571 4:-0.643593 5:-0.815173 6:-0.901324 7:-0.0460539 8:-0.0748121 9:-0.0913962 10:0.812601 11:0.894441 12:0.969117 13:-0.0378959 14:0.0236938 15:-0.267785 16:0.846656 17:0.90487 18:0.784017 
-0 0.48406827466975388 1:-0.0594965 2:-0.0817905 3:-0.207512 4:-0.642586 5:-0.812815 6:-0.893404 7:-0.0402819 8:-0.0888731 9:-0.0618105 10:0.796446 11:0.886581 12:0.754169 13:-0.0367647 14:0.0388821 15:-0.330793 16:0.847743 17:0.903737 18:0.819654 
-0 1 1:-0.271006 2:-0.325083 3:-0.486812 4:-0.725068 5:-0.866784 6:-0.938016 7:-0.250333 8:-0.293228 9:-0.290694 10:0.728595 11:0.850646 12:0.919704 13:-0.0910633 14:-0.00850547 15:-0.302337 16:0.759652 17:0.88222 18:0.764579 
-0 1 1:-0.270246 2:-0.326802 3:-0.497193 4:-0.729674 5:-0.862431 6:-0.939431 7:-0.24944 8:-0.29414 9:-0.28874 10:0.697361 11:0.875351 12:0.934527 13:-0.0978507 14:0.0036452 15:-0.21748 16:0.761827 17:0.894677 18:0.697624 
-0 1 1:-0.263027 2:-0.308254 3:-0.500205 4:-0.723645 5:-0.865261 6:-0.935889 7:-0.249447 8:-0.290306 9:-0.322158 10:0.736134 11:0.862998 12:0.717109 13:-0.0735294 14:-0.0315917 15:-0.283537 16:0.758564 17:0.910532 18:0.831533 
-0 1 1:-0.288407 2:-0.351324 3:-0.516029 4:-0.730447 5:-0.8706 6:-0.941501 7:-0.261842 8:-0.314937 9:-0.315295 10:0.727518 11:0.933745 12:0.913527 13:-0.0910633 14:-0.0334143 15:-0.259654 16:0.764002 17:0.85957 18:0.780778 
-0 1 1:-0.377395 2:-0.416637 3:-0.467413 4:-0.761412 5:-0.879952 6:-0.936034 7:-0.352003 8:-0.401269 9:-0.403051 10:0.523963 11:0.66648 12:0.551575 13:-0.192873 14:-0.0716889 15:-0.371951 16:0.564981 17:0.724802 18:0.543197 
-0 1 1:-0.387395 2:-0.42468 3:-0.516239 4:-0.766219 5:-0.882635 6:-0.936088 7:-0.362494 8:-0.396629 9:-0.417585 10:0.499192 11:0.684447 12:0.625695 13:-0.192308 14:-0.113609 15:-0.344004 16:0.54323 17:0.652322 18:0.644708 
-0 1 1:-0.459443 2:-0.495798 3:-0.568784 4:-0.792877 5:-0.896762 6:-0.939268 7:-0.426262 8:-0.479126 9:-0.456432 10:0.483037 11:0.591241 12:0.525633 13:-0.20871 14:-0.0777643 15:-0.30437 16:0.497553 17:0.608154 18:0.564795 
-0 1 1:0.408036 2:0.363043 3:0.126405 4:-0.463027 5:-0.724359 6:-0.87413 7:0.427711 8:0.400469 9:0.334528 10:0.92461 11:0.962942 12:0.804818 13:0.00339367 14:0.0291616 15:-0.251524 16:0.924959 17:0.949037 18:0.804536 
-0 1 1:0.427141 2:0.389673 3:0.204149 4:-0.467975 5:-0.723781 6:-0.878428 7:0.437335 8:0.408618 9:0.378475 10:0.909532 11:0.92027 12:0.561458 13:0.000565611 14:0.0243013 15:-0.26372 16:0.926047 17:1 18:0.769978 
-0 1 1:0.402088 2:0.382823 3:0.165816 4:-0.463784 5:-0.736341 6:-0.869265 7:0.415999 8:0.39505 9:0.329413 10:0.870759 11:0.993262 12:0.635578 13:-0.00904977 14:0.0340219 15:-0.268293 16:0.89342 17:0.95923 18:0.816415 
-0 1 1:0.427668 2:0.3633 3:0.151131 4:-0.464143 5:-0.733171 6:-0.875274 7:0.431814 8:0.406743 9:0.369809 10:0.912763 11:0.905671 12:0.747993 13:0.0124434 14:0.00972053 15:-0.1875 16:0.939097 17:0.934315 18:0.777538 
-0 1 1:0.405744 2:0.371521 3:0.128249 4:-0.464588 5:-0.732123 6:-0.877334 7:0.423571 8:0.407957 9:0.39778 10:0.905223 11:0.851769 12:0.734404 13:0.00904977 14:0.0303767 15:-0.210366 16:0.899946 17:0.943375 18:0.805616 
-0 1 1:0.428354 2:0.34554 3:0.191165 4:-0.461455 5:-0.725236 6:-0.878666 7:0.439355 8:0.42392 9:0.419713 10:0.917071 11:0.961819 12:0.594812 13:0.00678733 14:0.0479951 15:-0.185467 16:0.967374 17:0.944507 18:0.786177 
-0 1 1:0.419595 2:0.395879 3:0.224363 4:-0.45453 5:-0.727468 6:-0.868727 7:0.425116 8:0.423831 9:0.392341 10:0.934303 11:0.957327 12:0.733169 13:0.00791855 14:0.0139733 15:-0.324695 16:0.953235 17:0.996602 18:0.87149 
-0 1 1:-0.209144 2:-0.255429 3:-0.415281 4:-0.706731 5:-0.855238 6:-0.93535 7:-0.192382 8:-0.222228 9:-0.260747 10:0.649973 11:0.742841 12:0.594812 13:-0.133484 14:-0.0571081 15:-0.280488 16:0.697662 17:0.815402 18:0.735421 
-0 1 1:0.222837 2:0.224819 3:0.132321 4:-0.537928 5:-0.751118 6:-0.856619 7:0.234936 8:0.229263 9:0.267447 10:0.770598 11:0.856261 12:0.526868 13:-0.071267 14:0.0103281 15:-0.348577 16:0.828167 17:0.910532 18:0.804536 
-0 1 1:0.111966 2:0.136553 3:0.0139359 4:-0.577206 5:-0.772396 6:-0.870141 7:0.129318 8:0.134009 9:0.223216 10:0.728595 11:0.777653 12:0.544163 13:-0.0791855 14:-0.0164034 15:-0.317073 16:0.756389 17:0.896942 18:0.665227 
-0 1 1:-0.0216653 2:-0.0576475 3:-0.13168 4:-0.627156 5:-0.801305 6:-0.893481 7:-0.00515191 8:-0.0238312 9:0.00490487 10:0.638126 11:0.710275 12:0.47622 13:-0.139706 14:-0.0540705 15:-0.283028 16:0.686786 17:0.756512 18:0.556156 
-0 1 1:0.255441 2:0.242586 3:0.0436653 4:-0.526364 5:-0.746553 6:-0.831376 7:0.266543 8:0.220319 9:0.321779 10:0.802908 11:0.880966 12:0.767758 13:-0.0441176 14:0.0151883 15:-0.292175 16:0.834693 17:0.889015 18:0.758099 
-0 1 1:0.113376 2:0.0792103 3:-0.156231 4:-0.571844 5:-0.784074 6:-0.900398 7:0.128906 8:0.117491 9:0.157535 10:0.9063 11:0.885458 12:0.828289 13:0.00169683 14:-0.00789793 15:-0.276931 16:0.941272 17:0.848245 18:0.946004 
-0 1 1:0.144254 2:0.12187 3:-0.13683 4:-0.557863 5:-0.776554 6:-0.888204 7:0.177279 8:0.145837 9:0.182234 10:0.752289 11:0.860752 12:0.623224 13:-0.0786199 14:0.0321993 15:-0.282012 16:0.76944 17:0.884485 18:0.681425 
-0 1 1:0.105059 2:0.109862 3:0.0225632 4:-0.588659 5:-0.784066 6:-0.856455 7:0.118633 8:0.111602 9:0.176018 10:0.696284 11:0.778776 12:0.528104 13:-0.11086 14:-0.0619684 15:-0.38872 16:0.734638 17:0.81427 18:0.795896 
-0 1 1:0.110604 2:0.121189 3:0.0743231 4:-0.586406 5:-0.778876 6:-0.857357 7:0.12834 8:0.113773 9:0.145099 10:0.689822 11:0.756317 12:0.752934 13:-0.1069 14:-0.0534629 15:-0.358232 16:0.750952 17:0.807475 18:0.687905 
-0 1 1:0.0738714 2:0.0372859 3:-0.192233 4:-0.595782 5:-0.797395 6:-0.895775 7:0.0961594 8:0.053312 9:0.0280036 10:0.682283 11:0.814711 12:0.797406 13:-0.118213 14:-0.009113 15:-0.242886 16:0.705275 17:0.808607 18:0.723542 
-0 1 1:0.0916623 2:0.0331617 3:-0.193444 4:-0.58768 5:-0.793372 6:-0.892126 7:0.0960057 8:0.0569066 9:0.0630966 10:0.695207 11:0.770915 12:0.747993 13:-0.105204 14:-0.0176185 15:-0.261687 16:0.738989 17:0.860702 18:0.62635 
-0 1 1:0.083994 2:0.0432675 3:-0.155633 4:-0.588673 5:-0.789804 6:-0.891844 7:0.0868405 8:0.0508448 9:0.0501581 10:0.674744 11:0.748456 12:0.780111 13:-0.118778 14:-0.0212637 15:-0.281504 16:0.690049 17:0.784824 18:0.569114 
-0 1 1:0.0723013 2:0.0451646 3:-0.162765 4:-0.588224 5:-0.789523 6:-0.895231 7:0.0895073 8:0.0511702 9:0.0647895 10:0.635972 11:0.793375 12:0.740581 13:-0.117647 14:-0.0425273 15:-0.300305 16:0.712887 17:0.742922 18:0.768898 
-0 1 1:0.0539469 2:0.0218972 3:-0.209143 4:-0.599521 5:-0.797733 6:-0.894154 7:0.0638661 8:0.029272 9:0.0526719 10:0.687668 11:0.740595 12:0.836936 13:-0.116516 14:-0.0504253 15:-0.268293 16:0.682436 17:0.770102 18:0.655508 
-0 1 1:0.0643737 2:0.0730556 3:-0.0252366 4:-0.59912 5:-0.791115 6:-0.861011 7:0.0758244 8:0.0654469 9:0.0765653 10:0.675821 11:0.717013 12:0.754169 13:-0.131787 14:-0.0552855 15:-0.390244 16:0.698749 17:0.744054 18:0.74406 
-0 1 1:0.202372 2:0.142855 3:-0.172687 4:-0.54717 5:-0.770968 6:-0.884748 7:0.211445 8:0.177426 9:0.149307 10:0.73398 11:0.834924 12:0.908586 13:-0.0627828 14:0.00121507 15:-0.234248 16:0.821642 17:0.840317 18:0.62743 
-0 1 1:0.237714 2:0.180023 3:-0.0876514 4:-0.532801 5:-0.762748 6:-0.892623 7:0.257346 8:0.206107 9:0.213056 10:0.800754 11:0.914655 12:0.62446 13:-0.0554299 14:0.0267315 15:-0.282012 16:0.836868 17:0.917327 18:0.698704 
-0 1 1:0.129809 2:0.21861 3:0.504417 4:-0.576195 5:-0.761946 6:-0.826367 7:0.147763 8:0.146258 9:0.28835 10:0.662897 11:0.664234 12:0.646695 13:-0.134615 14:-0.136695 15:-0.42124 16:0.702012 17:0.703284 18:0.606911 
-0 1 1:0.149729 2:0.225333 3:0.463161 4:-0.568146 5:-0.761574 6:-0.816509 7:0.170127 8:0.121695 9:0.25466 10:0.68336 11:0.690062 12:0.544163 13:-0.130656 14:-0.13062 15:-0.438008 16:0.715063 17:0.766704 18:0.612311 
-0 1 1:0.146697 2:0.188634 3:0.414659 4:-0.572744 5:-0.757835 6:-0.829631 7:0.162414 8:0.172639 9:0.304523 10:0.707054 11:0.71589 12:0.60593 13:-0.117647 14:-0.108748 15:-0.416159 16:0.719413 17:0.789354 18:0.574514 
-0 0.43948790411128702 1:0.149011 2:0.242506 3:0.469383 4:-0.570113 5:-0.763344 6:-0.815355 7:0.152901 8:0.169524 9:0.236276 10:0.679052 11:0.68557 12:0.621989 13:-0.131787 14:-0.12819 15:-0.431402 16:0.715063 17:0.663647 18:0.4946 
-0 1 1:0.34138 2:0.292637 3:0.0520554 4:-0.49343 5:-0.736174 6:-0.866549 7:0.349317 8:0.337299 9:0.310162 10:0.931072 11:0.900056 12:0.960469 13:0.0113122 14:0.0358445 15:-0.249492 16:0.930397 17:0.896942 18:0.812095 
-0 1 1:0.116727 2:0.168155 3:0.450866 4:-0.578194 5:-0.772207 6:-0.826562 7:0.129902 8:0.136368 9:0.286227 10:0.660743 11:0.667602 12:0.722051 13:-0.123869 14:-0.142163 15:-0.395325 16:0.698749 17:0.684032 18:0.49784 
-0 1 1:0.158182 2:0.224635 3:0.449318 4:-0.568968 5:-0.762508 6:-0.815718 7:0.167833 8:0.157745 9:0.314025 10:0.697361 11:0.679955 12:0.55281 13:-0.135747 14:-0.102066 15:-0.418191 16:0.762915 17:0.761042 18:0.565875 
-0 1 1:0.149186 2:0.171421 3:0.320549 4:-0.57279 5:-0.771291 6:-0.828327 7:0.152982 8:0.138021 9:0.230569 10:0.693053 11:0.774284 12:0.575046 13:-0.108032 14:-0.0850547 15:-0.382622 16:0.744426 17:0.778029 18:0.602592 
-0 1 1:0.0764869 2:0.127268 3:0.213944 4:-0.590245 5:-0.778252 6:-0.846174 7:0.0880691 8:0.0967669 9:0.165232 10:0.639203 11:0.682201 12:0.677579 13:-0.135747 14:-0.105103 15:-0.329776 16:0.668298 17:0.719139 18:0.632829 
-0 1 1:0.120352 2:0.195605 3:0.330369 4:-0.580346 5:-0.76762 6:-0.82498 7:0.138583 8:0.133921 9:0.269211 10:0.701669 11:0.701291 12:0.630636 13:-0.118778 14:-0.0741191 15:-0.422256 16:0.702012 17:0.757644 18:0.658747 
-0 1 1:0.0279585 2:0.0222228 3:0.0638688 4:-0.613205 5:-0.787912 6:-0.844615 7:0.0495013 8:0.0289189 9:0.0622385 10:0.662897 11:0.713644 12:0.524398 13:-0.142534 14:-0.104496 15:-0.439024 16:0.663948 17:0.779162 18:0.642549 
-0 1 1:0.0616564 2:0.0895098 3:0.096401 4:-0.605531 5:-0.784269 6:-0.838666 7:0.0678719 8:0.0430741 9:0.0792807 10:0.674744 11:0.751825 12:0.541692 13:-0.136878 14:-0.109964 15:-0.405488 16:0.723763 17:0.787089 18:0.670626 
-0 1 1:0.344358 2:0.327306 3:0.103282 4:-0.491181 5:-0.733241 6:-0.8569 7:0.359404 8:0.312722 9:0.355625 10:0.920302 11:0.910163 12:0.81223 13:0.0152715 14:0.0425273 15:-0.30437 16:0.923872 17:0.942242 18:0.826134 
-0 1 1:0.343127 2:0.306355 3:0.0662268 4:-0.496216 5:-0.740432 6:-0.855497 7:0.349652 8:0.337804 9:0.351742 10:0.955843 11:0.924761 12:0.857937 13:0.0248869 14:0.0164034 15:-0.295732 16:0.998912 17:0.939977 18:0.87689 
-0 1 1:0.341853 2:0.282826 3:0.00487757 4:-0.495789 5:-0.743427 6:-0.870922 7:0.336501 8:0.317401 9:0.330219 10:0.95692 11:0.942729 12:0.806053 13:0.0186652 14:0.0309842 15:-0.213923 16:0.963023 17:0.953567 18:0.778618 
-0 1 1:0.283829 2:0.23477 3:0.0828399 4:-0.508896 5:-0.744264 6:-0.858193 7:0.292287 8:0.269571 9:0.293365 10:0.907377 11:0.886581 12:0.781347 13:-0.0192308 14:0.0431349 15:-0.339939 16:0.88037 17:0.94111 18:0.741901 
-0 1 1:0.165232 2:0.232146 3:0.530052 4:-0.564751 5:-0.765554 6:-0.823931 7:0.180924 8:0.176709 9:0.298364 10:0.719978 11:0.73498 12:0.478691 13:-0.134615 14:-0.112394 15:-0.433435 16:0.712887 17:0.755379 18:0.536717 
-0 1 1:0.168911 2:0.252616 3:0.451701 4:-0.564515 5:-0.76536 6:-0.829057 7:0.184974 8:0.175172 9:0.17224 10:0.729672 11:0.782145 12:0.544163 13:-0.100113 14:-0.0814095 15:-0.384146 16:0.76944 17:0.8188 18:0.695464 
-0 1 1:0.136143 2:0.199473 3:0.448146 4:-0.57353 5:-0.768277 6:-0.815413 7:0.150199 8:0.151785 9:0.223553 10:0.677975 11:0.759686 12:0.471279 13:-0.147059 14:-0.117861 15:-0.472561 16:0.694399 17:0.720272 18:0.62419 
-0 1 1:0.276231 2:0.276592 3:0.0720946 4:-0.516344 5:-0.744603 6:-0.861038 7:0.292545 8:0.283314 9:0.298957 10:0.857835 11:0.8484 12:0.713403 13:-0.0158371 14:-0.0072904 15:-0.243394 16:0.922784 17:0.902605 18:0.711663 
-0 1 1:0.276174 2:0.287865 3:0.164463 4:-0.512648 5:-0.745848 6:-0.85321 7:0.303048 8:0.300429 9:0.350401 10:0.892299 11:0.882089 12:0.694873 13:-0.00452489 14:-0.0133657 15:-0.269817 16:0.877107 17:0.857305 18:0.757019 
-0 1 1:0.126543 2:0.19989 3:0.465147 4:-0.575356 5:-0.762947 6:-0.81083 7:0.141229 8:0.13042 9:0.219489 10:0.660743 11:0.68557 12:0.743051 13:-0.139706 14:-0.122114 15:-0.419207 16:0.678086 17:0.718007 18:0.609071 
-0 1 1:0.247539 2:0.233054 3:0.208405 4:-0.524805 5:-0.745884 6:-0.84975 7:0.259191 8:0.259686 9:0.263746 10:0.783522 11:0.821449 12:0.635578 13:-0.0746606 14:-0.00789793 15:-0.319614 16:0.78249 17:0.772367 18:0.647948 
-0 1 1:0.149376 2:0.214669 3:0.468014 4:-0.566801 5:-0.764678 6:-0.817584 7:0.16396 8:0.166816 9:0.272627 10:0.700592 11:0.713644 12:0.503397 13:-0.111425 14:-0.107533 15:-0.42124 16:0.741164 17:0.711212 18:0.600432 
-0 1 1:0.254759 2:0.178837 3:-0.10405 4:-0.522634 5:-0.765915 6:-0.890866 7:0.259413 8:0.23488 9:0.251616 10:0.821217 11:0.889949 12:0.940704 13:-0.0401584 14:0.0224787 15:-0.304878 16:0.808592 17:0.915062 18:0.779698 
-0 1 1:0.248175 2:0.15412 3:-0.113661 4:-0.530524 5:-0.767148 6:-0.893788 7:0.273631 8:0.218064 9:0.20024 10:0.819063 11:0.912409 12:0.781347 13:-0.0576923 14:0.0443499 15:-0.23628 16:0.855356 17:0.920725 18:0.75378 
-0 1 1:0.255427 2:0.178169 3:-0.126803 4:-0.534467 5:-0.757069 6:-0.893636 7:0.26311 8:0.232069 9:0.254336 10:0.793215 11:0.93936 12:0.948116 13:-0.0446833 14:0.0139733 15:-0.213415 16:0.83578 17:0.908267 18:0.706263 
-0 1 1:0.268205 2:0.212133 3:-0.129744 4:-0.522409 5:-0.764271 6:-0.88842 7:0.263087 8:0.234152 9:0.181861 10:0.822294 11:0.882089 12:0.751699 13:-0.0209276 14:-0.0133657 15:-0.269817 16:0.840131 17:0.947905 18:0.892009 
-0 1 1:0.236365 2:0.145655 3:-0.143532 4:-0.529475 5:-0.769889 6:-0.895958 7:0.245945 8:0.212963 9:0.215188 10:0.823371 11:0.965188 12:0.918468 13:-0.0429864 14:-0.0145808 15:-0.275915 16:0.823817 17:0.898075 18:0.789417 
-0 1 1:0.0827444 2:0.0240825 3:-0.116777 4:-0.584499 5:-0.788786 6:-0.894439 7:0.104131 8:0.0538573 9:0.0581317 10:0.616586 11:0.73498 12:0.686226 13:-0.143665 14:-0.0400972 15:-0.337907 16:0.650897 17:0.764439 18:0.568035 
-0 1 1:0.0696432 2:0.0133607 3:-0.184189 4:-0.591912 5:-0.792788 6:-0.89505 7:0.0855481 8:0.0717838 9:0.0318516 10:0.581045 11:0.770915 12:0.777641 13:-0.156674 14:-0.0795869 15:-0.294715 16:0.615008 17:0.703284 18:0.671706 
-0 1 1:0.0907787 2:0.0576572 3:-0.159451 4:-0.586704 5:-0.790359 6:-0.881501 7:0.106833 8:0.0738841 9:0.0587315 10:0.606893 11:0.708029 12:0.599753 13:-0.13914 14:-0.0522479 15:-0.272866 16:0.66286 17:0.711212 18:0.556156 
-0 1 1:0.0925683 2:0.0605362 3:-0.144533 4:-0.584244 5:-0.790549 6:-0.887404 7:0.107756 8:0.077476 9:0.0922592 10:0.654281 11:0.657496 12:0.642989 13:-0.143665 14:-0.0498177 15:-0.269817 16:0.64981 17:0.722537 18:0.590713 
-0 1 1:0.0924274 2:0.0642054 3:-0.122661 4:-0.584222 5:-0.783673 6:-0.884497 7:0.112015 8:0.0832382 9:0.0596978 10:0.628433 11:0.658619 12:0.754169 13:-0.140271 14:-0.0328068 15:-0.310976 16:0.642197 17:0.775764 18:0.542117 
-0 1 1:0.0606744 2:0.0214523 3:-0.192333 4:-0.596891 5:-0.796389 6:-0.889757 7:0.0815159 8:0.0353778 9:0.0152983 10:0.61874 11:0.670971 12:0.81223 13:-0.148756 14:-0.0692588 15:-0.346037 16:0.665035 17:0.702152 18:0.595032 
-0 1 1:-0.0439534 2:-0.0896298 3:-0.265124 4:-0.631634 5:-0.813585 6:-0.899475 7:-0.00581382 8:-0.0645432 9:-0.0190318 10:0.545504 11:0.649635 12:0.618283 13:-0.181561 14:-0.0528554 15:-0.25813 16:0.585644 17:0.657984 18:0.574514 
-1 -1 1:-0.986089 2:-0.93189 3:-0.291646 4:-0.996565 5:-0.996891 6:-0.997316 7:-0.989532 8:-0.987798 9:-0.975717 10:-0.977383 11:-0.840539 12:-0.906115 13:-1 14:-0.900365 15:-0.836382 16:-1 17:-0.84145 18:-0.598272 
-1 -1 1:-0.990576 2:-0.967735 3:-0.681635 4:-0.997072 5:-0.998835 6:-0.998691 7:-0.990832 8:-0.99126 9:-0.985528 10:-0.98923 11:-0.90904 12:-0.920939 13:-1 14:-0.936209 15:-0.944614 16:-1 17:-0.866365 18:-0.687905 
-1 -1 1:-0.991114 2:-0.970524 3:-0.704247 4:-0.997198 5:-0.998945 6:-0.998836 7:-0.991538 8:-0.991453 9:-0.98701 10:-0.992461 11:-0.911286 12:-0.92588 13:-1 14:-0.941069 15:-0.952236 16:-1 17:-0.86863 18:-0.730022 
-1 -1 1:-0.985564 2:-0.933156 3:-0.256145 4:-0.996062 5:-0.997054 6:-0.997609 7:-0.988112 8:-0.987618 9:-0.977521 10:-0.983845 11:-0.852892 12:-0.913527 13:-1 14:-0.889429 15:-0.831809 16:-1 17:-0.839185 18:-0.587473 
-1 -1 1:-0.986681 2:-0.938478 3:-0.269099 4:-0.996375 5:-0.997094 6:-0.997733 7:-0.989186 8:-0.987091 9:-0.979608 10:-0.981691 11:-0.840539 12:-0.918468 13:-1 14:-0.894897 15:-0.837907 16:-1 17:-0.847112 18:-0.61987 
-1 -1 1:-0.990051 2:-0.961446 3:-0.688806 4:-0.99703 5:-0.998608 6:-0.998882 7:-0.990852 8:-0.9897 9:-0.984502 10:-0.994615 11:-0.916901 12:-0.920939 13:-1 14:-0.94836 15:-0.926829 16:-1 17:-0.87316 18:-0.711663 
-1 -1 1:-0.984554 2:-0.924531 3:-0.3456 4:-0.99574 5:-0.996478 6:-0.997486 7:-0.987574 8:-0.985275 9:-0.977414 10:-0.977383 11:-0.842785 12:-0.903644 13:-1 14:-0.894289 15:-0.813516 16:-1 17:-0.825595 18:-0.561555 
-1 -1 1:-0.987195 2:-0.928556 3:-0.34615 4:-0.996745 5:-0.997135 6:-0.997947 7:-0.990218 8:-0.988049 9:-0.980482 10:-0.981691 11:-0.857383 12:-0.913527 13:-1 14:-0.897327 15:-0.828252 16:-1 17:-0.84145 18:-0.597192 
-1 -1 1:-0.990313 2:-0.966934 3:-0.68805 4:-0.99694 5:-0.99846 6:-0.998922 7:-0.989881 8:-0.990455 9:-0.985534 10:-0.995692 11:-0.916901 12:-0.924645 13:-1 14:-0.94836 15:-0.931911 16:-1 17:-0.879955 18:-0.735421 
-1 -1 1:-0.99055 2:-0.958176 3:-0.679126 4:-0.997137 5:-0.998521 6:-0.998804 7:-0.990964 8:-0.989612 9:-0.986399 10:-0.991384 11:-0.924761 12:-0.927116 13:-1 14:-0.952005 15:-0.939024 16:-1 17:-0.87769 18:-0.712743 
-1 -1 1:-0.992115 2:-0.965818 3:-0.692735 4:-0.997474 5:-0.999013 6:-0.998903 7:-0.992585 8:-0.991609 9:-0.988784 10:-0.992461 11:-0.923638 12:-0.930821 13:-1 14:-0.941069 15:-0.949187 16:-1 17:-0.881087 18:-0.698704 
-1 -1 1:-0.991606 2:-0.966643 3:-0.728045 4:-0.997032 5:-0.999107 6:-0.999324 7:-0.991319 8:-0.99121 9:-0.989173 10:-0.985999 11:-0.911286 12:-0.922174 13:-1 14:-0.932564 15:-0.919715 16:-1 17:-0.867497 18:-0.685745 
-1 -1 1:-0.992766 2:-0.974267 3:-0.78028 4:-0.997046 5:-0.999319 6:-0.999617 7:-0.992364 8:-0.993179 9:-0.992458 10:-0.98923 11:-0.916901 12:-0.928351 13:-1 14:-0.932564 15:-0.907012 16:-1 17:-0.8641 18:-0.61879 
-0 -0.19023121972574319 1:-0.990801 2:-0.973403 3:-0.781663 4:-0.996613 5:-0.999082 6:-0.999545 7:-0.990956 8:-0.990903 9:-0.991582 10:-0.981691 11:-0.898933 12:-0.918468 13:-0.998303 14:-0.919806 15:-0.896341 16:-1 17:-0.85051 18:-0.559395 
-1 -1 1:-0.992446 2:-0.974788 3:-0.783855 4:-0.997037 5:-0.999269 6:-0.999669 7:-0.993234 8:-0.992546 9:-0.992441 10:-0.983845 11:-0.911286 12:-0.924645 13:-1 14:-0.927704 15:-0.91311 16:-1 17:-0.8641 18:-0.614471 
-1 -1 1:-0.992109 2:-0.966484 3:-0.775079 4:-0.996965 5:-0.999422 6:-0.999596 7:-0.992072 8:-0.992062 9:-0.991465 10:-0.983845 11:-0.927007 12:-0.930821 13:-1 14:-0.924058 15:-0.909553 16:-1 17:-0.86863 18:-0.640389 
-1 -1 1:-0.985988 2:-0.91979 3:-0.438971 4:-0.995596 5:-0.997248 6:-0.996988 7:-0.987429 8:-0.984338 9:-0.970493 10:-1 11:-0.961819 12:-0.930821 13:-1 14:-0.975699 15:-0.950203 16:-1 17:-0.944507 18:-0.807775 
-1 -1 1:-0.985099 2:-0.925262 3:-0.446038 4:-0.99555 5:-0.997291 6:-0.997424 7:-0.987129 8:-0.983341 9:-0.975898 10:-1 11:-0.959573 12:-0.943175 13:-1 14:-0.975699 15:-0.956301 16:-1 17:-0.94111 18:-0.800216 
-1 -1 1:-0.986471 2:-0.924597 3:-0.427158 4:-0.995685 5:-0.997397 6:-0.99763 7:-0.987103 8:-0.985794 9:-0.972939 10:-1 11:-0.967434 12:-0.938233 13:-1 14:-0.976914 15:-0.960874 16:-1 17:-0.951302 18:-0.820734 
-1 -1 1:-0.987729 2:-0.975097 3:-0.956224 4:-0.995968 5:-0.997368 6:-0.997755 7:-0.98714 8:-0.985689 9:-0.971676 10:-1 11:-0.905671 12:-0.818406 13:-1 14:-0.981166 15:-0.969004 16:-1 17:-0.946772 18:-0.87905 
-1 -1 1:-0.99031 2:-0.922869 3:-0.666323 4:-0.996208 5:-0.980725 6:-0.953158 7:-0.990301 8:-0.950754 9:-0.84754 10:-0.921379 11:-0.731611 12:-0.683755 13:-0.954751 14:-0.835358 15:-0.82063 16:-1 17:-0.807475 18:-0.683585 
-1 -0 1:-0.989036 2:-0.951653 3:-0.798565 4:-0.996424 5:-0.989517 6:-0.978592 7:-0.989727 8:-0.971506 9:-0.912669 10:-0.951535 11:-0.683324 12:-0.621989 13:-0.971719 14:-0.818955 15:-0.77998 16:-1 17:-0.780294 18:-0.612311 
-1 -0 1:-0.989003 2:-0.97152 3:-0.882436 4:-0.996052 5:-0.993635 6:-0.98563 7:-0.988625 8:-0.983389 9:-0.94526 10:-0.982768 11:-0.687816 12:-0.576282 13:-0.988688 14:-0.81774 15:-0.78252 16:-1 17:-0.784824 18:-0.590713 
-1 -1 1:-0.985522 2:-0.918633 3:-0.395364 4:-0.995676 5:-0.997217 6:-0.997351 7:-0.988152 8:-0.9833 9:-0.967886 10:-1 11:-0.961819 12:-0.934527 13:-1 14:-0.978129 15:-0.950203 16:-1 17:-0.942242 18:-0.813175 
-1 -1 1:-0.986501 2:-0.934706 3:-0.452487 4:-0.996201 5:-0.99738 6:-0.997203 7:-0.988037 8:-0.987206 9:-0.974353 10:-1 11:-0.960696 12:-0.940704 13:-1 14:-0.981166 15:-0.969512 16:-1 17:-0.937712 18:-0.813175 
-1 -1 1:-0.98561 2:-0.876762 3:-0.00353622 4:-0.996084 5:-0.993613 6:-0.98992 7:-0.986958 8:-0.985376 9:-0.956583 10:-0.987076 11:-0.923638 12:-0.922174 13:-1 14:-0.929526 15:-0.910061 16:-1 17:-0.84598 18:-0.75162 
-1 -1 1:-0.98551 2:-0.870573 3:-0.0703511 4:-0.995653 5:-0.993723 6:-0.989325 7:-0.987319 8:-0.984099 9:-0.954287 10:-0.982768 11:-0.919147 12:-0.920939 13:-1 14:-0.926488 15:-0.90498 16:-1 17:-0.840317 18:-0.7473 
-1 -1 1:-0.986887 2:-0.870043 3:-0.106921 4:-0.996387 5:-0.993942 6:-0.98978 7:-0.989016 8:-0.985003 9:-0.959345 10:-0.98923 11:-0.931499 12:-0.92341 13:-1 14:-0.934386 15:-0.92124 16:-1 17:-0.85504 18:-0.779698 
-1 -1 1:-0.985817 2:-0.872946 3:-0.0670543 4:-0.996188 5:-0.993532 6:-0.990091 7:-0.98887 8:-0.984105 9:-0.95691 10:-0.985999 11:-0.923638 12:-0.922174 13:-1 14:-0.928311 15:-0.914126 16:-1 17:-0.85051 18:-0.761339 
-1 -1 1:-0.986275 2:-0.868163 3:-0.0849871 4:-0.99639 5:-0.993987 6:-0.990135 7:-0.989313 8:-0.9849 9:-0.963689 10:-0.985999 11:-0.927007 12:-0.918468 13:-1 14:-0.928311 15:-0.91311 16:-1 17:-0.84598 18:-0.714903 
-1 -1 1:-0.986035 2:-0.868985 3:-0.116001 4:-0.996111 5:-0.993482 6:-0.989376 7:-0.987928 8:-0.985971 9:-0.959142 10:-0.988153 11:-0.92813 12:-0.922174 13:-1 14:-0.932564 15:-0.917175 16:-1 17:-0.838052 18:-0.742981 
-1 -1 1:-0.986716 2:-0.862701 3:-0.0938773 4:-0.996271 5:-0.993971 6:-0.989546 7:-0.989054 8:-0.984177 9:-0.959553 10:-0.985999 11:-0.930376 12:-0.92588 13:-1 14:-0.931349 15:-0.917683 16:-1 17:-0.849377 18:-0.741901 
-1 -1 1:-0.98638 2:-0.866257 3:-0.0907856 4:-0.996334 5:-0.993536 6:-0.98907 7:-0.98875 8:-0.985361 9:-0.954785 10:-0.987076 11:-0.932622 12:-0.92341 13:-1 14:-0.934386 15:-0.918699 16:-1 17:-0.853907 18:-0.766739 
-1 -0 1:-0.988437 2:-0.956797 3:-0.80711 4:-0.995775 5:-0.982061 6:-0.939828 7:-0.989911 8:-0.983535 9:-0.932767 10:-0.937534 11:-0.747333 12:-0.625695 13:-0.944005 14:-0.724787 15:-0.644309 16:-1 17:-0.701019 18:-0.546436 
-1 -0 1:-0.964799 2:-0.88741 3:-0.736965 4:-0.996215 5:-0.979225 6:-0.930394 7:-0.991853 8:-0.988755 9:-0.950483 10:-0.97846 11:-0.905671 12:-0.629401 13:-0.930995 14:-0.746659 15:-0.678354 16:-1 17:-0.676104 18:-0.406048 
-1 -1 1:-0.984967 2:-0.897685 3:-0.0860555 4:-0.995742 5:-0.993288 6:-0.987808 7:-0.987509 8:-0.985278 9:-0.955346 10:-0.997846 11:-0.924761 12:-0.924645 13:-1 14:-0.936817 15:-0.913618 16:-1 17:-0.878822 18:-0.758099 
-0 -1 1:-0.99179 2:-0.986383 3:-0.943681 4:-0.997052 5:-0.998749 6:-0.998239 7:-0.99336 8:-0.992377 9:-0.988817 10:-0.985999 11:-0.79562 12:-0.838172 13:-0.997172 14:-0.930134 15:-0.935467 16:-1 17:-0.839185 18:-0.664147 
-0 -1 1:-0.991725 2:-0.986856 3:-0.943739 4:-0.997017 5:-0.998552 6:-0.99819 7:-0.993731 8:-0.991863 9:-0.989137 10:-0.983845 11:-0.794497 12:-0.844348 13:-0.996606 14:-0.930134 15:-0.924797 16:-1 17:-0.833522 18:-0.649028 
-0 -1 1:-0.992315 2:-0.987095 3:-0.942233 4:-0.997206 5:-0.998712 6:-0.998339 7:-0.993824 8:-0.992415 9:-0.988884 10:-0.981691 11:-0.793375 12:-0.844348 13:-0.996606 14:-0.928311 15:-0.939533 16:-1 17:-0.830125 18:-0.653348 
-0.48739498008301307 -1 1:-0.991472 2:-0.986038 3:-0.942581 4:-0.997121 5:-0.99871 6:-0.998206 7:-0.993913 8:-0.992261 9:-0.988641 10:-0.98923 11:-0.807973 12:-0.848054 13:-0.996041 14:-0.925881 15:-0.931402 16:-1 17:-0.84598 18:-0.657667 
-0 -1 1:-0.992317 2:-0.987204 3:-0.945255 4:-0.997028 5:-0.99874 6:-0.998246 7:-0.993447 8:-0.991655 9:-0.989192 10:-0.983845 11:-0.801235 12:-0.835701 13:-0.997172 14:-0.922236 15:-0.932927 16:-1 17:-0.834655 18:-0.62851 
-0 -1 1:-0.991716 2:-0.98661 3:-0.941367 4:-0.996801 5:-0.998629 6:-0.998332 7:-0.99368 8:-0.991081 9:-0.987656 10:-0.980614 11:-0.78776 12:-0.831995 13:-0.996041 14:-0.917375 15:-0.92937 16:-0.996737 17:-0.819932 18:-0.633909 
-0 -1 1:-0.991425 2:-0.986153 3:-0.939446 4:-0.996892 5:-0.998613 6:-0.998109 7:-0.99365 8:-0.991573 9:-0.987268 10:-0.983845 11:-0.788883 12:-0.839407 13:-0.995475 14:-0.925881 15:-0.930894 16:-1 17:-0.82786 18:-0.645788 
-1 -1 1:-0.991955 2:-0.991992 3:-0.987263 4:-0.996986 5:-0.999088 6:-0.999679 7:-0.990374 8:-0.992649 9:-0.989114 10:-1 11:-0.907917 12:-0.861643 13:-1 14:-0.972053 15:-0.931402 16:-1 17:-0.928652 18:-0.806695 
