svm_type nu_svr
kernel_type rbf
gamma 0.055555555555555552
nr_class 2
total_sv 1004
rho -51.485272984251807
probA 16.346247763311261
SV
1 1:-0.715241 2:-0.114147 3:0.425563 4:-0.999797 5:-0.998113 6:-0.998206 7:-0.945806 8:-0.827654 9:-0.81442 10:-0.878229 11:-0.55902 12:-0.818713 13:-0.798083 14:-0.792946 15:-0.852324 16:-0.474812 17:-0.583333 18:-0.266983 
1 1:-0.920159 2:-0.630763 3:-0.369252 4:-0.999631 5:-0.999718 6:-0.999181 7:-0.98806 8:-0.933678 9:-0.91941 10:-0.99631 11:-0.946548 12:-0.891813 13:-0.567412 14:-0.683214 15:-0.927756 16:-0.717042 17:-0.981061 18:-0.813586 
1 1:-0.925322 2:-0.669611 3:-0.409947 4:-1 5:-0.999723 6:-0.999288 7:-0.98714 8:-0.950836 9:-0.927817 10:-0.99262 11:-0.933185 12:-0.891813 13:-0.858786 14:-0.700849 15:-0.938911 16:-0.717042 17:-0.969697 18:-0.813586 
1 1:-0.700395 2:-0.132058 3:0.48111 4:-0.999687 5:-0.998422 6:-0.998011 7:-0.947607 8:-0.819204 9:-0.848889 10:-0.937269 11:-0.599109 12:-0.833333 13:-0.838978 14:-0.866754 15:-0.772112 16:-0.539121 17:-0.613636 18:-0.263823 
1 1:-0.736034 2:-0.211872 3:0.465577 4:-0.999811 5:-0.998183 6:-0.998188 7:-0.950202 8:-0.822043 9:-0.854062 10:-0.896679 11:-0.554566 12:-0.839181 13:-0.812141 14:-0.811234 15:-0.810359 16:-0.517685 17:-0.575758 18:-0.251185 
1 1:-0.927733 2:-0.550306 3:-0.382228 4:-0.999745 5:-0.999426 6:-0.999323 7:-0.977066 8:-0.904282 9:-0.903616 10:-0.97417 11:-0.973274 12:-0.894737 13:-0.851757 14:-0.781842 15:-0.924568 16:-0.847803 17:-1 18:-0.829384 
1 1:-0.695549 2:-0.025587 3:0.311304 4:-0.999782 5:-0.998087 6:-0.99821 7:-0.951384 8:-0.797083 9:-0.84865 10:-0.892989 11:-0.572383 12:-0.809942 13:-0.817891 14:-0.833442 15:-0.773174 16:-0.442658 17:-0.55303 18:-0.229068 
1 1:-0.703903 2:-0.0624204 3:0.308655 4:-0.999716 5:-0.998305 6:-0.998206 7:-0.943683 8:-0.803408 9:-0.854754 10:-0.915129 11:-0.621381 12:-0.839181 13:-0.774441 14:-0.860222 15:-0.773705 16:-0.554126 17:-0.628788 18:-0.28594 
1 1:-0.927703 2:-0.61638 3:-0.376075 4:-0.999814 5:-0.999376 6:-0.999505 7:-0.980418 8:-0.929384 9:-0.914338 10:-0.97417 11:-0.946548 12:-0.891813 13:-0.723962 14:-0.72175 15:-0.921381 16:-0.832797 17:-1 18:-0.835703 
1 1:-0.922041 2:-0.493643 3:-0.358681 4:-0.999817 5:-0.999571 6:-0.999204 7:-0.980636 8:-0.915807 9:-0.9186 10:-0.97417 11:-0.96882 12:-0.900585 13:-0.826198 14:-0.830176 15:-0.900664 16:-0.843516 17:-1 18:-0.807267 
1 1:-0.928426 2:-0.591261 3:-0.387137 4:-0.999813 5:-0.999671 6:-0.999301 7:-0.983539 8:-0.93937 9:-0.941407 10:-0.97417 11:-0.959911 12:-0.897661 13:-0.848562 14:-0.701502 15:-0.901726 16:-0.798499 17:-0.973485 18:-0.759874 
1 1:-0.929978 2:-0.609427 3:-0.456077 4:-0.999884 5:-0.999879 6:-0.999687 7:-0.986495 8:-0.965454 9:-0.946105 10:-0.98893 11:-0.942094 12:-0.880117 13:-0.772524 14:-0.544089 15:-0.818858 16:-0.798499 17:-0.950758 18:-0.766193 
1 1:-0.953919 2:-0.707799 3:-0.562629 4:-0.999722 5:-0.999904 6:-0.999606 7:-0.993887 8:-0.991147 9:-0.977559 10:-0.98524 11:-0.977728 12:-0.915205 13:-0.792971 14:-0.205748 15:-0.687118 16:-0.759914 17:-0.909091 18:-0.721959 
1 1:-0.950026 2:-0.718946 3:-0.572372 4:-0.999798 5:-0.999952 6:-0.999989 7:-0.994407 8:-0.994954 9:-0.983631 10:-1 11:-0.982183 12:-0.912281 13:-0.832588 14:-0.532985 15:-0.791235 16:-0.77492 17:-0.878788 18:-0.699842 
1 1:-0.950414 2:-0.718732 3:-0.572228 4:-0.999603 5:-0.999872 6:-0.999955 7:-0.994731 8:-0.995582 9:-0.983846 10:-1 11:-0.977728 12:-0.903509 13:-0.767412 14:-0.335728 15:-0.776892 16:-0.783494 17:-0.882576 18:-0.687204 
1 1:-0.952171 2:-0.717418 3:-0.597749 4:-0.999797 5:-1 6:-0.999834 7:-0.996374 8:-0.992729 9:-0.982838 10:-1 11:-0.991091 12:-0.923977 13:-0.652396 14:-0.46179 15:-0.773705 16:-0.787781 17:-0.905303 18:-0.725118 
1 1:-0.943891 2:-0.602611 3:-0.551649 4:-0.999623 5:-0.999991 6:-0.999706 7:-0.995264 8:-0.983557 9:-0.971942 10:-1 11:-1 12:-0.923977 13:-0.676038 14:-0.331156 15:-0.733333 16:-0.777063 17:-0.965909 18:-0.781991 
1 1:-0.850395 2:0.053867 3:-0.332732 4:-0.998908 5:-0.981487 6:-0.952956 7:-0.832274 8:0.991557 9:0.752756 10:-0.306273 11:-0.131403 12:-0.318713 13:-0.955911 14:-0.932724 15:-0.887915 16:-0.609861 17:-0.560606 18:-0.241706 
1 1:-0.869752 2:-0.402909 3:-0.603164 4:-0.999459 5:-0.990498 6:-0.979054 7:-0.916944 8:-0.0674615 9:-0.0543638 10:-0.416974 11:0.0155902 12:-0.216374 13:-0.894569 14:-0.873285 15:-0.823108 16:-0.414791 17:-0.507576 18:-0.169036 
1 1:-0.95004 2:-0.702419 3:-0.781971 4:-0.999672 5:-0.995037 6:-0.986361 7:-0.957095 8:-0.621902 9:-0.458388 10:-0.166052 11:0.0423163 12:-0.152047 13:-0.831949 14:-0.832136 15:-0.832669 16:-0.326902 17:-0.420455 18:-0.172196 
1 1:-0.746851 2:0.695616 3:0.99708 4:-0.999682 5:-0.995086 6:-0.989997 7:-0.953536 8:-0.762992 9:-0.582168 10:-0.933579 11:-0.848552 12:-0.856725 13:-0.909904 14:-0.983671 15:-0.952722 16:-0.749196 17:-0.727273 18:-0.693523 
1 1:-0.761407 2:0.780925 3:0.861567 4:-0.999722 5:-0.995262 6:-0.990239 7:-0.957464 8:-0.754126 9:-0.572497 10:-0.926199 11:-0.853007 12:-0.853801 13:-0.890096 14:-1 15:-0.973971 16:-0.72776 17:-0.738636 18:-0.696682 
1 1:-0.757798 2:0.792468 3:0.78663 4:-0.999709 5:-0.994829 6:-0.99044 7:-0.957585 8:-0.719567 9:-0.601018 10:-0.933579 11:-0.86637 12:-0.853801 13:-0.902236 14:-0.97322 15:-0.966534 16:-0.725616 17:-0.765152 18:-0.677725 
1 1:-0.739085 2:0.742554 3:0.873717 4:-0.999622 5:-0.994933 6:-0.990571 7:-0.955047 8:-0.734886 9:-0.594799 10:-0.933579 11:-0.857461 12:-0.845029 13:-0.807668 14:-0.98563 15:-0.967596 16:-0.738478 17:-0.742424 18:-0.684044 
1 1:-0.761598 2:0.804534 3:0.83286 4:-0.999672 5:-0.995237 6:-0.990519 7:-0.952185 8:-0.756379 9:-0.679962 10:-0.933579 11:-0.86637 12:-0.850877 13:-0.871565 14:-0.989549 15:-0.964409 16:-0.742765 17:-0.715909 18:-0.630332 
1 1:-0.766083 2:0.818984 3:0.777477 4:-0.999648 5:-0.995113 6:-0.989737 7:-0.956177 8:-0.755495 9:-0.616317 10:-0.929889 11:-0.86637 12:-0.856725 13:-0.832588 14:-0.999347 15:-0.954847 16:-0.736334 17:-0.715909 18:-0.665087 
1 1:-0.769797 2:0.890419 3:0.820544 4:-0.999757 5:-0.994952 6:-0.989764 7:-0.958443 8:-0.738723 9:-0.603496 10:-0.926199 11:-0.875278 12:-0.859649 13:-0.89393 14:-0.990202 15:-0.960159 16:-0.72776 17:-0.753788 18:-0.658768 
1 1:-0.760761 2:0.872945 3:0.82861 4:-0.999751 5:-0.995346 6:-0.989479 7:-0.956567 8:-0.750982 9:-0.602431 10:-0.933579 11:-0.875278 12:-0.856725 13:-0.894569 14:-0.992162 15:-0.96494 16:-0.734191 17:-0.731061 18:-0.677725 
1 1:-0.846586 2:-0.478824 3:-0.61973 4:-0.9992 5:-0.982906 6:-0.939529 7:-0.938469 8:-0.733539 9:-0.290643 10:-0.509225 11:-0.25167 12:-0.210526 13:-0.852396 14:-0.830176 15:-0.729084 16:0.352626 17:0.0909091 18:0.0489731 
1 1:1 2:0.575967 3:-0.474062 4:-0.999065 5:-0.980124 6:-0.929951 7:-0.912662 8:-0.83293 9:-0.495368 10:-1 11:-0.746102 12:-0.195906 13:-0.935463 14:-0.865447 15:-0.756175 16:0.0289389 17:0.435606 18:0.491311 
1 1:-0.732015 2:0.373766 3:0.830529 4:-0.999745 5:-0.994785 6:-0.988587 7:-0.956761 8:-0.766766 9:-0.589754 10:-0.95572 11:-0.853007 12:-0.862573 13:-0.913738 14:-0.995428 15:-0.978752 16:-0.747053 17:-0.776515 18:-0.687204 
1 1:-0.988235 2:-0.895694 3:-0.895394 4:-0.999658 5:-0.999353 6:-0.998515 7:-0.989177 8:-0.969674 9:-0.940196 10:-0.490775 11:-0.585746 12:-0.80117 13:-0.755272 14:-0.774004 15:-0.939973 16:-0.665595 17:-0.791667 18:-0.734597 
1 1:-0.988281 2:-0.897717 3:-0.894448 4:-0.999626 5:-0.999187 6:-0.998472 7:-0.99104 8:-0.965491 9:-0.941125 10:-0.490775 11:-0.603563 12:-0.809942 13:-0.723323 14:-0.753103 15:-0.900133 16:-0.616292 17:-0.80303 18:-0.71248 
0.19090134175254062 1:-0.987973 2:-0.890452 3:-0.89156 4:-0.999551 5:-0.99929 6:-0.998498 7:-0.990764 8:-0.974228 9:-0.936345 10:-0.523985 11:-0.616927 12:-0.809942 13:-0.771885 14:-0.785761 15:-0.915538 16:-0.599143 17:-0.746212 18:-0.718799 
1 1:-0.990383 2:-0.910239 3:-0.898115 4:-0.999756 5:-0.999189 6:-0.998316 7:-0.991183 8:-0.974358 9:-0.946359 10:-0.479705 11:-0.599109 12:-0.792398 13:-0.766773 14:-0.68452 15:-0.865073 16:-0.609861 17:-0.776515 18:-0.693523 
1 1:-0.988657 2:-0.897929 3:-0.890993 4:-0.999673 5:-0.999321 6:-0.99841 7:-0.990085 8:-0.968921 9:-0.939372 10:-0.527675 11:-0.634744 12:-0.821637 13:-0.80639 14:-0.704768 15:-0.915538 16:-0.674169 17:-0.799242 18:-0.737757 
1 1:-0.987375 2:-0.949432 3:-0.936231 4:-0.99978 5:-0.999204 6:-0.996231 7:-0.982176 8:-0.967584 9:-0.946109 10:0.0701107 11:0.216036 12:-0.374269 13:-0.815974 14:-0.670803 15:-0.847012 16:-0.0139335 17:-0.291667 18:0.380727 
1 1:-0.897455 2:-0.352113 3:-0.565585 4:-0.999406 5:-0.991295 6:-0.967153 7:-0.909551 8:-0.573169 9:-0.328798 10:0.202952 11:0.541203 12:0.447368 13:-0.901597 14:-0.818419 15:-0.783267 16:-0.0718114 17:0.121212 18:0.519747 
1 1:-0.89404 2:-0.327274 3:-0.562317 4:-0.999339 5:-0.990936 6:-0.966156 7:-0.913439 8:-0.562677 9:-0.306665 10:0.191882 11:0.55902 12:0.48538 13:-0.865815 14:-0.819726 15:-0.788048 16:-0.0246517 17:0.0681818 18:0.595577 
1 1:-0.978137 2:-0.893808 3:-0.923126 4:-0.999801 5:-0.998856 6:-0.995015 7:-0.979353 8:-0.966907 9:-0.920564 10:-0.0405904 11:-0.0244989 12:-0.254386 13:-0.723323 14:-0.733508 15:-0.828951 16:0.127546 17:-0.0681818 18:0.380727 
1 1:-0.978251 2:-0.868581 3:-0.926921 4:-0.999719 5:-0.998617 6:-0.994864 7:-0.980122 8:-0.961673 9:-0.919493 10:-0.0110701 11:-0.229399 12:-0.254386 13:-0.651118 14:-0.670803 15:-0.835325 16:0.187567 17:-0.109848 18:0.2891 
1 1:-0.973727 2:-0.862214 3:-0.908823 4:-0.999815 5:-0.998492 6:-0.993993 7:-0.972865 8:-0.954897 9:-0.912684 10:-0.0295203 11:-0.0824053 12:-0.324561 13:-0.633866 14:-0.751143 15:-0.82842 16:-0.0675241 17:-0.0871212 18:0.377567 
1 1:-0.978292 2:-0.872148 3:-0.925695 4:-0.999698 5:-0.99869 6:-0.995078 7:-0.977228 8:-0.967978 9:-0.912626 10:-0.0701107 11:-0.211581 12:-0.251462 13:-0.771246 14:-0.640758 15:-0.815139 16:0.0096463 17:-0.109848 18:0.115324 
1 1:-0.978614 2:-0.868336 3:-0.921849 4:-0.999785 5:-0.998822 6:-0.994705 7:-0.978721 8:-0.955867 9:-0.914062 10:0.00738007 11:-0.242762 12:-0.28655 13:-0.697125 14:-0.69889 15:-0.831607 16:0.056806 17:-0.284091 18:0.210111 
1 1:-0.881874 2:-0.370908 3:-0.640642 4:-0.999353 5:-0.991408 6:-0.969706 7:-0.912012 8:-0.585598 9:-0.423392 10:0.00369004 11:0.505568 12:0.508772 13:-0.879233 14:-0.835402 15:-0.819389 16:-0.0932476 17:-0.030303 18:0.535545 
1 1:-0.988603 2:-0.960013 3:-0.947986 4:-0.999755 5:-0.998552 6:-0.995062 7:-0.971603 8:-0.961586 9:-0.93308 10:0.143911 11:0.327394 12:-0.187135 13:-0.752716 14:-0.640758 15:-0.853918 16:-0.335477 17:-0.386364 18:0.244866 
1 1:-0.992673 2:-0.981148 3:-0.982125 4:-0.999901 5:-0.999946 6:-1 7:-0.997293 8:-0.993573 9:-0.953704 10:-0.915129 11:-0.946548 12:-0.950292 13:-0.820447 14:-0.719791 15:-0.791235 16:-0.714898 17:-0.988636 18:-0.971564 
1 1:-0.674974 2:1 3:0.304195 4:-0.998467 5:-0.976764 6:-0.92037 7:-0.823705 8:0.0429322 9:0.930097 10:0.0405904 11:0.808463 12:0.950292 13:-0.879872 14:-0.838014 15:-0.825232 16:-0.0310825 17:0.359848 18:0.693523 
1 1:-0.695372 2:0.941487 3:0.241439 4:-0.998581 5:-0.977605 6:-0.922855 7:-0.837613 8:-0.0246162 9:0.861025 10:0.0701107 11:0.804009 12:0.97076 13:-0.882428 14:-0.847812 15:-0.82417 16:-0.00535906 17:0.412879 18:0.703002 
1 1:-0.699699 2:0.892062 3:0.218203 4:-0.998613 5:-0.977218 6:-0.921926 7:-0.834942 8:-0.0108137 9:0.890623 10:0.0590406 11:0.844098 12:0.994152 13:-0.923962 14:-0.840627 15:-0.819389 16:-0.0353698 17:0.409091 18:0.734597 
1 1:-0.698764 2:0.928267 3:0.247313 4:-0.998574 5:-0.977619 6:-0.921265 7:-0.836838 8:0.0485516 9:0.927847 10:0.103321 11:0.857461 12:0.959064 13:-0.867093 14:-0.838014 15:-0.825764 16:0.00750268 17:0.386364 18:0.725118 
1 1:-0.981874 2:-0.893373 3:-0.87228 4:-0.999715 5:-0.996143 6:-0.985325 7:-0.974321 8:-0.939078 9:-0.84232 10:0.889299 11:0.714922 12:0.00292398 13:-0.720767 14:-0.858916 15:-0.902258 16:0.798499 17:0.348485 18:0.57346 
1 1:-0.710877 2:0.716067 3:0.113968 4:-0.998766 5:-0.979791 6:-0.930577 7:-0.846537 8:-0.0779934 9:0.700196 10:0.0332103 11:0.821826 12:0.967836 13:-0.890735 14:-0.831483 15:-0.820983 16:-0.0182208 17:0.299242 18:0.690363 
1 1:-0.704364 2:0.927333 3:0.210217 4:-0.998591 5:-0.978421 6:-0.924936 7:-0.84307 8:-0.035523 9:0.824184 10:0.099631 11:0.808463 12:0.915205 13:-0.87476 14:-0.834095 15:-0.813546 16:-0.00321543 17:0.416667 18:0.823065 
1 1:-0.782908 2:0.372402 3:-0.118926 4:-0.998879 5:-0.983836 6:-0.94347 7:-0.876197 8:-0.270318 9:0.384896 10:0.121771 11:0.821826 12:0.950292 13:-0.844728 14:-0.821685 15:-0.814077 16:0.0696677 17:0.340909 18:0.744076 
1 1:-0.822122 2:0.128036 3:-0.286338 4:-0.999155 5:-0.9877 6:-0.956032 7:-0.895034 8:-0.451935 9:0.0702784 10:0.158672 11:0.790646 12:0.97076 13:-0.87476 14:-0.813194 15:-0.804515 16:0.0825295 17:0.356061 18:0.781991 
1 1:-0.736936 2:0.59091 3:-0.000847971 4:-0.998761 5:-0.982083 6:-0.940041 7:-0.866034 8:-0.192301 9:0.505495 10:0.0479705 11:0.826281 12:0.98538 13:-0.856869 14:-0.822992 15:-0.811952 16:0.0503751 17:0.375 18:0.791469 
1 1:-0.838267 2:-0.258878 3:-0.447786 4:-0.999083 5:-0.987925 6:-0.956374 7:-0.894786 8:-0.582132 9:-0.296312 10:-0.166052 11:0.331849 12:0.225146 13:-0.908626 14:-0.864141 15:-0.817264 16:-0.091104 17:0.102273 18:0.327014 
1 1:-0.78488 2:0.0778351 3:-0.414259 4:-0.999001 5:-0.98752 6:-0.955468 7:-0.866556 8:-0.400355 9:-0.194596 10:-0.210332 11:0.318486 12:0.274854 13:-0.894569 14:-0.847159 15:-0.82417 16:-0.202572 17:0.0606061 18:0.43128 
1 1:-0.967416 2:-0.783507 3:-0.843696 4:-0.999494 5:-0.995767 6:-0.982644 7:-0.968498 8:-0.889882 9:-0.803456 10:0.372694 11:0.216036 12:-0.0584795 13:-0.719489 14:-0.836055 15:-0.890571 16:0.586281 17:-0.00757576 18:0.50079 
1 1:-0.965988 2:-0.789785 3:-0.827154 4:-0.999706 5:-0.995592 6:-0.982569 7:-0.967533 8:-0.884264 9:-0.744771 10:0.387454 11:0.296214 12:-0.0497076 13:-0.77508 14:-0.867407 15:-0.888977 16:0.491961 17:0.0568182 18:0.317536 
1 1:-0.973722 2:-0.831238 3:-0.861412 4:-0.999694 5:-0.995918 6:-0.983658 7:-0.971263 8:-0.911006 9:-0.773976 10:0.439114 11:0.318486 12:-0.0204678 13:-0.727796 14:-0.822992 15:-0.881009 16:0.562701 17:0.185606 18:0.266983 
1 1:-0.934045 2:-0.64151 3:-0.709259 4:-0.999437 5:-0.99369 6:-0.97397 7:-0.950643 8:-0.800877 9:-0.575443 10:0.095941 11:0.358575 12:-0.0672515 13:-0.828754 14:-0.887002 15:-0.9251 16:0.339764 17:0.151515 18:0.304897 
1 1:-0.941731 2:-0.664158 3:-0.71958 4:-0.999512 5:-0.993438 6:-0.975268 7:-0.954307 8:-0.774169 9:-0.516981 10:0.236162 11:0.434298 12:-0.0233918 13:-0.836422 14:-0.887002 15:-0.910757 16:0.483387 17:0.0795455 18:0.127962 
1 1:-0.661885 2:0.936858 3:0.325505 4:-0.998585 5:-0.978191 6:-0.925053 7:-0.839893 8:0.0749615 9:0.805631 10:0.0516605 11:0.933185 12:0.938596 13:-0.911821 14:-0.82887 15:-0.827888 16:-0.00750268 17:0.359848 18:0.756714 
1 1:-0.352028 2:0.838146 3:0.0306813 4:-0.998916 5:-0.982241 6:-0.938511 7:-0.848662 8:-0.115285 9:0.414308 10:-0.498155 11:0.853007 12:0.871345 13:-0.883706 14:-0.836055 15:-0.82842 16:0.0182208 17:0.405303 18:0.772512 
1 1:-0.526725 2:0.736203 3:0.186341 4:-0.998522 5:-0.976884 6:-0.920448 7:-0.82967 8:0.0118884 9:0.706086 10:-0.409594 11:0.821826 12:0.923977 13:-0.901597 14:-0.84324 15:-0.843293 16:-0.056806 17:0.25 18:0.684044 
1 1:-0.970668 2:-0.764094 3:-0.803447 4:-0.999443 5:-0.996227 6:-0.984911 7:-0.967902 8:-0.908361 9:-0.772957 10:0.937269 11:0.608018 12:0.169591 13:-0.78722 14:-0.799477 15:-0.883134 16:0.78135 17:0.450758 18:0.507109 
1 1:-0.973361 2:-0.798944 3:-0.828399 4:-0.999596 5:-0.996161 6:-0.985683 7:-0.970724 8:-0.923578 9:-0.801336 10:0.99262 11:0.616927 12:0.172515 13:-0.762939 14:-0.757022 15:-0.882603 16:0.869239 17:0.712121 18:0.677725 
1 1:-0.966921 2:-0.795599 3:-0.802484 4:-0.99966 5:-0.995468 6:-0.984433 7:-0.969348 8:-0.910677 9:-0.772488 10:0.505535 11:0.683742 12:0.207602 13:-0.671565 14:-0.788374 15:-0.878353 16:0.877814 17:0.583333 18:0.548183 
1 1:-0.953093 2:-0.666508 3:-0.713222 4:-0.99943 5:-0.993751 6:-0.97936 7:-0.959372 8:-0.853404 9:-0.683698 10:0.815498 11:0.924276 12:0.432749 13:-0.67476 14:-0.801437 15:-0.869854 16:1 17:0.689394 18:0.747235 
1 1:-0.952796 2:-0.688049 3:-0.720987 4:-0.999377 5:-0.993928 6:-0.979704 7:-0.961647 8:-0.866357 9:-0.697276 10:0.682657 11:0.915367 12:0.409357 13:-0.704153 14:-0.804703 15:-0.857636 16:0.944266 17:0.69697 18:0.778831 
1 1:-0.699532 2:0.917547 3:0.185142 4:-0.998629 5:-0.976109 6:-0.921332 7:-0.839143 8:0.00551532 9:0.816704 10:0.103321 11:0.830735 12:0.959064 13:-0.906709 14:-0.853037 15:-0.826826 16:0.00107181 17:0.352273 18:0.731438 
1 1:-0.92782 2:-0.600137 3:-0.543858 4:-0.999334 5:-0.991511 6:-0.97167 7:-0.939069 8:-0.835137 9:-0.629766 10:0.136531 11:0.461024 12:0.0204678 13:-0.856869 14:-0.890268 15:-0.895352 16:0.224009 17:0.356061 18:0.633491 
1 1:-0.710551 2:0.840789 3:0.120396 4:-0.998668 5:-0.978646 6:-0.927903 7:-0.857664 8:-0.118193 9:0.70958 10:0.0885609 11:0.826281 12:0.950292 13:-0.868371 14:-0.836708 15:-0.81992 16:0.123258 17:0.473485 18:0.737757 
1 1:-0.993919 2:-0.945942 3:-0.989781 4:-0.999798 5:-0.999667 6:-0.999454 7:-0.996251 8:-0.97502 9:-0.965564 10:-0.926199 11:-1 12:-0.885965 13:-0.875399 14:-0.821032 15:-0.799734 16:-0.856377 17:-1 18:-0.987362 
1 1:-0.988487 2:-0.977708 3:-0.989485 4:-0.999787 5:-0.999567 6:-0.999614 7:-0.997925 8:-0.987468 9:-0.958131 10:-1 11:-0.986637 12:-0.903509 13:-0.901597 14:-0.76486 15:-0.848606 16:-0.832797 17:-1 18:-1 
1 1:-0.992718 2:-0.972827 3:-0.990183 4:-0.999902 5:-0.999686 6:-0.999611 7:-0.999672 8:-0.987482 9:-0.956957 10:-0.9631 11:-1 12:-0.885965 13:-0.773163 14:-0.634226 15:-0.828951 16:-0.800643 17:-1 18:-1 
1 1:-0.996233 2:-0.971601 3:-0.990978 4:-0.999854 5:-0.999771 6:-0.999408 7:-1 8:-0.991735 9:-0.967287 10:-0.885609 11:-1 12:-0.865497 13:-0.841534 14:-0.781842 15:-0.869854 16:-0.792069 17:-1 18:-0.99684 
1 1:-0.993827 2:-0.969277 3:-0.991729 4:-0.999914 5:-0.99978 6:-0.999407 7:-0.999759 8:-0.994799 9:-0.965329 10:-0.95941 11:-1 12:-0.883041 13:-0.62492 14:-0.725016 15:-0.873572 16:-0.841372 17:-1 18:-1 
1 1:-0.715255 2:-0.113403 3:0.427703 4:-0.998583 5:-0.997109 6:-0.997535 7:-0.941327 8:-0.827357 9:-0.81343 10:-0.870849 11:-0.55902 12:-0.818713 13:-0.728435 14:-0.649249 15:-0.737052 16:-0.457663 17:-0.579545 18:-0.260664 
1 1:-0.920321 2:-0.630923 3:-0.368776 4:-0.998795 5:-0.998817 6:-0.998799 7:-0.986855 8:-0.933355 9:-0.920395 10:-0.99631 11:-0.946548 12:-0.891813 13:-0.514377 14:-0.44742 15:-0.878353 16:-0.717042 17:-0.981061 18:-0.810427 
1 1:-0.924998 2:-0.669665 3:-0.409389 4:-0.998964 5:-0.998682 6:-0.998871 7:-0.985007 8:-0.950084 9:-0.927257 10:-0.98524 11:-0.933185 12:-0.888889 13:-0.799361 14:-0.436316 15:-0.862417 16:-0.708467 17:-0.950758 18:-0.807267 
1 1:-0.700312 2:-0.132134 3:0.479609 4:-0.998618 5:-0.997645 6:-0.997024 7:-0.945199 8:-0.818421 9:-0.849173 10:-0.937269 11:-0.599109 12:-0.833333 13:-0.679233 14:-0.725016 15:-0.639841 16:-0.536977 17:-0.606061 18:-0.266983 
1 1:-0.736056 2:-0.212024 3:0.465163 4:-0.998879 5:-0.997197 6:-0.997734 7:-0.948551 8:-0.821789 9:-0.854278 10:-0.900369 11:-0.554566 12:-0.839181 13:-0.644728 14:-0.620509 15:-0.74502 16:-0.511254 17:-0.568182 18:-0.251185 
1 1:-0.927731 2:-0.550408 3:-0.382765 4:-0.99864 5:-0.998486 6:-0.998747 7:-0.976418 8:-0.904489 9:-0.901542 10:-0.97048 11:-0.973274 12:-0.891813 13:-0.649201 14:-0.600261 15:-0.808765 16:-0.832797 17:-1 18:-0.829384 
1 1:-0.695724 2:-0.0235682 3:0.310898 4:-0.999005 5:-0.997255 6:-0.997576 7:-0.949037 8:-0.796049 9:-0.848998 10:-0.892989 11:-0.572383 12:-0.809942 13:-0.738658 14:-0.715872 15:-0.679681 16:-0.459807 17:-0.549242 18:-0.232227 
1 1:-0.703448 2:-0.0625014 3:0.30983 4:-0.998438 5:-0.997394 6:-0.997516 7:-0.93887 8:-0.803993 9:-0.854682 10:-0.915129 11:-0.621381 12:-0.839181 13:-0.571885 14:-0.735467 15:-0.6749 16:-0.541265 17:-0.625 18:-0.28278 
1 1:-0.927196 2:-0.615516 3:-0.375134 4:-0.998662 5:-0.998494 6:-0.998823 7:-0.979343 8:-0.928662 9:-0.914194 10:-0.97417 11:-0.946548 12:-0.891813 13:-0.782748 14:-0.494448 15:-0.77158 16:-0.809218 17:-1 18:-0.829384 
1 1:-0.921855 2:-0.494166 3:-0.359977 4:-0.998724 5:-0.998841 6:-0.998501 7:-0.978703 8:-0.915682 9:-0.919531 10:-0.97417 11:-0.96882 12:-0.900585 13:-0.610224 14:-0.629001 15:-0.768924 16:-0.826367 17:-1 18:-0.807267 
1 1:-0.928253 2:-0.591519 3:-0.391014 4:-0.998977 5:-0.998641 6:-0.998489 7:-0.982097 8:-0.939515 9:-0.942004 10:-0.97417 11:-0.959911 12:-0.897661 13:-0.635144 14:-0.484651 15:-0.747145 16:-0.785638 17:-0.962121 18:-0.747235 
1 1:-0.930113 2:-0.609489 3:-0.455348 4:-0.998698 5:-0.998819 6:-0.998911 7:-0.984485 8:-0.965043 9:-0.946715 10:-0.98524 11:-0.942094 12:-0.883041 13:-0.746326 14:-0.379491 15:-0.734396 16:-0.770632 17:-0.943182 18:-0.759874 
1 1:-0.95364 2:-0.708062 3:-0.562514 4:-0.998398 5:-0.998761 6:-0.998502 7:-0.993055 8:-0.991286 9:-0.977298 10:-0.98524 11:-0.977728 12:-0.915205 13:-0.810863 14:0.089484 15:-0.48579 16:-0.762058 17:-0.901515 18:-0.721959 
1 1:-0.95006 2:-0.718854 3:-0.573323 4:-0.998526 5:-0.998879 6:-0.999475 7:-0.992702 8:-0.994775 9:-0.98378 10:-1 11:-0.982183 12:-0.912281 13:-0.635783 14:-0.327237 15:-0.663214 16:-0.768489 17:-0.875 18:-0.696682 
1 1:-0.950258 2:-0.718778 3:-0.574232 4:-0.998252 5:-0.999033 6:-0.999284 7:-0.991845 8:-0.995351 9:-0.983664 10:-0.99631 11:-0.977728 12:-0.903509 13:-0.534824 14:0.00783801 15:-0.605312 16:-0.777063 17:-0.871212 18:-0.680885 
1 1:-0.952069 2:-0.71749 3:-0.599377 4:-0.998519 5:-0.99908 6:-0.999097 7:-0.995149 8:-0.992716 9:-0.982721 10:-1 11:-0.991091 12:-0.923977 13:-0.486901 14:-0.379491 15:-0.610093 16:-0.792069 17:-0.905303 18:-0.718799 
1 1:-0.943885 2:-0.602839 3:-0.551352 4:-0.998588 5:-0.999018 6:-0.998714 7:-0.993823 8:-0.983078 9:-0.972317 10:-1 11:-1 12:-0.923977 13:-0.52524 14:0.0489876 15:-0.614874 16:-0.77492 17:-0.958333 18:-0.775671 
1 1:-0.850117 2:0.0551011 3:-0.33303 4:-0.997622 5:-0.980594 6:-0.951854 7:-0.829363 8:0.99233 9:0.755245 10:-0.306273 11:-0.131403 12:-0.318713 13:-0.742492 14:-0.890268 15:-0.87251 16:-0.599143 17:-0.560606 18:-0.244866 
1 1:-0.869558 2:-0.402252 3:-0.604187 4:-0.998691 5:-0.989446 6:-0.978159 7:-0.914184 8:-0.065838 9:-0.0527554 10:-0.416974 11:0.0111359 12:-0.21345 13:-0.723323 14:-0.804703 15:-0.788579 16:-0.419078 17:-0.507576 18:-0.169036 
1 1:-0.949851 2:-0.702205 3:-0.781448 4:-0.99881 5:-0.993987 6:-0.98565 7:-0.95462 8:-0.622209 9:-0.457047 10:-0.166052 11:0.0378619 12:-0.154971 13:-0.684345 14:-0.711953 15:-0.794954 16:-0.316184 17:-0.416667 18:-0.169036 
1 1:-0.81213 2:0.0328134 3:0.187659 4:-0.999089 5:-0.99791 6:-0.997663 7:-0.927427 8:-0.738513 9:-0.770136 10:-1 11:-1 12:-0.912281 13:-0.683067 14:-0.757022 15:-0.86826 16:-0.920686 17:-1 18:-0.905213 
1 1:-0.746383 2:0.697835 3:1 4:-0.99858 5:-0.994245 6:-0.989292 7:-0.949568 8:-0.763824 9:-0.582202 10:-0.933579 11:-0.848552 12:-0.856725 13:-0.773163 14:-0.902678 15:-0.923506 16:-0.740622 17:-0.727273 18:-0.690363 
1 1:-0.757626 2:0.792504 3:0.786373 4:-0.998489 5:-0.993616 6:-0.989467 7:-0.95595 8:-0.720013 9:-0.596021 10:-0.929889 11:-0.86637 12:-0.853801 13:-0.702236 14:-0.866101 15:-0.904914 16:-0.721329 17:-0.765152 18:-0.680885 
1 1:-0.739194 2:0.745169 3:0.875543 4:-0.998844 5:-0.994061 6:-0.989756 7:-0.952131 8:-0.734413 9:-0.593188 10:-0.933579 11:-0.857461 12:-0.845029 13:-0.566134 14:-0.911169 15:-0.920319 16:-0.72776 17:-0.742424 18:-0.680885 
1 1:-0.761717 2:0.804578 3:0.830498 4:-0.998842 5:-0.994255 6:-0.989686 7:-0.950931 8:-0.75406 9:-0.684826 10:-0.929889 11:-0.86637 12:-0.850877 13:-0.661981 14:-0.902678 15:-0.927224 16:-0.734191 17:-0.715909 18:-0.624013 
1 1:-0.766179 2:0.817212 3:0.774456 4:-0.998632 5:-0.994185 6:-0.989006 7:-0.954078 8:-0.755408 9:-0.613214 10:-0.929889 11:-0.86637 12:-0.856725 13:-0.702875 14:-0.923579 15:-0.910226 16:-0.734191 17:-0.712121 18:-0.665087 
1 1:-0.769753 2:0.889277 3:0.819159 4:-0.998802 5:-0.993898 6:-0.988707 7:-0.954782 8:-0.738581 9:-0.600117 10:-0.922509 11:-0.875278 12:-0.859649 13:-0.739936 14:-0.887655 15:-0.93413 16:-0.721329 17:-0.75 18:-0.658768 
1 1:-0.75997 2:0.874107 3:0.825452 4:-0.998446 5:-0.994731 6:-0.988777 7:-0.953768 8:-0.750309 9:-0.606883 10:-0.937269 11:-0.875278 12:-0.856725 13:-0.658147 14:-0.930764 15:-0.9251 16:-0.729904 17:-0.731061 18:-0.677725 
1 1:-0.846423 2:-0.479133 3:-0.619221 4:-0.997905 5:-0.981488 6:-0.938588 7:-0.932587 8:-0.732669 9:-0.289342 10:-0.501845 11:-0.25167 12:-0.207602 13:-0.692652 14:-0.777923 15:-0.714741 16:0.350482 17:0.0909091 18:0.042654 
1 1:0.993923 2:0.576528 3:-0.475236 4:-0.997936 5:-0.979049 6:-0.928957 7:-0.905188 8:-0.83158 9:-0.492599 10:-1 11:-0.746102 12:-0.192982 13:-0.765495 14:-0.828217 15:-0.755113 16:0.0525188 17:0.443182 18:0.484992 
1 1:-0.988258 2:-0.898007 3:-0.894109 4:-0.998338 5:-0.998072 6:-0.997561 7:-0.987863 8:-0.965303 9:-0.941293 10:-0.494465 11:-0.603563 12:-0.809942 13:-0.58147 14:-0.587198 15:-0.767862 16:-0.622722 17:-0.80303 18:-0.71564 
1 1:-0.98761 2:-0.894747 3:-0.890095 4:-0.997912 5:-0.998642 6:-0.997794 7:-0.988945 8:-0.971415 9:-0.939922 10:-0.498155 11:-0.5902 12:-0.798246 13:-0.654952 14:-0.573481 15:-0.801328 16:-0.562701 17:-0.738636 18:-0.709321 
1 1:-0.987916 2:-0.889971 3:-0.891855 4:-0.998306 5:-0.998148 6:-0.997629 7:-0.989033 8:-0.973934 9:-0.937398 10:-0.527675 11:-0.612472 12:-0.809942 13:-0.529073 14:-0.617244 15:-0.816733 16:-0.601286 17:-0.742424 18:-0.71564 
1 1:-0.990201 2:-0.910076 3:-0.897498 4:-0.998322 5:-0.998127 6:-0.997368 7:-0.989326 8:-0.974051 9:-0.9463 10:-0.479705 11:-0.599109 12:-0.789474 13:-0.665176 14:-0.496408 15:-0.742364 16:-0.622722 17:-0.765152 18:-0.693523 
1 1:-0.988702 2:-0.897795 3:-0.891002 4:-0.997587 5:-0.998096 6:-0.997627 7:-0.986855 8:-0.968715 9:-0.938986 10:-0.527675 11:-0.634744 12:-0.818713 13:-0.454313 14:-0.410843 15:-0.826295 16:-0.674169 17:-0.806818 18:-0.737757 
1 1:-0.986759 2:-0.89111 3:-0.886828 4:-0.998317 5:-0.998323 6:-0.997692 7:-0.988482 8:-0.963623 9:-0.933445 10:-0.516605 11:-0.585746 12:-0.80117 13:-0.637061 14:-0.497061 15:-0.816733 16:-0.599143 17:-0.761364 18:-0.725118 
1 1:-0.987299 2:-0.949553 3:-0.936374 4:-0.998763 5:-0.998348 6:-0.995807 7:-0.979265 8:-0.967555 9:-0.946792 10:0.0848708 11:0.22049 12:-0.380117 13:-0.711821 14:-0.423253 15:-0.801328 16:-0.0267953 17:-0.272727 18:0.380727 
1 1:-0.897525 2:-0.35218 3:-0.56554 4:-0.998202 5:-0.990575 6:-0.965944 7:-0.905472 8:-0.573808 9:-0.326364 10:0.210332 11:0.541203 12:0.453216 13:-0.695208 14:-0.767472 15:-0.765737 16:-0.0482315 17:0.132576 18:0.522907 
1 1:-0.893917 2:-0.327415 3:-0.563208 4:-0.998248 5:-0.990187 6:-0.965075 7:-0.908126 8:-0.562555 9:-0.305053 10:0.195572 11:0.563474 12:0.48538 13:-0.690096 14:-0.76486 15:-0.772112 16:-0.0139335 17:0.0757576 18:0.589258 
1 1:-0.978137 2:-0.894306 3:-0.922988 4:-0.99894 5:-0.997951 6:-0.994335 7:-0.975035 8:-0.966482 9:-0.920499 10:-0.0369004 11:-0.0244989 12:-0.251462 13:-0.62492 14:-0.504246 15:-0.759363 16:0.0718114 17:-0.0681818 18:0.374408 
1 1:-0.978209 2:-0.868521 3:-0.926967 4:-0.998745 5:-0.997705 6:-0.994184 7:-0.976223 8:-0.961819 9:-0.919122 10:-0.00738007 11:-0.233853 12:-0.254386 13:-0.569329 14:-0.494448 15:-0.785923 16:0.166131 17:-0.109848 18:0.28594 
1 1:-0.973886 2:-0.862649 3:-0.909455 4:-0.999183 5:-0.997621 6:-0.993201 7:-0.969233 8:-0.954155 9:-0.912971 10:-0.0221402 11:-0.077951 12:-0.321637 13:-0.619808 14:-0.565643 15:-0.76255 16:-0.0718114 17:-0.0984848 18:0.387046 
1 1:-0.978077 2:-0.871557 3:-0.925479 4:-0.99883 5:-0.997771 6:-0.993932 7:-0.974732 8:-0.968166 9:-0.911835 10:-0.0627306 11:-0.211581 12:-0.245614 13:-0.73738 14:-0.40627 15:-0.730146 16:-0.00535906 17:-0.102273 18:0.118483 
1 1:-0.978475 2:-0.868246 3:-0.921878 4:-0.998736 5:-0.997839 6:-0.993902 7:-0.975316 8:-0.955836 9:-0.914038 10:0.00369004 11:-0.238307 12:-0.28655 13:-0.75016 14:-0.464402 15:-0.760425 16:0.073955 17:-0.276515 18:0.229068 
1 1:-0.881691 2:-0.371348 3:-0.64009 4:-0.998351 5:-0.990362 6:-0.968676 7:-0.904925 8:-0.584569 9:-0.424472 10:0.00738007 11:0.505568 12:0.508772 13:-0.688818 14:-0.775963 15:-0.798141 16:-0.0353698 17:-0.0227273 18:0.548183 
1 1:-0.988754 2:-0.960561 3:-0.948468 4:-0.998826 5:-0.997525 6:-0.994344 7:-0.970244 8:-0.961717 9:-0.93288 10:0.154982 11:0.336303 12:-0.175439 13:-0.704153 14:-0.479425 15:-0.796016 16:-0.322615 17:-0.378788 18:0.241706 
1 1:-0.992399 2:-0.981046 3:-0.982416 4:-0.99907 5:-0.998974 6:-0.999462 7:-0.995421 8:-0.993206 9:-0.952885 10:-0.907749 11:-0.946548 12:-0.950292 13:-0.784026 14:-0.429784 15:-0.696149 16:-0.669882 17:-0.969697 18:-0.958926 
1 1:-0.675269 2:0.998954 3:0.301739 4:-0.99724 5:-0.975578 6:-0.919424 7:-0.816852 8:0.0439481 9:0.929555 10:0.0405904 11:0.804009 12:0.950292 13:-0.699042 14:-0.799477 15:-0.815671 16:-0.00750268 17:0.363636 18:0.687204 
1 1:-0.695238 2:0.939793 3:0.241359 4:-0.99769 5:-0.976414 6:-0.922271 7:-0.831492 8:-0.0255759 9:0.860967 10:0.0701107 11:0.804009 12:0.97076 13:-0.692013 14:-0.8145 15:-0.814077 16:0.0139335 17:0.416667 18:0.706161 
1 1:-0.699275 2:0.891857 3:0.21637 4:-0.997242 5:-0.976184 6:-0.920836 7:-0.825823 8:-0.0102556 9:0.896174 10:0.0664207 11:0.839644 12:0.994152 13:-0.715016 14:-0.800131 15:-0.807171 16:-0.0096463 17:0.412879 18:0.731438 
1 1:-0.69855 2:0.926628 3:0.247604 4:-0.997671 5:-0.976617 6:-0.920885 7:-0.831393 8:0.0492684 9:0.927972 10:0.103321 11:0.857461 12:0.961988 13:-0.739297 14:-0.797518 15:-0.815671 16:0.0375134 17:0.390152 18:0.731438 
1 1:-0.981859 2:-0.89338 3:-0.872125 4:-0.998259 5:-0.995159 6:-0.984412 7:-0.971531 8:-0.938897 9:-0.842215 10:0.892989 11:0.710468 12:0.00292398 13:-0.504153 14:-0.73808 15:-0.865073 16:0.712755 17:0.348485 18:0.579779 
1 1:-0.710368 2:0.715645 3:0.114235 4:-0.997216 5:-0.978698 6:-0.930231 7:-0.841498 8:-0.0781057 9:0.702337 10:0.0295203 11:0.817372 12:0.964912 13:-0.685623 14:-0.782495 15:-0.810359 16:0.0182208 17:0.30303 18:0.693523 
1 1:-0.704154 2:0.929164 3:0.209452 4:-0.997131 5:-0.977385 6:-0.923895 7:-0.833045 8:-0.0350722 9:0.820538 10:0.107011 11:0.808463 12:0.918129 13:-0.752077 14:-0.800131 15:-0.800797 16:0.0332262 17:0.416667 18:0.816746 
1 1:-0.782779 2:0.371876 3:-0.120226 4:-0.997692 5:-0.982856 6:-0.942908 7:-0.871923 8:-0.270253 9:0.385492 10:0.125461 11:0.821826 12:0.953216 13:-0.665815 14:-0.77531 15:-0.803453 16:0.0975348 17:0.344697 18:0.737757 
1 1:-0.821527 2:0.128134 3:-0.285921 4:-0.998156 5:-0.986754 6:-0.955021 7:-0.889686 8:-0.451279 9:0.0745725 10:0.162362 11:0.790646 12:0.967836 13:-0.684984 14:-0.74853 15:-0.781142 16:0.101822 17:0.359848 18:0.781991 
1 1:-0.736765 2:0.591488 3:-0.000372161 4:-0.997737 5:-0.980961 6:-0.939673 7:-0.861953 8:-0.191545 9:0.50194 10:0.0442804 11:0.821826 12:0.982456 13:-0.67476 14:-0.770738 15:-0.799734 16:0.0546624 17:0.378788 18:0.791469 
1 1:-0.838389 2:-0.259442 3:-0.448454 4:-0.99812 5:-0.986946 6:-0.95557 7:-0.889703 8:-0.579778 9:-0.294608 10:-0.162362 11:0.336303 12:0.225146 13:-0.696486 14:-0.803396 15:-0.80239 16:-0.0546624 17:0.109848 18:0.317536 
1 1:-0.784757 2:0.0783637 3:-0.41443 4:-0.997447 5:-0.986694 6:-0.955065 7:-0.860566 8:-0.400202 9:-0.193245 10:-0.206642 11:0.318486 12:0.277778 13:-0.628754 14:-0.799477 15:-0.81089 16:-0.1597 17:0.0606061 18:0.440758 
1 1:-0.967237 2:-0.783222 3:-0.843226 4:-0.998393 5:-0.994736 6:-0.98192 7:-0.96652 8:-0.889808 9:-0.804147 10:0.372694 11:0.216036 12:-0.0584795 13:-0.586581 14:-0.728935 15:-0.860823 16:0.530547 17:-0.0113636 18:0.49763 
1 1:-0.965814 2:-0.789512 3:-0.826765 4:-0.998487 5:-0.994547 6:-0.981766 7:-0.961007 8:-0.883764 9:-0.744023 10:0.380074 11:0.296214 12:-0.0497076 13:-0.58722 14:-0.75049 15:-0.857636 16:0.444802 17:0.0606061 18:0.320695 
1 1:-0.97354 2:-0.83117 3:-0.861679 4:-0.998388 5:-0.994997 6:-0.982748 7:-0.965876 8:-0.910646 9:-0.774137 10:0.457565 11:0.318486 12:-0.0116959 13:-0.64984 14:-0.702155 15:-0.852324 16:0.459807 17:0.212121 18:0.260664 
1 1:-0.661855 2:0.935418 3:0.325231 4:-0.997608 5:-0.977012 6:-0.924182 7:-0.835032 8:0.0732079 9:0.809505 10:0.0516605 11:0.937639 12:0.94152 13:-0.773163 14:-0.788374 15:-0.817264 16:0.0289389 17:0.363636 18:0.750395 
1 1:-0.35052 2:0.838083 3:0.0309252 4:-0.998195 5:-0.981103 6:-0.938486 7:-0.846622 8:-0.115934 9:0.414619 10:-0.498155 11:0.848552 12:0.865497 13:-0.727796 14:-0.793599 15:-0.814608 16:0.0246517 17:0.409091 18:0.775671 
1 1:-0.526736 2:0.734979 3:0.186729 4:-0.997476 5:-0.976032 6:-0.920105 7:-0.826931 8:0.00922424 9:0.705875 10:-0.409594 11:0.821826 12:0.926901 13:-0.747604 14:-0.8145 15:-0.835857 16:-0.0375134 17:0.25 18:0.690363 
1 1:-0.970512 2:-0.764379 3:-0.803392 4:-0.997642 5:-0.995211 6:-0.9841 7:-0.961827 8:-0.907398 9:-0.773956 10:0.918819 11:0.603563 12:0.166667 13:-0.603834 14:-0.657087 15:-0.849668 16:0.699893 17:0.462121 18:0.494471 
1 1:-0.973365 2:-0.798915 3:-0.828768 4:-0.998341 5:-0.995313 6:-0.984677 7:-0.968849 8:-0.923709 9:-0.801166 10:0.99262 11:0.621381 12:0.166667 13:-0.670288 14:-0.632266 15:-0.842231 16:0.856377 17:0.704545 18:0.674566 
1 1:-0.967024 2:-0.795713 3:-0.801798 4:-0.99856 5:-0.994511 6:-0.9836 7:-0.963657 8:-0.909746 9:-0.772996 10:0.509225 11:0.688196 12:0.21345 13:-0.608307 14:-0.674722 15:-0.844356 16:0.72776 17:0.602273 18:0.535545 
1 1:-0.953163 2:-0.666303 3:-0.713353 4:-0.997722 5:-0.992734 6:-0.97833 7:-0.956961 8:-0.853994 9:-0.682467 10:0.811808 11:0.919822 12:0.438596 13:-0.641534 14:-0.711953 15:-0.832138 16:0.864952 17:0.674242 18:0.759874 
1 1:-0.952804 2:-0.687945 3:-0.720086 4:-0.998028 5:-0.992748 6:-0.978706 7:-0.956684 8:-0.866225 9:-0.696412 10:0.678967 11:0.906459 12:0.403509 13:-0.585304 14:-0.702155 15:-0.815671 16:0.894962 17:0.708333 18:0.769352 
1 1:-0.699044 2:0.916424 3:0.184911 4:-0.997578 5:-0.974903 6:-0.920207 7:-0.832029 8:0.00624 9:0.815595 10:0.107011 11:0.830735 12:0.95614 13:-0.736102 14:-0.809928 15:-0.817264 16:0.039657 17:0.356061 18:0.737757 
1 1:-0.710537 2:0.83993 3:0.118943 4:-0.997265 5:-0.977811 6:-0.927001 7:-0.853564 8:-0.118326 9:0.709224 10:0.0885609 11:0.830735 12:0.947368 13:-0.705431 14:-0.803396 15:-0.812483 16:0.121115 17:0.469697 18:0.737757 
1 1:-0.993868 2:-0.946288 3:-0.989827 4:-0.998791 5:-0.998634 6:-0.998859 7:-0.995651 8:-0.974957 9:-0.965871 10:-0.918819 11:-1 12:-0.883041 13:-0.690096 14:-0.638798 15:-0.716335 16:-0.845659 17:-1 18:-0.987362 
1 1:-0.988313 2:-0.977398 3:-0.989243 4:-0.998794 5:-0.998745 6:-0.99889 7:-0.998269 8:-0.987323 9:-0.957387 10:-1 11:-0.986637 12:-0.906433 13:-0.711821 14:-0.478119 15:-0.700398 16:-0.826367 17:-1 18:-1 
1 1:-0.992681 2:-0.973185 3:-0.990269 4:-0.998822 5:-0.998942 6:-0.998911 7:-0.998781 8:-0.987124 9:-0.957576 10:-0.95941 11:-1 12:-0.885965 13:-0.775719 14:-0.36708 15:-0.664276 16:-0.794212 17:-1 18:-1 
1 1:-0.996303 2:-0.971642 3:-0.99095 4:-0.998927 5:-0.998916 6:-0.999021 7:-0.999373 8:-0.991316 9:-0.966959 10:-0.881919 11:-1 12:-0.865497 13:-0.677316 14:-0.438929 15:-0.78008 16:-0.78135 17:-1 18:-0.99684 
1 1:-0.993884 2:-0.969318 3:-0.991967 4:-0.998774 5:-0.998828 6:-0.998613 7:-0.998691 8:-0.994948 9:-0.965267 10:-0.95941 11:-1 12:-0.885965 13:-0.739936 14:-0.548661 15:-0.711554 16:-0.826367 17:-1 18:-1 
1 1:-0.716006 2:-0.1136 3:0.426655 4:-0.997156 5:-0.995656 6:-0.996837 7:-0.939098 8:-0.825836 9:-0.815625 10:-0.870849 11:-0.554566 12:-0.818713 13:-0.561022 14:-0.482691 15:-0.66162 16:-0.444802 17:-0.579545 18:-0.244866 
1 1:-0.920281 2:-0.630566 3:-0.369265 4:-0.996823 5:-0.997699 6:-0.998068 7:-0.983551 8:-0.933742 9:-0.919949 10:-0.99631 11:-0.946548 12:-0.891813 13:-0.550799 14:-0.0992815 15:-0.748207 16:-0.710611 17:-0.973485 18:-0.813586 
1 1:-0.924731 2:-0.669802 3:-0.408402 4:-0.996931 5:-0.997365 6:-0.998043 7:-0.982982 8:-0.949954 9:-0.92748 10:-0.98524 11:-0.928731 12:-0.888889 13:-0.625559 14:-0.10712 15:-0.7583 16:-0.725616 17:-0.954545 18:-0.804107 
1 1:-0.700473 2:-0.132681 3:0.471463 4:-0.996813 5:-0.99639 6:-0.996037 7:-0.942071 8:-0.817327 9:-0.848 10:-0.933579 11:-0.599109 12:-0.833333 13:-0.513738 14:-0.551927 15:-0.506507 16:-0.515541 17:-0.606061 18:-0.266983 
1 1:-0.735924 2:-0.210395 3:0.463983 4:-0.997151 5:-0.995997 6:-0.996988 7:-0.945237 8:-0.821232 9:-0.855056 10:-0.896679 11:-0.554566 12:-0.839181 13:-0.557827 14:-0.412149 15:-0.645684 16:-0.506967 17:-0.57197 18:-0.251185 
1 1:-0.927578 2:-0.550334 3:-0.382827 4:-0.99695 5:-0.997174 6:-0.997842 7:-0.973614 8:-0.903954 9:-0.900719 10:-0.97048 11:-0.973274 12:-0.891813 13:-0.419169 14:-0.470934 15:-0.684993 16:-0.834941 17:-1 18:-0.829384 
1 1:-0.696296 2:-0.025761 3:0.313521 4:-0.996951 5:-0.995639 6:-0.996657 7:-0.944412 8:-0.79505 9:-0.848659 10:-0.892989 11:-0.572383 12:-0.809942 13:-0.527796 14:-0.489223 15:-0.559628 16:-0.436227 17:-0.545455 18:-0.229068 
1 1:-0.704034 2:-0.0629749 3:0.311131 4:-0.996904 5:-0.996158 6:-0.996326 7:-0.938296 8:-0.80334 9:-0.854571 10:-0.918819 11:-0.625835 12:-0.839181 13:-0.448562 14:-0.607446 15:-0.571846 16:-0.551983 17:-0.625 18:-0.28594 
1 1:-0.927379 2:-0.616081 3:-0.376083 4:-0.996797 5:-0.997148 6:-0.99801 7:-0.976661 8:-0.928681 9:-0.914859 10:-0.97417 11:-0.951002 12:-0.891813 13:-0.61278 14:-0.308295 15:-0.650465 16:-0.80493 17:-0.996212 18:-0.829384 
1 1:-0.921638 2:-0.493948 3:-0.358697 4:-0.99721 5:-0.997414 6:-0.997266 7:-0.976836 8:-0.915633 9:-0.918409 10:-0.97417 11:-0.96882 12:-0.900585 13:-0.46262 14:-0.344873 15:-0.671713 16:-0.815648 17:-1 18:-0.810427 
1 1:-0.928551 2:-0.590478 3:-0.390274 4:-0.997237 5:-0.997294 6:-0.997501 7:-0.98024 8:-0.939442 9:-0.942153 10:-0.97048 11:-0.955457 12:-0.897661 13:-0.319489 14:-0.264533 15:-0.626029 16:-0.792069 17:-0.958333 18:-0.753555 
1 1:-0.929915 2:-0.60889 3:-0.454372 4:-0.99704 5:-0.99725 6:-0.997826 7:-0.983982 8:-0.965396 9:-0.946365 10:-0.98893 11:-0.942094 12:-0.880117 13:-0.650479 14:-0.208361 15:-0.579814 16:-0.78135 17:-0.94697 18:-0.759874 
1 1:-0.953877 2:-0.707338 3:-0.56249 4:-0.99628 5:-0.997272 6:-0.997272 7:-0.99064 8:-0.990685 9:-0.977481 10:-0.98155 11:-0.977728 12:-0.915205 13:-0.502236 14:0.537557 15:-0.214343 16:-0.764202 17:-0.897727 18:-0.718799 
1 1:-0.949891 2:-0.718869 3:-0.572148 4:-0.996335 5:-0.997243 6:-0.998483 7:-0.993181 8:-0.99441 9:-0.982838 10:-0.99262 11:-0.977728 12:-0.912281 13:-0.265815 14:-0.2371 15:-0.530412 16:-0.770632 17:-0.856061 18:-0.690363 
1 1:-0.95033 2:-0.718326 3:-0.573102 4:-0.995975 5:-0.997871 6:-0.998626 7:-0.991394 8:-0.995412 9:-0.983654 10:-0.99631 11:-0.977728 12:-0.903509 13:-0.414058 14:-0.106466 15:-0.524037 16:-0.777063 17:-0.859848 18:-0.680885 
1 1:-0.952226 2:-0.71783 3:-0.600639 4:-0.996548 5:-0.997968 6:-0.998339 7:-0.992874 8:-0.992623 9:-0.982511 10:-1 11:-0.991091 12:-0.923977 13:-0.371246 14:-0.225343 15:-0.46826 16:-0.77492 17:-0.886364 18:-0.71564 
1 1:-0.943769 2:-0.602253 3:-0.551534 4:-0.996498 5:-0.997582 6:-0.997641 7:-0.991715 8:-0.982787 9:-0.97159 10:-1 11:-1 12:-0.923977 13:-0.388498 14:-0.1855 15:-0.368924 16:-0.779207 17:-0.950758 18:-0.778831 
1 1:-0.849865 2:0.0551009 3:-0.333426 4:-0.995141 5:-0.979259 6:-0.950157 7:-0.824012 8:0.994258 9:0.755914 10:-0.302583 11:-0.131403 12:-0.318713 13:-0.504792 14:-0.839974 15:-0.848074 16:-0.581994 17:-0.560606 18:-0.241706 
1 1:-0.869586 2:-0.402234 3:-0.605007 4:-0.99699 5:-0.988077 6:-0.976946 7:-0.910439 8:-0.0657432 9:-0.0527487 10:-0.420664 11:0.0111359 12:-0.21345 13:-0.546326 14:-0.718485 15:-0.750863 16:-0.399786 17:-0.507576 18:-0.172196 
1 1:-0.811938 2:0.0337513 3:0.189767 4:-0.997591 5:-0.996523 6:-0.99667 7:-0.92547 8:-0.738433 9:-0.768015 10:-1 11:-1 12:-0.912281 13:-0.6 14:-0.517309 15:-0.785392 16:-0.920686 17:-1 18:-0.905213 
1 1:-0.75756 2:0.793621 3:0.786527 4:-0.997213 5:-0.992231 6:-0.988569 7:-0.952178 8:-0.72033 9:-0.59651 10:-0.929889 11:-0.86637 12:-0.853801 13:-0.500319 14:-0.751796 15:-0.836388 16:-0.712755 17:-0.761364 18:-0.680885 
1 1:-0.760167 2:0.877208 3:0.831711 4:-0.996614 5:-0.993759 6:-0.98757 7:-0.952381 8:-0.751726 9:-0.605477 10:-0.933579 11:-0.875278 12:-0.856725 13:-0.349521 14:-0.834095 15:-0.874104 16:-0.723473 17:-0.727273 18:-0.677725 
1 1:-0.846787 2:-0.480197 3:-0.619549 4:-0.996155 5:-0.979887 6:-0.937123 7:-0.927757 8:-0.733515 9:-0.288415 10:-0.501845 11:-0.25167 12:-0.210526 13:-0.490096 14:-0.721097 15:-0.706242 16:0.363344 17:0.102273 18:0.0458136 
1 1:0.986203 2:0.573946 3:-0.475515 4:-0.995995 5:-0.977972 6:-0.927436 7:-0.903002 8:-0.832434 9:-0.494562 10:-1 11:-0.750557 12:-0.19883 13:-0.569968 14:-0.789027 15:-0.746082 16:0.0675241 17:0.439394 18:0.488152 
1 1:-0.988157 2:-0.896198 3:-0.895786 4:-0.995317 5:-0.997021 6:-0.996863 7:-0.985819 8:-0.969076 9:-0.941362 10:-0.479705 11:-0.581292 12:-0.80117 13:-0.417891 14:-0.38145 15:-0.768393 16:-0.659164 17:-0.784091 18:-0.725118 
1 1:-0.988164 2:-0.897913 3:-0.893704 4:-0.995985 5:-0.996537 6:-0.996233 7:-0.988764 8:-0.964962 9:-0.940899 10:-0.494465 11:-0.599109 12:-0.809942 13:-0.401278 14:-0.39386 15:-0.631341 16:-0.612004 17:-0.799242 18:-0.71248 
1 1:-0.98751 2:-0.895176 3:-0.889952 4:-0.995644 5:-0.99719 6:-0.996644 7:-0.989359 8:-0.971486 9:-0.940354 10:-0.494465 11:-0.5902 12:-0.798246 13:-0.394249 14:-0.378184 15:-0.666932 16:-0.566988 17:-0.734848 18:-0.699842 
1 1:-0.990277 2:-0.910533 3:-0.898326 4:-0.995956 5:-0.996363 6:-0.995864 7:-0.987567 8:-0.974117 9:-0.945763 10:-0.468635 11:-0.599109 12:-0.789474 13:-0.324601 14:-0.312867 15:-0.612218 16:-0.622722 17:-0.768939 18:-0.693523 
1 1:-0.988578 2:-0.897731 3:-0.891201 4:-0.995086 5:-0.996437 6:-0.996427 7:-0.985922 8:-0.968697 9:-0.938861 10:-0.520295 11:-0.63029 12:-0.815789 13:-0.18147 14:-0.199216 15:-0.7583 16:-0.669882 17:-0.791667 18:-0.740916 
1 1:-0.986792 2:-0.891088 3:-0.886851 4:-0.995759 5:-0.996966 6:-0.996411 7:-0.985425 8:-0.963394 9:-0.931994 10:-0.509225 11:-0.5902 12:-0.804094 13:-0.315655 14:-0.438929 15:-0.703586 16:-0.607717 17:-0.761364 18:-0.728278 
1 1:-0.987215 2:-0.949855 3:-0.936789 4:-0.997575 5:-0.997086 6:-0.994861 7:-0.979708 8:-0.967143 9:-0.946319 10:0.0811808 11:0.233853 12:-0.368421 13:-0.696486 14:-0.149575 15:-0.722178 16:-0.0096463 17:-0.276515 18:0.383886 
1 1:-0.897291 2:-0.351703 3:-0.565267 4:-0.996566 5:-0.989133 6:-0.964681 7:-0.897718 8:-0.572333 9:-0.328226 10:0.210332 11:0.545657 12:0.453216 13:-0.495208 14:-0.680601 15:-0.735458 16:-0.0460879 17:0.136364 18:0.519747 
1 1:-0.893938 2:-0.327394 3:-0.562989 4:-0.996611 5:-0.988941 6:-0.963974 7:-0.903763 8:-0.562034 9:-0.306919 10:0.199262 11:0.563474 12:0.48538 13:-0.518211 14:-0.700196 15:-0.751926 16:-0.00750268 17:0.0719697 18:0.586098 
1 1:-0.977981 2:-0.89475 3:-0.92321 4:-0.99711 5:-0.996807 6:-0.993551 7:-0.972661 8:-0.966087 9:-0.920642 10:-0.0332103 11:-0.0200445 12:-0.245614 13:-0.47476 14:-0.403658 15:-0.683931 16:0.0932476 17:-0.0530303 18:0.393365 
1 1:-0.978276 2:-0.868435 3:-0.926751 4:-0.997171 5:-0.996312 6:-0.993248 7:-0.977345 8:-0.96195 9:-0.919581 10:-0.0110701 11:-0.233853 12:-0.251462 13:-0.34377 14:-0.323318 15:-0.737052 16:0.123258 17:-0.106061 18:0.270142 
1 1:-0.973694 2:-0.862513 3:-0.909271 4:-0.997702 5:-0.996421 6:-0.991839 7:-0.966182 8:-0.954444 9:-0.912808 10:-0.0221402 11:-0.0824053 12:-0.324561 13:-0.520128 14:-0.361855 15:-0.657902 16:-0.091104 17:-0.0833333 18:0.377567 
1 1:-0.978191 2:-0.871796 3:-0.925469 4:-0.997068 5:-0.996568 6:-0.9928 7:-0.97359 8:-0.967296 9:-0.912245 10:-0.0627306 11:-0.211581 12:-0.245614 13:-0.67476 14:-0.180274 15:-0.631873 16:-0.0310825 17:-0.113636 18:0.115324 
1 1:-0.978369 2:-0.868674 3:-0.922076 4:-0.997148 5:-0.996626 6:-0.992844 7:-0.973468 8:-0.955138 9:-0.914169 10:0.00738007 11:-0.242762 12:-0.283626 13:-0.586581 14:-0.318746 15:-0.6834 16:0.039657 17:-0.268939 18:0.232227 
1 1:-0.881661 2:-0.370294 3:-0.640248 4:-0.996182 5:-0.988968 6:-0.967565 7:-0.900105 8:-0.585835 9:-0.423895 10:0.00738007 11:0.505568 12:0.508772 13:-0.440256 14:-0.706728 15:-0.776361 16:-0.0460879 17:-0.0227273 18:0.541864 
1 1:-0.988602 2:-0.96051 3:-0.948642 4:-0.996817 5:-0.996092 6:-0.993444 7:-0.963473 8:-0.96117 9:-0.932895 10:0.173432 11:0.32294 12:-0.181287 13:-0.58147 14:-0.391901 15:-0.749801 16:-0.30761 17:-0.367424 18:0.222749 
1 1:-0.992536 2:-0.980486 3:-0.982408 4:-0.997454 5:-0.997995 6:-0.998384 7:-0.995205 8:-0.992937 9:-0.954479 10:-0.907749 11:-0.946548 12:-0.953216 13:-0.561022 14:-0.260614 15:-0.621248 16:-0.684887 17:-0.977273 18:-0.965245 
1 1:-0.675016 2:0.99768 3:0.302156 4:-0.995378 5:-0.974335 6:-0.91818 7:-0.815098 8:0.0446455 9:0.936448 10:0.0442804 11:0.808463 12:0.947368 13:-0.488179 14:-0.768779 15:-0.802922 16:-0.0139335 17:0.363636 18:0.690363 
1 1:-0.695678 2:0.940137 3:0.2404 4:-0.995603 5:-0.974818 6:-0.920967 7:-0.823077 8:-0.0254888 9:0.859966 10:0.0701107 11:0.808463 12:0.973684 13:-0.559744 14:-0.773351 15:-0.798672 16:0.0267953 17:0.416667 18:0.703002 
1 1:-0.69962 2:0.891749 3:0.217803 4:-0.995317 5:-0.974691 6:-0.919662 7:-0.820284 8:-0.0127207 9:0.897851 10:0.0664207 11:0.839644 12:0.994152 13:-0.493291 14:-0.757675 15:-0.790704 16:0.0117899 17:0.409091 18:0.734597 
1 1:-0.699271 2:0.926898 3:0.247762 4:-0.995554 5:-0.975333 6:-0.919812 7:-0.824651 8:0.0482056 9:0.931624 10:0.103321 11:0.857461 12:0.961988 13:-0.596166 14:-0.75049 15:-0.804515 16:0.0653805 17:0.390152 18:0.721959 
1 1:-0.981868 2:-0.893592 3:-0.872157 4:-0.996331 5:-0.994078 6:-0.983212 7:-0.966962 8:-0.938263 9:-0.843012 10:0.889299 11:0.710468 12:2.22045e-16 13:-0.352077 14:-0.63096 15:-0.81992 16:0.635584 17:0.371212 18:0.589258 
1 1:-0.710189 2:0.715293 3:0.113932 4:-0.99506 5:-0.977398 6:-0.929341 7:-0.835475 8:-0.0777432 9:0.700357 10:0.0332103 11:0.817372 12:0.961988 13:-0.481789 14:-0.734814 15:-0.798672 16:0.0139335 17:0.306818 18:0.690363 
1 1:-0.704509 2:0.927608 3:0.211531 4:-0.994832 5:-0.976056 6:-0.922857 7:-0.830803 8:-0.0350473 9:0.820909 10:0.103321 11:0.812918 12:0.912281 13:-0.51885 14:-0.756368 15:-0.788579 16:0.0546624 17:0.420455 18:0.823065 
1 1:-0.782418 2:0.37026 3:-0.120977 4:-0.995851 5:-0.9812 6:-0.941812 7:-0.870647 8:-0.270751 9:0.383453 10:0.125461 11:0.826281 12:0.95614 13:-0.483067 14:-0.700849 15:-0.783798 16:0.101822 17:0.348485 18:0.744076 
1 1:-0.821889 2:0.128052 3:-0.286049 4:-0.996149 5:-0.985423 6:-0.954043 7:-0.883635 8:-0.452624 9:0.0745697 10:0.154982 11:0.790646 12:0.967836 13:-0.458786 14:-0.692358 15:-0.763612 16:0.125402 17:0.367424 18:0.781991 
1 1:-0.737168 2:0.590026 3:-0.000153141 4:-0.996218 5:-0.979642 6:-0.939087 7:-0.857223 8:-0.190897 9:0.500199 10:0.0516605 11:0.826281 12:0.979532 13:-0.562939 14:-0.713912 15:-0.786985 16:0.0825295 17:0.382576 18:0.78831 
1 1:-0.838228 2:-0.259889 3:-0.448042 4:-0.996105 5:-0.985498 6:-0.954624 7:-0.884364 8:-0.579062 9:-0.295593 10:-0.162362 11:0.336303 12:0.230994 13:-0.478594 14:-0.731548 15:-0.788048 16:-0.0460879 17:0.109848 18:0.314376 
1 1:-0.784429 2:0.0788405 3:-0.414259 4:-0.995383 5:-0.985626 6:-0.954313 7:-0.85847 8:-0.400019 9:-0.19415 10:-0.210332 11:0.314031 12:0.27193 13:-0.470927 14:-0.75049 15:-0.801328 16:-0.178992 17:0.0643939 18:0.434439 
1 1:-0.97352 2:-0.831158 3:-0.861254 4:-0.996798 5:-0.993547 6:-0.98135 7:-0.965902 8:-0.91138 9:-0.773325 10:0.457565 11:0.314031 12:-0.0175439 13:-0.401917 14:-0.555193 15:-0.818858 16:0.476956 17:0.19697 18:0.270142 
1 1:-0.661972 2:0.936736 3:0.32467 4:-0.995606 5:-0.975366 6:-0.922879 7:-0.827243 8:0.0757219 9:0.810607 10:0.0516605 11:0.937639 12:0.938596 13:-0.601917 14:-0.746571 15:-0.802922 16:0.0525188 17:0.359848 18:0.753555 
1 1:-0.350908 2:0.840374 3:0.0320732 4:-0.996714 5:-0.979701 6:-0.937912 7:-0.839693 8:-0.114297 9:0.413763 10:-0.498155 11:0.853007 12:0.865497 13:-0.547604 14:-0.746571 15:-0.80239 16:0.0353698 17:0.416667 18:0.781991 
1 1:-0.527058 2:0.734238 3:0.186809 4:-0.9956 5:-0.974652 6:-0.919391 7:-0.817624 8:0.0131078 9:0.708732 10:-0.409594 11:0.821826 12:0.926901 13:-0.58722 14:-0.768779 15:-0.82417 16:-0.0117899 17:0.25 18:0.684044 
1 1:-0.970557 2:-0.764835 3:-0.803274 4:-0.995617 5:-0.993979 6:-0.983087 7:-0.961364 8:-0.907296 9:-0.773773 10:0.940959 11:0.608018 12:0.172515 13:-0.229393 14:-0.495101 15:-0.816202 16:0.684887 17:0.465909 18:0.484992 
1 1:-0.97324 2:-0.799452 3:-0.828523 4:-0.996497 5:-0.993905 6:-0.983321 7:-0.960167 8:-0.923743 9:-0.80117 10:0.98155 11:0.621381 12:0.169591 13:-0.486262 14:-0.496408 15:-0.797078 16:0.65702 17:0.727273 18:0.680885 
1 1:-0.966847 2:-0.795521 3:-0.802065 4:-0.996954 5:-0.992843 6:-0.982188 7:-0.96239 8:-0.909549 9:-0.773406 10:0.531365 11:0.688196 12:0.210526 13:-0.408307 14:-0.519268 15:-0.803453 16:0.729904 17:0.602273 18:0.551343 
1 1:-0.952919 2:-0.666362 3:-0.71359 4:-0.995456 5:-0.991495 6:-0.977213 7:-0.951086 8:-0.853725 9:-0.682727 10:0.815498 11:0.915367 12:0.44152 13:-0.408946 14:-0.613978 15:-0.800797 16:0.749196 17:0.693182 18:0.750395 
1 1:-0.952419 2:-0.688136 3:-0.720171 4:-0.995341 5:-0.991306 6:-0.977186 7:-0.949872 8:-0.865295 9:-0.696159 10:0.686347 11:0.915367 12:0.409357 13:-0.33738 14:-0.596342 15:-0.770518 16:0.785638 17:0.719697 18:0.778831 
1 1:-0.698993 2:0.915971 3:0.184905 4:-0.995474 5:-0.973584 6:-0.919062 7:-0.828113 8:0.00549393 9:0.820406 10:0.107011 11:0.830735 12:0.953216 13:-0.545687 14:-0.779882 15:-0.804515 16:0.0503751 17:0.356061 18:0.734597 
1 1:-0.711013 2:0.839855 3:0.119293 4:-0.995137 5:-0.976361 6:-0.92571 7:-0.842411 8:-0.119169 9:0.709692 10:0.0885609 11:0.826281 12:0.947368 13:-0.475399 14:-0.752449 15:-0.799203 16:0.166131 17:0.469697 18:0.734597 
1 1:-0.993913 2:-0.946705 3:-0.989797 4:-0.997352 5:-0.997391 6:-0.997778 7:-0.994128 8:-0.975303 9:-0.967244 10:-0.918819 11:-1 12:-0.883041 13:-0.559744 14:-0.372306 15:-0.511288 16:-0.85209 17:-1 18:-0.984202 
1 1:-0.98825 2:-0.977144 3:-0.989374 4:-0.996904 5:-0.99737 6:-0.997863 7:-0.99766 8:-0.986608 9:-0.957135 10:-1 11:-0.986637 12:-0.903509 13:-0.573163 14:-0.346832 15:-0.573971 16:-0.819936 17:-1 18:-1 
1 1:-0.992753 2:-0.973294 3:-0.990306 4:-0.996729 5:-0.997747 6:-0.997999 7:-0.998924 8:-0.987281 9:-0.95769 10:-0.95572 11:-1 12:-0.883041 13:-0.526518 14:-0.192685 15:-0.486321 16:-0.796356 17:-1 18:-1 
1 1:-0.996194 2:-0.971534 3:-0.990833 4:-0.997039 5:-0.99785 6:-0.99789 7:-0.998915 8:-0.991623 9:-0.966969 10:-0.878229 11:-1 12:-0.865497 13:-0.445367 14:-0.379491 15:-0.687649 16:-0.792069 17:-1 18:-0.99684 
1 1:-0.993901 2:-0.969128 3:-0.991882 4:-0.997354 5:-0.997427 6:-0.997382 7:-0.998286 8:-0.994728 9:-0.965673 10:-0.95572 11:-1 12:-0.888889 13:-0.564856 14:-0.301764 15:-0.536255 16:-0.832797 17:-1 18:-1 
1 1:-0.716473 2:-0.114472 3:0.426205 4:-0.993081 5:-0.991769 6:-0.994831 7:-0.932946 8:-0.822171 9:-0.815512 10:-0.870849 11:-0.554566 12:-0.818713 13:-0.0191693 14:-0.274331 15:-0.49429 16:-0.466238 17:-0.57197 18:-0.254344 
1 1:-0.920271 2:-0.628616 3:-0.370405 4:-0.992267 5:-0.994301 6:-0.99592 7:-0.983666 8:-0.932752 9:-0.91939 10:-0.99262 11:-0.946548 12:-0.891813 13:-0.138019 14:0.0124102 15:-0.585657 16:-0.712755 17:-0.962121 18:-0.804107 
1 1:-0.924795 2:-0.669953 3:-0.409158 4:-0.993126 5:-0.993487 6:-0.995712 7:-0.981343 8:-0.950328 9:-0.926974 10:-0.98524 11:-0.933185 12:-0.891813 13:-0.212141 14:-0.0444154 15:-0.513944 16:-0.723473 17:-0.943182 18:-0.804107 
1 1:-0.702355 2:-0.136098 3:0.467515 4:-0.991639 5:-0.993475 6:-0.992919 7:-0.938887 8:-0.816458 9:-0.847099 10:-0.933579 11:-0.594655 12:-0.830409 13:0.0798722 14:-0.375572 15:-0.326959 16:-0.524116 17:-0.606061 18:-0.276461 
1 1:-0.735934 2:-0.214741 3:0.461449 4:-0.993036 5:-0.992097 6:-0.994432 7:-0.94066 8:-0.820542 9:-0.853793 10:-0.896679 11:-0.554566 12:-0.839181 13:0.0313099 14:-0.247551 15:-0.466667 16:-0.491961 17:-0.560606 18:-0.251185 
1 1:-0.927884 2:-0.549892 3:-0.382829 4:-0.991873 5:-0.993637 6:-0.995245 7:-0.971624 8:-0.905382 9:-0.900946 10:-0.97048 11:-0.973274 12:-0.891813 13:-0.389137 14:-0.310255 15:-0.427357 16:-0.809218 17:-1 18:-0.829384 
1 1:-0.694744 2:-0.024796 3:0.315133 4:-0.993362 5:-0.991606 6:-0.994005 7:-0.941666 8:-0.794921 9:-0.847803 10:-0.889299 11:-0.572383 12:-0.809942 13:0.00702875 14:-0.214239 15:-0.343426 16:-0.446945 17:-0.545455 18:-0.229068 
1 1:-0.703318 2:-0.0606895 3:0.311664 4:-0.992871 5:-0.993032 6:-0.993455 7:-0.929965 8:-0.801873 9:-0.853259 10:-0.915129 11:-0.625835 12:-0.839181 13:-0.143131 14:-0.339647 15:-0.408234 16:-0.530547 17:-0.617424 18:-0.28278 
1 1:-0.92655 2:-0.615084 3:-0.3742 4:-0.992114 5:-0.993686 6:-0.995743 7:-0.975771 8:-0.927896 9:-0.914726 10:-0.97417 11:-0.951002 12:-0.891813 13:-0.0198083 14:0.0176355 15:-0.335458 16:-0.811361 17:-0.988636 18:-0.826224 
1 1:-0.921662 2:-0.495637 3:-0.361047 4:-0.992494 5:-0.994126 6:-0.994547 7:-0.973059 8:-0.917126 9:-0.918226 10:-0.97048 11:-0.96882 12:-0.900585 13:-0.0607029 14:-0.261267 15:-0.431076 16:-0.817792 17:-0.996212 18:-0.800948 
1 1:-0.928712 2:-0.59117 3:-0.38922 4:-0.99273 5:-0.993774 6:-0.994536 7:-0.977682 8:-0.939932 9:-0.942902 10:-0.97048 11:-0.955457 12:-0.897661 13:0.0159744 14:-0.337035 15:-0.401328 16:-0.789925 17:-0.954545 18:-0.744076 
1 1:-0.929737 2:-0.608412 3:-0.454938 4:-0.992903 5:-0.994162 6:-0.994695 7:-0.981067 8:-0.9648 9:-0.946773 10:-0.98524 11:-0.942094 12:-0.880117 13:-0.340575 14:-0.125408 15:-0.343426 16:-0.783494 17:-0.931818 18:-0.756714 
1 1:-0.953607 2:-0.706572 3:-0.562627 4:-0.99082 5:-0.993107 6:-0.99337 7:-0.988941 8:-0.990573 9:-0.976603 10:-0.98155 11:-0.977728 12:-0.915205 13:-0.152716 14:0.834095 15:-0.156972 16:-0.783494 17:-0.897727 18:-0.725118 
1 1:-0.949807 2:-0.718253 3:-0.571284 4:-0.991388 5:-0.993106 6:-0.995996 7:-0.988933 8:-0.994346 9:-0.981472 10:-0.99631 11:-0.982183 12:-0.912281 13:-0.12524 14:-0.181581 15:-0.34927 16:-0.768489 17:-0.852273 18:-0.696682 
1 1:-0.950429 2:-0.718001 3:-0.571416 4:-0.991385 5:-0.993745 6:-0.996063 7:-0.991074 8:-0.995058 9:-0.983472 10:-0.99631 11:-0.977728 12:-0.903509 13:-0.0428115 14:0.312214 15:-0.152722 16:-0.792069 17:-0.867424 18:-0.680885 
1 1:-0.952245 2:-0.716609 3:-0.598715 4:-0.991565 5:-0.994111 6:-0.994929 7:-0.989677 8:-0.992026 9:-0.981562 10:-1 11:-0.991091 12:-0.923977 13:0.084984 14:-0.209667 15:-0.26162 16:-0.792069 17:-0.897727 18:-0.718799 
1 1:-0.94365 2:-0.603578 3:-0.554973 4:-0.991383 5:-0.993614 6:-0.993665 7:-0.987551 8:-0.982828 9:-0.970668 10:-0.99631 11:-1 12:-0.923977 13:-0.153994 14:0.72175 15:-0.241434 16:-0.772776 17:-0.94697 18:-0.775671 
1 1:-0.811905 2:0.0314319 3:0.114994 4:-0.992925 5:-0.993626 6:-0.993828 7:-0.927075 8:-0.737508 9:-0.784084 10:-1 11:-1 12:-0.906433 13:-0.196166 14:-0.35467 15:-0.681275 16:-0.873526 17:-1 18:-0.895735 
1 1:-0.804161 2:-0.0405625 3:0.100926 4:-0.992243 5:-0.992638 6:-0.994367 7:-0.941154 8:-0.75804 9:-0.806266 10:-1 11:-1 12:-0.918129 13:-0.172524 14:-0.201829 15:-0.639841 16:-0.82851 17:-1 18:-0.873618 
1 1:-0.813745 2:-0.00804207 3:0.140761 4:-0.992303 5:-0.993158 6:-0.994802 7:-0.920079 8:-0.765607 9:-0.796686 10:-1 11:-1 12:-0.909357 13:-0.189137 14:-0.29066 15:-0.653121 16:-0.89925 17:-1 18:-0.873618 
1 1:-0.849385 2:0.0558213 3:-0.331328 4:-0.990567 5:-0.975634 6:-0.946044 7:-0.822406 8:0.993983 9:0.759308 10:-0.298893 11:-0.131403 12:-0.318713 13:-0.180831 14:-0.728935 15:-0.804515 16:-0.57985 17:-0.556818 18:-0.241706 
1 1:-0.869022 2:-0.403173 3:-0.605467 4:-0.993661 5:-0.984679 6:-0.973422 7:-0.907176 8:-0.0658225 9:-0.0540276 10:-0.416974 11:0.0111359 12:-0.21345 13:-0.28115 14:-0.578054 15:-0.647809 16:-0.369775 17:-0.5 18:-0.169036 
1 1:-0.950088 2:-0.701365 3:-0.781936 4:-0.993073 5:-0.989386 6:-0.981544 7:-0.9462 8:-0.62211 9:-0.460041 10:-0.166052 11:0.0378619 12:-0.157895 13:-0.300319 14:-0.39582 15:-0.6749 16:-0.322615 17:-0.416667 18:-0.169036 
1 1:-0.811842 2:0.0312595 3:0.187102 4:-0.993785 5:-0.992706 6:-0.993973 7:-0.921418 8:-0.737403 9:-0.768577 10:-1 11:-1 12:-0.909357 13:-0.102236 14:-0.253429 15:-0.662683 16:-0.907824 17:-1 18:-0.908373 
1 1:-0.844937 2:-0.167561 3:0.0905177 4:-0.991999 5:-0.993414 6:-0.994737 7:-0.933065 8:-0.816338 9:-0.817775 10:-1 11:-1 12:-0.915205 13:0.138019 14:-0.430438 15:-0.677556 16:-0.85209 17:-1 18:-0.905213 
1 1:-0.746114 2:0.696879 3:0.993229 4:-0.992732 5:-0.988856 6:-0.984969 7:-0.944466 8:-0.760743 9:-0.583564 10:-0.933579 11:-0.853007 12:-0.856725 13:-0.185942 14:-0.657087 15:-0.757238 16:-0.736334 17:-0.727273 18:-0.690363 
1 1:-0.76121 2:0.788664 3:0.873445 4:-0.991938 5:-0.990247 6:-0.986628 7:-0.948154 8:-0.749875 9:-0.569089 10:-0.926199 11:-0.853007 12:-0.853801 13:-0.23131 14:-0.6597 15:-0.782205 16:-0.708467 17:-0.734848 18:-0.693523 
1 1:-0.758287 2:0.783533 3:0.774196 4:-0.992759 5:-0.987966 6:-0.985845 7:-0.949437 8:-0.719312 9:-0.601454 10:-0.929889 11:-0.861915 12:-0.850877 13:0.0210863 14:-0.540823 15:-0.703586 16:-0.710611 17:-0.761364 18:-0.677725 
1 1:-0.765864 2:0.814771 3:0.77518 4:-0.992184 5:-0.990385 6:-0.98446 7:-0.946128 8:-0.753304 9:-0.610806 10:-0.929889 11:-0.861915 12:-0.856725 13:-0.13099 14:-0.732854 15:-0.739708 16:-0.723473 17:-0.708333 18:-0.661927 
1 1:-0.759413 2:0.877051 3:0.824622 4:-0.99306 5:-0.991299 6:-0.984933 7:-0.94631 8:-0.750812 9:-0.605487 10:-0.933579 11:-0.875278 12:-0.856725 13:-0.146965 14:-0.663619 15:-0.78008 16:-0.72776 17:-0.731061 18:-0.677725 
1 1:-0.846578 2:-0.480533 3:-0.621062 4:-0.992059 5:-0.975624 6:-0.934404 7:-0.9228 8:-0.73337 9:-0.291779 10:-0.505535 11:-0.256125 12:-0.21345 13:-0.0792332 14:-0.63292 15:-0.671182 16:0.324759 17:0.0984848 18:0.0458136 
1 1:0.978512 2:0.571386 3:-0.476827 4:-0.991964 5:-0.974451 6:-0.9244 7:-0.897586 8:-0.830135 9:-0.492349 10:-1 11:-0.746102 12:-0.190058 13:-0.219169 14:-0.688439 15:-0.725365 16:0.0525188 17:0.454545 18:0.491311 
1 1:-0.988125 2:-0.896058 3:-0.89516 4:-0.990091 5:-0.99291 6:-0.994077 7:-0.984234 8:-0.969289 9:-0.940924 10:-0.487085 11:-0.581292 12:-0.80117 13:0.152716 14:-0.15676 15:-0.625498 16:-0.659164 17:-0.780303 18:-0.728278 
1 1:-0.987759 2:-0.898759 3:-0.895016 4:-0.99141 5:-0.992309 6:-0.992622 7:-0.985325 8:-0.965837 9:-0.941351 10:-0.501845 11:-0.599109 12:-0.809942 13:-0.146326 14:-0.105813 15:-0.387517 16:-0.633441 17:-0.795455 18:-0.709321 
1 1:-0.987534 2:-0.896151 3:-0.891013 4:-0.991136 5:-0.993863 6:-0.993466 7:-0.987547 8:-0.971131 9:-0.941867 10:-0.494465 11:-0.5902 12:-0.798246 13:-0.0945687 14:-0.148269 15:-0.451793 16:-0.577706 17:-0.731061 18:-0.703002 
1 1:-0.987944 2:-0.890451 3:-0.891225 4:-0.990438 5:-0.993242 6:-0.992808 7:-0.985466 8:-0.973404 9:-0.934636 10:-0.520295 11:-0.612472 12:-0.809942 13:-0.260703 14:-0.350098 15:-0.563347 16:-0.607717 17:-0.738636 18:-0.721959 
1 1:-0.989899 2:-0.910281 3:-0.898053 4:-0.99116 5:-0.991426 6:-0.991438 7:-0.983262 8:-0.974052 9:-0.94543 10:-0.476015 11:-0.594655 12:-0.789474 13:0.139936 14:-0.11757 15:-0.291368 16:-0.614148 17:-0.761364 18:-0.690363 
1 1:-0.988458 2:-0.897568 3:-0.891013 4:-0.989591 5:-0.992427 6:-0.992972 7:-0.984685 8:-0.968873 9:-0.938123 10:-0.527675 11:-0.63029 12:-0.818713 13:0.230032 14:-0.0751143 15:-0.526162 16:-0.665595 17:-0.776515 18:-0.737757 
1 1:-0.986769 2:-0.891354 3:-0.887947 4:-0.990728 5:-0.993599 6:-0.993316 7:-0.983478 8:-0.963486 9:-0.930485 10:-0.505535 11:-0.585746 12:-0.80117 13:0.279872 14:-0.250816 15:-0.481009 16:-0.614148 17:-0.753788 18:-0.731438 
1 1:-0.987113 2:-0.949468 3:-0.936967 4:-0.992868 5:-0.994073 6:-0.992551 7:-0.97203 8:-0.96728 9:-0.945825 10:0.0811808 11:0.229399 12:-0.371345 13:-0.3623 14:0.234487 15:-0.555378 16:-0.0696677 17:-0.276515 18:0.390205 
1 1:-0.897137 2:-0.352028 3:-0.565854 4:-0.992179 5:-0.985736 6:-0.961075 7:-0.895973 8:-0.572115 9:-0.326759 10:0.217712 11:0.545657 12:0.450292 13:0.106709 14:-0.497061 15:-0.685525 16:-0.0182208 17:0.136364 18:0.535545 
1 1:-0.893796 2:-0.327885 3:-0.563638 4:-0.991241 5:-0.985479 6:-0.960778 7:-0.897944 8:-0.561025 9:-0.305032 10:0.202952 11:0.563474 12:0.48538 13:-0.227476 14:-0.548008 15:-0.722709 16:0.0332262 17:0.0719697 18:0.589258 
1 1:-0.977965 2:-0.894821 3:-0.923539 4:-0.9921 5:-0.993638 6:-0.990951 7:-0.972908 8:-0.966061 9:-0.919656 10:-0.0332103 11:-0.0155902 12:-0.245614 13:0.145687 14:-0.310255 15:-0.509163 16:0.0696677 17:-0.0492424 18:0.371248 
1 1:-0.978389 2:-0.869051 3:-0.927297 4:-0.992796 5:-0.991965 6:-0.99047 7:-0.969215 8:-0.960493 9:-0.919839 10:0.0147601 11:-0.224944 12:-0.24269 13:-0.100958 14:-0.0111039 15:-0.610093 16:0.0418006 17:-0.121212 18:0.2891 
1 1:-0.973748 2:-0.862562 3:-0.909195 4:-0.993245 5:-0.993269 6:-0.988226 7:-0.960851 8:-0.953638 9:-0.912598 10:-0.0258303 11:-0.0824053 12:-0.321637 13:-0.0996805 14:-0.209014 15:-0.443825 16:-0.103966 17:-0.0871212 18:0.390205 
1 1:-0.978103 2:-0.872079 3:-0.92591 4:-0.992464 5:-0.992765 6:-0.989059 7:-0.96762 8:-0.966808 9:-0.912361 10:-0.0516605 11:-0.207127 12:-0.248538 13:-0.265815 14:0.0561724 15:-0.481541 16:-0.0246517 17:-0.094697 18:0.115324 
1 1:-0.978277 2:-0.869241 3:-0.922283 4:-0.993054 5:-0.993475 6:-0.989643 7:-0.96908 8:-0.954513 9:-0.914139 10:0.0147601 11:-0.233853 12:-0.280702 13:0.0236422 14:-0.157413 15:-0.52988 16:0.0267953 17:-0.268939 18:0.244866 
1 1:-0.881597 2:-0.370558 3:-0.639799 4:-0.990729 5:-0.985822 6:-0.9646 7:-0.896292 8:-0.584505 9:-0.424001 10:0.00738007 11:0.496659 12:0.511696 13:-0.110543 14:-0.556499 15:-0.724303 16:-0.0482315 17:-0.0227273 18:0.541864 
1 1:-0.988766 2:-0.960661 3:-0.948333 4:-0.992363 5:-0.992132 6:-0.990866 7:-0.963864 8:-0.961381 9:-0.932833 10:0.151292 11:0.336303 12:-0.181287 13:-0.0370607 14:-0.123449 15:-0.640903 16:-0.30761 17:-0.393939 18:0.241706 
1 1:-0.992181 2:-0.980555 3:-0.982326 4:-0.992369 5:-0.995012 6:-0.995863 7:-0.992719 8:-0.99328 9:-0.953816 10:-0.907749 11:-0.951002 12:-0.950292 13:-0.000638978 14:0.288047 15:-0.532005 16:-0.706324 17:-0.969697 18:-0.955766 
1 1:-0.675456 2:0.996383 3:0.302339 4:-0.990418 5:-0.970414 6:-0.914613 7:-0.803824 8:0.0452786 9:0.939018 10:0.0405904 11:0.808463 12:0.947368 13:-0.186581 14:-0.665578 15:-0.767331 16:0.0267953 17:0.359848 18:0.680885 
1 1:-0.695168 2:0.940161 3:0.243069 4:-0.99063 5:-0.971043 6:-0.917748 7:-0.812566 8:-0.0243594 9:0.867153 10:0.0774908 11:0.808463 12:0.97076 13:-0.11246 14:-0.695624 15:-0.767862 16:0.0696677 17:0.42803 18:0.696682 
1 1:-0.699284 2:0.890314 3:0.217967 4:-0.991683 5:-0.970315 6:-0.915799 7:-0.820363 8:-0.00968133 9:0.892337 10:0.0664207 11:0.844098 12:0.994152 13:-0.141853 14:-0.649902 15:-0.753519 16:0.00107181 17:0.405303 18:0.737757 
1 1:-0.698948 2:0.927403 3:0.246626 4:-0.991154 5:-0.971521 6:-0.916574 7:-0.81974 8:0.0479928 9:0.932384 10:0.107011 11:0.857461 12:0.961988 13:-0.332268 14:-0.633573 15:-0.768924 16:0.0632369 17:0.393939 18:0.725118 
1 1:-0.981766 2:-0.893599 3:-0.872189 4:-0.992272 5:-0.990734 6:-0.980461 7:-0.963276 8:-0.938648 9:-0.843544 10:0.896679 11:0.701559 12:0.00584795 13:-0.225559 14:-0.393207 15:-0.732802 16:0.560557 17:0.367424 18:0.589258 
1 1:-0.710889 2:0.71507 3:0.113837 4:-0.990559 5:-0.973479 6:-0.926948 7:-0.829826 8:-0.0812394 9:0.698471 10:0.0332103 11:0.817372 12:0.967836 13:-0.0753994 14:-0.623775 15:-0.773174 16:0.0439443 17:0.310606 18:0.693523 
1 1:-0.703561 2:0.928301 3:0.208734 4:-0.990202 5:-0.972286 6:-0.919656 7:-0.82428 8:-0.0307386 9:0.82107 10:0.110701 11:0.808463 12:0.921053 13:-0.258786 14:-0.661659 15:-0.763612 16:0.0460879 17:0.416667 18:0.832543 
1 1:-0.782846 2:0.370217 3:-0.121768 4:-0.991594 5:-0.976972 6:-0.938846 7:-0.857905 8:-0.272685 9:0.379127 10:0.121771 11:0.821826 12:0.953216 13:-0.029393 14:-0.568909 15:-0.746614 16:0.138264 17:0.344697 18:0.750395 
1 1:-0.821679 2:0.127766 3:-0.286389 4:-0.991691 5:-0.98147 6:-0.950831 7:-0.881381 8:-0.452055 9:0.0703181 10:0.166052 11:0.790646 12:0.964912 13:-0.215974 14:-0.548661 15:-0.718459 16:0.101822 17:0.359848 18:0.78831 
1 1:-0.736881 2:0.59063 3:-0.00169558 4:-0.991007 5:-0.975696 6:-0.936691 7:-0.849665 8:-0.191633 9:0.498727 10:0.0479705 11:0.826281 12:0.98538 13:-0.180192 14:-0.599608 15:-0.749801 16:0.0868167 17:0.382576 18:0.794629 
1 1:-0.838208 2:-0.259075 3:-0.448922 4:-0.991842 5:-0.982412 6:-0.951795 7:-0.879857 8:-0.579473 9:-0.297514 10:-0.162362 11:0.336303 12:0.22807 13:-0.216613 14:-0.640758 15:-0.74502 16:-0.039657 17:0.109848 18:0.317536 
1 1:-0.78468 2:0.0754421 3:-0.413348 4:-0.990476 5:-0.982657 6:-0.951933 7:-0.853865 8:-0.400804 9:-0.195904 10:-0.210332 11:0.314031 12:0.277778 13:-0.057508 14:-0.619203 15:-0.761487 16:-0.157556 17:0.0643939 18:0.440758 
1 1:-0.967207 2:-0.783211 3:-0.843678 4:-0.992152 5:-0.990287 6:-0.977571 7:-0.958918 8:-0.889141 9:-0.803695 10:0.372694 11:0.211581 12:-0.0584795 13:-0.0926518 14:-0.386675 15:-0.762019 16:0.427653 17:-0.00378788 18:0.49763 
1 1:-0.965625 2:-0.7893 3:-0.826578 4:-0.991962 5:-0.989752 6:-0.977001 7:-0.95525 8:-0.883563 9:-0.746174 10:0.387454 11:0.296214 12:-0.0497076 13:0.233866 14:-0.473547 15:-0.728552 16:0.35477 17:0.0681818 18:0.317536 
1 1:-0.973418 2:-0.831287 3:-0.861422 4:-0.992949 5:-0.989862 6:-0.977127 7:-0.959047 8:-0.910676 9:-0.772257 10:0.442804 11:0.309577 12:-0.0175439 13:-0.0626198 14:-0.299151 15:-0.729084 16:0.404073 17:0.212121 18:0.266983 
1 1:-0.933733 2:-0.640648 3:-0.708877 4:-0.9918 5:-0.987348 6:-0.969228 7:-0.935261 8:-0.799666 9:-0.575135 10:0.107011 11:0.363029 12:-0.0701754 13:-0.0415335 14:-0.542129 15:-0.834263 16:0.320472 17:0.174242 18:0.304897 
1 1:-0.92969 2:-0.619251 3:-0.700526 4:-0.99177 5:-0.986802 6:-0.968477 7:-0.926607 8:-0.749547 9:-0.484003 10:0.143911 11:0.394209 12:-0.0467836 13:-0.0626198 14:-0.52776 15:-0.808234 16:0.228296 17:0.113636 18:0.134281 
1 1:-0.661289 2:0.936638 3:0.325067 4:-0.991108 5:-0.970908 6:-0.918873 7:-0.823437 8:0.0784729 9:0.813411 10:0.0590406 11:0.933185 12:0.938596 13:-0.398083 14:-0.628347 15:-0.764675 16:0.0610932 17:0.363636 18:0.759874 
1 1:-0.352588 2:0.839474 3:0.0312918 4:-0.991902 5:-0.975567 6:-0.935422 7:-0.827156 8:-0.112798 9:0.408356 10:-0.494465 11:0.853007 12:0.868421 13:-0.31885 14:-0.644024 15:-0.77158 16:0.0803859 17:0.416667 18:0.791469 
1 1:-0.526512 2:0.734659 3:0.186645 4:-0.989975 5:-0.970867 6:-0.916753 7:-0.809047 8:0.0158729 9:0.711714 10:-0.405904 11:0.821826 12:0.926901 13:-0.315655 14:-0.675376 15:-0.803984 16:-0.0096463 17:0.253788 18:0.684044 
1 1:-0.970542 2:-0.764237 3:-0.802909 4:-0.990234 5:-0.990426 6:-0.980063 7:-0.957825 8:-0.906612 9:-0.772768 10:0.948339 11:0.603563 12:0.172515 13:-0.0504792 14:-0.217505 15:-0.725896 16:0.691318 17:0.469697 18:0.503949 
1 1:-0.973128 2:-0.798528 3:-0.828339 4:-0.99145 5:-0.989504 6:-0.979598 7:-0.959244 8:-0.92327 9:-0.800737 10:0.97417 11:0.621381 12:0.172515 13:-0.284984 14:-0.158067 15:-0.698274 16:0.667738 17:0.731061 18:0.668246 
1 1:-0.96658 2:-0.795271 3:-0.802445 4:-0.9937 5:-0.988741 6:-0.978481 7:-0.956583 8:-0.908927 9:-0.772874 10:0.520295 11:0.688196 12:0.21345 13:-0.323323 14:-0.209014 15:-0.703054 16:0.702036 17:0.606061 18:0.545024 
1 1:-0.952761 2:-0.666403 3:-0.713739 4:-0.990008 5:-0.987686 6:-0.973432 7:-0.944563 8:-0.852651 9:-0.682581 10:0.822878 11:0.915367 12:0.44152 13:0.444089 14:-0.416721 15:-0.717397 16:0.725616 17:0.719697 18:0.744076 
1 1:-0.952305 2:-0.687863 3:-0.72041 4:-0.989318 5:-0.98717 6:-0.97307 7:-0.946923 8:-0.864683 9:-0.697376 10:0.682657 11:0.906459 12:0.409357 13:0.0715655 14:-0.397126 15:-0.667995 16:0.744909 17:0.719697 18:0.775671 
1 1:-0.699321 2:0.917804 3:0.184316 4:-0.990983 5:-0.970033 6:-0.914909 7:-0.820838 8:0.00746237 9:0.822508 10:0.107011 11:0.835189 12:0.95614 13:-0.237061 14:-0.707381 15:-0.77158 16:0.0589496 17:0.348485 18:0.737757 
1 1:-0.710241 2:0.836263 3:0.117004 4:-0.990152 5:-0.972833 6:-0.922358 7:-0.841996 8:-0.116849 9:0.704191 10:0.095941 11:0.830735 12:0.953216 13:-0.159105 14:-0.660353 15:-0.767331 16:0.166131 17:0.473485 18:0.740916 
1 1:-0.993882 2:-0.947523 3:-0.989955 4:-0.993629 5:-0.993758 6:-0.994944 7:-0.993314 8:-0.975552 9:-0.967339 10:-0.911439 11:-1 12:-0.883041 13:-0.286901 14:-0.293926 15:-0.283931 16:-0.856377 17:-1 18:-0.981043 
1 1:-0.988335 2:-0.97746 3:-0.989247 4:-0.992563 5:-0.993663 6:-0.995293 7:-0.995632 8:-0.986986 9:-0.957544 10:-1 11:-0.986637 12:-0.906433 13:-0.313738 14:0.0516003 15:-0.326959 16:-0.819936 17:-1 18:-1 
1 1:-0.992618 2:-0.973337 3:-0.990309 4:-0.993083 5:-0.99495 6:-0.994892 7:-0.996941 8:-0.987416 9:-0.95776 10:-0.95572 11:-1 12:-0.885965 13:0.0261981 14:-0.0254735 15:-0.308898 16:-0.811361 17:-1 18:-1 
1 1:-0.996018 2:-0.971442 3:-0.990823 4:-0.99303 5:-0.99449 6:-0.995325 7:-0.997017 8:-0.991308 9:-0.965714 10:-0.878229 11:-1 12:-0.862573 13:-0.293291 14:-0.0607446 15:-0.478353 16:-0.783494 17:-1 18:-0.99684 
1 1:-0.99321 2:-0.969228 3:-0.991752 4:-0.992992 5:-0.993683 6:-0.993978 7:-0.997546 8:-0.994993 9:-0.965584 10:-0.96679 11:-1 12:-0.885965 13:-0.274121 14:-0.220771 15:-0.248871 16:-0.837085 17:-1 18:-1 
1 1:-0.95941 2:-0.798352 3:-0.866876 4:-0.992409 5:-0.991886 6:-0.987915 7:-0.952673 8:-0.895056 9:-0.836002 10:-0.254613 11:-0.300668 12:-0.418129 13:0.0300319 14:-0.269105 15:-0.726428 16:-0.0846731 17:-0.375 18:-0.0489731 
1 1:-0.820775 2:-0.589881 3:-0.838728 4:-0.993128 5:-0.992441 6:-0.984404 7:-0.935269 8:-0.806042 9:-0.76604 10:-0.848708 11:-0.585746 12:-0.383041 13:-0.136102 14:-0.425212 15:-0.671713 16:-0.232583 17:-0.609848 18:-0.175355 
1 1:-0.965157 2:-0.81979 3:-0.8692 4:-0.993032 5:-0.990852 6:-0.988284 7:-0.957981 8:-0.901918 9:-0.849693 10:-0.202952 11:-0.291759 12:-0.421053 13:-0.31885 14:-0.231221 15:-0.726428 16:-0.0868167 17:-0.42803 18:-0.00473934 
1 1:-0.962196 2:-0.840153 3:-0.90857 4:-0.992414 5:-0.993086 6:-0.986117 7:-0.961868 8:-0.929854 9:-0.859534 10:-0.309963 11:-0.32294 12:-0.236842 13:-0.0760383 14:-0.288047 15:-0.680744 16:0.0482315 17:-0.30303 18:-0.014218 
1 1:-0.714035 2:-0.115562 3:0.422956 4:-0.990669 5:-0.989227 6:-0.993411 7:-0.925311 8:-0.824366 9:-0.813706 10:-0.870849 11:-0.554566 12:-0.818713 13:0.0766773 14:-0.195297 15:-0.417264 16:-0.4791 17:-0.564394 18:-0.254344 
1 1:-0.920057 2:-0.630049 3:-0.369196 4:-0.989761 5:-0.992264 6:-0.994637 7:-0.980316 8:-0.932477 9:-0.918778 10:-0.99262 11:-0.951002 12:-0.894737 13:0.214058 14:0.143044 15:-0.462417 16:-0.717042 17:-0.962121 18:-0.800948 
1 1:-0.925203 2:-0.67003 3:-0.409176 4:-0.990861 5:-0.990609 6:-0.994368 7:-0.980001 8:-0.949744 9:-0.926495 10:-0.98155 11:-0.933185 12:-0.891813 13:-0.126518 14:-0.200523 15:-0.505445 16:-0.721329 17:-0.94697 18:-0.804107 
1 1:-0.701593 2:-0.13649 3:0.468101 4:-0.98947 5:-0.991454 6:-0.990651 7:-0.934948 8:-0.816128 9:-0.847174 10:-0.933579 11:-0.594655 12:-0.833333 13:-0.212141 14:-0.314827 15:-0.250465 16:-0.53269 17:-0.606061 18:-0.273302 
1 1:-0.735863 2:-0.215257 3:0.459517 4:-0.990447 5:-0.98987 6:-0.992884 7:-0.937517 8:-0.821745 9:-0.85285 10:-0.896679 11:-0.554566 12:-0.836257 13:0.0798722 14:-0.178968 15:-0.411421 16:-0.487674 17:-0.568182 18:-0.257504 
1 1:-0.927491 2:-0.549782 3:-0.384242 4:-0.989392 5:-0.99178 6:-0.994045 7:-0.9728 8:-0.905277 9:-0.90283 10:-0.97048 11:-0.973274 12:-0.891813 13:-0.165495 14:-0.294579 15:-0.313147 16:-0.826367 17:-1 18:-0.826224 
1 1:-0.694979 2:-0.0257113 3:0.315104 4:-0.990384 5:-0.989255 6:-0.99179 7:-0.935186 8:-0.794749 9:-0.84693 10:-0.889299 11:-0.572383 12:-0.809942 13:0.0223642 14:-0.151535 15:-0.21753 16:-0.438371 17:-0.545455 18:-0.225908 
1 1:-0.702833 2:-0.0622638 3:0.311492 4:-0.989874 5:-0.991201 6:-0.991721 7:-0.92844 8:-0.803827 9:-0.853756 10:-0.915129 11:-0.621381 12:-0.839181 13:-0.152716 14:-0.291313 15:-0.325896 16:-0.541265 17:-0.621212 18:-0.279621 
1 1:-0.926934 2:-0.615646 3:-0.374825 4:-0.990209 5:-0.990875 6:-0.99408 7:-0.973069 8:-0.927519 9:-0.913564 10:-0.97048 11:-0.951002 12:-0.894737 13:0.0837061 14:0.0764206 15:-0.330146 16:-0.798499 17:-0.988636 18:-0.832543 
1 1:-0.921636 2:-0.496627 3:-0.36075 4:-0.99016 5:-0.99217 6:-0.992096 7:-0.97374 8:-0.91698 9:-0.919376 10:-0.97048 11:-0.96882 12:-0.900585 13:0.194888 14:-0.21032 15:-0.270651 16:-0.811361 17:-0.992424 18:-0.800948 
1 1:-0.928418 2:-0.591079 3:-0.38799 4:-0.990418 5:-0.991291 6:-0.992696 7:-0.976066 8:-0.938654 9:-0.943029 10:-0.97048 11:-0.955457 12:-0.897661 13:0.280511 14:-0.261267 15:-0.385923 16:-0.77492 17:-0.94697 18:-0.747235 
1 1:-0.929606 2:-0.609571 3:-0.453534 4:-0.990228 5:-0.991259 6:-0.992522 7:-0.979422 8:-0.964563 9:-0.947625 10:-0.98524 11:-0.942094 12:-0.880117 13:-0.321406 14:-0.137165 15:-0.295086 16:-0.770632 17:-0.92803 18:-0.759874 
1 1:-0.9536 2:-0.706355 3:-0.562426 4:-0.987973 5:-0.98983 6:-0.991017 7:-0.987972 8:-0.990169 9:-0.976984 10:-0.98155 11:-0.977728 12:-0.915205 13:-0.178914 14:0.676682 15:-0.075166 16:-0.77492 17:-0.878788 18:-0.725118 
1 1:-0.949838 2:-0.7181 3:-0.570379 4:-0.98926 5:-0.990332 6:-0.994099 7:-0.989094 8:-0.994252 9:-0.98124 10:-0.99631 11:-0.982183 12:-0.912281 13:0.0511182 14:-0.203788 15:-0.297211 16:-0.772776 17:-0.856061 18:-0.703002 
1 1:-0.950344 2:-0.718316 3:-0.574782 4:-0.988627 5:-0.991256 6:-0.994107 7:-0.987643 8:-0.99472 9:-0.983318 10:-0.99631 11:-0.977728 12:-0.903509 13:0.217252 14:0.0796865 15:-0.18247 16:-0.792069 17:-0.848485 18:-0.677725 
1 1:-0.952249 2:-0.716579 3:-0.600872 4:-0.98879 5:-0.991827 6:-0.99375 7:-0.990603 8:-0.992023 9:-0.980927 10:-1 11:-0.991091 12:-0.923977 13:0.316933 14:-0.244938 15:-0.224967 16:-0.789925 17:-0.886364 18:-0.709321 
1 1:-0.943321 2:-0.602769 3:-0.55309 4:-0.988518 5:-0.991059 6:-0.991204 7:-0.987395 8:-0.982546 9:-0.970506 10:-0.99631 11:-1 12:-0.923977 13:0.00766773 14:0.495754 15:-0.126693 16:-0.772776 17:-0.939394 18:-0.769352 
1 1:-0.812035 2:0.0316429 3:0.115517 4:-0.991081 5:-0.991243 6:-0.99151 7:-0.924375 8:-0.738519 9:-0.786109 10:-1 11:-1 12:-0.906433 13:-0.172524 14:-0.135206 15:-0.555378 16:-0.877814 17:-1 18:-0.892575 
1 1:-0.804587 2:-0.0404621 3:0.101158 4:-0.990123 5:-0.990512 6:-0.993214 7:-0.940206 8:-0.757193 9:-0.807007 10:-1 11:-1 12:-0.918129 13:0.0792332 14:-0.222077 15:-0.61328 16:-0.832797 17:-1 18:-0.870458 
1 1:-0.813671 2:-0.00577442 3:0.140958 4:-0.990187 5:-0.991549 6:-0.993373 7:-0.918555 8:-0.767022 9:-0.796318 10:-1 11:-1 12:-0.909357 13:-0.0140575 14:-0.246244 15:-0.603718 16:-0.888532 17:-1 18:-0.873618 
1 1:-0.849386 2:0.0560853 3:-0.331266 4:-0.988302 5:-0.9733 6:-0.943349 7:-0.819604 8:0.993936 9:0.75733 10:-0.302583 11:-0.131403 12:-0.318713 13:-0.202556 14:-0.670803 15:-0.786454 16:-0.57985 17:-0.556818 18:-0.238547 
1 1:-0.869311 2:-0.403516 3:-0.60537 4:-0.991285 5:-0.981728 6:-0.971392 7:-0.902728 8:-0.0635235 9:-0.0512132 10:-0.416974 11:0.0155902 12:-0.21345 13:-0.165495 14:-0.489876 15:-0.601594 16:-0.38478 17:-0.503788 18:-0.169036 
1 1:-0.949832 2:-0.701971 3:-0.781264 4:-0.991148 5:-0.987174 6:-0.979771 7:-0.950646 8:-0.620941 9:-0.459443 10:-0.162362 11:0.0378619 12:-0.157895 13:-0.115655 14:-0.31744 15:-0.627092 16:-0.326902 17:-0.420455 18:-0.169036 
1 1:-0.811699 2:0.0342501 3:0.186986 4:-0.991653 5:-0.990264 6:-0.992219 7:-0.921259 8:-0.740994 9:-0.767057 10:-1 11:-1 12:-0.909357 13:0.0338658 14:-0.101894 15:-0.556972 16:-0.916399 17:-1 18:-0.905213 
1 1:-0.844682 2:-0.167075 3:0.0943995 4:-0.98919 5:-0.990995 6:-0.993511 7:-0.936332 8:-0.816522 9:-0.818609 10:-1 11:-1 12:-0.915205 13:0.46262 14:-0.412802 15:-0.604781 16:-0.869239 17:-1 18:-0.902054 
1 1:-0.758109 2:0.781693 3:0.769808 4:-0.990718 5:-0.985292 6:-0.983755 7:-0.947293 8:-0.717395 9:-0.602114 10:-0.929889 11:-0.861915 12:-0.850877 13:0.259425 14:-0.475506 15:-0.619655 16:-0.710611 17:-0.761364 18:-0.677725 
1 1:-0.846439 2:-0.4791 3:-0.620232 4:-0.990122 5:-0.972521 6:-0.931957 7:-0.919385 8:-0.733517 9:-0.297715 10:-0.501845 11:-0.25167 12:-0.210526 13:0.0996805 14:-0.571522 15:-0.650996 16:0.3612 17:0.094697 18:0.0552923 
1 1:0.974132 2:0.572369 3:-0.476244 4:-0.989862 5:-0.972107 6:-0.92184 7:-0.893074 8:-0.829844 9:-0.491914 10:-1 11:-0.746102 12:-0.192982 13:-0.118211 14:-0.635532 15:-0.717928 16:0.073955 17:0.450758 18:0.491311 
1 1:-0.98824 2:-0.896563 3:-0.895283 4:-0.987085 5:-0.990714 6:-0.991972 7:-0.982998 8:-0.969143 9:-0.940246 10:-0.479705 11:-0.576837 12:-0.795322 13:0.151438 14:-0.111692 15:-0.554316 16:-0.652733 17:-0.776515 18:-0.718799 
1 1:-0.987724 2:-0.898137 3:-0.894721 4:-0.988726 5:-0.989509 6:-0.990354 7:-0.983849 8:-0.966086 9:-0.942716 10:-0.498155 11:-0.599109 12:-0.809942 13:0.0255591 14:-0.089484 15:-0.335989 16:-0.646302 17:-0.795455 18:-0.706161 
1 1:-0.987333 2:-0.895862 3:-0.89168 4:-0.988612 5:-0.99178 6:-0.991714 7:-0.985548 8:-0.970472 9:-0.942133 10:-0.490775 11:-0.585746 12:-0.795322 13:-0.0805112 14:-0.10712 15:-0.393891 16:-0.581994 17:-0.731061 18:-0.696682 
1 1:-0.987992 2:-0.89099 3:-0.891941 4:-0.987661 5:-0.990493 6:-0.990261 7:-0.984721 8:-0.973607 9:-0.935525 10:-0.520295 11:-0.612472 12:-0.807018 13:-0.100958 14:-0.283475 15:-0.486321 16:-0.612004 17:-0.734848 18:-0.71564 
1 1:-0.989601 2:-0.910312 3:-0.898649 4:-0.987854 5:-0.988478 6:-0.9891 7:-0.982611 8:-0.973459 9:-0.94629 10:-0.479705 11:-0.594655 12:-0.783626 13:0.219808 14:-0.000653168 15:-0.171846 16:-0.622722 17:-0.753788 18:-0.693523 
1 1:-0.988454 2:-0.89795 3:-0.891746 4:-0.986861 5:-0.989497 6:-0.990874 7:-0.983682 8:-0.968631 9:-0.939108 10:-0.527675 11:-0.63029 12:-0.818713 13:0.289457 14:0.0509471 15:-0.495352 16:-0.669882 17:-0.780303 18:-0.731438 
1 1:-0.986851 2:-0.891033 3:-0.887828 4:-0.988426 5:-0.991414 6:-0.991004 7:-0.983322 8:-0.963612 9:-0.930129 10:-0.505535 11:-0.581292 12:-0.80117 13:0.104153 14:-0.211626 15:-0.413546 16:-0.605573 17:-0.753788 18:-0.734597 
1 1:-0.987106 2:-0.949663 3:-0.9374 4:-0.990682 5:-0.99222 6:-0.991458 7:-0.967943 8:-0.966228 9:-0.946821 10:0.0811808 11:0.233853 12:-0.362573 13:-0.15655 14:0.325931 15:-0.522975 16:-0.101822 17:-0.280303 18:0.409163 
1 1:-0.897163 2:-0.351954 3:-0.565719 4:-0.989262 5:-0.983226 6:-0.95864 7:-0.89128 8:-0.571405 9:-0.328534 10:0.217712 11:0.545657 12:0.459064 13:0.326518 14:-0.40823 15:-0.65259 16:-0.00535906 17:0.136364 18:0.526066 
1 1:-0.977876 2:-0.895054 3:-0.92346 4:-0.990068 5:-0.991519 6:-0.988939 7:-0.970588 8:-0.965795 9:-0.919049 10:-0.0405904 11:-0.0155902 12:-0.245614 13:0.19361 14:-0.235794 15:-0.383798 16:0.0460879 17:-0.0606061 18:0.361769 
1 1:-0.978033 2:-0.869142 3:-0.927083 4:-0.990225 5:-0.989808 6:-0.988959 7:-0.969951 8:-0.960182 9:-0.919771 10:-0.00738007 11:-0.224944 12:-0.248538 13:0.230032 14:-0.0751143 15:-0.566003 16:0.0653805 17:-0.113636 18:0.301738 
1 1:-0.973698 2:-0.862523 3:-0.90928 4:-0.990481 5:-0.990967 6:-0.98602 7:-0.957528 8:-0.953548 9:-0.912716 10:-0.0221402 11:-0.077951 12:-0.318713 13:0.100319 14:-0.135859 15:-0.340239 16:-0.0996785 17:-0.0909091 18:0.377567 
1 1:-0.977855 2:-0.872966 3:-0.926194 4:-0.990359 5:-0.990788 6:-0.986284 7:-0.970024 8:-0.966614 9:-0.912564 10:-0.0553506 11:-0.202673 12:-0.236842 13:-0.146965 14:0.0326584 15:-0.411952 16:-0.00321543 17:-0.0719697 18:0.121643 
1 1:-0.978239 2:-0.869698 3:-0.922216 4:-0.990589 5:-0.991322 6:-0.987898 7:-0.968483 8:-0.954456 9:-0.914156 10:-0.00369004 11:-0.233853 12:-0.277778 13:-0.00447284 14:-0.116264 15:-0.464542 16:0.0117899 17:-0.280303 18:0.244866 
1 1:-0.88149 2:-0.371033 3:-0.639282 4:-0.988563 5:-0.983337 6:-0.962565 7:-0.898963 8:-0.583523 9:-0.421491 10:0.00738007 11:0.501114 12:0.511696 13:-0.0511182 14:-0.476813 15:-0.696149 16:-0.0460879 17:-0.0227273 18:0.529226 
1 1:-0.988667 2:-0.960466 3:-0.948516 4:-0.990035 5:-0.989302 6:-0.989285 7:-0.962037 8:-0.961153 9:-0.933983 10:0.143911 11:0.331849 12:-0.178363 13:0.0677316 14:-0.122142 15:-0.567065 16:-0.294748 17:-0.382576 18:0.235387 
1 1:-0.991653 2:-0.980333 3:-0.982645 4:-0.989856 5:-0.99298 6:-0.99417 7:-0.991906 8:-0.992721 9:-0.952498 10:-0.915129 11:-0.942094 12:-0.950292 13:0.0638978 14:0.201176 15:-0.451262 16:-0.691318 17:-0.969697 18:-0.958926 
1 1:-0.674854 2:0.996914 3:0.302286 4:-0.987613 5:-0.967692 6:-0.91267 7:-0.802916 8:0.0476226 9:0.938716 10:0.0405904 11:0.804009 12:0.950292 13:-0.0964856 14:-0.617244 15:-0.750863 16:0.0289389 17:0.367424 18:0.677725 
1 1:-0.694706 2:0.940129 3:0.243616 4:-0.987896 5:-0.968663 6:-0.915626 7:-0.80897 8:-0.025636 9:0.868698 10:0.0811808 11:0.812918 12:0.973684 13:0.0466454 14:-0.656434 15:-0.751394 16:0.0675241 17:0.424242 18:0.703002 
1 1:-0.699514 2:0.89141 3:0.213802 4:-0.989087 5:-0.967808 6:-0.913635 7:-0.810821 8:-0.0116699 9:0.892611 10:0.0701107 11:0.844098 12:0.991228 13:-0.0594249 14:-0.602874 15:-0.730146 16:0.0267953 17:0.409091 18:0.737757 
1 1:-0.69872 2:0.928493 3:0.248987 4:-0.988961 5:-0.969287 6:-0.914499 7:-0.814416 8:0.0502109 9:0.928341 10:0.107011 11:0.857461 12:0.95614 13:-0.25623 14:-0.572828 15:-0.752457 16:0.0760986 17:0.393939 18:0.728278 
1 1:-0.710484 2:0.713773 3:0.114095 4:-0.988194 5:-0.971062 6:-0.925508 7:-0.831757 8:-0.0789167 9:0.698733 10:0.0332103 11:0.821826 12:0.967836 13:-0.0159744 14:-0.572828 15:-0.755644 16:0.0310825 17:0.310606 18:0.693523 
1 1:-0.703491 2:0.930303 3:0.211536 4:-0.987819 5:-0.970081 6:-0.917614 7:-0.82447 8:-0.032868 9:0.822987 10:0.110701 11:0.808463 12:0.915205 13:-0.213419 14:-0.620509 15:-0.745551 16:0.0439443 17:0.424242 18:0.823065 
1 1:-0.782793 2:0.370025 3:-0.122216 4:-0.988371 5:-0.974536 6:-0.937017 7:-0.85634 8:-0.270757 9:0.380881 10:0.125461 11:0.821826 12:0.95614 13:-0.0166134 14:-0.518615 15:-0.728552 16:0.140407 17:0.352273 18:0.750395 
1 1:-0.821554 2:0.128975 3:-0.284981 4:-0.98942 5:-0.979048 6:-0.948512 7:-0.873627 8:-0.451419 9:0.0739078 10:0.162362 11:0.790646 12:0.97076 13:-0.149521 14:-0.473547 15:-0.678619 16:0.148982 17:0.367424 18:0.78831 
1 1:-0.736801 2:0.59353 3:0.00013475 4:-0.988435 5:-0.972984 6:-0.934934 7:-0.848417 8:-0.191037 9:0.505249 10:0.0516605 11:0.821826 12:0.98538 13:-0.0185304 14:-0.538863 15:-0.722709 16:0.0803859 17:0.386364 18:0.781991 
1 1:-0.784678 2:0.0771341 3:-0.415042 4:-0.98777 5:-0.980614 6:-0.950858 7:-0.848147 8:-0.399431 9:-0.194467 10:-0.206642 11:0.318486 12:0.274854 13:0.146326 14:-0.549314 15:-0.74077 16:-0.138264 17:0.0643939 18:0.440758 
1 1:-0.967027 2:-0.78323 3:-0.843226 4:-0.989568 5:-0.987893 6:-0.975827 7:-0.955434 8:-0.889102 9:-0.803528 10:0.376384 11:0.211581 12:-0.0584795 13:0.120767 14:-0.323971 15:-0.729615 16:0.399786 17:0.00378788 18:0.507109 
1 1:-0.965678 2:-0.790008 3:-0.827482 4:-0.989388 5:-0.987476 6:-0.975018 7:-0.953223 8:-0.883434 9:-0.745283 10:0.383764 11:0.291759 12:-0.0497076 13:0.382109 14:-0.366427 15:-0.6834 16:0.333333 17:0.0643939 18:0.314376 
1 1:-0.973439 2:-0.831452 3:-0.861508 4:-0.990077 5:-0.987384 6:-0.974585 7:-0.957816 8:-0.9099 9:-0.772781 10:0.472325 11:0.327394 12:-0.0204678 13:0.0658147 14:-0.244285 15:-0.690837 16:0.393355 17:0.219697 18:0.28278 
1 1:-0.661284 2:0.938415 3:0.32564 4:-0.988659 5:-0.968336 6:-0.916544 7:-0.817168 8:0.0789272 9:0.815275 10:0.0590406 11:0.933185 12:0.94152 13:-0.315016 14:-0.586545 15:-0.742364 16:0.0782422 17:0.371212 18:0.763033 
1 1:-0.352212 2:0.83796 3:0.033001 4:-0.989341 5:-0.973178 6:-0.933908 7:-0.825173 8:-0.113412 9:0.407453 10:-0.494465 11:0.853007 12:0.868421 13:-0.147604 14:-0.601568 15:-0.755113 16:0.0718114 17:0.420455 18:0.78515 
1 1:-0.527103 2:0.734851 3:0.185985 4:-0.987401 5:-0.968508 6:-0.915582 7:-0.808538 8:0.014067 9:0.711568 10:-0.405904 11:0.821826 12:0.923977 13:-0.226198 14:-0.632266 15:-0.787517 16:-0.00321543 17:0.25 18:0.696682 
1 1:-0.970536 2:-0.764422 3:-0.803122 4:-0.987799 5:-0.988256 6:-0.978114 7:-0.958068 8:-0.9075 9:-0.77211 10:0.937269 11:0.603563 12:0.169591 13:-0.133546 14:-0.128021 15:-0.684993 16:0.631297 17:0.465909 18:0.50079 
1 1:-0.972958 2:-0.798394 3:-0.828335 4:-0.9889 5:-0.987032 6:-0.977314 7:-0.955126 8:-0.923247 9:-0.801189 10:1 11:0.621381 12:0.172515 13:-0.209585 14:-0.0653168 15:-0.658433 16:0.635584 17:0.753788 18:0.668246 
1 1:-0.96663 2:-0.795654 3:-0.802575 4:-0.991497 5:-0.985743 6:-0.976166 7:-0.957647 8:-0.908342 9:-0.773456 10:0.527675 11:0.69265 12:0.21345 13:-0.28115 14:-0.0979752 15:-0.647809 16:0.684887 17:0.590909 18:0.554502 
1 1:-0.952777 2:-0.665499 3:-0.713763 4:-0.986665 5:-0.985241 6:-0.970994 7:-0.948361 8:-0.852697 9:-0.683689 10:0.826568 11:0.910913 12:0.44152 13:0.391693 14:-0.347485 15:-0.669588 16:0.824223 17:0.708333 18:0.756714 
1 1:-0.95244 2:-0.688164 3:-0.719982 4:-0.98588 5:-0.984542 6:-0.97052 7:-0.947508 8:-0.864531 9:-0.697318 10:0.690037 11:0.915367 12:0.406433 13:0.0734824 14:-0.364468 15:-0.619124 16:0.725616 17:0.723485 18:0.78515 
1 1:-0.699272 2:0.918207 3:0.186194 4:-0.988698 5:-0.96759 6:-0.91261 7:-0.819903 8:0.00799185 9:0.820723 10:0.114391 11:0.830735 12:0.959064 13:-0.196166 14:-0.662312 15:-0.755644 16:0.0525188 17:0.356061 18:0.737757 
1 1:-0.710111 2:0.838682 3:0.11919 4:-0.987605 5:-0.970888 6:-0.920118 7:-0.838863 8:-0.1168 9:0.703803 10:0.095941 11:0.826281 12:0.953216 13:-0.105431 14:-0.619856 15:-0.751926 16:0.174705 17:0.473485 18:0.734597 
1 1:-0.993901 2:-0.947642 3:-0.990102 4:-0.99041 5:-0.991722 6:-0.993099 7:-0.992964 8:-0.975875 9:-0.967396 10:-0.915129 11:-1 12:-0.880117 13:-0.215974 14:-0.269758 15:-0.139442 16:-0.856377 17:-1 18:-0.981043 
1 1:-0.988367 2:-0.977351 3:-0.989245 4:-0.989777 5:-0.991785 6:-0.993327 7:-0.995444 8:-0.986731 9:-0.957224 10:-1 11:-0.986637 12:-0.903509 13:-0.0709265 14:0.225343 15:-0.170252 16:-0.834941 17:-1 18:-1 
1 1:-0.992581 2:-0.973959 3:-0.990424 4:-0.990561 5:-0.993104 6:-0.993027 7:-0.997014 8:-0.987608 9:-0.958882 10:-0.95572 11:-1 12:-0.885965 13:0.0728435 14:-0.0365774 15:-0.115007 16:-0.811361 17:-1 18:-1 
1 1:-0.996071 2:-0.971268 3:-0.990758 4:-0.990869 5:-0.99233 6:-0.99358 7:-0.998163 8:-0.991335 9:-0.966456 10:-0.878229 11:-1 12:-0.862573 13:-0.169329 14:0.0391901 15:-0.367331 16:-0.78135 17:-1 18:-0.993681 
1 1:-0.993165 2:-0.969622 3:-0.991832 4:-0.990935 5:-0.991503 6:-0.992046 7:-0.996266 8:-0.995068 9:-0.965579 10:-0.96679 11:-1 12:-0.888889 13:-0.214058 14:-0.112998 15:-0.241434 16:-0.834941 17:-1 18:-1 
1 1:-0.95899 2:-0.798198 3:-0.866601 4:-0.989348 5:-0.989631 6:-0.986585 7:-0.952898 8:-0.894573 9:-0.834417 10:-0.250923 11:-0.305122 12:-0.418129 13:0.0683706 14:-0.168517 15:-0.673307 16:-0.0610932 17:-0.371212 18:-0.0521327 
1 1:-0.946728 2:-0.787194 3:-0.854364 4:-0.989112 5:-0.989965 6:-0.983433 7:-0.94221 8:-0.838887 9:-0.811909 10:-0.398524 11:-0.296214 12:-0.383041 13:0.199361 14:-0.376225 15:-0.699336 16:-0.228296 17:-0.598485 18:-0.118483 
1 1:-0.965207 2:-0.820357 3:-0.869144 4:-0.991264 5:-0.98852 6:-0.986933 7:-0.957284 8:-0.902905 9:-0.848928 10:-0.206642 11:-0.291759 12:-0.426901 13:-0.179553 14:-0.159373 15:-0.677025 16:-0.0846731 17:-0.431818 18:-0.0173776 
1 1:-0.962377 2:-0.840597 3:-0.908895 4:-0.989733 5:-0.990663 6:-0.984434 7:-0.961157 8:-0.929692 9:-0.860677 10:-0.313653 11:-0.32294 12:-0.233918 13:0.12524 14:-0.186806 15:-0.62656 16:0.0439443 17:-0.306818 18:-0.0110585 
1 1:-0.71378 2:-0.116361 3:0.421647 4:-0.987963 5:-0.986381 6:-0.991672 7:-0.926783 8:-0.824651 9:-0.813415 10:-0.870849 11:-0.550111 12:-0.818713 13:0.0134185 14:-0.168517 15:-0.330677 16:-0.474812 17:-0.564394 18:-0.260664 
1 1:-0.920032 2:-0.630011 3:-0.370571 4:-0.986396 5:-0.989229 6:-0.993025 7:-0.980948 8:-0.932264 9:-0.917048 10:-0.99631 11:-0.951002 12:-0.891813 13:0.249201 14:0.081646 15:-0.384861 16:-0.70418 17:-0.965909 18:-0.807267 
1 1:-0.924708 2:-0.669645 3:-0.409855 4:-0.988176 5:-0.986998 6:-0.992494 7:-0.978862 8:-0.950007 9:-0.925453 10:-0.98524 11:-0.933185 12:-0.888889 13:0.0760383 14:-0.0731548 15:-0.364143 16:-0.708467 17:-0.943182 18:-0.807267 
1 1:-0.701021 2:-0.135814 3:0.46217 4:-0.986691 5:-0.9888 6:-0.988271 7:-0.935899 8:-0.81684 9:-0.846904 10:-0.937269 11:-0.594655 12:-0.830409 13:-0.316933 14:-0.281515 15:-0.129349 16:-0.549839 17:-0.606061 18:-0.276461 
1 1:-0.734948 2:-0.216021 3:0.4602 4:-0.987978 5:-0.987435 6:-0.991382 7:-0.936515 8:-0.821092 9:-0.853214 10:-0.896679 11:-0.554566 12:-0.839181 13:0.130351 14:-0.197257 15:-0.367331 16:-0.50268 17:-0.560606 18:-0.254344 
1 1:-0.694714 2:-0.0261539 3:0.317659 4:-0.987883 5:-0.986994 6:-0.989974 7:-0.935512 8:-0.794976 9:-0.846469 10:-0.892989 11:-0.572383 12:-0.809942 13:0.0690096 14:-0.0907903 15:-0.146348 16:-0.461951 17:-0.541667 18:-0.225908 
1 1:-0.70302 2:-0.0641748 3:0.310055 4:-0.987125 5:-0.989049 6:-0.989364 7:-0.930082 8:-0.804252 9:-0.854623 10:-0.915129 11:-0.621381 12:-0.839181 13:0.084345 14:-0.156107 15:-0.243559 16:-0.554126 17:-0.617424 18:-0.28278 
1 1:-0.927491 2:-0.614511 3:-0.374626 4:-0.98673 5:-0.988322 6:-0.99249 7:-0.973524 8:-0.927425 9:-0.913616 10:-0.97048 11:-0.951002 12:-0.891813 13:-0.0619808 14:0.282169 15:-0.224967 16:-0.792069 17:-0.988636 18:-0.823065 
1 1:-0.921327 2:-0.49628 3:-0.362591 4:-0.987347 5:-0.989643 6:-0.989662 7:-0.974088 8:-0.915798 9:-0.918855 10:-0.97048 11:-0.96882 12:-0.900585 13:0.212141 14:-0.228609 15:-0.241434 16:-0.809218 17:-0.988636 18:-0.800948 
1 1:-0.928571 2:-0.592258 3:-0.390655 4:-0.986771 5:-0.988469 6:-0.990185 7:-0.976716 8:-0.939211 9:-0.943434 10:-0.97048 11:-0.955457 12:-0.897661 13:0.44984 14:-0.31548 15:-0.351926 16:-0.785638 17:-0.950758 18:-0.750395 
1 1:-0.953427 2:-0.707067 3:-0.56199 4:-0.985079 5:-0.986679 6:-0.987513 7:-0.986193 8:-0.990308 9:-0.977376 10:-0.98155 11:-0.977728 12:-0.915205 13:-0.105431 14:0.627694 15:-0.0746348 16:-0.762058 17:-0.871212 18:-0.709321 
1 1:-0.949623 2:-0.718507 3:-0.571061 4:-0.986948 5:-0.987229 6:-0.992104 7:-0.988933 8:-0.994166 9:-0.979842 10:-0.99262 11:-0.977728 12:-0.912281 13:0.122684 14:-0.15872 15:-0.326428 16:-0.777063 17:-0.840909 18:-0.699842 
1 1:-0.950348 2:-0.718919 3:-0.575221 4:-0.985778 5:-0.989264 6:-0.992277 7:-0.988229 8:-0.994832 9:-0.983751 10:-0.99631 11:-0.977728 12:-0.903509 13:0.173802 14:0.154801 15:-0.258964 16:-0.796356 17:-0.852273 18:-0.674566 
1 1:-0.952214 2:-0.716756 3:-0.599187 4:-0.984993 5:-0.98888 6:-0.991449 7:-0.98887 8:-0.991608 9:-0.981302 10:-1 11:-0.995546 12:-0.923977 13:0.189137 14:-0.229915 15:-0.0353254 16:-0.766345 17:-0.875 18:-0.721959 
1 1:-0.943352 2:-0.604418 3:-0.555047 4:-0.985551 5:-0.98863 6:-0.98868 7:-0.987604 8:-0.981763 9:-0.969666 10:-0.99631 11:-1 12:-0.921053 13:0.113099 14:0.521881 15:-0.130412 16:-0.768489 17:-0.931818 18:-0.766193 
1 1:-0.804135 2:-0.0396094 3:0.100439 4:-0.987311 5:-0.988406 6:-0.990767 7:-0.938867 8:-0.758444 9:-0.806032 10:-1 11:-1 12:-0.918129 13:0.153355 14:-0.14435 15:-0.49429 16:-0.832797 17:-1 18:-0.870458 
1 1:-0.812057 2:0.0331112 3:0.185918 4:-0.98967 5:-0.987288 6:-0.990513 7:-0.917235 8:-0.741508 9:-0.763975 10:-1 11:-1 12:-0.909357 13:0.249201 14:-0.0633573 15:-0.549535 16:-0.888532 17:-1 18:-0.905213 
1 1:-0.844991 2:-0.169112 3:0.0890446 4:-0.986678 5:-0.988944 6:-0.992097 7:-0.934462 8:-0.817922 9:-0.817352 10:-1 11:-1 12:-0.915205 13:0.327157 14:-0.377531 15:-0.542098 16:-0.869239 17:-1 18:-0.898894 
1 1:-0.75749 2:0.775038 3:0.767586 4:-0.987758 5:-0.981721 6:-0.981638 7:-0.945933 8:-0.717203 9:-0.60217 10:-0.929889 11:-0.861915 12:-0.850877 13:0.297125 14:-0.402351 15:-0.549535 16:-0.710611 17:-0.761364 18:-0.674566 
1 1:-0.988164 2:-0.896469 3:-0.895018 4:-0.983422 5:-0.988168 6:-0.989598 7:-0.983633 8:-0.969674 9:-0.939608 10:-0.483395 11:-0.576837 12:-0.804094 13:0.171246 14:-0.124755 15:-0.506507 16:-0.65702 17:-0.776515 18:-0.731438 
1 1:-0.987384 2:-0.897991 3:-0.894211 4:-0.986144 5:-0.986673 6:-0.987815 7:-0.982008 8:-0.965032 9:-0.942808 10:-0.509225 11:-0.603563 12:-0.809942 13:0.0498403 14:0.0293926 15:-0.235591 16:-0.637728 17:-0.791667 18:-0.71248 
1 1:-0.987447 2:-0.895771 3:-0.890987 4:-0.984605 5:-0.98921 6:-0.989206 7:-0.985371 8:-0.970652 9:-0.942539 10:-0.490775 11:-0.585746 12:-0.798246 13:-0.115016 14:-0.0535598 15:-0.278088 16:-0.573419 17:-0.723485 18:-0.687204 
1 1:-0.989718 2:-0.91122 3:-0.898421 4:-0.984674 5:-0.985204 6:-0.985695 7:-0.984041 8:-0.973524 9:-0.945582 10:-0.479705 11:-0.5902 12:-0.78655 13:0.147604 14:-0.115611 15:-0.049668 16:-0.62701 17:-0.75 18:-0.690363 
1 1:-0.988516 2:-0.897438 3:-0.891868 4:-0.983514 5:-0.98628 6:-0.988365 7:-0.982195 8:-0.96843 9:-0.938688 10:-0.520295 11:-0.63029 12:-0.815789 13:0.553355 14:0.12998 15:-0.44595 16:-0.672026 17:-0.776515 18:-0.731438 
1 1:-0.986708 2:-0.890893 3:-0.88784 4:-0.985814 5:-0.988596 6:-0.988703 7:-0.98212 8:-0.963369 9:-0.929787 10:-0.501845 11:-0.585746 12:-0.80117 13:0.154633 14:-0.128021 15:-0.274369 16:-0.601286 17:-0.75 18:-0.731438 
1 1:-0.987459 2:-0.949614 3:-0.93698 4:-0.987842 5:-0.989726 6:-0.989639 7:-0.967435 8:-0.965789 9:-0.947033 10:0.118081 11:0.229399 12:-0.356725 13:0.115016 14:0.627041 15:-0.418327 16:-0.0868167 17:-0.280303 18:0.390205 
1 1:-0.897271 2:-0.352042 3:-0.56536 4:-0.986574 5:-0.98066 6:-0.956015 7:-0.895324 8:-0.571415 9:-0.326078 10:0.210332 11:0.545657 12:0.450292 13:0.461981 14:-0.352711 15:-0.631341 16:-0.0310825 17:0.140152 18:0.526066 
1 1:-0.977936 2:-0.894994 3:-0.923596 4:-0.987753 5:-0.989285 6:-0.986856 7:-0.969651 8:-0.965588 9:-0.918845 10:-0.0295203 11:-0.0111359 12:-0.236842 13:0.231949 14:-0.163945 15:-0.298805 16:0.0546624 17:-0.0454545 18:0.361769 
1 1:-0.978107 2:-0.86923 3:-0.927399 4:-0.987799 5:-0.986754 6:-0.986837 7:-0.972011 8:-0.960263 9:-0.919272 10:-0.0110701 11:-0.22049 12:-0.24269 13:0.408307 14:0.073808 15:-0.50757 16:0.091104 17:-0.109848 18:0.298578 
1 1:-0.973599 2:-0.862718 3:-0.909577 4:-0.98815 5:-0.988191 6:-0.983225 7:-0.961876 8:-0.953745 9:-0.913414 10:-0.0295203 11:-0.077951 12:-0.321637 13:0.242173 14:-0.0646636 15:-0.253121 16:-0.101822 17:-0.0909091 18:0.380727 
1 1:-0.977884 2:-0.873083 3:-0.926164 4:-0.987906 5:-0.988083 6:-0.983682 7:-0.967811 8:-0.966353 9:-0.911359 10:-0.0479705 11:-0.207127 12:-0.236842 13:-0.215335 14:0.0999347 15:-0.370518 16:-0.0203644 17:-0.0833333 18:0.134281 
1 1:-0.978434 2:-0.86958 3:-0.922289 4:-0.987718 5:-0.988642 6:-0.985394 7:-0.966888 8:-0.954079 9:-0.914909 10:0.0110701 11:-0.233853 12:-0.277778 13:0.172524 14:-0.00914435 15:-0.400797 16:-0.0096463 17:-0.280303 18:0.229068 
1 1:-0.988537 2:-0.960306 3:-0.948602 4:-0.987148 5:-0.986247 6:-0.987212 7:-0.963009 8:-0.961124 9:-0.934131 10:0.151292 11:0.336303 12:-0.178363 13:-0.0466454 14:-0.126715 15:-0.525631 16:-0.314041 17:-0.371212 18:0.257504 
1 1:-0.992095 2:-0.980244 3:-0.982332 4:-0.987171 5:-0.990964 6:-0.99237 7:-0.993902 8:-0.993046 9:-0.953205 10:-0.915129 11:-0.946548 12:-0.950292 13:0.215974 14:0.495754 15:-0.468792 16:-0.691318 17:-0.969697 18:-0.955766 
1 1:-0.694638 2:0.940642 3:0.241229 4:-0.985111 5:-0.96572 6:-0.91305 7:-0.809566 8:-0.0240872 9:0.869961 10:0.0738007 11:0.808463 12:0.967836 13:0.0913738 14:-0.608099 15:-0.734396 16:0.0675241 17:0.424242 18:0.699842 
0.57559539679699878 1:-0.699636 2:0.890841 3:0.213738 4:-0.986206 5:-0.965015 6:-0.911236 7:-0.809402 8:-0.0116442 9:0.886058 10:0.0701107 11:0.844098 12:0.991228 13:-0.0249201 14:-0.558459 15:-0.70996 16:0.039657 17:0.416667 18:0.753555 
1 1:-0.71046 2:0.715332 3:0.112038 4:-0.985218 5:-0.968174 6:-0.923737 7:-0.831226 8:-0.080975 9:0.703172 10:0.0332103 11:0.817372 12:0.97076 13:0.0428115 14:-0.521881 15:-0.741833 16:0.0546624 17:0.314394 18:0.690363 
1 1:-0.782823 2:0.369143 3:-0.122198 4:-0.985464 5:-0.971567 6:-0.934747 7:-0.858783 8:-0.270926 9:0.380586 10:0.125461 11:0.826281 12:0.953216 13:0.135463 14:-0.453952 15:-0.705179 16:0.121115 17:0.352273 18:0.750395 
1 1:-0.736621 2:0.592667 3:0.000326182 4:-0.985955 5:-0.970009 6:-0.933292 7:-0.845649 8:-0.18994 9:0.50402 10:0.0553506 11:0.821826 12:0.98538 13:0.027476 14:-0.476813 15:-0.699867 16:0.103966 17:0.382576 18:0.791469 
1 1:-0.784654 2:0.0774559 3:-0.414783 4:-0.984693 5:-0.97869 6:-0.949237 7:-0.847437 8:-0.399732 9:-0.194955 10:-0.206642 11:0.318486 12:0.274854 13:0.221086 14:-0.482038 15:-0.724834 16:-0.151125 17:0.0643939 18:0.437599 
1 1:-0.965663 2:-0.78997 3:-0.827792 4:-0.987029 5:-0.984782 6:-0.972679 7:-0.95528 8:-0.883025 9:-0.745726 10:0.391144 11:0.300668 12:-0.0497076 13:0.412141 14:-0.333769 15:-0.652058 16:0.382637 17:0.0530303 18:0.330174 
1 1:-0.973509 2:-0.83101 3:-0.861419 4:-0.987238 5:-0.984534 6:-0.971621 7:-0.953742 8:-0.90972 9:-0.772928 10:0.450185 11:0.318486 12:-0.0175439 13:0.086901 14:-0.152841 15:-0.641434 16:0.333333 17:0.200758 18:0.273302 
1 1:-0.972925 2:-0.798845 3:-0.828428 4:-0.985735 5:-0.983907 6:-0.974514 7:-0.954973 8:-0.922147 9:-0.799176 10:0.98524 11:0.621381 12:0.166667 13:-0.182748 14:0.0640105 15:-0.616467 16:0.564845 17:0.746212 18:0.677725 
0.86380302066283188 1:-0.96657 2:-0.795607 3:-0.803124 4:-0.98935 5:-0.98305 6:-0.973476 7:-0.954724 8:-0.908674 9:-0.773455 10:0.531365 11:0.688196 12:0.207602 13:-0.232588 14:-0.0463749 15:-0.6 16:0.652733 17:0.590909 18:0.535545 
1 1:-0.952542 2:-0.665303 3:-0.713542 4:-0.983285 5:-0.982837 6:-0.968431 7:-0.944492 8:-0.853117 9:-0.685005 10:0.822878 11:0.910913 12:0.44152 13:0.527796 14:-0.320052 15:-0.633997 16:0.717042 17:0.700758 18:0.740916 
1 1:-0.952405 2:-0.687642 3:-0.719938 4:-0.982165 5:-0.981276 6:-0.967446 7:-0.945371 8:-0.863806 9:-0.698076 10:0.686347 11:0.915367 12:0.409357 13:0.132907 14:-0.264533 15:-0.550066 16:0.734191 17:0.731061 18:0.781991 
1 1:-0.99391 2:-0.94781 3:-0.989963 4:-0.988037 5:-0.98934 6:-0.990678 7:-0.993868 8:-0.975705 9:-0.967781 10:-0.915129 11:-1 12:-0.880117 13:-0.120767 14:-0.241672 15:-0.0501992 16:-0.858521 17:-1 18:-0.981043 
1 1:-0.988289 2:-0.977594 3:-0.989242 4:-0.986442 5:-0.988876 6:-0.991394 7:-0.996128 8:-0.986796 9:-0.957649 10:-1 11:-0.986637 12:-0.906433 13:-0.169968 14:0.0842587 15:-0.157503 16:-0.830654 17:-1 18:-1 
1 1:-0.992582 2:-0.974555 3:-0.990349 4:-0.987911 5:-0.990251 6:-0.990807 7:-0.996703 8:-0.98801 9:-0.960095 10:-0.95572 11:-1 12:-0.885965 13:-0.0920128 14:-0.0725016 15:-0.144754 16:-0.800643 17:-1 18:-1 
1 1:-0.996066 2:-0.971275 3:-0.990762 4:-0.987506 5:-0.989611 6:-0.991771 7:-0.995341 8:-0.991195 9:-0.966435 10:-0.878229 11:-1 12:-0.859649 13:-0.186581 14:0.231875 15:-0.382205 16:-0.807074 17:-1 18:-1 
1 1:-0.959278 2:-0.798711 3:-0.86676 4:-0.986692 5:-0.98685 6:-0.98473 7:-0.953629 8:-0.894416 9:-0.835609 10:-0.258303 11:-0.300668 12:-0.418129 13:0.28115 14:-0.158067 15:-0.606906 16:-0.0868167 17:-0.386364 18:-0.0458136 
1 1:-0.964394 2:-0.841919 3:-0.862031 4:-0.986846 5:-0.989636 6:-0.983742 7:-0.943595 8:-0.887792 9:-0.8484 10:-0.214022 11:-0.216036 12:-0.438596 13:0.348882 14:-0.262573 15:-0.639309 16:-0.193998 17:-0.481061 18:-0.0300158 
1 1:-0.962368 2:-0.840032 3:-0.908795 4:-0.987463 5:-0.988761 6:-0.982595 7:-0.959288 8:-0.928002 9:-0.859495 10:-0.309963 11:-0.327394 12:-0.236842 13:0.0709265 14:-0.118223 15:-0.584595 16:0.0267953 17:-0.314394 18:-0.014218 
1 1:-0.713122 2:-0.117454 3:0.421963 4:-0.981783 5:-0.979532 6:-0.987774 7:-0.922005 8:-0.820737 9:-0.812661 10:-0.867159 11:-0.545657 12:-0.818713 13:-0.0440895 14:-0.0829523 15:-0.181408 16:-0.511254 17:-0.556818 18:-0.248025 
1 1:-0.919979 2:-0.629918 3:-0.370331 4:-0.979844 5:-0.983886 6:-0.989091 7:-0.975312 8:-0.930811 9:-0.917533 10:-0.99262 11:-0.946548 12:-0.891813 13:0.136102 14:0.269758 15:-0.33174 16:-0.736334 17:-0.962121 18:-0.800948 
1 1:-0.925169 2:-0.669412 3:-0.40892 4:-0.98314 5:-0.980302 6:-0.989057 7:-0.976815 8:-0.948973 9:-0.925807 10:-0.98155 11:-0.933185 12:-0.891813 13:0.0600639 14:0.0378837 15:-0.326428 16:-0.712755 17:-0.931818 18:-0.807267 
1 1:-0.701388 2:-0.137534 3:0.454875 4:-0.980874 5:-0.983668 6:-0.982389 7:-0.931858 8:-0.816439 9:-0.84675 10:-0.933579 11:-0.599109 12:-0.830409 13:-0.171885 14:-0.177662 15:-0.113944 16:-0.554126 17:-0.606061 18:-0.270142 
1 1:-0.735233 2:-0.216405 3:0.453634 4:-0.98269 5:-0.980694 6:-0.986848 7:-0.93301 8:-0.822061 9:-0.852253 10:-0.896679 11:-0.550111 12:-0.836257 13:0.485623 14:-0.0875245 15:-0.270651 16:-0.524116 17:-0.564394 18:-0.254344 
1 1:-0.693595 2:-0.0283045 3:0.311954 4:-0.982488 5:-0.980948 6:-0.985259 7:-0.93183 8:-0.794689 9:-0.845879 10:-0.889299 11:-0.567929 12:-0.809942 13:-0.0594249 14:-0.0829523 15:-0.0188579 16:-0.491961 17:-0.541667 18:-0.229068 
