svm_type nu_svr
kernel_type rbf
gamma 0.055555555555555552
nr_class 2
total_sv 1004
rho -44.239374594418777
probA 2.8482350893341115
SV
1 1:-0.993299 2:-0.939656 3:-0.297637 4:-0.99758 5:-0.98677 6:-0.975049 7:-0.995606 8:-0.994601 9:-0.983196 10:-0.97375 11:-0.871005 12:-0.961856 13:-1 14:-0.84251 15:-0.655263 16:-1 17:-0.886016 18:-0.691395 
1 1:-0.992772 2:-0.940928 3:-0.261971 4:-0.99624 5:-0.987623 6:-0.978138 7:-0.994181 8:-0.994419 9:-0.985006 10:-0.98125 11:-0.883562 12:-0.969485 13:-1 14:-0.821196 15:-0.643421 16:-1 17:-0.883666 18:-0.679525 
1 1:-0.993893 2:-0.946271 3:-0.274986 4:-0.997072 5:-0.987834 6:-0.979452 7:-0.995258 8:-0.993891 9:-0.987101 10:-0.97875 11:-0.871005 12:-0.974571 13:-1 14:-0.831853 15:-0.659211 16:-1 17:-0.891892 18:-0.715134 
1 1:-0.991758 2:-0.932268 3:-0.351842 4:-0.995383 5:-0.98461 6:-0.976844 7:-0.993642 8:-0.992068 9:-0.9849 10:-0.97375 11:-0.873288 12:-0.959313 13:-1 14:-0.830669 15:-0.596053 16:-1 17:-0.869565 18:-0.651039 
1 1:-0.994409 2:-0.936309 3:-0.352394 4:-0.998058 5:-0.988048 6:-0.981706 7:-0.996293 8:-0.994852 9:-0.987979 10:-0.97875 11:-0.888128 12:-0.969485 13:-1 14:-0.83659 15:-0.634211 16:-1 17:-0.886016 18:-0.690208 
1 1:-0.997535 2:-0.930599 3:-0.674052 4:-0.996628 5:-0.902255 6:-0.508764 7:-0.996377 8:-0.957429 9:-0.854533 10:-0.90875 11:-0.760274 12:-0.732994 13:-0.900249 14:-0.715808 15:-0.614474 16:-1 17:-0.850764 18:-0.785163 
1 1:-0.996257 2:-0.959498 3:-0.806907 4:-0.997203 5:-0.948218 6:-0.777338 7:-0.995801 8:-0.978252 9:-0.919909 10:-0.94375 11:-0.711187 12:-0.669421 13:-0.937656 14:-0.683837 15:-0.509211 16:-1 17:-0.822562 18:-0.706825 
1 1:-0.996223 2:-0.979445 3:-0.891167 4:-0.996212 5:-0.969749 6:-0.851649 7:-0.994696 8:-0.990176 9:-0.952624 10:-0.98 11:-0.715753 12:-0.622378 13:-0.975062 14:-0.681468 15:-0.515789 16:-1 17:-0.827262 18:-0.683086 
1 1:-0.992818 2:-0.884307 3:-0.00819109 4:-0.996298 5:-0.969633 6:-0.896951 7:-0.993023 8:-0.99217 9:-0.963989 10:-0.985 11:-0.955479 12:-0.978385 13:-1 14:-0.899349 15:-0.846053 16:-1 17:-0.890717 18:-0.859941 
1 1:-0.992717 2:-0.878093 3:-0.0753159 4:-0.99515 5:-0.970206 6:-0.890665 7:-0.993386 8:-0.990888 9:-0.961685 10:-0.98 11:-0.950913 12:-0.977114 13:-1 14:-0.893428 15:-0.832895 16:-1 17:-0.884841 18:-0.855193 
1 1:-0.994099 2:-0.877561 3:-0.112055 4:-0.997104 5:-0.971352 6:-0.895474 7:-0.995088 8:-0.991795 9:-0.966762 10:-0.9875 11:-0.96347 12:-0.979657 13:-1 14:-0.908822 15:-0.875 16:-1 17:-0.900118 18:-0.890801 
1 1:-0.993025 2:-0.880476 3:-0.0720038 4:-0.996575 5:-0.969211 6:-0.898759 7:-0.994941 8:-0.990895 9:-0.964317 10:-0.98375 11:-0.955479 12:-0.978385 13:-1 14:-0.89698 15:-0.856579 16:-1 17:-0.895417 18:-0.870623 
1 1:-0.99876 2:-0.979193 3:-0.863441 4:-0.997883 5:-0.960292 6:-0.743478 7:-0.998279 8:-0.994735 9:-0.965464 10:-0.90625 11:-0.603881 12:-0.582962 13:-0.902743 14:-0.708703 15:-0.667105 16:-0.992574 17:-0.698002 18:-0.527596 
1 1:-0.993486 2:-0.875673 3:-0.0900198 4:-0.997114 5:-0.971586 6:-0.899217 7:-0.995386 8:-0.991692 9:-0.971122 10:-0.98375 11:-0.958904 12:-0.974571 13:-1 14:-0.89698 15:-0.853947 16:-1 17:-0.890717 18:-0.819585 
1 1:-0.993245 2:-0.876498 3:-0.121178 4:-0.99637 5:-0.968947 6:-0.891209 7:-0.993997 8:-0.992767 9:-0.966558 10:-0.98625 11:-0.960046 12:-0.978385 13:-1 14:-0.905269 15:-0.864474 16:-1 17:-0.882491 18:-0.850445 
1 1:-0.993928 2:-0.870189 3:-0.0989512 4:-0.996797 5:-0.971504 6:-0.893005 7:-0.995126 8:-0.990967 9:-0.966971 10:-0.98375 11:-0.962329 12:-0.9822 13:-1 14:-0.902901 15:-0.865789 16:-1 17:-0.894242 18:-0.849258 
1 1:-0.99359 2:-0.87376 3:-0.0958452 4:-0.996965 5:-0.969232 6:-0.887973 7:-0.994821 8:-0.992155 9:-0.962184 10:-0.985 11:-0.964612 12:-0.979657 13:-1 14:-0.908822 15:-0.868421 16:-1 17:-0.898942 18:-0.876558 
1 1:-0.995655 2:-0.964664 3:-0.815493 4:-0.995474 5:-0.909238 6:-0.368013 7:-0.995985 8:-0.990322 9:-0.940083 10:-0.9275 11:-0.776256 12:-0.673236 13:-0.876559 14:-0.500296 15:-0.157895 16:-1 17:-0.740306 18:-0.634421 
1 1:-0.971932 2:-0.894998 3:-0.745022 4:-0.996648 5:-0.894412 6:-0.268398 7:-0.997934 8:-0.995561 9:-0.957867 10:-0.975 11:-0.937215 12:-0.67705 13:-0.84788 14:-0.542925 15:-0.246053 16:-1 17:-0.714454 18:-0.480119 
1 1:-0.992172 2:-0.905314 3:-0.0910931 4:-0.995387 5:-0.967932 6:-0.874649 7:-0.993577 8:-0.992072 9:-0.962748 10:-0.9975 11:-0.956621 12:-0.980928 13:-1 14:-0.913558 15:-0.855263 16:-1 17:-0.924794 18:-0.867062 
1 1:-0.996808 2:-0.995751 3:-0.972011 4:-0.995899 5:-0.991268 6:-0.957688 7:-0.993874 8:-0.995866 9:-0.993722 10:-1 11:-0.752283 12:-0.698665 13:-1 14:-0.76791 15:-0.559211 16:-1 17:-0.902468 18:-0.538279 
1 1:-0.996267 2:-0.956004 3:-0.786658 4:-0.995945 5:-0.951579 6:-0.656358 7:-0.995297 8:-0.988445 9:-0.943537 10:-0.9175 11:-0.590183 12:-0.384615 13:-0.912718 14:-0.551214 15:-0.332895 16:-1 17:-0.707403 18:-0.467062 
1 1:-0.99424 2:-0.952762 3:-0.784687 4:-0.994381 5:-0.9478 6:-0.643197 7:-0.992618 8:-0.986927 9:-0.938591 10:-0.91625 11:-0.578767 12:-0.3541 13:-0.921446 14:-0.547661 15:-0.328947 16:-1 17:-0.696827 18:-0.41365 
1 1:-0.996394 2:-0.990593 3:-0.96436 4:-0.99645 5:-0.989722 6:-0.944351 7:-0.993601 8:-0.995847 9:-0.990783 10:-0.99625 11:-0.773973 12:-0.641449 13:-0.998753 14:-0.745411 15:-0.560526 16:-1 17:-0.887192 18:-0.48724 
1 1:-0.996417 2:-0.991273 3:-0.968356 4:-0.997629 5:-0.989525 6:-0.945624 7:-0.994289 8:-0.997221 9:-0.991781 10:-0.995 11:-0.800228 12:-0.645264 13:-0.997506 14:-0.737123 15:-0.536842 16:-1 17:-0.886016 18:-0.548961 
1 1:-0.996802 2:-0.990176 3:-0.957417 4:-0.996594 5:-0.989067 6:-0.936075 7:-0.994368 8:-0.996705 9:-0.990895 10:-0.9875 11:-0.756849 12:-0.680865 13:-0.993766 14:-0.724097 15:-0.542105 16:-1 17:-0.869565 18:-0.486053 
1 1:-0.996893 2:-0.990514 3:-0.967364 4:-0.997106 5:-0.990322 6:-0.948081 7:-0.99494 8:-0.996256 9:-0.991925 10:-0.99625 11:-0.793379 12:-0.645264 13:-0.998753 14:-0.746596 15:-0.534211 16:-1 17:-0.896592 18:-0.596439 
1 1:-0.995968 2:-0.988625 3:-0.963165 4:-0.9958 5:-0.989192 6:-0.940552 7:-0.993918 8:-0.995129 9:-0.990511 10:-0.99625 11:-0.799087 12:-0.649078 13:-1 14:-0.743043 15:-0.532895 16:-1 17:-0.895417 18:-0.513353 
1 1:-0.996488 2:-0.957474 3:-0.824878 4:-0.995881 5:-0.952938 6:-0.682881 7:-0.995952 8:-0.989232 9:-0.95215 10:-0.92375 11:-0.605023 12:-0.361729 13:-0.926434 14:-0.586738 15:-0.415789 16:-1 17:-0.742656 18:-0.463501 
1 1:-0.996719 2:-0.996426 3:-0.976279 4:-0.996242 5:-0.989798 6:-0.946007 7:-0.993843 8:-0.996173 9:-0.993136 10:-0.99875 11:-0.751142 12:-0.58042 13:-0.997506 14:-0.745411 15:-0.576316 16:-1 17:-0.901293 18:-0.539466 
1 1:-0.992802 2:-0.865048 3:-0.356372 4:-0.993857 5:-0.876112 6:-0.165024 7:-0.995547 8:-0.976191 9:-0.836665 10:-0.825 11:-0.53653 12:-0.191354 13:-0.825436 14:-0.52161 15:-0.417105 16:-0.987624 17:-0.586369 18:-0.454006 
1 1:-0.993423 2:-0.868003 3:-0.385669 4:-0.994868 5:-0.88086 6:-0.188931 7:-0.995749 8:-0.977129 9:-0.843976 10:-0.825 11:-0.535388 12:-0.177368 13:-0.82793 14:-0.525163 15:-0.430263 16:-0.991337 17:-0.587544 18:-0.439763 
1 1:-0.993946 2:-0.871861 3:-0.399823 4:-0.994324 5:-0.879552 6:-0.180846 7:-0.995684 8:-0.977049 9:-0.839606 10:-0.825 11:-0.525114 12:-0.181182 13:-0.822943 14:-0.520426 15:-0.409211 16:-0.987624 17:-0.580494 18:-0.427893 
1 1:-0.994063 2:-0.869982 3:-0.38537 4:-0.994898 5:-0.880622 6:-0.163604 7:-0.996681 8:-0.975458 9:-0.837819 10:-0.82 11:-0.520548 12:-0.181182 13:-0.82419 14:-0.513321 15:-0.422368 16:-0.988861 17:-0.59577 18:-0.433828 
1 1:-0.999572 2:-0.994656 3:-0.942082 4:-0.998818 5:-0.977724 6:-0.847435 7:-0.998326 8:-0.998672 9:-0.988379 10:-0.95125 11:-0.598174 12:-0.565162 13:-0.931421 14:-0.6791 15:-0.672368 16:-1 17:-0.780259 18:-0.407715 
1 1:-0.993372 2:-0.88398 3:-0.447955 4:-0.995069 5:-0.890729 6:-0.262303 7:-0.995815 8:-0.978508 9:-0.855384 10:-0.84 11:-0.527397 12:-0.177368 13:-0.834165 14:-0.513321 15:-0.425 16:-0.993812 17:-0.608696 18:-0.448071 
1 1:-0.995126 2:-0.869841 3:-0.406838 4:-0.995371 5:-0.886551 6:-0.211257 7:-0.997058 8:-0.978595 9:-0.846508 10:-0.81375 11:-0.530822 12:-0.212969 13:-0.821696 14:-0.506217 15:-0.407895 16:-0.991337 17:-0.566392 18:-0.402967 
1 1:-0.994444 2:-0.907206 3:-0.564958 4:-0.995414 5:-0.911789 6:-0.399688 7:-0.995402 8:-0.98198 9:-0.882239 10:-0.855 11:-0.523973 12:-0.176097 13:-0.860349 14:-0.506217 15:-0.409211 16:-1 17:-0.606345 18:-0.416024 
1 1:-0.994528 2:-0.921973 3:-0.651683 4:-0.995274 5:-0.932315 6:-0.531431 7:-0.995017 8:-0.985678 9:-0.906521 10:-0.8775 11:-0.521689 12:-0.19644 13:-0.882793 14:-0.488455 15:-0.364474 16:-1 17:-0.636898 18:-0.375668 
1 1:-0.994197 2:-0.891696 3:-0.509442 4:-0.995513 5:-0.904247 6:-0.361492 7:-0.995986 8:-0.980438 9:-0.874141 10:-0.845 11:-0.528539 12:-0.184997 13:-0.845387 14:-0.497928 15:-0.397368 16:-0.997525 17:-0.606345 18:-0.416024 
1 1:-0.995771 2:-0.950129 3:-0.731321 4:-0.99572 5:-0.933418 6:-0.540238 7:-0.996084 8:-0.989144 9:-0.938967 10:-0.9075 11:-0.646119 12:-0.492689 13:-0.892768 14:-0.564239 15:-0.402632 16:-1 17:-0.714454 18:-0.552522 
1 1:-0.995308 2:-0.926821 3:-0.711876 4:-0.995737 5:-0.930078 6:-0.525763 7:-0.996449 8:-0.98489 9:-0.931551 10:-0.89375 11:-0.655251 12:-0.477432 13:-0.886534 14:-0.554766 15:-0.419737 16:-1 17:-0.702703 18:-0.497923 
1 1:-0.999377 2:-0.986944 3:-0.926212 4:-0.998629 5:-0.976811 6:-0.81614 7:-0.997752 8:-0.997257 9:-0.98492 10:-0.935 11:-0.663242 12:-0.586777 13:-0.932668 14:-0.686205 15:-0.626316 16:-1 17:-0.773208 18:-0.380415 
1 1:-0.99849 2:-0.986599 3:-0.917246 4:-0.996926 5:-0.974147 6:-0.813047 7:-0.997392 8:-0.995477 9:-0.978373 10:-0.9325 11:-0.623288 12:-0.575334 13:-0.932668 14:-0.662522 15:-0.607895 16:-1 17:-0.753231 18:-0.44451 
1 1:-0.998627 2:-0.990137 3:-0.935623 4:-0.997774 5:-0.977492 6:-0.834596 7:-0.997744 8:-0.997155 9:-0.981388 10:-0.9425 11:-0.641553 12:-0.570248 13:-0.932668 14:-0.657786 15:-0.638158 16:-1 17:-0.753231 18:-0.478932 
1 1:-0.99899 2:-0.977419 3:-0.86006 4:-0.99846 5:-0.966988 6:-0.730871 7:-0.998356 8:-0.995011 9:-0.966719 10:-0.91125 11:-0.63242 12:-0.622378 13:-0.906484 14:-0.685021 15:-0.693421 16:-0.998762 17:-0.716804 18:-0.553709 
1 1:-0.998875 2:-0.97905 3:-0.864491 4:-0.998282 5:-0.964849 6:-0.741421 7:-0.999048 8:-0.994207 9:-0.960369 10:-0.905 11:-0.599315 12:-0.590591 13:-0.905237 14:-0.683837 15:-0.678947 16:-0.993812 17:-0.699177 18:-0.597626 
1 1:-0.998287 2:-0.974821 3:-0.851978 4:-0.997443 5:-0.960293 6:-0.715264 7:-0.998161 8:-0.993602 9:-0.957039 10:-0.91 11:-0.614155 12:-0.612206 13:-0.901496 14:-0.685021 15:-0.663158 16:-0.99505 17:-0.699177 18:-0.578635 
1 1:-0.995208 2:-0.870718 3:-0.34668 4:-0.996164 5:-0.885815 6:-0.216741 7:-0.998216 8:-0.975928 9:-0.849156 10:-0.80125 11:-0.504566 12:-0.195168 13:-0.817955 14:-0.493191 15:-0.435526 16:-0.987624 17:-0.592244 18:-0.42908 
1 1:-0.990116 2:-0.876787 3:-0.491669 4:-0.995792 5:-0.906148 6:-0.34554 7:-0.996127 8:-0.979923 9:-0.881831 10:-0.85375 11:-0.520548 12:-0.228226 13:-0.842893 14:-0.502664 15:-0.431579 16:-0.998762 17:-0.584019 18:-0.395846 
1 1:-0.992095 2:-0.883728 3:-0.416692 4:-0.995055 5:-0.878003 6:-0.15539 7:-0.996402 8:-0.976591 9:-0.858053 10:-0.85625 11:-0.533105 12:-0.207883 13:-0.822943 14:-0.522795 15:-0.476316 16:-0.99505 17:-0.631022 18:-0.44451 
1 1:-0.99844 2:-0.985008 3:-0.907898 4:-0.997818 5:-0.978139 6:-0.841664 7:-0.99776 8:-0.996609 9:-0.981022 10:-0.93125 11:-0.576484 12:-0.482517 13:-0.92394 14:-0.630551 15:-0.605263 16:-0.99505 17:-0.73208 18:-0.425519 
1 1:-0.998527 2:-0.987719 3:-0.919905 4:-0.998805 5:-0.979946 6:-0.851762 7:-0.998986 8:-0.997981 9:-0.984732 10:-0.935 11:-0.579909 12:-0.506675 13:-0.921446 14:-0.603316 15:-0.636842 16:-0.99505 17:-0.725029 18:-0.361424 
1 1:-0.999111 2:-0.979566 3:-0.861372 4:-0.998668 5:-0.96156 6:-0.717668 7:-0.997986 8:-0.994787 9:-0.960256 10:-0.9125 11:-0.619863 12:-0.600763 13:-0.90399 14:-0.700414 15:-0.678947 16:-1 17:-0.714454 18:-0.628487 
1 1:-0.998742 2:-0.986983 3:-0.906523 4:-0.99794 5:-0.97523 6:-0.836617 7:-0.997729 8:-0.996886 9:-0.980468 10:-0.93125 11:-0.557078 12:-0.464717 13:-0.925187 14:-0.621078 15:-0.615789 16:-1 17:-0.733255 18:-0.404154 
1 1:-0.99865 2:-0.975639 3:-0.84345 4:-0.997868 5:-0.958747 6:-0.705905 7:-0.998034 8:-0.994594 9:-0.955841 10:-0.9075 11:-0.63242 12:-0.612206 13:-0.902743 14:-0.708703 15:-0.693421 16:-1 17:-0.694477 18:-0.617804 
1 1:-0.999083 2:-0.976817 3:-0.84741 4:-0.997673 5:-0.958263 6:-0.700926 7:-0.998866 8:-0.994907 9:-0.95687 10:-0.90875 11:-0.630137 12:-0.595677 13:-0.907731 14:-0.71344 15:-0.688158 16:-0.998762 17:-0.709753 18:-0.604748 
1 1:-0.998497 2:-0.978565 3:-0.862982 4:-0.997779 5:-0.967029 6:-0.78234 7:-0.999017 8:-0.995315 9:-0.974937 10:-0.9075 11:-0.490868 12:-0.385887 13:-0.895262 14:-0.566607 15:-0.584211 16:-0.980198 17:-0.680376 18:-0.348368 
1 1:-0.998201 2:-0.980448 3:-0.866528 4:-0.998205 5:-0.968296 6:-0.788578 7:-0.998487 8:-0.99634 9:-0.976662 10:-0.90875 11:-0.484018 12:-0.410045 13:-0.896509 14:-0.578449 15:-0.573684 16:-0.980198 17:-0.658049 18:-0.35905 
1 1:-0.994763 2:-0.870878 3:-0.415526 4:-0.996089 5:-0.874365 6:-0.17667 7:-0.997571 8:-0.978421 9:-0.8485 10:-0.82 11:-0.530822 12:-0.195168 13:-0.812968 14:-0.538188 15:-0.431579 16:-0.993812 17:-0.579318 18:-0.423145 
1 1:-0.997305 2:-0.972794 3:-0.777553 4:-0.996117 5:-0.953046 6:-0.699202 7:-0.996717 8:-0.9937 9:-0.968562 10:-0.92 11:-0.613014 12:-0.577877 13:-0.899002 14:-0.660154 15:-0.634211 16:-1 17:-0.73913 18:-0.41365 
1 1:-0.99514 2:-0.876015 3:-0.445738 4:-0.995903 5:-0.887013 6:-0.241791 7:-0.997142 8:-0.979939 9:-0.856751 10:-0.8225 11:-0.527397 12:-0.197711 13:-0.830424 14:-0.52161 15:-0.425 16:-0.997525 17:-0.576968 18:-0.430267 
1 1:-0.968289 2:-0.91654 3:-0.273264 4:-0.974418 5:-0.965108 6:-0.957298 7:-0.968257 8:-0.971074 9:-0.96083 10:-0.925 11:-0.76484 12:-0.919898 13:-0.956359 14:-0.702783 15:-0.390789 16:-0.970297 17:-0.742656 18:-0.373294 
1 1:-0.971036 2:-0.922129 3:-0.25818 4:-0.976486 5:-0.967251 6:-0.960279 7:-0.971109 8:-0.973292 9:-0.965258 10:-0.93625 11:-0.781963 12:-0.936427 13:-0.965087 14:-0.719361 15:-0.389474 16:-0.980198 17:-0.760282 18:-0.357864 
1 1:-0.971097 2:-0.928257 3:-0.264002 4:-0.975487 5:-0.967011 6:-0.959955 7:-0.969502 8:-0.973011 9:-0.969908 10:-0.9325 11:-0.770548 12:-0.941513 13:-0.962594 14:-0.726465 15:-0.413158 16:-0.977723 17:-0.749706 18:-0.35905 
1 1:-0.972585 2:-0.914241 3:-0.340352 4:-0.974687 5:-0.9672 6:-0.957423 7:-0.969264 8:-0.972191 9:-0.967836 10:-0.935 11:-0.791096 12:-0.928798 13:-0.96384 14:-0.739491 15:-0.403947 16:-0.97896 17:-0.773208 18:-0.395846 
1 1:-0.97176 2:-0.916804 3:-0.347218 4:-0.975897 5:-0.968598 6:-0.960555 7:-0.969536 8:-0.974281 9:-0.96841 10:-0.935 11:-0.799087 12:-0.937699 13:-0.962594 14:-0.728834 15:-0.328947 16:-0.980198 17:-0.761457 18:-0.387537 
1 1:-0.983748 2:-0.969754 3:-0.780995 4:-0.983111 5:-0.985708 6:-0.983829 7:-0.981717 8:-0.984649 9:-0.986249 10:-0.89125 11:-0.793379 12:-0.919898 13:-0.907731 14:-0.700414 15:-0.467105 16:-0.930693 17:-0.682726 18:-0.262908 
1 1:-0.983936 2:-0.969128 3:-0.781886 4:-0.98218 5:-0.985235 6:-0.986483 7:-0.982773 8:-0.983785 9:-0.984848 10:-0.8925 11:-0.784247 12:-0.908455 13:-0.907731 14:-0.703967 15:-0.425 16:-0.925743 17:-0.679201 18:-0.217804 
1 1:-0.985 2:-0.971529 3:-0.796333 4:-0.984433 5:-0.987032 6:-0.986512 7:-0.985231 8:-0.984824 9:-0.988044 10:-0.89375 11:-0.787671 12:-0.916084 13:-0.908978 14:-0.709888 15:-0.489474 16:-0.92203 17:-0.688602 18:-0.221365 
1 1:-0.984329 2:-0.96175 3:-0.771435 4:-0.98404 5:-0.985852 6:-0.987678 7:-0.983181 8:-0.984065 9:-0.98631 10:-0.89125 11:-0.825342 12:-0.917355 13:-0.910224 14:-0.696862 15:-0.435526 16:-0.930693 17:-0.692127 18:-0.274777 
-1 1:-0.976544 2:-0.967926 3:-0.95321 4:-0.978801 5:-0.972095 6:-0.963267 7:-0.974485 8:-0.97455 9:-0.96269 10:-0.98 11:-0.821918 12:-0.694851 13:-0.993766 14:-0.879218 15:-0.755263 16:-0.998762 17:-0.857814 18:-0.734125 
1 1:-0.975163 2:-0.943487 3:-0.789891 4:-0.97766 5:-0.930039 6:-0.76196 7:-0.973054 8:-0.959861 9:-0.900438 10:-0.91 11:-0.608447 12:-0.575334 13:-0.911471 14:-0.57016 15:-0.386842 16:-0.965347 17:-0.685076 18:-0.515727 
1 1:-0.971826 2:-0.864371 3:0.00795175 4:-0.976291 5:-0.953857 6:-0.876737 7:-0.971452 8:-0.97234 9:-0.94389 10:-0.9375 11:-0.869863 12:-0.950413 13:-0.956359 14:-0.778567 15:-0.680263 16:-0.97896 17:-0.747356 18:-0.581009 
1 1:-0.972988 2:-0.864362 3:-0.0579106 4:-0.976945 5:-0.951817 6:-0.890044 7:-0.971731 8:-0.973205 9:-0.946936 10:-0.93375 11:-0.876712 12:-0.949142 13:-0.957606 14:-0.772647 15:-0.681579 16:-0.977723 17:-0.740306 18:-0.598813 
1 1:-0.982827 2:-0.964892 3:-0.855769 4:-0.981183 5:-0.94634 6:-0.730688 7:-0.98239 8:-0.978409 9:-0.951969 10:-0.85875 11:-0.502283 12:-0.496503 13:-0.856608 14:-0.577265 15:-0.582895 16:-0.915842 17:-0.558167 18:-0.311573 
1 1:-0.971851 2:-0.857979 3:-0.0788913 4:-0.976189 5:-0.95214 6:-0.884586 7:-0.971148 8:-0.971807 9:-0.954236 10:-0.935 11:-0.888128 12:-0.942784 13:-0.9601 14:-0.773831 15:-0.689474 16:-0.976485 17:-0.756757 18:-0.540653 
1 1:-0.972182 2:-0.854428 3:-0.085819 4:-0.976679 5:-0.952817 6:-0.877508 7:-0.97084 8:-0.971955 9:-0.948528 10:-0.9375 11:-0.886986 12:-0.94787 13:-0.9601 14:-0.779751 15:-0.690789 16:-0.97896 17:-0.754407 18:-0.597626 
1 1:-0.979424 2:-0.950908 3:-0.805898 4:-0.98073 5:-0.896952 6:-0.352825 7:-0.979216 8:-0.977946 9:-0.92537 10:-0.89125 11:-0.687215 12:-0.595677 13:-0.857855 14:-0.411486 15:-0.127632 16:-0.949257 17:-0.601645 18:-0.480119 
1 1:-0.954363 2:-0.881222 3:-0.73116 4:-0.978133 5:-0.880574 6:-0.251949 7:-0.979013 8:-0.979346 9:-0.94305 10:-0.90375 11:-0.861872 12:-0.622378 13:-0.840399 14:-0.455299 15:-0.197368 16:-0.929455 17:-0.612221 18:-0.241543 
1 1:-0.973688 2:-0.936777 3:-0.774343 4:-0.974355 5:-0.930503 6:-0.632856 7:-0.971426 8:-0.967878 9:-0.922891 10:-0.89375 11:-0.492009 12:-0.298156 13:-0.895262 14:-0.474245 15:-0.255263 16:-0.954208 17:-0.611046 18:-0.207122 
1 1:-0.976652 2:-0.936117 3:-0.774334 4:-0.975913 5:-0.931101 6:-0.627888 7:-0.973909 8:-0.969183 9:-0.924332 10:-0.89125 11:-0.498858 12:-0.309599 13:-0.896509 14:-0.468324 15:-0.267105 16:-0.959158 17:-0.622797 18:-0.286647 
1 1:-0.975606 2:-0.971029 3:-0.942302 4:-0.976489 5:-0.966316 6:-0.917328 7:-0.97126 8:-0.975845 9:-0.971761 10:-0.93875 11:-0.682648 12:-0.520661 13:-0.950125 14:-0.650681 15:-0.306579 16:-0.977723 17:-0.753231 18:-0.25816 
1 1:-0.975416 2:-0.938016 3:-0.809848 4:-0.974471 5:-0.933659 6:-0.666892 7:-0.972729 8:-0.96889 9:-0.927948 10:-0.90125 11:-0.531963 12:-0.260013 13:-0.906484 14:-0.509769 15:-0.332895 16:-0.961634 17:-0.666275 18:-0.275964 
-1 1:-0.980009 2:-0.982263 3:-0.985374 4:-0.979278 5:-0.981653 6:-0.981836 7:-0.974057 8:-0.982094 9:-0.979135 10:-0.95875 11:-0.792237 12:-0.647807 13:-0.967581 14:-0.803434 15:-0.580263 16:-0.980198 17:-0.790834 18:-0.554896 
1 1:-0.974028 2:-0.846884 3:-0.343793 4:-0.974959 5:-0.859594 6:-0.142003 7:-0.974514 8:-0.956783 9:-0.821561 10:-0.815 11:-0.456621 12:-0.155753 13:-0.820449 14:-0.430432 15:-0.398684 16:-0.925743 17:-0.47121 18:-0.324629 
1 1:-0.977795 2:-0.857846 3:-0.378244 4:-0.978986 5:-0.867001 6:-0.170577 7:-0.97915 8:-0.961149 9:-0.828973 10:-0.8225 11:-0.471461 12:-0.155753 13:-0.825436 14:-0.442274 15:-0.396053 16:-0.940594 17:-0.498237 18:-0.35905 
1 1:-0.975239 2:-0.857167 3:-0.392654 4:-0.976266 5:-0.863254 6:-0.156387 7:-0.975946 8:-0.95786 9:-0.826343 10:-0.82 11:-0.452055 12:-0.131596 13:-0.822943 14:-0.436353 15:-0.389474 16:-0.930693 17:-0.477086 18:-0.308012 
1 1:-0.975393 2:-0.854411 3:-0.371787 4:-0.976073 5:-0.859758 6:-0.145614 7:-0.976805 8:-0.956847 9:-0.820133 10:-0.81375 11:-0.447489 12:-0.146853 13:-0.829177 14:-0.42688 15:-0.377632 16:-0.933168 17:-0.481786 18:-0.330564 
1 1:-0.983607 2:-0.981748 3:-0.932346 4:-0.982294 5:-0.964442 6:-0.83132 7:-0.982064 8:-0.983318 9:-0.974064 10:-0.89 11:-0.521689 12:-0.436745 13:-0.880299 14:-0.548845 15:-0.571053 16:-0.931931 17:-0.643948 18:-0.176261 
1 1:-0.975849 2:-0.868562 3:-0.43564 4:-0.977772 5:-0.87756 6:-0.243234 7:-0.977952 8:-0.960764 9:-0.840121 10:-0.83875 11:-0.458904 12:-0.154482 13:-0.837905 14:-0.422143 15:-0.377632 16:-0.941832 17:-0.520564 18:-0.35905 
1 1:-0.97654 2:-0.854889 3:-0.395141 4:-0.977849 5:-0.87246 6:-0.202449 7:-0.978055 8:-0.960772 9:-0.831205 10:-0.81875 11:-0.47032 12:-0.182454 13:-0.829177 14:-0.410302 15:-0.368421 16:-0.933168 17:-0.504113 18:-0.317507 
1 1:-0.975458 2:-0.890664 3:-0.557975 4:-0.976597 5:-0.895668 6:-0.391693 7:-0.975164 8:-0.963793 9:-0.868954 10:-0.84875 11:-0.438356 12:-0.140496 13:-0.856608 14:-0.428064 15:-0.363158 16:-0.94802 17:-0.534665 18:-0.266469 
1 1:-0.975888 2:-0.907256 3:-0.630799 4:-0.976486 5:-0.913947 6:-0.510572 7:-0.975176 8:-0.967648 9:-0.89118 10:-0.87125 11:-0.456621 12:-0.109981 13:-0.877805 14:-0.438721 15:-0.310526 16:-0.955446 17:-0.569918 18:-0.240356 
1 1:-0.976708 2:-0.876016 3:-0.495075 4:-0.977718 5:-0.88824 6:-0.343357 7:-0.977443 8:-0.963699 9:-0.855352 10:-0.8375 11:-0.454338 12:-0.122695 13:-0.845387 14:-0.425696 15:-0.361842 16:-0.943069 17:-0.498237 18:-0.299703 
1 1:-0.977618 2:-0.932692 3:-0.721207 4:-0.977738 5:-0.921125 6:-0.531024 7:-0.975647 8:-0.97257 9:-0.926222 10:-0.89375 11:-0.578767 12:-0.441831 13:-0.885287 14:-0.494375 15:-0.356579 16:-0.964109 17:-0.633373 18:-0.392285 
1 1:-0.973994 2:-0.909933 3:-0.701534 4:-0.976414 5:-0.913879 6:-0.513514 7:-0.973735 8:-0.965367 9:-0.916918 10:-0.87625 11:-0.560502 12:-0.404959 13:-0.880299 14:-0.469509 15:-0.360526 16:-0.955446 17:-0.601645 18:-0.319881 
1 1:-0.983408 2:-0.973457 3:-0.919359 4:-0.982833 5:-0.962123 6:-0.79975 7:-0.982168 8:-0.980286 9:-0.969483 10:-0.88 11:-0.539954 12:-0.435474 13:-0.877805 14:-0.545293 15:-0.521053 16:-0.935644 17:-0.620447 18:-0.125223 
1 1:-0.98364 2:-0.97376 3:-0.9114 4:-0.982509 5:-0.963063 6:-0.801608 7:-0.980445 8:-0.981085 9:-0.965725 10:-0.87875 11:-0.520548 12:-0.453274 13:-0.874065 14:-0.523979 15:-0.514474 16:-0.931931 17:-0.622797 18:-0.208309 
1 1:-0.983853 2:-0.976566 3:-0.925875 4:-0.982261 5:-0.963774 6:-0.817874 7:-0.982314 8:-0.981665 9:-0.966783 10:-0.8825 11:-0.530822 12:-0.398601 13:-0.874065 14:-0.529899 15:-0.565789 16:-0.924505 17:-0.615746 18:-0.25816 
1 1:-0.984243 2:-0.964069 3:-0.852419 4:-0.982998 5:-0.952451 6:-0.714729 7:-0.983881 8:-0.979975 9:-0.950646 10:-0.87 11:-0.52968 12:-0.51939 13:-0.866584 14:-0.559503 15:-0.611842 16:-0.929455 17:-0.591069 18:-0.308012 
1 1:-0.981162 2:-0.964202 3:-0.85622 4:-0.980752 5:-0.950537 6:-0.724214 7:-0.982422 8:-0.97723 9:-0.946559 10:-0.85375 11:-0.466895 12:-0.493961 13:-0.846633 14:-0.565423 15:-0.594737 16:-0.898515 17:-0.566392 18:-0.362611 
1 1:-0.983492 2:-0.96283 3:-0.846472 4:-0.980517 5:-0.946832 6:-0.700916 7:-0.981864 8:-0.978931 9:-0.939827 10:-0.85375 11:-0.486301 12:-0.51939 13:-0.852868 14:-0.557134 15:-0.605263 16:-0.915842 17:-0.554642 18:-0.430267 
1 1:-0.974286 2:-0.854116 3:-0.332266 4:-0.976139 5:-0.868467 6:-0.203202 7:-0.975799 8:-0.957017 9:-0.828096 10:-0.8175 11:-0.417808 12:-0.157025 13:-0.837905 14:-0.396092 15:-0.382895 16:-0.938119 17:-0.493537 18:-0.329377 
1 1:-0.968644 2:-0.858008 3:-0.474984 4:-0.976734 5:-0.887412 6:-0.33701 7:-0.976206 8:-0.96037 9:-0.862061 10:-0.825 11:-0.450913 12:-0.172282 13:-0.841646 14:-0.428064 15:-0.397368 16:-0.931931 17:-0.497062 18:-0.293769 
1 1:-0.971581 2:-0.865659 3:-0.405848 4:-0.974167 5:-0.858081 6:-0.14219 7:-0.974841 8:-0.956757 9:-0.840664 10:-0.83375 11:-0.446347 12:-0.155753 13:-0.834165 14:-0.425696 15:-0.448684 16:-0.935644 17:-0.520564 18:-0.323442 
1 1:-0.982073 2:-0.971606 3:-0.897313 4:-0.981777 5:-0.965343 6:-0.831731 7:-0.982635 8:-0.981755 9:-0.967909 10:-0.865 11:-0.461187 12:-0.370629 13:-0.861596 14:-0.465956 15:-0.517105 16:-0.903465 17:-0.568743 18:-0.12997 
1 1:-0.983977 2:-0.974807 3:-0.91214 4:-0.982851 5:-0.967243 6:-0.837344 7:-0.984954 8:-0.982778 9:-0.971472 10:-0.875 11:-0.461187 12:-0.385887 13:-0.866584 14:-0.480166 15:-0.502632 16:-0.904703 17:-0.586369 18:-0.0718101 
1 1:-0.98431 2:-0.966564 3:-0.849881 4:-0.98246 5:-0.948813 6:-0.701805 7:-0.983136 8:-0.979523 9:-0.949304 10:-0.8625 11:-0.497717 12:-0.523204 13:-0.856608 14:-0.574896 15:-0.6 16:-0.92698 17:-0.582844 18:-0.450445 
1 1:-0.984154 2:-0.975965 3:-0.900066 4:-0.98326 5:-0.961622 6:-0.824854 7:-0.982952 8:-0.983558 9:-0.969392 10:-0.88 11:-0.44863 12:-0.352829 13:-0.874065 14:-0.475429 15:-0.488158 16:-0.925743 17:-0.592244 18:-0.095549 
1 1:-0.980736 2:-0.961612 3:-0.8369 4:-0.980531 5:-0.944044 6:-0.694272 7:-0.980097 8:-0.977312 9:-0.942373 10:-0.8625 11:-0.509132 12:-0.530833 13:-0.855362 14:-0.580817 15:-0.628947 16:-0.919554 17:-0.568743 18:-0.421958 
1 1:-0.981925 2:-0.963804 3:-0.837261 4:-0.981604 5:-0.94354 6:-0.690791 7:-0.981226 8:-0.979077 9:-0.943546 10:-0.86625 11:-0.513699 12:-0.533376 13:-0.866584 14:-0.59029 15:-0.632895 16:-0.925743 17:-0.594595 18:-0.393472 
1 1:-0.980738 2:-0.965849 3:-0.85352 4:-0.981165 5:-0.952526 6:-0.773019 7:-0.983133 8:-0.980684 9:-0.961163 10:-0.85 11:-0.348174 12:-0.282899 13:-0.836658 14:-0.428064 15:-0.469737 16:-0.886139 17:-0.501763 18:-0.0908012 
1 1:-0.983564 2:-0.968812 3:-0.860504 4:-0.983876 5:-0.954821 6:-0.774754 7:-0.986367 8:-0.98191 9:-0.964411 10:-0.8625 11:-0.399543 12:-0.343929 13:-0.849127 14:-0.456483 15:-0.480263 16:-0.899752 17:-0.562867 18:-0.14184 
1 1:-0.977317 2:-0.856621 3:-0.408154 4:-0.977996 5:-0.859286 6:-0.161638 7:-0.977441 8:-0.960314 9:-0.831812 10:-0.8225 11:-0.460046 12:-0.157025 13:-0.831671 14:-0.456483 15:-0.422368 16:-0.940594 17:-0.519389 18:-0.367359 
1 1:-0.979234 2:-0.956016 3:-0.760626 4:-0.979481 5:-0.936167 6:-0.686342 7:-0.977837 8:-0.9756 9:-0.952985 10:-0.88125 11:-0.498858 12:-0.501589 13:-0.861596 14:-0.554766 15:-0.55 16:-0.938119 17:-0.615746 18:-0.140653 
1 1:-0.976634 2:-0.860469 3:-0.438073 4:-0.976749 5:-0.870561 6:-0.228286 7:-0.976178 8:-0.963153 9:-0.838572 10:-0.82125 11:-0.456621 12:-0.162111 13:-0.836658 14:-0.445826 15:-0.403947 16:-0.933168 17:-0.485311 18:-0.345994 
1 1:-0.950997 2:-0.905145 3:-0.272761 4:-0.954984 5:-0.948992 6:-0.935914 7:-0.947856 8:-0.953319 9:-0.94523 10:-0.8875 11:-0.694064 12:-0.902098 13:-0.916459 14:-0.632919 15:-0.228947 16:-0.924505 17:-0.658049 18:-0.185757 
1 1:-0.951868 2:-0.904373 3:-0.246488 4:-0.957117 5:-0.945935 6:-0.936061 7:-0.950318 8:-0.95442 9:-0.947797 10:-0.89625 11:-0.714612 12:-0.913541 13:-0.922693 14:-0.657786 15:-0.244737 16:-0.933168 17:-0.6604 18:-0.240356 
1 1:-0.949748 2:-0.906686 3:-0.254218 4:-0.956023 5:-0.946866 6:-0.937019 7:-0.947706 8:-0.952413 9:-0.947459 10:-0.8875 11:-0.678082 12:-0.91227 13:-0.918953 14:-0.63884 15:-0.209211 16:-0.928218 17:-0.623972 18:-0.134718 
1 1:-0.950599 2:-0.896502 3:-0.33065 4:-0.955876 5:-0.94757 6:-0.946892 7:-0.949438 8:-0.953225 9:-0.949938 10:-0.89 11:-0.704338 12:-0.897012 13:-0.921446 14:-0.66489 15:-0.238158 16:-0.931931 17:-0.641598 18:-0.211869 
1 1:-0.952408 2:-0.899753 3:-0.33383 4:-0.955982 5:-0.950685 6:-0.944981 7:-0.949491 8:-0.956132 9:-0.951397 10:-0.89125 11:-0.714612 12:-0.909727 13:-0.921446 14:-0.636471 15:-0.219737 16:-0.929455 17:-0.653349 18:-0.213056 
1 1:-0.967099 2:-0.946654 3:-0.713715 4:-0.966928 5:-0.969038 6:-0.970024 7:-0.963396 8:-0.968102 9:-0.966127 10:-0.83 11:-0.68379 12:-0.866497 13:-0.839152 14:-0.55003 15:-0.261842 16:-0.875 17:-0.515864 18:-0.0991098 
1 1:-0.967792 2:-0.954133 3:-0.767944 4:-0.967149 5:-0.970372 6:-0.972652 7:-0.965929 8:-0.969298 9:-0.969002 10:-0.81875 11:-0.66895 12:-0.848697 13:-0.831671 14:-0.545293 15:-0.176316 16:-0.852723 17:-0.493537 18:-0.0267062 
1 1:-0.970068 2:-0.958315 3:-0.775998 4:-0.968042 5:-0.973516 6:-0.977929 7:-0.969893 8:-0.96884 9:-0.973335 10:-0.82125 11:-0.655251 12:-0.852511 13:-0.832918 14:-0.559503 15:-0.246053 16:-0.855198 17:-0.534665 18:-0.0801187 
1 1:-0.970682 2:-0.957956 3:-0.771797 4:-0.969851 5:-0.972926 6:-0.975349 7:-0.969399 8:-0.969832 9:-0.974008 10:-0.8225 11:-0.673516 12:-0.866497 13:-0.832918 14:-0.551214 15:-0.252632 16:-0.855198 17:-0.519389 18:-0.0492582 
1 1:-0.970485 2:-0.956918 3:-0.786302 4:-0.969096 5:-0.97343 6:-0.971939 7:-0.970224 8:-0.970395 9:-0.975361 10:-0.82375 11:-0.672374 12:-0.85124 13:-0.835411 14:-0.558319 15:-0.3 16:-0.850248 17:-0.514689 18:0.051632 
1 1:-0.969003 2:-0.949964 3:-0.760025 4:-0.966785 5:-0.972303 6:-0.973098 7:-0.965727 8:-0.96949 9:-0.971393 10:-0.81875 11:-0.711187 12:-0.867769 13:-0.830424 14:-0.558319 15:-0.335526 16:-0.852723 17:-0.53819 18:-0.145401 
-1 1:-0.944535 2:-0.886609 3:-0.425864 4:-0.948535 5:-0.942213 6:-0.922188 7:-0.943438 8:-0.947533 9:-0.932447 10:-0.925 11:-0.833333 12:-0.897012 13:-0.948878 14:-0.771462 15:-0.572368 16:-0.936881 17:-0.712103 18:-0.411276 
-1 1:-0.944289 2:-0.894813 3:-0.430681 4:-0.948211 5:-0.942242 6:-0.935261 7:-0.943408 8:-0.946599 9:-0.938711 10:-0.92625 11:-0.823059 12:-0.907184 13:-0.951372 14:-0.769094 15:-0.563158 16:-0.941832 17:-0.73913 18:-0.433828 
-1 1:-0.950797 2:-0.945089 3:-0.935238 4:-0.953825 5:-0.948074 6:-0.938646 7:-0.946311 8:-0.950993 9:-0.937764 10:-0.9275 11:-0.732877 12:-0.547362 13:-0.941397 14:-0.76791 15:-0.563158 16:-0.939356 17:-0.743831 18:-0.526409 
1 1:-0.956901 2:-0.925596 3:-0.780807 4:-0.958594 5:-0.914182 6:-0.738351 7:-0.952894 8:-0.941131 9:-0.886176 10:-0.87 11:-0.510274 12:-0.46726 13:-0.875312 14:-0.458851 15:-0.231579 16:-0.915842 17:-0.569918 18:-0.335312 
1 1:-0.952039 2:-0.942085 3:-0.873722 4:-0.954035 5:-0.931787 6:-0.821062 7:-0.946227 8:-0.946557 9:-0.913143 10:-0.8925 11:-0.517123 12:-0.341386 13:-0.901496 14:-0.484902 15:-0.198684 16:-0.919554 17:-0.599295 18:-0.18457 
-1 1:-0.949445 2:-0.902658 3:-0.438661 4:-0.951623 5:-0.951144 6:-0.939992 7:-0.946542 8:-0.951439 9:-0.941922 10:-0.935 11:-0.825342 12:-0.909727 13:-0.955112 14:-0.778567 15:-0.548684 16:-0.946782 17:-0.753231 18:-0.48724 
1 1:-0.965803 2:-0.952276 3:-0.844198 4:-0.963805 5:-0.930013 6:-0.711786 7:-0.9655 8:-0.962958 9:-0.936957 10:-0.7925 11:-0.377854 12:-0.410045 13:-0.785536 14:-0.469509 15:-0.509211 16:-0.839109 17:-0.428907 18:-0.094362 
1 1:-0.949666 2:-0.839078 3:-0.083384 4:-0.954008 5:-0.932611 6:-0.863471 7:-0.945372 8:-0.950501 9:-0.933565 10:-0.8875 11:-0.807078 12:-0.910998 13:-0.911471 14:-0.666075 15:-0.523684 16:-0.923267 17:-0.631022 18:-0.311573 
1 1:-0.960378 2:-0.931816 3:-0.795463 4:-0.96107 5:-0.880752 6:-0.337768 7:-0.958968 8:-0.958634 9:-0.908542 10:-0.84 11:-0.600457 12:-0.53719 13:-0.816708 14:-0.341622 15:-0.0894737 16:-0.886139 17:-0.53114 18:-0.266469 
1 1:-0.938836 2:-0.86619 3:-0.725744 4:-0.963935 5:-0.864551 6:-0.25643 7:-0.96205 8:-0.962985 9:-0.929881 10:-0.84625 11:-0.800228 12:-0.558805 13:-0.800499 14:-0.384251 15:-0.177632 16:-0.877475 17:-0.498237 18:-0.0433234 
1 1:-0.965764 2:-0.967879 3:-0.933831 4:-0.966662 5:-0.968217 6:-0.959656 7:-0.969065 8:-0.968885 9:-0.9693 10:-0.81625 11:-0.506849 12:-0.588048 13:-0.816708 14:-0.537004 15:-0.419737 16:-0.809406 17:-0.481786 18:-0.0967359 
1 1:-0.968349 2:-0.970092 3:-0.932745 4:-0.967735 5:-0.970028 6:-0.961639 7:-0.972587 8:-0.97167 9:-0.972145 10:-0.8175 11:-0.498858 12:-0.599491 13:-0.825436 14:-0.552398 15:-0.388158 16:-0.814356 17:-0.460635 18:-0.00652819 
1 1:-0.966333 2:-0.967381 3:-0.934102 4:-0.965778 5:-0.968861 6:-0.961806 7:-0.971408 8:-0.968261 9:-0.96843 10:-0.81 11:-0.471461 12:-0.604577 13:-0.810474 14:-0.529899 15:-0.398684 16:-0.799505 17:-0.455934 18:-0.00771513 
1 1:-0.967693 2:-0.970918 3:-0.935922 4:-0.969195 5:-0.971146 6:-0.964731 7:-0.973091 8:-0.971684 9:-0.971333 10:-0.81625 11:-0.505708 12:-0.657978 13:-0.820449 14:-0.539372 15:-0.413158 16:-0.809406 17:-0.486486 18:-0.121662 
1 1:-0.968037 2:-0.971067 3:-0.937839 4:-0.968044 5:-0.971817 6:-0.960272 7:-0.973037 8:-0.971511 9:-0.973248 10:-0.82125 11:-0.510274 12:-0.642721 13:-0.822943 14:-0.561871 15:-0.497368 16:-0.811881 17:-0.482961 18:-0.0468843 
1 1:-0.966555 2:-0.967575 3:-0.932281 4:-0.966368 5:-0.968734 6:-0.959988 7:-0.971244 8:-0.968013 9:-0.966706 10:-0.805 11:-0.482877 12:-0.600763 13:-0.814214 14:-0.508585 15:-0.426316 16:-0.799505 17:-0.458284 18:-0.0658754 
1 1:-0.958815 2:-0.924361 3:-0.766098 4:-0.958854 5:-0.918368 6:-0.626986 7:-0.955237 8:-0.953598 9:-0.911084 10:-0.8575 11:-0.416667 12:-0.230769 13:-0.86783 14:-0.386619 15:-0.205263 16:-0.915842 17:-0.521739 18:-0.124036 
1 1:-0.957282 2:-0.921588 3:-0.759057 4:-0.957765 5:-0.913281 6:-0.614678 7:-0.951841 8:-0.952506 9:-0.904926 10:-0.85375 11:-0.420091 12:-0.242212 13:-0.860349 14:-0.400829 15:-0.193421 16:-0.907178 17:-0.509988 18:-0.101484 
1 1:-0.957328 2:-0.957278 3:-0.938111 4:-0.958699 5:-0.951922 6:-0.907435 7:-0.951319 8:-0.959946 9:-0.955807 10:-0.90125 11:-0.600457 12:-0.392244 13:-0.912718 14:-0.592658 15:-0.194737 16:-0.928218 17:-0.6604 18:-0.094362 
1 1:-0.953488 2:-0.951685 3:-0.930884 4:-0.956237 5:-0.949839 6:-0.901431 7:-0.946946 8:-0.954959 9:-0.953581 10:-0.89125 11:-0.593607 12:-0.387158 13:-0.901496 14:-0.559503 15:-0.181579 16:-0.919554 17:-0.627497 18:-0.0409496 
1 1:-0.953994 2:-0.954097 3:-0.936756 4:-0.956173 5:-0.953025 6:-0.910688 7:-0.946402 8:-0.958518 9:-0.954015 10:-0.8975 11:-0.622146 12:-0.347743 13:-0.907731 14:-0.577265 15:-0.198684 16:-0.92203 17:-0.650999 18:-0.120475 
1 1:-0.952477 2:-0.919878 3:-0.799539 4:-0.951918 5:-0.914098 6:-0.649091 7:-0.94836 8:-0.950737 9:-0.908314 10:-0.8525 11:-0.425799 12:-0.148125 13:-0.861596 14:-0.405565 15:-0.234211 16:-0.898515 17:-0.512338 18:-0.0373887 
1 1:-0.957963 2:-0.963469 3:-0.948422 4:-0.959106 5:-0.9555 6:-0.914738 7:-0.951313 8:-0.960717 9:-0.957499 10:-0.8875 11:-0.583333 12:-0.277813 13:-0.900249 14:-0.534636 15:-0.230263 16:-0.918317 17:-0.621622 18:-0.0682493 
1 1:-0.953551 2:-0.830321 3:-0.337729 4:-0.955673 5:-0.845452 6:-0.141422 7:-0.953922 8:-0.939391 9:-0.809456 10:-0.7875 11:-0.39726 12:-0.118881 13:-0.795511 14:-0.365305 15:-0.360526 16:-0.872525 17:-0.410106 18:-0.232047 
1 1:-0.959144 2:-0.836258 3:-0.368855 4:-0.961322 5:-0.848155 6:-0.159148 7:-0.95979 8:-0.943319 9:-0.817587 10:-0.78875 11:-0.393836 12:-0.112524 13:-0.799252 14:-0.364121 15:-0.347368 16:-0.887376 17:-0.40658 18:-0.214243 
1 1:-0.959483 2:-0.844803 3:-0.379305 4:-0.958504 5:-0.848715 6:-0.145105 7:-0.95773 8:-0.945992 9:-0.811857 10:-0.78375 11:-0.378995 12:-0.127781 13:-0.793017 14:-0.367673 15:-0.344737 16:-0.876238 17:-0.363102 18:-0.220178 
1 1:-0.95568 2:-0.837297 3:-0.364838 4:-0.957588 5:-0.84747 6:-0.137063 7:-0.956168 8:-0.938617 9:-0.812569 10:-0.7825 11:-0.378995 12:-0.125238 13:-0.790524 14:-0.346359 15:-0.352632 16:-0.875 17:-0.392479 18:-0.197626 
1 1:-0.966188 2:-0.966647 3:-0.920316 4:-0.965284 5:-0.947149 6:-0.819961 7:-0.964276 8:-0.965623 9:-0.957834 10:-0.815 11:-0.414384 12:-0.282899 13:-0.811721 14:-0.41267 15:-0.477632 16:-0.856436 17:-0.482961 18:0.074184 
1 1:-0.95677 2:-0.84998 3:-0.425815 4:-0.958076 5:-0.859143 6:-0.232181 7:-0.954872 8:-0.943612 9:-0.831705 10:-0.7975 11:-0.381279 12:-0.0896376 13:-0.801746 14:-0.336886 15:-0.340789 16:-0.883663 17:-0.413631 18:-0.2 
1 1:-0.958093 2:-0.841008 3:-0.387319 4:-0.959799 5:-0.854353 6:-0.198525 7:-0.956655 8:-0.94244 9:-0.81876 10:-0.77625 11:-0.384703 12:-0.13541 13:-0.798005 14:-0.351095 15:-0.343421 16:-0.878713 17:-0.39718 18:-0.216617 
1 1:-0.956816 2:-0.876647 3:-0.544978 4:-0.957825 5:-0.878513 6:-0.368095 7:-0.953352 8:-0.947569 9:-0.855725 10:-0.81 11:-0.372146 12:-0.0718373 13:-0.817955 14:-0.342806 15:-0.311842 16:-0.891089 17:-0.434783 18:-0.137092 
1 1:-0.956444 2:-0.891001 3:-0.628084 4:-0.95994 5:-0.900301 6:-0.492945 7:-0.955795 8:-0.951287 9:-0.875751 10:-0.83875 11:-0.396119 12:-0.0603942 13:-0.851621 14:-0.362937 15:-0.284211 16:-0.910891 17:-0.494712 18:-0.0931751 
1 1:-0.959797 2:-0.865112 3:-0.495353 4:-0.9626 5:-0.873032 6:-0.339592 7:-0.959235 8:-0.949319 9:-0.846858 10:-0.81125 11:-0.399543 12:-0.101081 13:-0.816708 14:-0.37241 15:-0.334211 16:-0.899752 17:-0.446533 18:-0.203561 
1 1:-0.956783 2:-0.91648 3:-0.708306 4:-0.957506 5:-0.900368 6:-0.503642 7:-0.952651 8:-0.952515 9:-0.907266 10:-0.85125 11:-0.478311 12:-0.371901 13:-0.850374 14:-0.430432 15:-0.319737 16:-0.904703 17:-0.53349 18:-0.275964 
1 1:-0.953817 2:-0.892954 3:-0.69092 4:-0.955543 5:-0.892929 6:-0.493649 7:-0.950804 8:-0.945175 9:-0.895998 10:-0.8375 11:-0.471461 12:-0.341386 13:-0.845387 14:-0.385435 15:-0.297368 16:-0.90099 17:-0.521739 18:-0.156083 
1 1:-0.967935 2:-0.961406 3:-0.911743 4:-0.966654 5:-0.949195 6:-0.792966 7:-0.964487 8:-0.966713 9:-0.960149 10:-0.82 11:-0.445205 12:-0.361729 13:-0.821696 14:-0.431616 15:-0.427632 16:-0.875 17:-0.507638 18:-0.0136499 
1 1:-0.966189 2:-0.959315 3:-0.899694 4:-0.96494 5:-0.946249 6:-0.789966 7:-0.963033 8:-0.965311 9:-0.947322 10:-0.80125 11:-0.402968 12:-0.332486 13:-0.804239 14:-0.424512 15:-0.423684 16:-0.855198 17:-0.470035 18:-0.0456973 
1 1:-0.968216 2:-0.96549 3:-0.916121 4:-0.967764 5:-0.950848 6:-0.812392 7:-0.965306 8:-0.96835 9:-0.955194 10:-0.8175 11:-0.400685 12:-0.333757 13:-0.814214 14:-0.411486 15:-0.475 16:-0.857673 17:-0.488837 18:-0.102671 
1 1:-0.965655 2:-0.948393 3:-0.838368 4:-0.964462 5:-0.93545 6:-0.70523 7:-0.965189 8:-0.963626 9:-0.935863 10:-0.8025 11:-0.413242 12:-0.46726 13:-0.800499 14:-0.470693 15:-0.556579 16:-0.85396 17:-0.448884 18:-0.152522 
1 1:-0.964809 2:-0.949822 3:-0.842658 4:-0.963617 5:-0.935991 6:-0.720884 7:-0.964952 8:-0.960905 9:-0.929077 10:-0.79125 11:-0.364155 12:-0.407502 13:-0.784289 14:-0.420959 15:-0.519737 16:-0.829208 17:-0.407756 18:-0.256973 
1 1:-0.96462 2:-0.94768 3:-0.837526 4:-0.963911 5:-0.930697 6:-0.683218 7:-0.961952 8:-0.959339 9:-0.930315 10:-0.8 11:-0.400685 12:-0.445645 13:-0.791771 14:-0.460036 15:-0.553947 16:-0.852723 17:-0.455934 18:-0.266469 
1 1:-0.958263 2:-0.840764 3:-0.321756 4:-0.960285 5:-0.854065 6:-0.185728 7:-0.958241 8:-0.942851 9:-0.815416 10:-0.7775 11:-0.373288 12:-0.158296 13:-0.790524 14:-0.339254 15:-0.372368 16:-0.87995 17:-0.40188 18:-0.2273 
1 1:-0.9517 2:-0.844148 3:-0.47727 4:-0.9581 5:-0.871464 6:-0.323789 7:-0.955612 8:-0.941852 9:-0.850689 10:-0.79125 11:-0.36758 12:-0.160839 13:-0.809227 14:-0.333333 15:-0.348684 16:-0.883663 17:-0.396005 18:-0.152522 
1 1:-0.954565 2:-0.849845 3:-0.391943 4:-0.957493 5:-0.846139 6:-0.132729 7:-0.955607 8:-0.940312 9:-0.831561 10:-0.795 11:-0.386986 12:-0.113795 13:-0.795511 14:-0.380699 15:-0.418421 16:-0.877475 17:-0.413631 18:-0.210682 
1 1:-0.966905 2:-0.958661 3:-0.88933 4:-0.965521 5:-0.94965 6:-0.815411 7:-0.967653 8:-0.966523 9:-0.954794 10:-0.80375 11:-0.3379 12:-0.247298 13:-0.796758 14:-0.373594 15:-0.388158 16:-0.837871 17:-0.445358 18:0.0991098 
1 1:-0.967894 2:-0.960323 3:-0.899782 4:-0.966617 5:-0.953701 6:-0.826137 7:-0.968773 8:-0.966866 9:-0.958568 10:-0.8 11:-0.360731 12:-0.232041 13:-0.795511 14:-0.348727 15:-0.396053 16:-0.826733 17:-0.459459 18:0.124036 
1 1:-0.966264 2:-0.961078 3:-0.888068 4:-0.96585 5:-0.947619 6:-0.812572 7:-0.965421 8:-0.965573 9:-0.955414 10:-0.815 11:-0.340183 12:-0.286713 13:-0.806733 14:-0.371226 15:-0.417105 16:-0.850248 17:-0.447709 18:0.0373887 
1 1:-0.966569 2:-0.947083 3:-0.822289 4:-0.965961 5:-0.930943 6:-0.68843 7:-0.966035 8:-0.964385 9:-0.927189 10:-0.8 11:-0.413242 12:-0.454545 13:-0.794264 14:-0.473061 15:-0.568421 16:-0.855198 17:-0.450059 18:-0.249852 
1 1:-0.965606 2:-0.94858 3:-0.832346 4:-0.96442 5:-0.930873 6:-0.673191 7:-0.964268 8:-0.961701 9:-0.930356 10:-0.8025 11:-0.400685 12:-0.444374 13:-0.793017 14:-0.470693 15:-0.557895 16:-0.85396 17:-0.441833 18:-0.247478 
1 1:-0.965907 2:-0.953052 3:-0.844678 4:-0.967298 5:-0.940804 6:-0.760475 7:-0.969636 8:-0.966799 9:-0.949265 10:-0.7875 11:-0.278539 12:-0.210426 13:-0.780549 14:-0.333333 15:-0.4 16:-0.814356 17:-0.408931 18:-0.00652819 
1 1:-0.96702 2:-0.95418 3:-0.848788 4:-0.967226 5:-0.940613 6:-0.765238 7:-0.970496 8:-0.966419 9:-0.949122 10:-0.78375 11:-0.257991 12:-0.221869 13:-0.781796 14:-0.31794 15:-0.375 16:-0.808168 17:-0.384254 18:0.126409 
1 1:-0.954697 2:-0.836134 3:-0.389007 4:-0.957341 5:-0.838542 6:-0.137133 7:-0.955599 8:-0.940394 9:-0.807967 10:-0.7875 11:-0.383562 12:-0.118881 13:-0.794264 14:-0.359384 15:-0.352632 16:-0.876238 17:-0.392479 18:-0.221365 
1 1:-0.964366 2:-0.946075 3:-0.761043 4:-0.964034 5:-0.923546 6:-0.680241 7:-0.960651 8:-0.963577 9:-0.941407 10:-0.835 11:-0.446347 12:-0.454545 13:-0.821696 14:-0.476613 15:-0.506579 16:-0.887376 17:-0.524089 18:-0.00534125 
1 1:-0.95864 2:-0.845983 3:-0.421659 4:-0.959922 5:-0.855478 6:-0.216739 7:-0.957976 8:-0.944154 9:-0.826169 10:-0.78875 11:-0.399543 12:-0.139224 13:-0.800499 14:-0.37241 15:-0.360526 16:-0.883663 17:-0.417156 18:-0.201187 
1 1:-0.962385 2:-0.951028 3:-0.766286 4:-0.96026 5:-0.964083 6:-0.96563 7:-0.960574 8:-0.963142 9:-0.966231 10:-0.7825 11:-0.603881 12:-0.828353 13:-0.791771 14:-0.480166 15:-0.190789 16:-0.816832 17:-0.431257 18:0.116914 
0.48677170596829089 1:-0.961208 2:-0.95049 3:-0.785753 4:-0.959073 5:-0.963761 6:-0.965845 7:-0.959791 8:-0.961254 9:-0.965838 10:-0.7675 11:-0.599315 12:-0.815639 13:-0.78803 14:-0.454115 15:-0.232895 16:-0.800743 17:-0.411281 18:0.0599407 
1 1:-0.962223 2:-0.942308 3:-0.754881 4:-0.959337 5:-0.964859 6:-0.965375 7:-0.959511 8:-0.960931 9:-0.965315 10:-0.785 11:-0.644977 12:-0.841068 13:-0.794264 14:-0.469509 15:-0.164474 16:-0.825495 17:-0.445358 18:0.119288 
-1 1:-0.929585 2:-0.87575 3:-0.423067 4:-0.93647 5:-0.929961 6:-0.92004 7:-0.929411 8:-0.931611 9:-0.926272 10:-0.905 11:-0.797945 12:-0.880483 13:-0.931421 14:-0.73357 15:-0.513158 16:-0.917079 17:-0.688602 18:-0.373294 
-1 1:-0.928735 2:-0.879251 3:-0.420577 4:-0.932989 5:-0.92829 6:-0.924956 7:-0.927073 8:-0.932023 9:-0.920158 10:-0.905 11:-0.777397 12:-0.880483 13:-0.925187 14:-0.71344 15:-0.375 16:-0.913366 17:-0.666275 18:-0.290208 
-1 1:-0.933486 2:-0.882393 3:-0.401117 4:-0.937065 5:-0.935318 6:-0.92484 7:-0.929898 8:-0.940466 9:-0.922043 10:-0.90625 11:-0.792237 12:-0.883026 13:-0.931421 14:-0.722913 15:-0.476316 16:-0.915842 17:-0.681551 18:-0.303264 
-1 1:-0.937536 2:-0.934465 3:-0.933025 4:-0.940754 5:-0.933046 6:-0.922664 7:-0.930376 8:-0.936949 9:-0.928641 10:-0.89875 11:-0.659817 12:-0.452003 13:-0.911471 14:-0.690941 15:-0.396053 16:-0.913366 17:-0.6651 18:-0.374481 
-1 1:-0.945765 2:-0.887772 3:-0.65045 4:-0.948724 5:-0.858836 6:-0.480859 7:-0.943282 8:-0.910206 9:-0.813545 10:-0.805 11:-0.494292 12:-0.571519 13:-0.80798 14:-0.452931 15:-0.413158 16:-0.857673 17:-0.52879 18:-0.450445 
-1 1:-0.933545 2:-0.876073 3:-0.371843 4:-0.939564 5:-0.934989 6:-0.923753 7:-0.932537 8:-0.938706 9:-0.918991 10:-0.90875 11:-0.797945 12:-0.881755 13:-0.933915 14:-0.730018 15:-0.369737 16:-0.919554 17:-0.693302 18:-0.369733 
-1 1:-0.933413 2:-0.888383 3:-0.425505 4:-0.936147 5:-0.935901 6:-0.923989 7:-0.930812 8:-0.936546 9:-0.928497 10:-0.9075 11:-0.757991 12:-0.880483 13:-0.928928 14:-0.716992 15:-0.418421 16:-0.918317 17:-0.673325 18:-0.237982 
-1 1:-0.942721 2:-0.835322 3:-0.0533394 4:-0.947483 5:-0.925773 6:-0.847837 7:-0.937429 8:-0.946634 9:-0.919638 10:-0.865 11:-0.783105 12:-0.913541 13:-0.889027 14:-0.625814 15:-0.544737 16:-0.898515 17:-0.576968 18:-0.336499 
-1 1:-0.946401 2:-0.829755 3:-0.0863395 4:-0.9493 5:-0.929137 6:-0.847001 7:-0.944262 8:-0.946057 9:-0.920211 10:-0.875 11:-0.807078 12:-0.914812 13:-0.899002 14:-0.640024 15:-0.555263 16:-0.913366 17:-0.60047 18:-0.392285 
1 1:-0.92904 2:-0.858576 3:-0.717094 4:-0.954966 5:-0.860386 6:-0.243542 7:-0.954096 8:-0.957945 9:-0.920313 10:-0.815 11:-0.768265 12:-0.542276 13:-0.761845 14:-0.359384 15:-0.139474 16:-0.840347 17:-0.405405 18:-0.0397626 
-1 1:-0.933845 2:-0.855898 3:-0.0832006 4:-0.939024 5:-0.912685 6:-0.82328 7:-0.931091 8:-0.937047 9:-0.912629 10:-0.895 11:-0.767123 12:-0.904641 13:-0.917706 14:-0.670811 15:-0.528947 16:-0.918317 17:-0.642773 18:-0.311573 
1 1:-0.948191 2:-0.915114 3:-0.753414 4:-0.949463 5:-0.911076 6:-0.626777 7:-0.944408 8:-0.942581 9:-0.899803 10:-0.8375 11:-0.393836 12:-0.22314 13:-0.846633 14:-0.357016 15:-0.171053 16:-0.882426 17:-0.497062 18:-0.0753709 
1 1:-0.945469 2:-0.909355 3:-0.764565 4:-0.945868 5:-0.903389 6:-0.60514 7:-0.940508 8:-0.941222 9:-0.897961 10:-0.83 11:-0.408676 12:-0.179911 13:-0.837905 14:-0.353464 15:-0.151316 16:-0.877475 17:-0.480611 18:-0.052819 
-1 1:-0.951218 2:-0.959421 3:-0.967483 4:-0.952562 5:-0.954311 6:-0.958094 7:-0.943002 8:-0.955561 9:-0.955382 10:-0.8775 11:-0.609589 12:-0.387158 13:-0.892768 14:-0.645944 15:-0.282895 16:-0.89604 17:-0.589894 18:-0.188131 
1 1:-0.949937 2:-0.82953 3:-0.333379 4:-0.952108 5:-0.839474 6:-0.144179 7:-0.947887 8:-0.93462 9:-0.802497 10:-0.7625 11:-0.378995 12:-0.118881 13:-0.780549 14:-0.328597 15:-0.355263 16:-0.856436 17:-0.343126 18:-0.217804 
1 1:-0.952579 2:-0.831875 3:-0.369296 4:-0.952828 5:-0.844555 6:-0.154448 7:-0.952262 8:-0.937752 9:-0.811344 10:-0.77125 11:-0.389269 12:-0.129053 13:-0.783042 14:-0.351095 15:-0.347368 16:-0.858911 17:-0.365452 18:-0.210682 
1 1:-0.94924 2:-0.836701 3:-0.380213 4:-0.951294 5:-0.841713 6:-0.155218 7:-0.94893 8:-0.936018 9:-0.801813 10:-0.76875 11:-0.349315 12:-0.093452 13:-0.774314 14:-0.336886 15:-0.321053 16:-0.85396 17:-0.363102 18:-0.177448 
1 1:-0.950661 2:-0.829921 3:-0.357135 4:-0.950718 5:-0.840858 6:-0.144273 7:-0.950172 8:-0.934167 9:-0.800033 10:-0.775 11:-0.353881 12:-0.123967 13:-0.783042 14:-0.333333 15:-0.353947 16:-0.861386 17:-0.365452 18:-0.224926 
1 1:-0.95804 2:-0.959321 3:-0.916885 4:-0.957626 5:-0.940198 6:-0.811768 7:-0.954372 8:-0.958774 9:-0.952936 10:-0.78875 11:-0.366438 12:-0.28417 13:-0.786783 14:-0.365305 15:-0.428947 16:-0.829208 17:-0.412456 18:0.198813 
1 1:-0.946525 2:-0.847379 3:-0.429191 4:-0.948161 5:-0.84872 6:-0.232497 7:-0.945447 8:-0.932775 9:-0.819646 10:-0.78375 11:-0.364155 12:-0.0870947 13:-0.790524 14:-0.326229 15:-0.347368 16:-0.858911 17:-0.39953 18:-0.197626 
1 1:-0.948499 2:-0.833134 3:-0.376364 4:-0.949435 5:-0.844944 6:-0.182243 7:-0.948201 8:-0.933925 9:-0.810999 10:-0.765 11:-0.348174 12:-0.102352 13:-0.778055 14:-0.310835 15:-0.290789 16:-0.852723 17:-0.33255 18:-0.103858 
1 1:-0.950026 2:-0.870008 3:-0.543866 4:-0.951811 5:-0.876158 6:-0.374991 7:-0.947979 8:-0.940286 9:-0.848185 10:-0.8 11:-0.350457 12:-0.0998093 13:-0.805486 14:-0.310835 15:-0.3 16:-0.876238 17:-0.423032 18:-0.12997 
1 1:-0.946953 2:-0.880535 3:-0.619503 4:-0.949321 5:-0.890336 6:-0.49592 7:-0.944026 8:-0.938383 9:-0.870066 10:-0.80875 11:-0.344749 12:-0.0235219 13:-0.821696 14:-0.321492 15:-0.257895 16:-0.876238 17:-0.432432 18:-0.0575668 
1 1:-0.947866 2:-0.853497 3:-0.484216 4:-0.951236 5:-0.862738 6:-0.323551 7:-0.947452 8:-0.93713 9:-0.833544 10:-0.78875 11:-0.355023 12:-0.0743802 13:-0.799252 14:-0.281231 15:-0.284211 16:-0.865099 17:-0.380729 18:-0.113353 
1 1:-0.958461 2:-0.951291 3:-0.899079 4:-0.957335 5:-0.937457 6:-0.774707 7:-0.954356 8:-0.957875 9:-0.945541 10:-0.78125 11:-0.406393 12:-0.282899 13:-0.785536 14:-0.374778 15:-0.388158 16:-0.830446 17:-0.411281 18:0.106231 
1 1:-0.947384 2:-0.832994 3:-0.322318 4:-0.950911 5:-0.843443 6:-0.192674 7:-0.947831 8:-0.933099 9:-0.807249 10:-0.7575 11:-0.33105 12:-0.12651 13:-0.770574 14:-0.321492 15:-0.35 16:-0.846535 17:-0.347826 18:-0.2 
1 1:-0.943118 2:-0.833383 3:-0.463367 4:-0.949133 5:-0.866509 6:-0.307936 7:-0.947342 8:-0.934091 9:-0.835325 10:-0.77375 11:-0.356164 12:-0.12651 13:-0.789277 14:-0.293073 15:-0.296053 16:-0.860149 17:-0.354877 18:-0.12997 
1 1:-0.949143 2:-0.844631 3:-0.385478 4:-0.950631 5:-0.841204 6:-0.122418 7:-0.949864 8:-0.935712 9:-0.820641 10:-0.78125 11:-0.360731 12:-0.12651 13:-0.779302 14:-0.332149 15:-0.4 16:-0.861386 17:-0.407756 18:-0.239169 
1 1:-0.956308 2:-0.949239 3:-0.879737 4:-0.956108 5:-0.941031 6:-0.809465 7:-0.95564 8:-0.955906 9:-0.947838 10:-0.75625 11:-0.280822 12:-0.200254 13:-0.756858 14:-0.268206 15:-0.360526 16:-0.789604 17:-0.358402 18:0.148961 
1 1:-0.96029 2:-0.957037 3:-0.900405 4:-0.959452 5:-0.946378 6:-0.8178 7:-0.959662 8:-0.961027 9:-0.951776 10:-0.77375 11:-0.293379 12:-0.209154 13:-0.769327 14:-0.284784 15:-0.347368 16:-0.79703 17:-0.383079 18:0.190504 
1 1:-0.959429 2:-0.954504 3:-0.883359 4:-0.957366 5:-0.94049 6:-0.807366 7:-0.957678 8:-0.958786 9:-0.947084 10:-0.785 11:-0.315068 12:-0.163382 13:-0.785536 14:-0.314387 15:-0.361842 16:-0.821782 17:-0.411281 18:0.127596 
1 1:-0.957739 2:-0.943973 3:-0.839622 4:-0.956536 5:-0.930519 6:-0.757908 7:-0.960828 8:-0.956869 9:-0.940584 10:-0.7475 11:-0.22032 12:-0.164654 13:-0.743142 14:-0.258733 15:-0.369737 16:-0.769802 17:-0.33255 18:0.116914 
1 1:-0.958804 2:-0.947382 3:-0.840474 4:-0.958968 5:-0.93454 6:-0.757752 7:-0.960849 8:-0.960808 9:-0.941857 10:-0.75625 11:-0.230594 12:-0.215512 13:-0.753117 14:-0.265838 15:-0.378947 16:-0.785891 17:-0.3396 18:0.148961 
1 1:-0.950925 2:-0.833845 3:-0.386989 4:-0.951849 5:-0.835329 6:-0.139084 7:-0.95127 8:-0.937186 9:-0.812653 10:-0.77125 11:-0.360731 12:-0.115067 13:-0.781796 14:-0.341622 15:-0.359211 16:-0.863861 17:-0.357227 18:-0.216617 
1 1:-0.949262 2:-0.836763 3:-0.422469 4:-0.950355 5:-0.843919 6:-0.20533 7:-0.948874 8:-0.935833 9:-0.813227 10:-0.77375 11:-0.360731 12:-0.102352 13:-0.783042 14:-0.31794 15:-0.313158 16:-0.861386 17:-0.360752 18:-0.205935 
-1 1:-0.951759 2:-0.956131 3:-0.964865 4:-0.951637 5:-0.950042 6:-0.953589 7:-0.943474 8:-0.954351 9:-0.956108 10:-0.875 11:-0.642694 12:-0.366815 13:-0.892768 14:-0.642392 15:-0.255263 16:-0.903465 17:-0.591069 18:-0.150148 
-1 1:-0.950476 2:-0.95874 3:-0.970385 4:-0.951923 5:-0.956886 6:-0.956385 7:-0.943708 8:-0.954301 9:-0.952469 10:-0.86875 11:-0.614155 12:-0.310871 13:-0.889027 14:-0.61042 15:-0.268421 16:-0.892327 17:-0.592244 18:-0.183383 
-1 1:-0.952842 2:-0.96121 3:-0.971244 4:-0.95353 5:-0.957421 6:-0.954951 7:-0.944805 8:-0.957809 9:-0.956957 10:-0.87625 11:-0.630137 12:-0.301971 13:-0.895262 14:-0.635287 15:-0.357895 16:-0.90099 17:-0.616921 18:-0.162018 
-1 1:-0.949183 2:-0.954777 3:-0.965296 4:-0.949951 5:-0.950471 6:-0.949574 7:-0.941788 8:-0.95356 9:-0.949749 10:-0.865 11:-0.606164 12:-0.239669 13:-0.88404 14:-0.625814 15:-0.325 16:-0.889851 17:-0.571093 18:-0.202374 
-1 1:-0.950143 2:-0.955467 3:-0.96858 4:-0.951037 5:-0.954427 6:-0.954872 7:-0.942024 8:-0.95471 9:-0.956031 10:-0.87625 11:-0.634703 12:-0.305785 13:-0.892768 14:-0.64476 15:-0.356579 16:-0.89604 17:-0.594595 18:-0.195252 
-1 1:-0.950316 2:-0.947422 3:-0.910363 4:-0.952863 5:-0.943774 6:-0.87351 7:-0.942859 8:-0.95123 9:-0.949355 10:-0.87375 11:-0.574201 12:-0.495232 13:-0.885287 14:-0.559503 15:-0.326316 16:-0.907178 17:-0.601645 18:-0.112166 
-1 1:-0.947929 2:-0.940226 3:-0.893329 4:-0.948446 5:-0.942 6:-0.844626 7:-0.941097 8:-0.951616 9:-0.932558 10:-0.86375 11:-0.554795 12:-0.490146 13:-0.882793 14:-0.533452 15:-0.389474 16:-0.89604 17:-0.574618 18:-0.211869 
-1 1:-0.944299 2:-0.938829 3:-0.897086 4:-0.945799 5:-0.933786 6:-0.845929 7:-0.937579 8:-0.943753 9:-0.933196 10:-0.8625 11:-0.553653 12:-0.40623 13:-0.871571 14:-0.552398 15:-0.438158 16:-0.892327 17:-0.585194 18:-0.0860534 
-1 1:-0.94541 2:-0.930892 3:-0.892064 4:-0.949911 5:-0.942587 6:-0.849871 7:-0.939126 8:-0.951347 9:-0.938073 10:-0.865 11:-0.643836 12:-0.453274 13:-0.879052 14:-0.537004 15:-0.411842 16:-0.898515 17:-0.589894 18:-0.167953 
-1 1:-0.947465 2:-0.942411 3:-0.907242 4:-0.945571 5:-0.942226 6:-0.868449 7:-0.939266 8:-0.948756 9:-0.943149 10:-0.8725 11:-0.563927 12:-0.473617 13:-0.886534 14:-0.572528 15:-0.344737 16:-0.90099 17:-0.579318 18:-0.0575668 
-1 1:-0.941006 2:-0.927289 3:-0.662201 4:-0.945498 5:-0.943665 6:-0.948509 7:-0.939487 8:-0.944666 9:-0.943382 10:-0.7775 11:-0.545662 12:-0.824539 13:-0.776808 14:-0.471877 15:-0.176316 16:-0.810644 17:-0.39953 18:-0.0124629 
1 1:-0.945978 2:-0.933559 3:-0.750607 4:-0.944181 5:-0.949334 6:-0.944338 7:-0.942485 8:-0.946077 9:-0.94771 10:-0.71625 11:-0.486301 12:-0.768595 13:-0.729426 14:-0.346359 15:-0.0355263 16:-0.758663 17:-0.303173 18:0.275964 
1 1:-0.947082 2:-0.939089 3:-0.764894 4:-0.945611 5:-0.951781 6:-0.958237 7:-0.944081 8:-0.947091 9:-0.953924 10:-0.71625 11:-0.492009 12:-0.800381 13:-0.724439 14:-0.348727 15:-0.0355263 16:-0.75495 17:-0.313749 18:0.214243 
1 1:-0.947124 2:-0.937865 3:-0.761372 4:-0.944903 5:-0.950484 6:-0.951766 7:-0.94565 8:-0.948016 9:-0.950825 10:-0.725 11:-0.494292 12:-0.772409 13:-0.736908 14:-0.362937 15:-0.0644737 16:-0.757426 17:-0.319624 18:0.210682 
1 1:-0.944159 2:-0.936509 3:-0.770149 4:-0.943009 5:-0.951173 6:-0.952814 7:-0.942404 8:-0.946253 9:-0.949413 10:-0.69875 11:-0.462329 12:-0.767324 13:-0.716958 14:-0.312019 15:0.075 16:-0.733911 17:-0.277321 18:0.292582 
1 1:-0.943722 2:-0.928851 3:-0.748534 4:-0.941553 5:-0.948746 6:-0.95241 7:-0.938121 8:-0.945472 9:-0.949824 10:-0.6975 11:-0.51484 12:-0.791481 13:-0.718204 14:-0.346359 15:0.0236842 16:-0.733911 17:-0.283196 18:0.191691 
-1 1:-0.909427 2:-0.857758 3:-0.38854 4:-0.914881 5:-0.908902 6:-0.895482 7:-0.907311 8:-0.917298 9:-0.900808 10:-0.8675 11:-0.719178 12:-0.834711 13:-0.891521 14:-0.609236 15:-0.306579 16:-0.875 17:-0.566392 18:-0.139466 
-1 1:-0.906546 2:-0.852836 3:-0.404276 4:-0.911704 5:-0.904522 6:-0.895222 7:-0.903423 8:-0.908164 9:-0.902568 10:-0.86625 11:-0.700913 12:-0.833439 13:-0.889027 14:-0.622262 15:-0.175 16:-0.875 17:-0.554642 18:-0.0136499 
-1 1:-0.912217 2:-0.859841 3:-0.394901 4:-0.915622 5:-0.913781 6:-0.905874 7:-0.907398 8:-0.918596 9:-0.90858 10:-0.875 11:-0.727169 12:-0.856325 13:-0.896509 14:-0.649497 15:-0.255263 16:-0.878713 17:-0.608696 18:-0.158457 
-1 1:-0.919742 2:-0.920895 3:-0.924622 4:-0.924911 5:-0.922346 6:-0.911252 7:-0.913597 8:-0.924692 9:-0.914963 10:-0.8675 11:-0.591324 12:-0.347743 13:-0.885287 14:-0.626998 15:-0.392105 16:-0.877475 17:-0.579318 18:-0.290208 
-1 1:-0.934111 2:-0.875732 3:-0.640068 4:-0.933637 5:-0.846628 6:-0.455927 7:-0.927653 8:-0.899993 9:-0.800501 10:-0.77125 11:-0.438356 12:-0.509218 13:-0.776808 14:-0.387803 15:-0.361842 16:-0.826733 17:-0.451234 18:-0.349555 
-1 1:-0.907885 2:-0.853415 3:-0.353522 4:-0.912263 5:-0.910773 6:-0.898774 7:-0.902236 8:-0.91184 9:-0.902557 10:-0.86375 11:-0.705479 12:-0.838525 13:-0.890274 14:-0.608052 15:-0.238158 16:-0.872525 17:-0.569918 18:-0.147774 
-1 1:-0.913163 2:-0.871389 3:-0.421615 4:-0.917295 5:-0.91708 6:-0.907576 7:-0.907093 8:-0.915638 9:-0.9101 10:-0.87375 11:-0.710046 12:-0.865226 13:-0.896509 14:-0.647128 15:-0.368421 16:-0.882426 17:-0.606345 18:-0.177448 
-1 1:-0.922284 2:-0.82126 3:0.023524 4:-0.928203 5:-0.906357 6:-0.836474 7:-0.918669 8:-0.925857 9:-0.900217 10:-0.82875 11:-0.71347 12:-0.903369 13:-0.856608 14:-0.551214 15:-0.419737 16:-0.862624 17:-0.490012 18:-0.164392 
-1 1:-0.918731 2:-0.820202 3:-0.0509774 4:-0.928 5:-0.90495 6:-0.835477 7:-0.915335 8:-0.924703 9:-0.892173 10:-0.8175 11:-0.710046 12:-0.891926 13:-0.846633 14:-0.52161 15:-0.415789 16:-0.851485 17:-0.472385 18:-0.261721 
-1 1:-0.923301 2:-0.810936 3:-0.0603111 4:-0.928993 5:-0.908077 6:-0.829007 7:-0.919123 8:-0.92854 9:-0.90231 10:-0.8325 11:-0.736301 12:-0.889383 13:-0.856608 14:-0.539372 15:-0.4 16:-0.866337 17:-0.47121 18:-0.158457 
-1 1:-0.916352 2:-0.838493 3:-0.0519715 4:-0.919819 5:-0.89876 6:-0.803881 7:-0.911821 8:-0.923264 9:-0.889484 10:-0.86375 11:-0.71347 12:-0.894469 13:-0.885287 14:-0.606868 15:-0.451316 16:-0.87995 17:-0.564042 18:-0.222552 
1 1:-0.943279 2:-0.951321 3:-0.92133 4:-0.944719 5:-0.948067 6:-0.943297 7:-0.948784 8:-0.948525 9:-0.95103 10:-0.71625 11:-0.310502 12:-0.47616 13:-0.716958 14:-0.374778 15:-0.184211 16:-0.704208 17:-0.27027 18:0.229674 
1 1:-0.943686 2:-0.95183 3:-0.91944 4:-0.943553 5:-0.948864 6:-0.94339 7:-0.94883 8:-0.949174 9:-0.950767 10:-0.7 11:-0.30137 12:-0.471074 13:-0.708229 14:-0.328597 15:-0.185526 16:-0.690594 17:-0.264395 18:0.229674 
1 1:-0.943997 2:-0.950743 3:-0.920502 4:-0.94471 5:-0.94913 6:-0.947615 7:-0.949123 8:-0.947797 9:-0.951976 10:-0.705 11:-0.329909 12:-0.48506 13:-0.709476 14:-0.348727 15:-0.177632 16:-0.695545 17:-0.306698 18:0.173887 
1 1:-0.944726 2:-0.951612 3:-0.920402 4:-0.94475 5:-0.950203 6:-0.944728 7:-0.948858 8:-0.948544 9:-0.952394 10:-0.71375 11:-0.326484 12:-0.47616 13:-0.720698 14:-0.340438 15:-0.188158 16:-0.69802 17:-0.299647 18:0.221365 
1 1:-0.945886 2:-0.95237 3:-0.920738 4:-0.946064 5:-0.951129 6:-0.947072 7:-0.950731 8:-0.95143 9:-0.953883 10:-0.7075 11:-0.318493 12:-0.497775 13:-0.710723 14:-0.341622 15:-0.201316 16:-0.691832 17:-0.291422 18:0.181009 
1 1:-0.926689 2:-0.89847 3:-0.740245 4:-0.927538 5:-0.884988 6:-0.585603 7:-0.921074 8:-0.924821 9:-0.881587 10:-0.79625 11:-0.305936 12:-0.149396 13:-0.806733 14:-0.30373 15:-0.140789 16:-0.832921 17:-0.372503 18:0.153709 
1 1:-0.92536 2:-0.89621 3:-0.746673 4:-0.929075 5:-0.89046 6:-0.590569 7:-0.91961 8:-0.925835 9:-0.880981 10:-0.78625 11:-0.321918 12:-0.150668 13:-0.800499 14:-0.26939 15:-0.118421 16:-0.82302 17:-0.380729 18:0.00296736 
-1 1:-0.930396 2:-0.942109 3:-0.951195 4:-0.930729 5:-0.941274 6:-0.938973 7:-0.919878 8:-0.938409 9:-0.935844 10:-0.82625 11:-0.496575 12:-0.0921805 13:-0.84414 14:-0.519242 15:-0.147368 16:-0.846535 17:-0.478261 18:0.00771513 
1 1:-0.931495 2:-0.809737 3:-0.326862 4:-0.933465 5:-0.822265 6:-0.11943 7:-0.930199 8:-0.917981 9:-0.78617 10:-0.725 11:-0.308219 12:-0.0718373 13:-0.735661 14:-0.278863 15:-0.297368 16:-0.808168 17:-0.256169 18:-0.138279 
1 1:-0.931024 2:-0.817089 3:-0.353988 4:-0.932328 5:-0.825985 6:-0.142385 7:-0.928808 8:-0.921285 9:-0.786046 10:-0.725 11:-0.311644 12:-0.0731087 13:-0.738155 14:-0.287152 15:-0.326316 16:-0.799505 17:-0.274971 18:-0.154896 
1 1:-0.93059 2:-0.818917 3:-0.376567 4:-0.93286 5:-0.823575 6:-0.128354 7:-0.927785 8:-0.917453 9:-0.783853 10:-0.71875 11:-0.280822 12:-0.0616656 13:-0.735661 14:-0.278863 15:-0.277632 16:-0.798267 17:-0.256169 18:-0.0753709 
1 1:-0.932211 2:-0.814297 3:-0.344703 4:-0.933791 5:-0.830223 6:-0.137541 7:-0.930533 8:-0.916591 9:-0.793212 10:-0.7275 11:-0.302511 12:-0.093452 13:-0.738155 14:-0.259917 15:-0.302632 16:-0.804455 17:-0.287897 18:-0.132344 
1 1:-0.943632 2:-0.946161 3:-0.90397 4:-0.942892 5:-0.928114 6:-0.800784 7:-0.93881 8:-0.944224 9:-0.936036 10:-0.74125 11:-0.303653 12:-0.115067 13:-0.729426 14:-0.262285 15:-0.339474 16:-0.777228 17:-0.313749 18:0.252226 
1 1:-0.93026 2:-0.826924 3:-0.409962 4:-0.931566 5:-0.833797 6:-0.220673 7:-0.928515 8:-0.917064 9:-0.79951 10:-0.74125 11:-0.305936 12:-0.034965 13:-0.755611 14:-0.265838 15:-0.309211 16:-0.814356 17:-0.298472 18:-0.134718 
1 1:-0.93148 2:-0.817059 3:-0.368669 4:-0.930372 5:-0.826146 6:-0.158711 7:-0.92782 8:-0.919496 9:-0.791595 10:-0.7225 11:-0.30137 12:-0.101081 13:-0.735661 14:-0.242155 15:-0.259211 16:-0.794554 17:-0.264395 18:-0.0931751 
1 1:-0.926337 2:-0.852588 3:-0.533195 4:-0.929597 5:-0.853914 6:-0.344865 7:-0.921807 8:-0.922051 9:-0.825283 10:-0.75 11:-0.267123 12:-0.0311507 13:-0.763092 14:-0.233866 15:-0.259211 16:-0.810644 17:-0.26557 18:-0.0397626 
1 1:-0.929416 2:-0.863314 3:-0.595961 4:-0.928326 5:-0.87501 6:-0.501543 7:-0.924363 8:-0.924075 9:-0.850032 10:-0.7825 11:-0.305936 12:-0.0298792 13:-0.793017 14:-0.252812 15:-0.196053 16:-0.834158 17:-0.354877 18:-0.011276 
1 1:-0.931138 2:-0.834258 3:-0.472442 4:-0.932884 5:-0.848568 6:-0.306151 7:-0.928894 8:-0.919291 9:-0.81424 10:-0.7475 11:-0.28653 12:-0.0667514 13:-0.755611 14:-0.246892 15:-0.271053 16:-0.819307 17:-0.303173 18:-0.0278932 
1 1:-0.933555 2:-0.819968 3:-0.317243 4:-0.935243 5:-0.829714 6:-0.165264 7:-0.932475 8:-0.918729 9:-0.792875 10:-0.72125 11:-0.272831 12:-0.0807374 13:-0.736908 14:-0.219657 15:-0.286842 16:-0.808168 17:-0.26087 18:-0.0682493 
1 1:-0.924641 2:-0.821865 3:-0.453295 4:-0.931644 5:-0.844865 6:-0.302669 7:-0.928001 8:-0.917591 9:-0.824755 10:-0.7275 11:-0.288813 12:-0.0858233 13:-0.743142 14:-0.252812 15:-0.327632 16:-0.803218 17:-0.27027 18:-0.0967359 
1 1:-0.92794 2:-0.829005 3:-0.377872 4:-0.933507 5:-0.822465 6:-0.126238 7:-0.929797 8:-0.918743 9:-0.802768 10:-0.745 11:-0.323059 12:-0.048951 13:-0.75187 14:-0.282416 15:-0.371053 16:-0.816832 17:-0.316099 18:-0.0706231 
1 1:-0.943977 2:-0.939759 3:-0.875259 4:-0.94267 5:-0.929262 6:-0.795583 7:-0.944049 8:-0.942278 9:-0.932806 10:-0.7075 11:-0.208904 12:-0.125238 13:-0.71197 14:-0.212552 15:-0.256579 16:-0.741337 17:-0.273796 18:0.210682 
1 1:-0.943842 2:-0.942573 3:-0.887732 4:-0.943932 5:-0.933312 6:-0.813444 7:-0.94232 8:-0.946099 9:-0.939743 10:-0.70625 11:-0.232877 12:-0.160839 13:-0.703242 14:-0.19479 15:-0.25 16:-0.730198 17:-0.264395 18:0.299703 
1 1:-0.946115 2:-0.944244 3:-0.875349 4:-0.944881 5:-0.929844 6:-0.796114 7:-0.942403 8:-0.946956 9:-0.937093 10:-0.72875 11:-0.223744 12:-0.137953 13:-0.724439 14:-0.206631 15:-0.275 16:-0.764851 17:-0.291422 18:0.245104 
-1 1:-0.945049 2:-0.927847 3:-0.808004 4:-0.943416 5:-0.909665 6:-0.670567 7:-0.942777 8:-0.943525 9:-0.905362 10:-0.7325 11:-0.349315 12:-0.393516 13:-0.729426 14:-0.374778 15:-0.493421 16:-0.777228 17:-0.314924 18:-0.103858 
1 1:-0.943011 2:-0.9344 3:-0.829312 4:-0.94532 5:-0.921845 6:-0.742919 7:-0.94755 8:-0.947462 9:-0.931607 10:-0.69875 11:-0.124429 12:-0.0998093 13:-0.689526 14:-0.168739 15:-0.314474 16:-0.709158 17:-0.19859 18:0.268843 
1 1:-0.942379 2:-0.93537 3:-0.835052 4:-0.943029 5:-0.922066 6:-0.750002 7:-0.945481 8:-0.945649 9:-0.930306 10:-0.69875 11:-0.135845 12:-0.150668 13:-0.694514 14:-0.181764 15:-0.318421 16:-0.716584 17:-0.247944 18:0.216617 
1 1:-0.932096 2:-0.815501 3:-0.384339 4:-0.932845 5:-0.815272 6:-0.133262 7:-0.931876 8:-0.91604 9:-0.790218 10:-0.74 11:-0.275114 12:-0.0807374 13:-0.745636 14:-0.280047 15:-0.321053 16:-0.811881 17:-0.27027 18:-0.137092 
1 1:-0.934199 2:-0.824572 3:-0.422994 4:-0.935677 5:-0.829787 6:-0.191836 7:-0.932594 8:-0.923441 9:-0.80272 10:-0.73625 11:-0.302511 12:-0.0603942 13:-0.755611 14:-0.264654 15:-0.298684 16:-0.818069 17:-0.287897 18:-0.120475 
-1 1:-0.936191 2:-0.93926 3:-0.95579 4:-0.934806 5:-0.938986 6:-0.941126 7:-0.924247 8:-0.939302 9:-0.938921 10:-0.82625 11:-0.541096 12:-0.121424 13:-0.846633 14:-0.523979 15:-0.0710526 16:-0.855198 17:-0.47121 18:0.0183976 
-1 1:-0.93141 2:-0.942373 3:-0.956257 4:-0.93376 5:-0.938737 6:-0.937792 7:-0.921752 8:-0.936464 9:-0.937814 10:-0.82125 11:-0.533105 12:-0.221869 13:-0.84414 14:-0.512137 15:-0.151316 16:-0.84901 17:-0.473561 18:-0.0492582 
-1 1:-0.933897 2:-0.940367 3:-0.949579 4:-0.934884 5:-0.937937 6:-0.943837 7:-0.924932 8:-0.937214 9:-0.935391 10:-0.8225 11:-0.533105 12:-0.229498 13:-0.84788 14:-0.520426 15:-0.0328947 16:-0.85396 17:-0.475911 18:-0.0587537 
-1 1:-0.936092 2:-0.943113 3:-0.959576 4:-0.937444 5:-0.941487 6:-0.942354 7:-0.924839 8:-0.940549 9:-0.942351 10:-0.82875 11:-0.544521 12:-0.136682 13:-0.845387 14:-0.544109 15:-0.139474 16:-0.857673 17:-0.507638 18:-0.0848665 
-1 1:-0.934307 2:-0.942702 3:-0.958714 4:-0.933789 5:-0.938286 6:-0.934421 7:-0.922412 8:-0.939661 9:-0.938312 10:-0.83125 11:-0.546804 12:-0.127781 13:-0.851621 14:-0.552398 15:-0.184211 16:-0.855198 17:-0.515864 18:-0.0670623 
-1 1:-0.923547 2:-0.920117 3:-0.884788 4:-0.92732 5:-0.918358 6:-0.844546 7:-0.916366 8:-0.926688 9:-0.917084 10:-0.8225 11:-0.509132 12:-0.319771 13:-0.839152 14:-0.454115 15:-0.175 16:-0.852723 17:-0.481786 18:-0.031454 
-1 1:-0.928071 2:-0.928215 3:-0.888734 4:-0.929857 5:-0.92386 6:-0.850316 7:-0.919292 8:-0.932022 9:-0.924232 10:-0.82875 11:-0.477169 12:-0.356643 13:-0.842893 14:-0.463588 15:-0.275 16:-0.855198 17:-0.480611 18:0.00771513 
-1 1:-0.928141 2:-0.923229 3:-0.875473 4:-0.930194 5:-0.91948 6:-0.820966 7:-0.919032 8:-0.933345 9:-0.907763 10:-0.8275 11:-0.487443 12:-0.371901 13:-0.841646 14:-0.477798 15:-0.368421 16:-0.856436 17:-0.488837 18:-0.0587537 
-1 1:-0.92336 2:-0.919387 3:-0.884798 4:-0.925149 5:-0.918776 6:-0.834646 7:-0.915362 8:-0.92521 9:-0.916596 10:-0.815 11:-0.477169 12:-0.299428 13:-0.832918 14:-0.462404 15:-0.334211 16:-0.845297 17:-0.467685 18:0.0373887 
-1 1:-0.923976 2:-0.910943 3:-0.875163 4:-0.926623 5:-0.921721 6:-0.826608 7:-0.915061 8:-0.927115 9:-0.910471 10:-0.81625 11:-0.541096 12:-0.3452 13:-0.836658 14:-0.456483 15:-0.284211 16:-0.845297 17:-0.479436 18:-0.0385757 
-1 1:-0.927443 2:-0.924934 3:-0.895292 4:-0.929563 5:-0.925711 6:-0.863037 7:-0.916942 8:-0.932645 9:-0.925288 10:-0.83375 11:-0.517123 12:-0.3541 13:-0.850374 14:-0.456483 15:-0.255263 16:-0.857673 17:-0.508813 18:0.0682493 
-1 1:-0.923604 2:-0.925465 3:-0.915668 4:-0.927086 5:-0.920545 6:-0.835052 7:-0.915799 8:-0.928824 9:-0.921817 10:-0.84 11:-0.503425 12:-0.141767 13:-0.856608 14:-0.460036 15:-0.161842 16:-0.860149 17:-0.508813 18:0.0136499 
1 1:-0.870341 2:-0.830354 3:-0.219299 4:-0.876697 5:-0.873706 6:-0.861494 7:-0.859704 8:-0.878744 9:-0.873988 10:-0.74375 11:-0.40411 12:-0.80801 13:-0.773067 14:-0.319124 15:0.189474 16:-0.769802 17:-0.274971 18:0.251039 
1 1:-0.898138 2:-0.889536 3:-0.637904 4:-0.902925 5:-0.90721 6:-0.905395 7:-0.890909 8:-0.904658 9:-0.911334 10:-0.645 11:-0.285388 12:-0.734266 13:-0.643392 14:-0.208999 15:-0.0236842 16:-0.675743 17:-0.13161 18:0.305638 
1 1:-0.89552 2:-0.892451 3:-0.66344 4:-0.902805 5:-0.905448 6:-0.910378 7:-0.891961 8:-0.90458 9:-0.909769 10:-0.645 11:-0.303653 12:-0.722823 13:-0.649626 14:-0.220841 15:0.05 16:-0.674505 17:-0.164512 18:0.213056 
1 1:-0.865164 2:-0.83179 3:-0.205718 4:-0.870111 5:-0.871429 6:-0.867772 7:-0.853951 8:-0.873782 9:-0.867528 10:-0.74 11:-0.413242 12:-0.829625 13:-0.765586 14:-0.308467 15:0.163158 16:-0.753713 17:-0.294947 18:0.255786 
1 1:-0.8726 2:-0.839636 3:-0.195337 4:-0.875847 5:-0.874208 6:-0.877168 7:-0.862251 8:-0.873854 9:-0.872381 10:-0.74125 11:-0.366438 12:-0.829625 13:-0.77182 14:-0.285968 15:0.307895 16:-0.767327 17:-0.27262 18:0.279525 
1 1:-0.898352 2:-0.885997 3:-0.63136 4:-0.905876 5:-0.908545 6:-0.906676 7:-0.891305 8:-0.906202 9:-0.905892 10:-0.655 11:-0.372146 12:-0.721551 13:-0.660848 14:-0.253996 15:0.0947368 16:-0.690594 17:-0.170388 18:0.18457 
1 1:-0.866823 2:-0.826889 3:-0.280374 4:-0.877144 5:-0.873192 6:-0.868474 7:-0.857801 8:-0.878486 9:-0.87195 10:-0.7425 11:-0.442922 12:-0.800381 13:-0.774314 14:-0.329781 15:0.148684 16:-0.766089 17:-0.303173 18:0.159644 
1 1:-0.870755 2:-0.831542 3:-0.306642 4:-0.877136 5:-0.868765 6:-0.862725 7:-0.86436 8:-0.875092 9:-0.869688 10:-0.74375 11:-0.436073 12:-0.813096 13:-0.775561 14:-0.353464 15:0.168421 16:-0.769802 17:-0.291422 18:0.254599 
1 1:-0.897842 2:-0.887378 3:-0.640505 4:-0.901742 5:-0.906502 6:-0.911341 7:-0.890094 8:-0.90268 9:-0.90633 10:-0.64375 11:-0.320776 12:-0.736809 13:-0.642145 14:-0.175844 15:0.0789474 16:-0.675743 17:-0.152761 18:0.267656 
1 1:-0.903819 2:-0.883829 3:-0.629383 4:-0.908564 5:-0.908985 6:-0.915622 7:-0.898395 8:-0.908561 9:-0.908412 10:-0.6475 11:-0.373288 12:-0.748252 13:-0.657107 14:-0.225577 15:0.0986842 16:-0.685644 17:-0.128085 18:0.347181 
1 1:-0.900789 2:-0.890631 3:-0.65318 4:-0.904378 5:-0.910912 6:-0.91028 7:-0.893848 8:-0.907231 9:-0.9074 10:-0.63375 11:-0.344749 12:-0.730451 13:-0.638404 14:-0.182948 15:0.0815789 16:-0.674505 17:-0.186839 18:0.407715 
1 1:-0.904199 2:-0.89398 3:-0.67673 4:-0.904412 5:-0.910849 6:-0.914543 7:-0.896286 8:-0.907893 9:-0.915164 10:-0.60625 11:-0.312785 12:-0.72028 13:-0.620948 14:-0.193606 15:0.201316 16:-0.653465 17:-0.118684 18:0.305638 
1 1:-0.909586 2:-0.903783 3:-0.733684 4:-0.906908 5:-0.917821 6:-0.923377 7:-0.902077 8:-0.912604 9:-0.918709 10:-0.585 11:-0.259132 12:-0.683408 13:-0.593516 14:-0.111901 15:0.35 16:-0.627475 17:-0.0646298 18:0.41365 
1 1:-0.90792 2:-0.901801 3:-0.741862 4:-0.905922 5:-0.916353 6:-0.923285 7:-0.902977 8:-0.911062 9:-0.919967 10:-0.58 11:-0.256849 12:-0.674507 13:-0.582294 14:-0.116637 15:0.327632 16:-0.613861 17:-0.0564042 18:0.501484 
1 1:-0.912408 2:-0.908579 3:-0.733568 4:-0.910279 5:-0.918523 6:-0.920101 7:-0.907837 8:-0.915244 9:-0.923004 10:-0.58375 11:-0.271689 12:-0.703751 13:-0.59601 14:-0.143872 15:0.211842 16:-0.622525 17:-0.0681551 18:0.342433 
1 1:-0.90808 2:-0.906171 3:-0.753589 4:-0.907711 5:-0.916758 6:-0.928155 7:-0.902794 8:-0.911751 9:-0.916882 10:-0.5675 11:-0.237443 12:-0.647807 13:-0.578554 14:-0.113085 15:0.269737 16:-0.594059 17:-0.0646298 18:0.357864 
1 1:-0.908907 2:-0.897157 3:-0.723723 4:-0.908092 5:-0.915708 6:-0.924019 7:-0.903889 8:-0.913344 9:-0.919841 10:-0.57125 11:-0.341324 12:-0.703751 13:-0.589776 14:-0.124926 15:0.403947 16:-0.621287 17:-0.0716804 18:0.425519 
0.072484128957524527 1:-0.850483 2:-0.800166 3:-0.347287 4:-0.854606 5:-0.851616 6:-0.847621 7:-0.841271 8:-0.861816 9:-0.846523 10:-0.7875 11:-0.541096 12:-0.749523 13:-0.806733 14:-0.442274 15:0.0631579 16:-0.778465 17:-0.367803 18:0.158457 
1 1:-0.850053 2:-0.810469 3:-0.3517 4:-0.857676 5:-0.853767 6:-0.844763 7:-0.842967 8:-0.859891 9:-0.847062 10:-0.78375 11:-0.538813 12:-0.759695 13:-0.80798 14:-0.424512 15:0.0434211 16:-0.782178 17:-0.371328 18:0.230861 
1 1:-0.884176 2:-0.8626 3:-0.740809 4:-0.888177 5:-0.847946 6:-0.699 7:-0.874479 8:-0.871294 9:-0.816602 10:-0.72125 11:-0.202055 12:-0.20534 13:-0.72818 14:-0.179396 15:0.0578947 16:-0.756188 17:-0.226792 18:0.0706231 
1 1:-0.871507 2:-0.871027 3:-0.820129 4:-0.875983 5:-0.855265 6:-0.752182 7:-0.859011 8:-0.871462 9:-0.840225 10:-0.7375 11:-0.244292 12:0.102352 13:-0.753117 14:-0.19479 15:0.136842 16:-0.75495 17:-0.246769 18:0.207122 
1 1:-0.853348 2:-0.82386 3:-0.38101 4:-0.859448 5:-0.855424 6:-0.85833 7:-0.846738 8:-0.860869 9:-0.856399 10:-0.785 11:-0.506849 12:-0.74698 13:-0.811721 14:-0.425696 15:0.0815789 16:-0.785891 17:-0.384254 18:0.183383 
1 1:-0.87013 2:-0.77431 3:0.0521882 4:-0.877599 5:-0.860235 6:-0.791802 7:-0.858334 8:-0.875742 9:-0.848615 10:-0.74 11:-0.574201 12:-0.847425 13:-0.765586 14:-0.364121 15:-0.0552632 16:-0.763614 17:-0.307873 18:0.00890208 
1 1:-0.871105 2:-0.785408 3:-0.0137353 4:-0.879283 5:-0.85964 6:-0.799063 7:-0.861838 8:-0.878456 9:-0.857714 10:-0.7375 11:-0.575342 12:-0.844882 13:-0.76808 14:-0.348727 15:-0.0986842 16:-0.766089 17:-0.27262 18:0.112166 
1 1:-0.904991 2:-0.901926 3:-0.807593 4:-0.905043 5:-0.871964 6:-0.660255 7:-0.902765 8:-0.90454 9:-0.880383 10:-0.58125 11:-0.0627854 12:-0.197711 13:-0.5798 14:-0.145056 15:-0.384211 16:-0.610149 17:-0.0258519 18:0.240356 
1 1:-0.870785 2:-0.766749 3:-0.0311737 4:-0.873039 5:-0.861801 6:-0.794219 7:-0.858009 8:-0.874889 9:-0.863028 10:-0.74125 11:-0.586758 12:-0.835982 13:-0.763092 14:-0.336886 15:-0.197368 16:-0.757426 17:-0.291422 18:0.175074 
1 1:-0.873704 2:-0.767534 3:-0.056281 4:-0.882161 5:-0.862497 6:-0.794041 7:-0.865052 8:-0.880197 9:-0.849954 10:-0.74875 11:-0.608447 12:-0.835982 13:-0.77182 14:-0.365305 15:-0.161842 16:-0.768564 17:-0.325499 18:0.134718 
1 1:-0.874797 2:-0.762948 3:-0.0342074 4:-0.878681 5:-0.86562 6:-0.784033 7:-0.862038 8:-0.884698 9:-0.85308 10:-0.7425 11:-0.599315 12:-0.832168 13:-0.765586 14:-0.343991 15:-0.157895 16:-0.762376 17:-0.26557 18:0.128783 
1 1:-0.895565 2:-0.879537 3:-0.753848 4:-0.897157 5:-0.82234 6:-0.297654 7:-0.887373 8:-0.897197 9:-0.85671 10:-0.66625 11:-0.292237 12:-0.341386 13:-0.662095 14:-0.120189 15:0.0197368 16:-0.704208 17:-0.176263 18:0.094362 
1 1:-0.876893 2:-0.81258 3:-0.685141 4:-0.899583 5:-0.806473 6:-0.198226 7:-0.896358 8:-0.906037 9:-0.873818 10:-0.655 11:-0.577626 12:-0.408773 13:-0.624688 14:-0.164002 15:-0.0355263 16:-0.670792 17:-0.104583 18:0.336499 
1 1:-0.859127 2:-0.783827 3:-0.00405857 4:-0.860329 5:-0.840395 6:-0.756113 7:-0.852407 8:-0.865489 9:-0.826778 10:-0.77625 11:-0.543379 12:-0.820725 13:-0.802993 14:-0.373594 15:-0.173684 16:-0.784653 17:-0.321974 18:0.120475 
1 1:-0.908016 2:-0.923626 3:-0.901043 4:-0.910734 5:-0.921873 6:-0.918458 7:-0.912748 8:-0.918345 9:-0.924846 10:-0.5575 11:-0.0627854 12:-0.294342 13:-0.563591 14:-0.0870337 15:0.0736842 16:-0.542079 17:0.00470035 18:0.30089 
1 1:-0.90766 2:-0.91781 3:-0.897091 4:-0.909259 5:-0.920981 6:-0.915525 7:-0.912072 8:-0.917523 9:-0.91687 10:-0.5575 11:-0.076484 12:-0.295613 13:-0.558603 14:-0.089402 15:0.0815789 16:-0.542079 17:-0.0293772 18:0.420772 
1 1:-0.907757 2:-0.920791 3:-0.899297 4:-0.908791 5:-0.91661 6:-0.907938 7:-0.910968 8:-0.915721 9:-0.918282 10:-0.5575 11:-0.0776256 12:-0.215512 13:-0.564838 14:-0.053878 15:0.101316 16:-0.540842 17:0.00117509 18:0.44095 
1 1:-0.909437 2:-0.919638 3:-0.895143 4:-0.909495 5:-0.918729 6:-0.907407 7:-0.912919 8:-0.915704 9:-0.918448 10:-0.565 11:-0.0593607 12:-0.249841 13:-0.567332 14:-0.0645352 15:0.0368421 16:-0.556931 17:-0.0105758 18:0.451632 
1 1:-0.9063 2:-0.917831 3:-0.898801 4:-0.907062 5:-0.915354 6:-0.911142 7:-0.910066 8:-0.912967 9:-0.916891 10:-0.555 11:-0.0776256 12:-0.232041 13:-0.557357 14:-0.0870337 15:-0.00394737 16:-0.537129 17:0.012926 18:0.387537 
1 1:-0.911684 2:-0.923488 3:-0.901849 4:-0.91255 5:-0.92268 6:-0.918961 7:-0.915595 8:-0.919221 9:-0.922379 10:-0.565 11:-0.086758 12:-0.25747 13:-0.57606 14:-0.102427 15:0.0328947 16:-0.549505 17:-0.0246769 18:0.379228 
1 1:-0.908932 2:-0.916059 3:-0.891663 4:-0.908867 5:-0.915763 6:-0.902994 7:-0.912147 8:-0.913209 9:-0.917308 10:-0.565 11:-0.0753425 12:-0.298156 13:-0.568579 14:-0.115453 15:0.0144737 16:-0.556931 17:0.012926 18:0.304451 
1 1:-0.881963 2:-0.893535 3:-0.889693 4:-0.882535 5:-0.886926 6:-0.851783 7:-0.867023 8:-0.889962 9:-0.882814 10:-0.7325 11:-0.302511 12:-0.0642085 13:-0.745636 14:-0.28952 15:0.105263 16:-0.756188 17:-0.287897 18:0.236795 
1 1:-0.884118 2:-0.856598 3:-0.721989 4:-0.886085 5:-0.845545 6:-0.565766 7:-0.871566 8:-0.884386 9:-0.829186 10:-0.7075 11:-0.178082 12:-0.0286078 13:-0.720698 14:-0.159266 15:-0.05 16:-0.741337 17:-0.210341 18:0.167953 
1 1:-0.880721 2:-0.857177 3:-0.724377 4:-0.883563 5:-0.842699 6:-0.575505 7:-0.873003 8:-0.88166 9:-0.84395 10:-0.70125 11:-0.151826 12:0.0247934 13:-0.719451 14:-0.165187 15:-0.00921053 16:-0.740099 17:-0.186839 18:0.235608 
1 1:-0.871149 2:-0.880193 3:-0.885909 4:-0.875782 5:-0.878029 6:-0.845771 7:-0.858291 8:-0.87985 9:-0.882981 10:-0.7275 11:-0.307078 12:-0.0133503 13:-0.753117 14:-0.274127 15:0.0723684 16:-0.74505 17:-0.290247 18:0.236795 
1 1:-0.880431 2:-0.889575 3:-0.894194 4:-0.880737 5:-0.88066 6:-0.833134 7:-0.867145 8:-0.889674 9:-0.875839 10:-0.74 11:-0.308219 12:0.146853 13:-0.760599 14:-0.278863 15:0.0539474 16:-0.759901 17:-0.284371 18:0.32819 
1 1:-0.87771 2:-0.883868 3:-0.883246 4:-0.880162 5:-0.882783 6:-0.832313 7:-0.863953 8:-0.88606 9:-0.878117 10:-0.7375 11:-0.285388 12:-0.0502225 13:-0.75187 14:-0.275311 15:0.168421 16:-0.751238 17:-0.285546 18:0.283086 
1 1:-0.883297 2:-0.888907 3:-0.890212 4:-0.88483 5:-0.887135 6:-0.851049 7:-0.868667 8:-0.888282 9:-0.886526 10:-0.74375 11:-0.325342 12:-0.0781945 13:-0.766833 14:-0.314387 15:0.126316 16:-0.766089 17:-0.309048 18:0.2 
1 1:-0.879927 2:-0.887938 3:-0.890044 4:-0.883538 5:-0.883823 6:-0.842983 7:-0.864723 8:-0.888115 9:-0.883289 10:-0.74875 11:-0.33105 12:-0.0273363 13:-0.76808 14:-0.288336 15:0.182895 16:-0.764851 17:-0.321974 18:0.235608 
1 1:-0.87871 2:-0.859475 3:-0.749499 4:-0.882428 5:-0.843151 6:-0.588555 7:-0.869381 8:-0.878602 9:-0.848046 10:-0.7125 11:-0.179224 12:0.0171647 13:-0.725686 14:-0.165187 15:-0.0565789 16:-0.740099 17:-0.244418 18:0.2273 
1 1:-0.888891 2:-0.898198 3:-0.901831 4:-0.887881 5:-0.894053 6:-0.854129 7:-0.876775 8:-0.893825 9:-0.892064 10:-0.72875 11:-0.281963 12:0.0375079 13:-0.730673 14:-0.24926 15:0.156579 16:-0.75 17:-0.26792 18:0.323442 
1 1:-0.88636 2:-0.900723 3:-0.923704 4:-0.889144 5:-0.894541 6:-0.909322 7:-0.87737 8:-0.892325 9:-0.892491 10:-0.7275 11:-0.326484 12:0.0603942 13:-0.75187 14:-0.357016 15:0.264474 16:-0.752475 17:-0.280846 18:0.169139 
1 1:-0.885935 2:-0.773601 3:-0.299921 4:-0.889428 5:-0.776471 6:-0.0784683 7:-0.88439 8:-0.87485 9:-0.739851 10:-0.63625 11:-0.18379 12:-0.0324221 13:-0.649626 14:-0.136767 15:-0.209211 16:-0.694307 17:-0.0998825 18:0.0278932 
1 1:-0.891742 2:-0.783325 3:-0.333969 4:-0.892014 5:-0.788445 6:-0.108615 7:-0.889202 8:-0.877625 9:-0.747899 10:-0.63875 11:-0.199772 12:-0.0260648 13:-0.65586 14:-0.116637 15:-0.255263 16:-0.699257 17:-0.135135 18:0.00534125 
1 1:-0.88777 2:-0.782143 3:-0.341666 4:-0.891674 5:-0.787185 6:-0.109144 7:-0.884781 8:-0.87576 9:-0.750244 10:-0.63375 11:-0.146119 12:-0.0235219 13:-0.643392 14:-0.0965068 15:-0.214474 16:-0.690594 17:-0.0705053 18:0.12997 
1 1:-0.892768 2:-0.7858 3:-0.335312 4:-0.896875 5:-0.789316 6:-0.112088 7:-0.888889 8:-0.883489 9:-0.752578 10:-0.6375 11:-0.176941 12:-0.0400509 13:-0.653367 14:-0.150977 15:-0.268421 16:-0.69802 17:-0.0940071 18:-0.0160237 
1 1:-0.906616 2:-0.911188 3:-0.881752 4:-0.904649 5:-0.896282 6:-0.765817 7:-0.900829 8:-0.907023 9:-0.897734 10:-0.61 11:-0.144977 12:0.0362365 13:-0.612219 14:-0.0917703 15:-0.196053 16:-0.64604 17:-0.0975323 18:0.319881 
1 1:-0.885911 2:-0.79548 3:-0.397533 4:-0.892362 5:-0.79629 6:-0.187364 7:-0.884039 8:-0.879934 9:-0.754765 10:-0.6525 11:-0.152968 12:0.0553083 13:-0.668329 14:-0.101243 15:-0.210526 16:-0.710396 17:-0.13631 18:0.109792 
1 1:-0.886433 2:-0.786103 3:-0.35967 4:-0.889961 5:-0.791469 6:-0.144307 7:-0.881008 8:-0.880388 9:-0.750787 10:-0.62625 11:-0.1621 12:-0.0286078 13:-0.643392 14:-0.0882179 15:-0.206579 16:-0.685644 17:-0.0411281 18:-0.000593472 
1 1:-0.883525 2:-0.812023 3:-0.50985 4:-0.884244 5:-0.815694 6:-0.317601 7:-0.875118 8:-0.879032 9:-0.781631 10:-0.6625 11:-0.105023 12:0.0375079 13:-0.67207 14:-0.0988751 15:-0.178947 16:-0.711634 17:-0.110458 18:0.164392 
1 1:-0.877701 2:-0.81706 3:-0.573315 4:-0.880071 5:-0.827467 6:-0.426197 7:-0.870922 8:-0.877056 9:-0.801692 10:-0.68375 11:-0.142694 12:0.182454 13:-0.695761 14:-0.117821 15:-0.126316 16:-0.720297 17:-0.153937 18:0.279525 
1 1:-0.88464 2:-0.796195 3:-0.450085 4:-0.888571 5:-0.811813 6:-0.283944 7:-0.87973 8:-0.880118 9:-0.770186 10:-0.65875 11:-0.171233 12:0.0947235 13:-0.678304 14:-0.0763766 15:-0.209211 16:-0.711634 17:-0.123384 18:0.153709 
1 1:-0.87453 2:-0.845515 3:-0.667702 4:-0.877714 5:-0.829578 6:-0.441481 7:-0.866757 8:-0.874029 9:-0.835009 10:-0.69 11:-0.174658 12:-0.113795 13:-0.704489 14:-0.137951 15:-0.0789474 16:-0.72401 17:-0.190364 18:0.140653 
1 1:-0.880556 2:-0.826906 3:-0.642354 4:-0.884964 5:-0.822649 6:-0.464198 7:-0.873568 8:-0.876125 9:-0.825489 10:-0.69125 11:-0.223744 12:-0.103624 13:-0.705736 14:-0.171107 15:-0.160526 16:-0.730198 17:-0.188014 18:0.15727 
1 1:-0.909032 2:-0.909034 3:-0.869356 4:-0.906731 5:-0.895084 6:-0.737825 7:-0.902549 8:-0.911314 9:-0.905309 10:-0.61375 11:-0.130137 12:-0.0247934 13:-0.620948 14:-0.0953227 15:-0.235526 16:-0.655941 17:-0.106933 18:0.334125 
1 1:-0.906752 2:-0.906255 3:-0.858131 4:-0.903513 5:-0.894389 6:-0.7504 7:-0.900042 8:-0.909234 9:-0.89655 10:-0.6 11:-0.101598 12:-0.00572155 13:-0.600998 14:-0.0988751 15:-0.163158 16:-0.638614 17:-0.0705053 18:0.252226 
1 1:-0.90289 2:-0.90968 3:-0.873739 4:-0.903467 5:-0.892963 6:-0.759095 7:-0.896703 8:-0.906346 9:-0.894754 10:-0.58375 11:-0.0593607 12:0.0324221 13:-0.577307 14:-0.0148017 15:-0.169737 16:-0.612624 17:-0.0446533 18:0.322255 
1 1:-0.900634 2:-0.895173 3:-0.794163 4:-0.902676 5:-0.878083 6:-0.664142 7:-0.898272 8:-0.90328 9:-0.882132 10:-0.59 11:-0.109589 12:-0.225683 13:-0.594763 14:-0.133215 15:-0.359211 16:-0.627475 17:-0.0599295 18:0.216617 
1 1:-0.91093 2:-0.904308 3:-0.822461 4:-0.908387 5:-0.888447 6:-0.682708 7:-0.905427 8:-0.907526 9:-0.882657 10:-0.58875 11:-0.107306 12:-0.212969 13:-0.591022 14:-0.0965068 15:-0.356579 16:-0.625 17:-0.0869565 18:0.0991098 
1 1:-0.90469 2:-0.896489 3:-0.799707 4:-0.903854 5:-0.876749 6:-0.635014 7:-0.899253 8:-0.903315 9:-0.868872 10:-0.5875 11:-0.0742009 12:-0.211697 13:-0.588529 14:-0.124926 15:-0.380263 16:-0.633663 17:-0.0775558 18:0.0789318 
1 1:-0.884472 2:-0.7725 3:-0.278173 4:-0.888744 5:-0.788705 6:-0.127173 7:-0.883148 8:-0.872711 9:-0.748132 10:-0.62875 11:-0.119863 12:0.00826446 13:-0.638404 14:-0.07164 15:-0.2 16:-0.686881 17:-0.06698 18:0.0540059 
1 1:-0.879998 2:-0.785215 3:-0.426998 4:-0.890637 5:-0.809321 6:-0.299618 7:-0.879004 8:-0.878837 9:-0.795251 10:-0.6375 11:-0.139269 12:0.0133503 13:-0.662095 14:-0.135583 15:-0.194737 16:-0.706683 17:-0.105758 18:0.167953 
1 1:-0.884762 2:-0.788146 3:-0.358827 4:-0.888299 5:-0.782422 6:-0.0770605 7:-0.882875 8:-0.876851 9:-0.761084 10:-0.645 11:-0.1621 12:-0.00317864 13:-0.658354 14:-0.14032 15:-0.303947 16:-0.696782 17:-0.121034 18:0.0587537 
1 1:-0.908446 2:-0.907463 3:-0.851917 4:-0.90722 5:-0.898496 6:-0.770594 7:-0.906812 8:-0.910733 9:-0.899373 10:-0.585 11:-0.0171233 12:0.06548 13:-0.586035 14:-0.00888099 15:-0.0618421 16:-0.610149 17:-0.0458284 18:0.423145 
1 1:-0.909524 2:-0.913094 3:-0.863626 4:-0.908897 5:-0.900137 6:-0.778996 7:-0.908133 8:-0.917047 9:-0.907872 10:-0.585 11:-0.0525114 12:0.0387794 13:-0.586035 14:-0.026643 15:-0.159211 16:-0.596535 17:-0.0352526 18:0.42908 
1 1:-0.904361 2:-0.899507 3:-0.803572 4:-0.904979 5:-0.879789 6:-0.648207 7:-0.899738 8:-0.90529 9:-0.879552 10:-0.5925 11:-0.0684932 12:-0.19644 13:-0.584788 14:-0.116637 15:-0.359211 16:-0.625 17:-0.0681551 18:0.100297 
1 1:-0.906602 2:-0.908797 3:-0.853558 4:-0.905376 5:-0.896279 6:-0.770218 7:-0.901644 8:-0.909949 9:-0.902972 10:-0.59875 11:-0.0593607 12:0.0273363 13:-0.610973 14:-0.0290112 15:-0.169737 16:-0.628713 17:-0.0658049 18:0.315134 
1 1:-0.902744 2:-0.894613 3:-0.791508 4:-0.901948 5:-0.873923 6:-0.628839 7:-0.899667 8:-0.904165 9:-0.869083 10:-0.605 11:-0.164384 12:-0.286713 13:-0.600998 14:-0.123742 15:-0.385526 16:-0.644802 17:-0.0940071 18:0.125223 
1 1:-0.903156 2:-0.899737 3:-0.791827 4:-0.90523 5:-0.870534 6:-0.621416 7:-0.899265 8:-0.904406 9:-0.879376 10:-0.5975 11:-0.0856164 12:-0.252384 13:-0.59601 14:-0.184133 15:-0.376316 16:-0.639851 17:-0.0893067 18:0.134718 
1 1:-0.905327 2:-0.905475 3:-0.813171 4:-0.906998 5:-0.888324 6:-0.720474 7:-0.908175 8:-0.911778 9:-0.89278 10:-0.5625 11:0.0468037 12:-0.0184361 13:-0.551122 14:0.0278271 15:-0.167105 16:-0.565594 17:0.00352526 18:0.439763 
1 1:-0.906646 2:-0.904919 3:-0.82322 4:-0.905992 5:-0.891722 6:-0.720717 7:-0.908945 8:-0.911394 9:-0.89835 10:-0.56 11:0.0205479 12:0.0578512 13:-0.552369 14:-0.00888099 15:-0.189474 16:-0.563119 17:0.0164512 18:0.347181 
1 1:-0.883862 2:-0.778215 3:-0.336813 4:-0.886791 5:-0.773775 6:-0.0831759 7:-0.88147 8:-0.873709 9:-0.751673 10:-0.6425 11:-0.160959 12:-0.0247934 13:-0.654613 14:-0.143872 15:-0.251316 16:-0.693069 17:-0.105758 18:0.0480712 
1 1:-0.898766 2:-0.889748 3:-0.723118 4:-0.90059 5:-0.865057 6:-0.636047 7:-0.890651 8:-0.901306 9:-0.882849 10:-0.645 11:-0.124429 12:-0.253655 13:-0.629676 14:-0.12611 15:-0.290789 16:-0.683168 17:-0.183314 18:0.319881 
1 1:-0.891149 2:-0.789139 3:-0.394689 4:-0.891254 5:-0.798611 6:-0.173181 7:-0.887305 8:-0.880812 9:-0.7627 10:-0.64375 11:-0.187215 12:0.0171647 13:-0.657107 14:-0.100059 15:-0.235526 16:-0.704208 17:-0.130435 18:0.0219585 
1 1:-0.883578 2:-0.900364 3:-0.929605 4:-0.886326 5:-0.891502 6:-0.892399 7:-0.869289 8:-0.892068 9:-0.895993 10:-0.715 11:-0.309361 12:0.256198 13:-0.738155 14:-0.326229 15:0.0539474 16:-0.74505 17:-0.253819 18:0.232047 
1 1:-0.886555 2:-0.903755 3:-0.931042 4:-0.888938 5:-0.891087 6:-0.89734 7:-0.876963 8:-0.892008 9:-0.897997 10:-0.7225 11:-0.33105 12:0.120153 13:-0.743142 14:-0.313203 15:0.147368 16:-0.75 17:-0.259694 18:0.253412 
1 1:-0.889528 2:-0.90275 3:-0.930156 4:-0.890241 5:-0.896365 6:-0.899699 7:-0.875051 8:-0.897849 9:-0.898245 10:-0.7225 11:-0.341324 12:0.183725 13:-0.750623 14:-0.357016 15:0.00263158 16:-0.752475 17:-0.26087 18:0.211869 
1 1:-0.891562 2:-0.905578 3:-0.927668 4:-0.892533 5:-0.898532 6:-0.902289 7:-0.880426 8:-0.89842 9:-0.897818 10:-0.72625 11:-0.324201 12:0.0464081 13:-0.746883 14:-0.330965 15:0.0881579 16:-0.752475 17:-0.278496 18:0.221365 
1 1:-0.891973 2:-0.90659 3:-0.929767 4:-0.89487 5:-0.901084 6:-0.901216 7:-0.880561 8:-0.903014 9:-0.905842 10:-0.73875 11:-0.364155 12:0.048951 13:-0.765586 14:-0.349911 15:0.211842 16:-0.761139 17:-0.296122 18:0.264095 
1 1:-0.877781 2:-0.879 3:-0.85415 4:-0.879154 5:-0.878019 6:-0.803679 7:-0.863036 8:-0.881329 9:-0.876647 10:-0.73125 11:-0.307078 12:-0.176097 13:-0.745636 14:-0.251628 15:0.0276316 16:-0.752475 17:-0.257344 18:0.217804 
1 1:-0.876811 2:-0.880048 3:-0.856995 4:-0.877964 5:-0.869054 6:-0.795301 7:-0.864615 8:-0.880348 9:-0.873199 10:-0.73 11:-0.309361 12:-0.191354 13:-0.746883 14:-0.290705 15:-0.0526316 16:-0.748762 17:-0.27027 18:0.188131 
1 1:-0.867417 2:-0.877934 3:-0.873583 4:-0.875207 5:-0.865169 6:-0.806415 7:-0.859536 8:-0.875993 9:-0.867992 10:-0.7475 11:-0.318493 12:0.0642085 13:-0.76808 14:-0.308467 15:0.117105 16:-0.761139 17:-0.294947 18:0.260534 
-1 1:-0.902838 2:-0.860122 3:-0.234348 4:-0.907485 5:-0.903166 6:-0.898788 7:-0.895445 8:-0.909256 9:-0.890643 10:-0.7975 11:-0.501142 12:-0.837254 13:-0.825436 14:-0.425696 15:0.209211 16:-0.825495 17:-0.410106 18:0.148961 
-1 1:-0.92292 2:-0.913751 3:-0.652644 4:-0.92876 5:-0.929958 6:-0.934539 7:-0.919795 8:-0.927323 9:-0.930589 10:-0.7175 11:-0.442922 12:-0.777495 13:-0.715711 14:-0.326229 15:-0.0947368 16:-0.753713 17:-0.284371 18:0.106231 
-1 1:-0.927197 2:-0.914615 3:-0.670723 4:-0.930694 5:-0.93192 6:-0.936595 7:-0.923689 8:-0.929689 9:-0.93121 10:-0.72125 11:-0.453196 12:-0.777495 13:-0.721945 14:-0.357016 15:-0.101316 16:-0.759901 17:-0.306698 18:0.0753709 
-1 1:-0.897276 2:-0.859765 3:-0.198214 4:-0.90661 5:-0.899064 6:-0.898856 7:-0.892076 8:-0.905355 9:-0.898297 10:-0.79125 11:-0.5 12:-0.85124 13:-0.820449 14:-0.409118 15:0.119737 16:-0.821782 17:-0.385429 18:0.2 
-1 1:-0.898961 2:-0.868057 3:-0.23202 4:-0.904809 5:-0.90093 6:-0.893976 7:-0.891223 8:-0.907618 9:-0.899848 10:-0.79125 11:-0.498858 12:-0.862683 13:-0.822943 14:-0.425696 15:0.0657895 16:-0.819307 17:-0.40423 18:0.119288 
-1 1:-0.919468 2:-0.902628 3:-0.648875 4:-0.925143 5:-0.926876 6:-0.927934 7:-0.916363 8:-0.926579 9:-0.922389 10:-0.71625 11:-0.472603 12:-0.774952 13:-0.715711 14:-0.33807 15:0.0736842 16:-0.746287 17:-0.266745 18:0.1727 
-1 1:-0.899031 2:-0.851345 3:-0.297336 4:-0.904959 5:-0.89872 6:-0.894358 7:-0.893677 8:-0.903003 9:-0.897013 10:-0.795 11:-0.521689 12:-0.835982 13:-0.82419 14:-0.419775 15:0.159211 16:-0.820545 17:-0.387779 18:0.0991098 
-1 1:-0.897785 2:-0.852886 3:-0.31196 4:-0.902956 5:-0.89746 6:-0.896562 7:-0.889346 8:-0.903287 9:-0.898296 10:-0.79125 11:-0.525114 12:-0.844882 13:-0.819202 14:-0.444642 15:0.0815789 16:-0.818069 17:-0.423032 18:0.0563798 
-1 1:-0.925603 2:-0.909713 3:-0.658699 4:-0.929506 5:-0.930812 6:-0.931538 7:-0.92021 8:-0.925716 9:-0.930504 10:-0.7175 11:-0.458904 12:-0.791481 13:-0.723192 14:-0.334517 15:-0.0236842 16:-0.759901 17:-0.279671 18:0.156083 
-1 1:-0.924287 2:-0.906351 3:-0.646144 4:-0.930278 5:-0.930571 6:-0.934434 7:-0.919401 8:-0.930186 9:-0.928027 10:-0.71875 11:-0.497717 12:-0.800381 13:-0.724439 14:-0.359384 15:-0.0342105 16:-0.759901 17:-0.314924 18:0.072997 
-1 1:-0.928088 2:-0.909952 3:-0.672038 4:-0.929424 5:-0.934556 6:-0.938002 7:-0.92146 8:-0.930258 9:-0.93702 10:-0.715 11:-0.481735 12:-0.796567 13:-0.716958 14:-0.33807 15:-0.0421053 16:-0.751238 17:-0.299647 18:0.239169 
-1 1:-0.929222 2:-0.914209 3:-0.696521 4:-0.92825 5:-0.934649 6:-0.937962 7:-0.920352 8:-0.930641 9:-0.934314 10:-0.685 11:-0.426941 12:-0.763509 13:-0.698254 14:-0.314387 15:0.0289474 16:-0.736386 17:-0.280846 18:0.217804 
-1 1:-0.933576 2:-0.927189 3:-0.756862 4:-0.930543 5:-0.936654 6:-0.940837 7:-0.926962 8:-0.934519 9:-0.94053 10:-0.6625 11:-0.383562 12:-0.73808 13:-0.673317 14:-0.300178 15:-0.0697368 16:-0.707921 17:-0.190364 18:0.393472 
-1 1:-0.932311 2:-0.917998 3:-0.74516 4:-0.93006 5:-0.938031 6:-0.942061 7:-0.929619 8:-0.933403 9:-0.940042 10:-0.6625 11:-0.447489 12:-0.743166 13:-0.67207 14:-0.271758 15:0.160526 16:-0.701733 17:-0.218566 18:0.235608 
-1 1:-0.889616 2:-0.841064 3:-0.395565 4:-0.892649 5:-0.896232 6:-0.886506 7:-0.881937 8:-0.896224 9:-0.887138 10:-0.84 11:-0.664384 12:-0.823268 13:-0.859102 14:-0.571344 15:-0.192105 16:-0.839109 17:-0.512338 18:-0.0362018 
-1 1:-0.885707 2:-0.836723 3:-0.399415 4:-0.891136 5:-0.887209 6:-0.878108 7:-0.884201 8:-0.890982 9:-0.879998 10:-0.83375 11:-0.633562 12:-0.81691 13:-0.860349 14:-0.542925 15:-0.151316 16:-0.839109 17:-0.491187 18:0.0267062 
-1 1:-0.882874 2:-0.835212 3:-0.386769 4:-0.88925 5:-0.884867 6:-0.879106 7:-0.879703 8:-0.891338 9:-0.881646 10:-0.83 11:-0.634703 12:-0.813096 13:-0.855362 14:-0.547661 15:-0.226316 16:-0.835396 17:-0.482961 18:-0.0373887 
-1 1:-0.898477 2:-0.898523 3:-0.90053 4:-0.902639 5:-0.8997 6:-0.893742 7:-0.888661 8:-0.904799 9:-0.896729 10:-0.8275 11:-0.530822 12:-0.238398 13:-0.850374 14:-0.574896 15:-0.240789 16:-0.834158 17:-0.504113 18:-0.224926 
-1 1:-0.91429 2:-0.856151 3:-0.623171 4:-0.914051 5:-0.825159 6:-0.459218 7:-0.909011 8:-0.871922 9:-0.769264 10:-0.71625 11:-0.326484 12:-0.482517 13:-0.72818 14:-0.275311 15:-0.3 16:-0.77599 17:-0.346651 18:-0.265282 
-1 1:-0.909156 2:-0.885534 3:-0.757095 4:-0.91224 5:-0.870897 6:-0.712192 7:-0.901244 8:-0.89786 9:-0.845493 10:-0.7725 11:-0.309361 12:-0.28417 13:-0.780549 14:-0.300178 15:-0.0342105 16:-0.80198 17:-0.3396 18:-0.0575668 
-1 1:-0.902219 2:-0.902856 3:-0.842028 4:-0.906012 5:-0.882119 6:-0.778593 7:-0.892208 8:-0.903145 9:-0.872841 10:-0.795 11:-0.328767 12:-0.0731087 13:-0.806733 14:-0.340438 15:-0.00131579 16:-0.815594 17:-0.40188 18:0.100297 
-1 1:-0.885717 2:-0.835915 3:-0.361433 4:-0.891764 5:-0.886954 6:-0.88309 7:-0.884402 8:-0.891959 9:-0.881087 10:-0.84125 11:-0.652968 12:-0.821996 13:-0.860349 14:-0.568976 15:-0.256579 16:-0.841584 17:-0.494712 18:-0.0813056 
-1 1:-0.892356 2:-0.849281 3:-0.396228 4:-0.896465 5:-0.895358 6:-0.888827 7:-0.887419 8:-0.900999 9:-0.886572 10:-0.8425 11:-0.634703 12:-0.819453 13:-0.866584 14:-0.576081 15:-0.213158 16:-0.847772 17:-0.514689 18:-0.0587537 
-1 1:-0.902945 2:-0.805219 3:0.0270678 4:-0.909958 5:-0.892373 6:-0.817662 7:-0.895874 8:-0.908183 9:-0.88687 10:-0.79625 11:-0.6621 12:-0.884298 13:-0.821696 14:-0.480166 15:-0.296053 16:-0.825495 17:-0.405405 18:-0.116914 
-1 1:-0.908822 2:-0.808087 3:-0.0369704 4:-0.914664 5:-0.895355 6:-0.820671 7:-0.902849 8:-0.915112 9:-0.890376 10:-0.7975 11:-0.672374 12:-0.884298 13:-0.821696 14:-0.48135 15:-0.365789 16:-0.82797 17:-0.420682 18:-0.139466 
-1 1:-0.905379 2:-0.805964 3:-0.0668692 4:-0.911053 5:-0.892492 6:-0.815644 7:-0.89876 8:-0.911099 9:-0.890353 10:-0.7975 11:-0.673516 12:-0.875397 13:-0.822943 14:-0.456483 15:-0.409211 16:-0.826733 17:-0.40188 18:-0.094362 
-1 1:-0.899745 2:-0.802053 3:-0.0235186 4:-0.906493 5:-0.88618 6:-0.82536 7:-0.891502 8:-0.907559 9:-0.877448 10:-0.78625 11:-0.656393 12:-0.874126 13:-0.812968 14:-0.450562 15:-0.267105 16:-0.816832 17:-0.376028 18:-0.0207715 
-1 1:-0.928801 2:-0.919174 3:-0.818273 4:-0.926048 5:-0.89713 6:-0.681019 7:-0.926306 8:-0.927614 9:-0.901361 10:-0.65625 11:-0.174658 12:-0.260013 13:-0.647132 14:-0.237419 15:-0.386842 16:-0.693069 17:-0.170388 18:0.120475 
-1 1:-0.904665 2:-0.80331 3:-0.0532352 4:-0.912808 5:-0.89273 6:-0.817169 7:-0.897159 8:-0.90867 9:-0.892629 10:-0.79875 11:-0.665525 12:-0.866497 13:-0.821696 14:-0.474245 15:-0.302632 16:-0.82797 17:-0.415981 18:0.0267062 
-1 1:-0.898141 2:-0.794665 3:-0.0773449 4:-0.90426 5:-0.88103 6:-0.82177 7:-0.890805 8:-0.903502 9:-0.884966 10:-0.78875 11:-0.666667 12:-0.856325 13:-0.815461 14:-0.471877 15:-0.301316 16:-0.820545 17:-0.40423 18:-0.0397626 
-1 1:-0.90256 2:-0.797779 3:-0.0573001 4:-0.909756 5:-0.887567 6:-0.814328 7:-0.895756 8:-0.906855 9:-0.875479 10:-0.795 11:-0.679224 12:-0.871583 13:-0.822943 14:-0.484902 15:-0.328947 16:-0.82302 17:-0.396005 18:-0.0789318 
-1 1:-0.900192 2:-0.788347 3:-0.0480664 4:-0.903594 5:-0.885925 6:-0.810146 7:-0.89161 8:-0.902772 9:-0.881138 10:-0.79125 11:-0.672374 12:-0.871583 13:-0.809227 14:-0.444642 15:-0.302632 16:-0.814356 17:-0.385429 18:-0.052819 
-1 1:-0.917808 2:-0.895549 3:-0.766664 4:-0.919974 5:-0.837074 6:-0.318296 7:-0.913044 8:-0.917194 9:-0.871341 10:-0.71625 11:-0.361872 12:-0.392244 13:-0.710723 14:-0.168739 15:0.0276316 16:-0.764851 17:-0.254994 18:-0.0160237 
-1 1:-0.892416 2:-0.824521 3:-0.703256 4:-0.918598 5:-0.828274 6:-0.230361 7:-0.912936 8:-0.922316 9:-0.880068 10:-0.71375 11:-0.651826 12:-0.452003 13:-0.677057 14:-0.211368 15:-0.1 16:-0.733911 17:-0.256169 18:0.235608 
-1 1:-0.889156 2:-0.815154 3:-0.0436398 4:-0.889764 5:-0.871566 6:-0.78498 7:-0.883219 8:-0.893992 9:-0.860863 10:-0.82125 11:-0.626712 12:-0.857597 13:-0.840399 14:-0.494375 15:-0.290789 16:-0.831683 17:-0.443008 18:-0.0302671 
-1 1:-0.930345 2:-0.941374 3:-0.913661 4:-0.931326 5:-0.938332 6:-0.931523 7:-0.934877 8:-0.93633 9:-0.940622 10:-0.65 11:-0.186073 12:-0.401144 13:-0.650873 14:-0.224393 15:-0.176316 16:-0.633663 17:-0.13866 18:0.192878 
-1 1:-0.932065 2:-0.941615 3:-0.909586 4:-0.931372 5:-0.937884 6:-0.937216 7:-0.935481 8:-0.93731 9:-0.941339 10:-0.64875 11:-0.208904 12:-0.417673 13:-0.650873 14:-0.242155 15:-0.0842105 16:-0.62995 17:-0.182139 18:0.266469 
-1 1:-0.934044 2:-0.940428 3:-0.909102 4:-0.932967 5:-0.940432 6:-0.93299 7:-0.93976 8:-0.937068 9:-0.93931 10:-0.66375 11:-0.234018 12:-0.430388 13:-0.669576 14:-0.278863 15:-0.117105 16:-0.653465 17:-0.192714 18:0.233234 
-1 1:-0.913944 2:-0.923945 3:-0.920946 4:-0.916912 5:-0.920325 6:-0.889545 7:-0.905207 8:-0.921654 9:-0.922891 10:-0.79375 11:-0.405251 12:-0.129053 13:-0.80798 14:-0.398461 15:0.0434211 16:-0.816832 17:-0.407756 18:0.350742 
-1 1:-0.90793 2:-0.876104 3:-0.730838 4:-0.907714 5:-0.872178 6:-0.604091 7:-0.897742 8:-0.905035 9:-0.862843 10:-0.7525 11:-0.251142 12:-0.0603942 13:-0.765586 14:-0.207815 15:-0.0671053 16:-0.792079 17:-0.273796 18:0.0884273 
-1 1:-0.910752 2:-0.883696 3:-0.739212 4:-0.914504 5:-0.872007 6:-0.581991 7:-0.902569 8:-0.907301 9:-0.870169 10:-0.7575 11:-0.270548 12:-0.123967 13:-0.773067 14:-0.257549 15:-0.109211 16:-0.79703 17:-0.33725 18:0.0789318 
-1 1:-0.906628 2:-0.916656 3:-0.910162 4:-0.911552 5:-0.907728 6:-0.866914 7:-0.89769 8:-0.91598 9:-0.910787 10:-0.79625 11:-0.406393 12:-0.0642085 13:-0.809227 14:-0.384251 15:-0.00263158 16:-0.818069 17:-0.424207 18:0.210682 
-1 1:-0.905345 2:-0.910096 3:-0.910601 4:-0.906399 5:-0.908365 6:-0.861857 7:-0.89549 8:-0.911525 9:-0.908913 10:-0.7875 11:-0.400685 12:-0.0591227 13:-0.809227 14:-0.366489 15:0.0421053 16:-0.810644 17:-0.388954 18:0.183383 
-1 1:-0.906986 2:-0.912151 3:-0.899074 4:-0.905692 5:-0.906371 6:-0.850011 7:-0.894752 8:-0.914107 9:-0.905371 10:-0.79625 11:-0.406393 12:-0.157025 13:-0.804239 14:-0.402013 15:-0.0986842 16:-0.813119 17:-0.391304 18:0.221365 
-1 1:-0.900519 2:-0.907943 3:-0.910261 4:-0.907094 5:-0.904848 6:-0.871329 7:-0.892771 8:-0.909213 9:-0.906404 10:-0.785 11:-0.423516 12:-0.0553083 13:-0.806733 14:-0.374778 15:0.0763158 16:-0.808168 17:-0.403055 18:0.122849 
-1 1:-0.905884 2:-0.909009 3:-0.901433 4:-0.906065 5:-0.910367 6:-0.867887 7:-0.892898 8:-0.909904 9:-0.91069 10:-0.795 11:-0.414384 12:-0.0425938 13:-0.809227 14:-0.387803 15:0.0473684 16:-0.814356 17:-0.407756 18:0.15727 
-1 1:-0.909295 2:-0.879732 3:-0.772213 4:-0.912786 5:-0.874302 6:-0.611602 7:-0.901988 8:-0.909278 9:-0.86889 10:-0.7675 11:-0.310502 12:-0.0438652 13:-0.781796 14:-0.276495 15:-0.173684 16:-0.805693 17:-0.346651 18:0.11454 
-1 1:-0.91542 2:-0.923184 3:-0.92925 4:-0.915146 5:-0.916721 6:-0.881328 7:-0.905308 8:-0.917606 9:-0.923279 10:-0.78875 11:-0.392694 12:0.00826446 13:-0.795511 14:-0.352279 15:0.0460526 16:-0.813119 17:-0.383079 18:0.205935 
-1 1:-0.91714 2:-0.92721 3:-0.943137 4:-0.915516 5:-0.922453 6:-0.923715 7:-0.902825 8:-0.924832 9:-0.925777 10:-0.7875 11:-0.455479 12:-0.134139 13:-0.806733 14:-0.454115 15:-0.0855263 16:-0.814356 17:-0.405405 18:-0.00771513 
-1 1:-0.912008 2:-0.802492 3:-0.35967 4:-0.914567 5:-0.813632 6:-0.11694 7:-0.909548 8:-0.902284 9:-0.776724 10:-0.685 11:-0.237443 12:-0.0603942 13:-0.699501 14:-0.201895 15:-0.281579 16:-0.753713 17:-0.184489 18:-0.100297 
-1 1:-0.926763 2:-0.931246 3:-0.892741 4:-0.926098 5:-0.911065 6:-0.782071 7:-0.922892 8:-0.925829 9:-0.916537 10:-0.69 11:-0.206621 12:-0.0311507 13:-0.684539 14:-0.171107 15:-0.277632 16:-0.726485 17:-0.222092 18:0.308012 
-1 1:-0.914429 2:-0.835582 3:-0.524025 4:-0.916778 5:-0.842048 6:-0.336009 7:-0.911384 8:-0.904553 9:-0.81284 10:-0.72125 11:-0.232877 12:-0.0387794 13:-0.729426 14:-0.167555 15:-0.180263 16:-0.777228 17:-0.240893 18:0.00296736 
-0.80895138388354582 1:-0.908489 2:-0.84748 3:-0.591644 4:-0.907307 5:-0.854143 6:-0.458748 7:-0.900071 8:-0.901509 9:-0.832464 10:-0.735 11:-0.190639 12:0.0998093 13:-0.749377 14:-0.181764 15:-0.193421 16:-0.780941 17:-0.256169 18:0.0801187 
-1 1:-0.906826 2:-0.872234 3:-0.68691 4:-0.911827 5:-0.855576 6:-0.485041 7:-0.902443 8:-0.90467 9:-0.866373 10:-0.75625 11:-0.325342 12:-0.216783 13:-0.76808 14:-0.26939 15:-0.167105 16:-0.800743 17:-0.352526 18:-0.010089 
-1 1:-0.908017 2:-0.84664 3:-0.657881 4:-0.910413 5:-0.854078 6:-0.455127 7:-0.903507 8:-0.903971 9:-0.85148 10:-0.7475 11:-0.308219 12:-0.190083 13:-0.758105 14:-0.245708 15:-0.146053 16:-0.788366 17:-0.310223 18:0.0575668 
-1 1:-0.926822 2:-0.924631 3:-0.88266 4:-0.924325 5:-0.913175 6:-0.751662 7:-0.919372 8:-0.926561 9:-0.918254 10:-0.6675 11:-0.229452 12:-0.12651 13:-0.670823 14:-0.161634 15:-0.264474 16:-0.712871 17:-0.220917 18:0.293769 
-1 1:-0.924456 2:-0.925592 3:-0.874673 4:-0.925479 5:-0.912847 6:-0.762475 7:-0.918944 8:-0.927051 9:-0.915409 10:-0.67875 11:-0.216895 12:-0.121424 13:-0.67207 14:-0.208999 15:-0.276316 16:-0.716584 17:-0.195065 18:0.283086 
-1 1:-0.926861 2:-0.926078 3:-0.887487 4:-0.925939 5:-0.912515 6:-0.77629 7:-0.922791 8:-0.926902 9:-0.916136 10:-0.6575 11:-0.221461 12:-0.0845518 13:-0.660848 14:-0.155713 15:-0.276316 16:-0.699257 17:-0.206816 18:0.30089 
-1 1:-0.923287 2:-0.914369 3:-0.815854 4:-0.92353 5:-0.899378 6:-0.672436 7:-0.921182 8:-0.924871 9:-0.900918 10:-0.665 11:-0.211187 12:-0.26637 13:-0.664589 14:-0.244523 15:-0.397368 16:-0.709158 17:-0.180964 18:0.121662 
-1 1:-0.925669 2:-0.915536 3:-0.825571 4:-0.925967 5:-0.903257 6:-0.690031 7:-0.925 8:-0.926911 9:-0.899064 10:-0.64875 11:-0.181507 12:-0.291799 13:-0.648379 14:-0.224393 15:-0.413158 16:-0.67698 17:-0.168038 18:0.0540059 
-1 1:-0.926851 2:-0.914412 3:-0.812301 4:-0.925337 5:-0.898617 6:-0.664708 7:-0.922267 8:-0.924166 9:-0.896763 10:-0.6675 11:-0.214612 12:-0.287985 13:-0.664589 14:-0.245708 15:-0.422368 16:-0.706683 17:-0.19389 18:-0.0278932 
-1 1:-0.908859 2:-0.807162 3:-0.467819 4:-0.916688 5:-0.838651 6:-0.284039 7:-0.910813 8:-0.904558 9:-0.80759 10:-0.685 11:-0.214612 12:-0.104895 13:-0.713217 14:-0.18058 15:-0.259211 16:-0.757426 17:-0.197415 18:-0.00890208 
-1 1:-0.90941 2:-0.812653 3:-0.376499 4:-0.916325 5:-0.805426 6:-0.083187 7:-0.910242 8:-0.90086 9:-0.782094 10:-0.6975 11:-0.246575 12:-0.0476796 13:-0.708229 14:-0.216104 15:-0.319737 16:-0.761139 17:-0.243243 18:-0.0587537 
-1 1:-0.929782 2:-0.926797 3:-0.868014 4:-0.927477 5:-0.919982 6:-0.788068 7:-0.926948 8:-0.931469 9:-0.923226 10:-0.65875 11:-0.167808 12:-0.0769231 13:-0.662095 14:-0.149793 15:-0.271053 16:-0.683168 17:-0.168038 18:0.21543 
-1 1:-0.927684 2:-0.92069 3:-0.817418 4:-0.926501 5:-0.898442 6:-0.657446 7:-0.923391 8:-0.928169 9:-0.900119 10:-0.6675 11:-0.190639 12:-0.287985 13:-0.660848 14:-0.225577 15:-0.413158 16:-0.710396 17:-0.19624 18:0.0421365 
-1 1:-0.925715 2:-0.916713 3:-0.801157 4:-0.9266 5:-0.891751 6:-0.656853 7:-0.925309 8:-0.924322 9:-0.888965 10:-0.67125 11:-0.216895 12:-0.305785 13:-0.667082 14:-0.272943 15:-0.409211 16:-0.714109 17:-0.190364 18:0.0504451 
-1 1:-0.923 2:-0.916588 3:-0.798419 4:-0.924729 5:-0.891281 6:-0.646947 7:-0.9192 8:-0.926009 9:-0.891217 10:-0.6575 11:-0.191781 12:-0.337572 13:-0.65586 14:-0.26939 15:-0.418421 16:-0.70297 17:-0.157462 18:0.0706231 
