svm_type nu_svr
kernel_type rbf
gamma 0.055555555555555552
nr_class 2
total_sv 1003
rho -50.275516325004695
probA 8.1433151440774729
SV
1 1:-0.993638 2:-0.912763 3:-0.0645407 4:-0.999317 5:-0.987068 6:-0.977687 7:-0.999837 8:-0.993643 9:-0.981553 10:-0.905019 11:-0.84 12:-0.948849 13:-0.640327 14:-0.69071 15:-0.605704 16:-0.632586 17:-0.736127 18:-0.648097 
1 1:-0.998174 2:-0.964011 3:-0.588011 4:-0.999688 5:-0.997612 6:-0.989452 7:-0.99994 8:-0.997065 9:-0.992938 10:-0.759309 11:-0.856901 12:-0.960358 13:-0.392916 14:-0.532602 15:-0.796652 16:-0.174412 17:-0.597961 18:-0.65251 
1 1:-0.998257 2:-0.968085 3:-0.612355 4:-0.999705 5:-0.99772 6:-0.989764 7:-0.999939 8:-0.997649 9:-0.993966 10:-0.748516 11:-0.845634 12:-0.960358 13:-0.376567 14:-0.52914 15:-0.805332 16:-0.186441 17:-0.537939 18:-0.655819 
1 1:-0.994389 2:-0.91734 3:-0.0280634 4:-0.999714 5:-0.988953 6:-0.980166 7:-0.999912 8:-0.994989 9:-0.986655 10:-0.949271 11:-0.869296 12:-0.960358 13:-0.618529 14:-0.741489 15:-0.620583 16:-0.681793 17:-0.802945 18:-0.68781 
1 1:-0.995075 2:-0.924946 3:-0.0362428 4:-0.999727 5:-0.988818 6:-0.98002 7:-0.999919 8:-0.995077 9:-0.987942 10:-0.936319 11:-0.856901 12:-0.962916 13:-0.618529 14:-0.753029 15:-0.632982 16:-0.677419 17:-0.785957 18:-0.682295 
1 1:-0.994329 2:-0.907113 3:-0.143606 4:-0.999702 5:-0.988089 6:-0.98045 7:-0.999923 8:-0.994226 9:-0.986623 10:-0.940637 11:-0.864789 12:-0.948849 13:-0.625068 14:-0.759954 15:-0.605704 16:-0.643521 17:-0.797282 18:-0.693326 
1 1:-0.994442 2:-0.910018 3:-0.141048 4:-0.99967 5:-0.98829 6:-0.981434 7:-0.999904 8:-0.994609 9:-0.987661 10:-0.943875 11:-0.87831 12:-0.961637 13:-0.646866 14:-0.765724 15:-0.598264 16:-0.711318 17:-0.81427 18:-0.706564 
1 1:-0.998291 2:-0.960271 3:-0.600259 4:-0.999659 5:-0.997648 6:-0.991522 7:-0.999928 8:-0.997242 9:-0.995088 10:-0.729088 11:-0.867042 12:-0.964194 13:-0.397275 14:-0.507213 15:-0.794172 16:-0.284855 17:-0.582106 18:-0.578599 
1 1:-0.998193 2:-0.961109 3:-0.646591 4:-0.999621 5:-0.998522 6:-0.99491 7:-0.999918 8:-0.997826 9:-0.995424 10:-0.689153 11:-0.845634 12:-0.956522 13:-0.310082 14:-0.359492 15:-0.683819 16:-0.162384 17:-0.414496 18:-0.53668 
1 1:-0.998397 2:-0.970254 3:-0.713249 4:-0.999537 5:-0.999268 6:-0.99701 7:-0.999911 8:-0.99792 9:-0.998525 10:-0.574744 11:-0.80507 12:-0.957801 13:-0.225068 14:-0.0294287 15:-0.577185 16:0.0399125 17:-0.192525 18:-0.313844 
1 1:-0.998343 2:-0.971323 3:-0.719182 4:-0.999523 5:-0.99902 6:-0.997403 7:-0.999909 8:-0.997969 9:-0.998913 10:-0.585537 11:-0.799437 12:-0.953964 13:-0.20218 14:-0.0698211 15:-0.588345 16:0.0508475 17:-0.12684 18:-0.209046 
1 1:-0.998311 2:-0.971149 3:-0.721463 4:-0.999526 5:-0.998876 6:-0.997324 7:-0.999907 8:-0.997841 9:-0.998625 10:-0.569347 11:-0.793803 12:-0.950128 13:-0.171662 14:-0.0778996 15:-0.543707 16:0.047567 17:-0.106455 18:-0.256481 
1 1:-0.998314 2:-0.97109 3:-0.74084 4:-0.999477 5:-0.999066 6:-0.997038 7:-0.999908 8:-0.997651 9:-0.998323 10:-0.558554 11:-0.792676 12:-0.957801 13:-0.192371 14:0.0571264 15:-0.594544 16:0.0945872 17:-0.11325 18:-0.249862 
1 1:-0.998217 2:-0.959601 3:-0.709051 4:-0.999475 5:-0.998888 6:-0.996735 7:-0.999911 8:-0.99765 9:-0.997039 10:-0.601727 11:-0.846761 12:-0.959079 13:-0.232698 14:-0.0721293 15:-0.619343 16:0.0344451 17:-0.237826 18:-0.402096 
0.46367425727732936 1:-0.996866 2:-0.89769 3:-0.563655 4:-0.996574 5:-0.863629 6:-0.499164 7:-0.999611 8:-0.938432 9:-0.788998 10:-0.66109 11:-0.720563 12:-0.714834 13:-0.686104 14:-0.681477 15:-0.566026 16:-0.678513 17:-0.824462 18:-0.731936 
1 1:-0.995264 2:-0.83617 3:0.328891 4:-0.999352 5:-0.966349 6:-0.895318 7:-0.999913 8:-0.993318 9:-0.953639 10:-0.933081 11:-0.935775 12:-0.971867 13:-0.759128 14:-0.86959 15:-0.817731 16:-0.723346 17:-0.824462 18:-0.86652 
1 1:-0.995449 2:-0.826568 3:0.220909 4:-0.999333 5:-0.965912 6:-0.888754 7:-0.999923 8:-0.993136 9:-0.952745 10:-0.925526 11:-0.936901 12:-0.968031 13:-0.749319 14:-0.866128 15:-0.817731 16:-0.677419 17:-0.819932 18:-0.868726 
1 1:-0.995422 2:-0.826156 3:0.17849 4:-0.99927 5:-0.964807 6:-0.896007 7:-0.999927 8:-0.991861 9:-0.957476 10:-0.926606 11:-0.940282 12:-0.966752 13:-0.771117 14:-0.874207 15:-0.82517 16:-0.682887 17:-0.844847 18:-0.86321 
1 1:-0.995092 2:-0.830298 3:0.229402 4:-0.999309 5:-0.963513 6:-0.897669 7:-0.999915 8:-0.992192 9:-0.955983 10:-0.929843 11:-0.938028 12:-0.965473 13:-0.744959 14:-0.871898 15:-0.814011 16:-0.708037 17:-0.834655 18:-0.855488 
1 1:-0.997972 2:-0.965754 3:-0.817916 4:-0.998047 5:-0.944204 6:-0.735929 7:-0.999837 8:-0.991191 9:-0.949485 10:-0.296276 11:-0.454648 12:-0.56266 13:-0.438692 14:-0.631852 15:-0.613143 16:0.00273373 17:-0.374858 18:-0.461666 
1 1:-0.995478 2:-0.823702 3:0.205005 4:-0.999283 5:-0.965768 6:-0.899108 7:-0.999913 8:-0.99288 9:-0.966464 10:-0.927685 11:-0.941408 12:-0.965473 13:-0.763488 14:-0.864974 15:-0.814011 16:-0.709131 17:-0.822197 18:-0.823497 
1 1:-0.995595 2:-0.822586 3:0.172441 4:-0.999326 5:-0.964526 6:-0.890937 7:-0.999916 8:-0.993177 9:-0.959912 10:-0.924447 11:-0.941408 12:-0.968031 13:-0.752589 14:-0.870744 15:-0.816491 16:-0.70257 17:-0.8188 18:-0.843354 
1 1:-0.995673 2:-0.815591 3:0.195624 4:-0.999351 5:-0.965352 6:-0.89183 7:-0.999921 8:-0.9924 9:-0.956504 10:-0.923368 11:-0.944789 12:-0.969309 13:-0.759128 14:-0.877669 15:-0.823931 16:-0.690541 17:-0.834655 18:-0.851076 
1 1:-0.995487 2:-0.816707 3:0.201482 4:-0.999305 5:-0.965712 6:-0.891321 7:-0.999922 8:-0.992695 9:-0.958289 10:-0.926606 11:-0.945915 12:-0.969309 13:-0.760218 14:-0.868436 15:-0.82517 16:-0.696009 17:-0.825595 18:-0.855488 
1 1:-0.996788 2:-0.948989 3:-0.754695 4:-0.997271 5:-0.876191 6:-0.343783 7:-0.999851 8:-0.99131 9:-0.915199 10:-0.737723 11:-0.739718 12:-0.676471 13:-0.46594 14:-0.478361 15:-0.151891 16:-0.218152 17:-0.524349 18:-0.624931 
1 1:-0.960351 2:-0.84445 3:-0.653219 4:-0.996352 5:-0.851286 6:-0.247286 7:-0.999773 8:-0.993614 9:-0.940556 10:-0.980572 11:-0.899718 12:-0.668798 13:-0.546594 14:-0.525678 15:-0.218847 16:-0.354839 17:-0.344281 18:-0.440706 
1 1:-0.995165 2:-0.86777 3:0.206625 4:-0.999364 5:-0.964276 6:-0.878542 7:-0.999943 8:-0.993811 9:-0.956197 10:-0.976255 11:-0.953803 12:-0.976982 13:-0.886649 14:-0.920369 15:-0.857409 16:-0.850191 17:-0.907135 18:-0.911748 
1 1:-0.998498 2:-0.986947 3:-0.933248 4:-0.998982 5:-0.9929 6:-0.982123 7:-0.999845 8:-0.99579 9:-0.992227 10:-0.12898 11:-0.452394 12:-0.836317 13:-0.229428 14:-0.413733 15:-0.769374 16:0.0322581 17:-0.125708 18:-0.437397 
1 1:-0.998532 2:-0.987581 3:-0.933566 4:-0.998988 5:-0.992757 6:-0.982609 7:-0.999852 8:-0.995634 9:-0.991725 10:-0.144091 11:-0.44 12:-0.83376 13:-0.265395 14:-0.410271 15:-0.743335 16:0.051941 17:-0.168743 18:-0.39658 
1 1:-0.998424 2:-0.986932 3:-0.929633 4:-0.99894 5:-0.993193 6:-0.982659 7:-0.999846 8:-0.995761 9:-0.992141 10:-0.124663 11:-0.426479 12:-0.83376 13:-0.238147 14:-0.383728 15:-0.739616 16:0.0924002 17:-0.0849377 18:-0.373414 
1 1:-0.998521 2:-0.986575 3:-0.930786 4:-0.998989 5:-0.993094 6:-0.982912 7:-0.999851 8:-0.995969 9:-0.991791 10:-0.134377 11:-0.476056 12:-0.836317 13:-0.250136 14:-0.413733 15:-0.745815 16:0.0781848 17:-0.0894677 18:-0.420849 
1 1:-0.998496 2:-0.988743 3:-0.935875 4:-0.99901 5:-0.993178 6:-0.983207 7:-0.999852 8:-0.99578 9:-0.992838 10:-0.0966001 11:-0.393803 12:-0.836317 13:-0.188011 14:-0.371033 15:-0.764414 16:0.126299 17:-0.103058 18:-0.364589 
1 1:-0.998451 2:-0.987299 3:-0.931122 4:-0.998986 5:-0.993284 6:-0.983003 7:-0.999841 8:-0.995741 9:-0.992057 10:-0.14517 11:-0.445634 12:-0.828645 13:-0.228338 14:-0.377957 15:-0.737136 16:0.038819 17:-0.139298 18:-0.424159 
1 1:-0.998402 2:-0.986617 3:-0.929129 4:-0.998869 5:-0.992424 6:-0.981298 7:-0.999836 8:-0.995365 9:-0.991453 10:-0.126821 11:-0.434366 12:-0.840153 13:-0.235967 14:-0.417196 15:-0.755735 16:0.0869328 17:-0.138165 18:-0.423056 
1 1:-0.998031 2:-0.937587 3:-0.718412 4:-0.997885 5:-0.936514 6:-0.645432 7:-0.999808 8:-0.986987 9:-0.923133 10:-0.54776 11:-0.562817 12:-0.381074 13:-0.59891 14:-0.518754 15:-0.32548 16:-0.481684 17:-0.595696 18:-0.470491 
1 1:-0.997948 2:-0.934994 3:-0.71502 4:-0.997818 5:-0.933692 6:-0.636248 7:-0.999816 8:-0.98664 9:-0.920344 10:-0.550998 11:-0.56169 12:-0.381074 13:-0.590191 14:-0.526832 15:-0.32548 16:-0.458721 17:-0.611552 18:-0.463872 
1 1:-0.993274 2:-0.801981 3:-0.141109 4:-0.99481 5:-0.829091 6:-0.135157 7:-0.999573 8:-0.967176 9:-0.767282 10:-0.608203 11:-0.515493 12:-0.177749 13:-0.558583 14:-0.495672 15:-0.384997 16:-0.445599 17:-0.523216 18:-0.429675 
1 1:-0.993683 2:-0.808253 3:-0.175932 4:-0.995118 5:-0.834894 6:-0.167892 7:-0.999608 8:-0.969181 9:-0.776546 10:-0.601727 11:-0.51662 12:-0.172634 13:-0.537875 14:-0.496826 15:-0.392436 16:-0.414981 17:-0.508494 18:-0.426365 
1 1:-0.993721 2:-0.812616 3:-0.19606 4:-0.995037 5:-0.831466 6:-0.152138 7:-0.999591 8:-0.968526 9:-0.773978 10:-0.598489 11:-0.503099 12:-0.15601 13:-0.538965 14:-0.494518 15:-0.375077 16:-0.440131 17:-0.506229 18:-0.407612 
1 1:-0.99373 2:-0.80986 3:-0.17706 4:-0.995125 5:-0.832422 6:-0.150023 7:-0.999602 8:-0.967264 9:-0.769288 10:-0.586616 11:-0.499718 12:-0.171355 13:-0.523706 14:-0.487594 15:-0.392436 16:-0.417168 17:-0.508494 18:-0.416437 
1 1:-0.999131 2:-0.989121 3:-0.918315 4:-0.998904 5:-0.969 6:-0.842789 7:-0.999904 8:-0.996654 9:-0.982878 10:-0.109552 11:-0.225915 12:-0.531969 13:-0.264305 14:-0.530294 15:-0.611903 16:0.173319 17:-0.142695 18:-0.243243 
1 1:-0.994054 2:-0.830153 3:-0.266936 4:-0.995664 5:-0.851168 6:-0.243093 7:-0.999635 8:-0.971161 9:-0.798051 10:-0.621155 11:-0.513239 12:-0.172634 13:-0.525886 14:-0.480669 15:-0.387477 16:-0.443412 17:-0.545866 18:-0.421953 
1 1:-0.993789 2:-0.809938 3:-0.198688 4:-0.995257 5:-0.839232 6:-0.194214 7:-0.999613 8:-0.969549 9:-0.781504 10:-0.584458 11:-0.510986 12:-0.196931 13:-0.530245 14:-0.472591 15:-0.363918 16:-0.432477 17:-0.494904 18:-0.375621 
1 1:-0.995503 2:-0.864799 3:-0.419779 4:-0.996552 5:-0.880667 6:-0.383804 7:-0.99971 8:-0.977481 9:-0.835431 10:-0.586616 11:-0.507606 12:-0.175192 13:-0.521526 14:-0.493364 15:-0.382517 16:-0.398578 17:-0.525481 18:-0.407612 
1 1:-0.996489 2:-0.889621 3:-0.530477 4:-0.997191 5:-0.909968 6:-0.520486 7:-0.999768 8:-0.983061 9:-0.872447 10:-0.577982 11:-0.51662 12:-0.172634 13:-0.530245 14:-0.480669 15:-0.370118 16:-0.412794 17:-0.526614 18:-0.386652 
1 1:-0.994597 2:-0.843123 3:-0.337665 4:-0.996131 5:-0.868908 6:-0.342229 7:-0.99969 8:-0.974634 9:-0.823867 10:-0.611441 11:-0.503099 12:-0.171355 13:-0.535695 14:-0.481823 15:-0.368878 16:-0.407326 17:-0.523216 18:-0.383343 
1 1:-0.99682 2:-0.928412 3:-0.638068 4:-0.997163 5:-0.91205 6:-0.525761 7:-0.999767 8:-0.987071 9:-0.917664 10:-0.680518 11:-0.621408 12:-0.494885 13:-0.592371 14:-0.549913 15:-0.384997 16:-0.491525 17:-0.599094 18:-0.543298 
1 1:-0.995738 2:-0.894717 3:-0.617061 4:-0.996936 5:-0.907715 6:-0.514983 7:-0.999703 8:-0.981535 9:-0.906282 10:-0.699946 11:-0.636056 12:-0.464194 13:-0.59564 14:-0.537219 15:-0.401116 16:-0.544013 17:-0.626274 18:-0.51572 
1 1:-0.998821 2:-0.978162 3:-0.899547 4:-0.998822 5:-0.968494 6:-0.811007 7:-0.99989 8:-0.995124 9:-0.977987 10:-0.199137 11:-0.465915 12:-0.560102 13:-0.306812 14:-0.540681 15:-0.575945 16:0.0913067 17:-0.306908 18:-0.290678 
1 1:-0.99877 2:-0.978621 3:-0.888368 4:-0.998792 5:-0.966218 6:-0.810106 7:-0.999884 8:-0.994828 9:-0.970065 10:-0.198057 11:-0.444507 12:-0.567775 13:-0.320981 14:-0.536065 15:-0.580905 16:0.0563149 17:-0.305776 18:-0.39658 
1 1:-0.998874 2:-0.982346 3:-0.911534 4:-0.998808 5:-0.968801 6:-0.829267 7:-0.999884 8:-0.995512 9:-0.973417 10:-0.182947 11:-0.391549 12:-0.544757 13:-0.268665 14:-0.514137 15:-0.585865 16:0.0792783 17:-0.212911 18:-0.393271 
1 1:-0.998079 2:-0.963445 3:-0.809082 4:-0.998123 5:-0.952264 6:-0.72184 7:-0.999841 8:-0.992157 9:-0.950459 10:-0.363195 11:-0.513239 12:-0.597187 13:-0.459401 14:-0.589152 15:-0.634222 16:-0.108803 17:-0.360136 18:-0.489244 
1 1:-0.998051 2:-0.965435 3:-0.815565 4:-0.998121 5:-0.950255 6:-0.733011 7:-0.999834 8:-0.991068 9:-0.943968 10:-0.25742 11:-0.451268 12:-0.57289 13:-0.384196 14:-0.593768 15:-0.611903 16:0.0191361 17:-0.369196 18:-0.525648 
1 1:-0.997906 2:-0.961362 3:-0.804046 4:-0.997721 5:-0.9445 6:-0.70486 7:-0.999822 8:-0.990482 9:-0.939632 10:-0.337291 11:-0.498592 12:-0.575448 13:-0.513896 14:-0.609925 15:-0.621823 16:-0.129579 17:-0.405436 18:-0.553227 
1 1:-0.992932 2:-0.807573 3:-0.121815 4:-0.995247 5:-0.839638 6:-0.195318 7:-0.999608 8:-0.96627 9:-0.785153 10:-0.602806 11:-0.477183 12:-0.186701 13:-0.521526 14:-0.465666 15:-0.397396 16:-0.417168 17:-0.522084 18:-0.383343 
1 1:-0.986939 2:-0.818677 3:-0.319708 4:-0.996191 5:-0.869923 6:-0.330958 7:-0.999644 8:-0.972121 9:-0.831853 10:-0.812196 11:-0.504225 12:-0.214834 13:-0.510627 14:-0.482977 15:-0.402356 16:-0.434664 17:-0.513024 18:-0.397683 
1 1:-0.990437 2:-0.82806 3:-0.214584 4:-0.995112 5:-0.829407 6:-0.136854 7:-0.999601 8:-0.968373 9:-0.794633 10:-0.777658 11:-0.509859 12:-0.194373 13:-0.547684 14:-0.496826 15:-0.430874 16:-0.466375 17:-0.561721 18:-0.427468 
1 1:-0.998656 2:-0.975563 3:-0.87166 4:-0.998716 5:-0.969873 6:-0.836487 7:-0.999867 8:-0.995134 9:-0.972534 10:-0.0674582 11:-0.338592 12:-0.448849 13:-0.180381 14:-0.431044 15:-0.562306 16:0.162384 17:-0.0702152 18:-0.265306 
1 1:-0.998621 2:-0.978824 3:-0.88965 4:-0.998743 5:-0.970745 6:-0.846236 7:-0.999864 8:-0.995295 9:-0.976569 10:-0.0437129 11:-0.291268 12:-0.436061 13:-0.137875 14:-0.398731 15:-0.549907 16:0.15801 17:0.0339751 18:-0.18588 
1 1:-0.998183 2:-0.966676 3:-0.81217 4:-0.997907 5:-0.946097 6:-0.707557 7:-0.999834 8:-0.991643 9:-0.943364 10:-0.302752 11:-0.476056 12:-0.590793 13:-0.492098 14:-0.616849 15:-0.626782 16:-0.102242 17:-0.372593 18:-0.566464 
1 1:-0.998721 2:-0.979188 3:-0.871941 4:-0.998774 5:-0.965874 6:-0.831569 7:-0.999884 8:-0.995577 9:-0.973199 10:-0.208851 11:-0.300282 12:-0.456522 13:-0.221798 14:-0.452972 15:-0.546187 16:0.127392 17:-0.0792752 18:-0.288472 
1 1:-0.997845 2:-0.961848 3:-0.787442 4:-0.997855 5:-0.94185 6:-0.697071 7:-0.999826 8:-0.99098 9:-0.937445 10:-0.41932 11:-0.501972 12:-0.589514 13:-0.494278 14:-0.618003 15:-0.640422 16:-0.137233 17:-0.377123 18:-0.556536 
1 1:-0.997839 2:-0.964278 3:-0.792684 4:-0.997797 5:-0.941342 6:-0.689109 7:-0.999827 8:-0.990953 9:-0.938501 10:-0.424717 11:-0.487324 12:-0.592072 13:-0.523706 14:-0.636469 15:-0.636702 16:-0.155823 17:-0.425821 18:-0.547711 
1 1:-0.997911 2:-0.964428 3:-0.814829 4:-0.997995 5:-0.951806 6:-0.777428 7:-0.99981 8:-0.992448 9:-0.9614 10:-0.0415542 11:-0.268732 12:-0.367008 13:-0.178202 14:-0.421812 15:-0.517669 16:0.108803 17:-0.0453001 18:-0.228902 
1 1:-0.997846 2:-0.967041 3:-0.81898 4:-0.998082 5:-0.952751 6:-0.780197 7:-0.99981 8:-0.992654 9:-0.961974 10:-0.116028 11:-0.267606 12:-0.372123 13:-0.141144 14:-0.409117 15:-0.50527 16:0.101148 17:-0.00566251 18:-0.209046 
1 1:-0.993675 2:-0.810698 3:-0.214619 4:-0.995085 5:-0.824552 6:-0.152406 7:-0.999604 8:-0.96825 9:-0.782474 10:-0.586616 11:-0.505352 12:-0.171355 13:-0.534605 14:-0.502597 15:-0.392436 16:-0.4117 17:-0.531144 18:-0.416437 
1 1:-0.998228 2:-0.960594 3:-0.696866 4:-0.997742 5:-0.937004 6:-0.694917 7:-0.999845 8:-0.993918 9:-0.957931 10:-0.426875 11:-0.510986 12:-0.570332 13:-0.512807 14:-0.600692 15:-0.594544 16:-0.20175 17:-0.335221 18:-0.364589 
1 1:-0.993981 2:-0.818423 3:-0.260153 4:-0.995663 5:-0.841933 6:-0.223803 7:-0.999655 8:-0.971927 9:-0.797706 10:-0.592013 11:-0.505352 12:-0.173913 13:-0.506267 14:-0.48644 15:-0.388717 16:-0.362493 17:-0.483579 18:-0.407612 
1 1:-0.992301 2:-0.908258 3:-0.0583819 4:-0.99853 5:-0.983875 6:-0.9749 7:-0.999704 8:-0.99115 9:-0.977789 10:-0.82191 11:-0.79493 12:-0.939898 13:-0.512807 14:-0.514137 15:-0.516429 16:-0.525424 17:-0.569649 18:-0.509101 
1 1:-0.995736 2:-0.95689 3:-0.580228 4:-0.997645 5:-0.991035 6:-0.986257 7:-0.999655 8:-0.990868 9:-0.986425 10:-0.396654 11:-0.71831 12:-0.938619 13:-0.169482 14:-0.0548182 15:-0.66398 16:-0.0355385 17:-0.14496 18:-0.387755 
1 1:-0.995823 2:-0.961198 3:-0.60355 4:-0.997702 5:-0.991037 6:-0.985201 7:-0.999661 8:-0.991941 9:-0.987503 10:-0.371829 11:-0.695775 12:-0.93734 13:-0.118256 14:-0.0594345 15:-0.654061 16:0.0202296 17:-0.0611552 18:-0.392168 
1 1:-0.993256 2:-0.912425 3:-0.0139048 4:-0.999004 5:-0.985141 6:-0.977647 7:-0.999807 8:-0.992653 9:-0.982677 10:-0.856449 11:-0.814085 12:-0.948849 13:-0.431063 14:-0.576457 15:-0.528828 16:-0.466375 17:-0.597961 18:-0.55433 
1 1:-0.99405 2:-0.920122 3:-0.0241398 4:-0.999011 5:-0.984961 6:-0.977762 7:-0.999812 8:-0.992427 9:-0.983755 10:-0.827307 11:-0.80169 12:-0.952685 13:-0.441962 14:-0.596076 15:-0.528828 16:-0.453253 17:-0.582106 18:-0.53668 
1 1:-0.996013 2:-0.949664 3:-0.593154 4:-0.997807 5:-0.989487 6:-0.986712 7:-0.999666 8:-0.990916 9:-0.984988 10:-0.390178 11:-0.761127 12:-0.938619 13:-0.178202 14:-0.22562 15:-0.609423 16:-0.11427 17:-0.254813 18:-0.436293 
1 1:-0.995992 2:-0.955335 3:-0.583441 4:-0.99782 5:-0.989886 6:-0.987628 7:-0.999665 8:-0.991082 9:-0.986095 10:-0.367512 11:-0.728451 12:-0.941176 13:-0.147684 14:-0.18292 15:-0.598264 16:-0.0716238 17:-0.16308 18:-0.453944 
1 1:-0.995662 2:-0.943795 3:-0.57383 4:-0.997792 5:-0.989327 6:-0.986714 7:-0.999657 8:-0.990979 9:-0.986188 10:-0.383702 11:-0.774648 12:-0.943734 13:-0.169482 14:-0.222158 15:-0.618103 16:-0.0924002 17:-0.19479 18:-0.397683 
1 1:-0.995751 2:-0.952388 3:-0.591557 4:-0.997598 5:-0.990512 6:-0.988187 7:-0.99964 8:-0.991456 9:-0.988943 10:-0.351322 11:-0.737465 12:-0.941176 13:-0.122616 14:-0.0144259 15:-0.630502 16:-0.0464735 17:-0.0906002 18:-0.297297 
1 1:-0.995277 2:-0.953346 3:-0.638349 4:-0.997242 5:-0.990949 6:-0.990615 7:-0.99959 8:-0.991043 9:-0.988037 10:-0.313546 11:-0.704789 12:-0.932225 13:-0.0877384 14:0.166763 15:-0.473032 16:-0.0213231 17:0.0656852 18:-0.234418 
1 1:-0.995069 2:-0.961713 3:-0.70354 4:-0.996555 5:-0.991184 6:-0.992203 7:-0.999501 8:-0.990452 9:-0.991215 10:-0.166757 11:-0.621408 12:-0.921995 13:-0.100817 14:0.524524 15:-0.310601 16:-0.00601422 17:0.233296 18:0.0546056 
1 1:-0.994871 2:-0.962789 3:-0.711112 4:-0.996484 5:-0.990861 6:-0.992672 7:-0.999478 8:-0.990351 9:-0.991376 10:-0.162439 11:-0.615775 12:-0.920716 13:-0.0855586 14:0.499134 15:-0.318041 16:0.0344451 17:0.308041 18:0.178158 
1 1:-0.994923 2:-0.96305 3:-0.716494 4:-0.996355 5:-0.990177 6:-0.992026 7:-0.999462 8:-0.989994 9:-0.990546 10:-0.160281 11:-0.609014 12:-0.915601 13:-0.0681199 14:0.470283 15:-0.259764 16:-0.0256971 17:0.313703 18:0.0910094 
1 1:-0.994756 2:-0.962944 3:-0.734633 4:-0.996245 5:-0.990328 6:-0.991958 7:-0.999439 8:-0.98957 9:-0.990159 10:-0.157043 11:-0.613521 12:-0.920716 13:-0.052861 14:0.613387 15:-0.32672 16:0.0103882 17:0.293318 18:0.0468836 
1 1:-0.994723 2:-0.95061 3:-0.704215 4:-0.99628 5:-0.990541 6:-0.99168 7:-0.999469 8:-0.989913 9:-0.989496 10:-0.189423 11:-0.703662 12:-0.928389 13:-0.080109 14:0.484132 15:-0.365158 16:0.00492072 17:0.245753 18:-0.0237176 
1 1:-0.99404 2:-0.83057 3:0.345257 4:-0.998566 5:-0.962181 6:-0.892084 7:-0.999789 8:-0.990438 9:-0.947416 10:-0.814355 11:-0.896338 12:-0.964194 13:-0.549864 14:-0.769186 15:-0.770614 16:-0.466375 17:-0.624009 18:-0.783784 
1 1:-0.994205 2:-0.820632 3:0.228912 4:-0.998354 5:-0.961214 6:-0.885508 7:-0.99979 8:-0.989831 9:-0.947236 10:-0.79061 11:-0.896338 12:-0.959079 13:-0.569482 14:-0.763416 15:-0.775573 16:-0.390924 17:-0.616082 18:-0.787093 
1 1:-0.994207 2:-0.821015 3:0.191476 4:-0.998382 5:-0.960319 6:-0.890573 7:-0.99981 8:-0.988831 9:-0.952712 10:-0.803562 11:-0.900845 12:-0.956522 13:-0.59564 14:-0.779573 15:-0.787973 16:-0.414981 17:-0.667044 18:-0.782681 
1 1:-0.993842 2:-0.825261 3:0.242659 4:-0.998412 5:-0.959468 6:-0.893129 7:-0.999794 8:-0.989413 9:-0.94984 10:-0.811117 11:-0.897465 12:-0.956522 13:-0.550954 14:-0.771495 15:-0.768134 16:-0.422635 17:-0.644394 18:-0.759515 
1 1:-0.994398 2:-0.956691 3:-0.811936 4:-0.994594 5:-0.934581 6:-0.726773 7:-0.999321 8:-0.983605 9:-0.941808 10:-0.0404749 11:-0.269859 12:-0.523018 13:-0.162943 14:-0.479515 15:-0.578425 16:-0.13614 17:-0.0147225 18:-0.363486 
1 1:-0.994236 2:-0.817476 3:0.219679 4:-0.998433 5:-0.961674 6:-0.896142 7:-0.999784 8:-0.989896 9:-0.962667 10:-0.802482 11:-0.903099 12:-0.955243 13:-0.590191 14:-0.768032 15:-0.766894 16:-0.472936 17:-0.627407 18:-0.718698 
1 1:-0.994372 2:-0.815803 3:0.196063 4:-0.998546 5:-0.959956 6:-0.886982 7:-0.999806 8:-0.990332 9:-0.955082 10:-0.799244 11:-0.906479 12:-0.959079 13:-0.559673 14:-0.777265 15:-0.775573 16:-0.424822 17:-0.624009 18:-0.749586 
1 1:-0.99451 2:-0.809953 3:0.213716 4:-0.998509 5:-0.960595 6:-0.889379 7:-0.99981 8:-0.989511 9:-0.951517 10:-0.794927 11:-0.907606 12:-0.959079 13:-0.567302 14:-0.778419 15:-0.779293 16:-0.407326 17:-0.650057 18:-0.757308 
1 1:-0.994245 2:-0.810716 3:0.22015 4:-0.998455 5:-0.961759 6:-0.889698 7:-0.999789 8:-0.989633 9:-0.954014 10:-0.801403 11:-0.908732 12:-0.957801 13:-0.571662 14:-0.773803 15:-0.781773 16:-0.460908 17:-0.636467 18:-0.753999 
1 1:-0.994399 2:-0.942243 3:-0.746657 4:-0.995053 5:-0.867201 6:-0.328599 7:-0.999567 8:-0.985589 9:-0.906129 10:-0.503508 11:-0.63493 12:-0.657289 13:-0.311172 14:-0.414887 15:-0.143211 16:-0.186441 17:-0.261608 18:-0.573083 
1 1:-0.956925 2:-0.835968 3:-0.645125 4:-0.993409 5:-0.841955 6:-0.232959 7:-0.999384 8:-0.986776 9:-0.933074 10:-0.917971 11:-0.852394 12:-0.647059 13:-0.360218 14:-0.462204 15:-0.206448 16:-0.247676 17:-0.0498301 18:-0.335907 
1 1:-0.99373 2:-0.976895 3:-0.926675 4:-0.994295 5:-0.982859 6:-0.976414 7:-0.999094 8:-0.986153 9:-0.982346 10:0.0922828 11:-0.138028 12:-0.748082 13:-0.101907 14:0.0490479 15:-0.613143 16:-0.109896 17:0.295583 18:-0.111969 
1 1:-0.993663 2:-0.977549 3:-0.926601 4:-0.99421 5:-0.982715 6:-0.975953 7:-0.999115 8:-0.985668 9:-0.982755 10:0.0804101 11:-0.106479 12:-0.754476 13:-0.0997275 14:0.0317369 15:-0.580905 16:-0.0661564 17:0.280861 18:-0.0314396 
1 1:-0.99354 2:-0.976645 3:-0.922754 4:-0.993889 5:-0.983247 6:-0.976563 7:-0.999065 8:-0.98548 9:-0.982386 10:0.113869 11:-0.0816901 12:-0.750639 13:-0.111717 14:0.0594345 15:-0.546187 16:-0.0738108 17:0.336353 18:-0.0656371 
1 1:-0.993652 2:-0.97645 3:-0.924697 4:-0.993918 5:-0.983133 6:-0.976401 7:-0.999084 8:-0.986233 9:-0.982328 10:0.0901241 11:-0.135775 12:-0.745524 13:-0.120436 14:0.050202 15:-0.557347 16:-0.0727173 17:0.331823 18:-0.0832874 
1 1:-0.993452 2:-0.978345 3:-0.929762 4:-0.994094 5:-0.983054 6:-0.977644 7:-0.999081 8:-0.985852 9:-0.983147 10:0.0836481 11:-0.0107042 12:-0.748082 13:-0.080109 14:0.0559723 15:-0.593304 16:-0.0759978 17:0.339751 18:-0.042471 
1 1:-0.993696 2:-0.977083 3:-0.925957 4:-0.99401 5:-0.983134 6:-0.976862 7:-0.999085 8:-0.986045 9:-0.982433 10:0.108473 11:-0.0985915 12:-0.741688 13:-0.0724796 14:0.0940565 15:-0.548667 16:-0.0606889 17:0.332956 18:-0.0843905 
1 1:-0.993416 2:-0.976089 3:-0.923884 4:-0.993721 5:-0.982079 6:-0.975468 7:-0.999025 8:-0.985219 9:-0.98155 10:0.0912035 11:-0.0816901 12:-0.754476 13:-0.0877384 14:0.0467398 15:-0.588345 16:-0.113177 17:0.304643 18:-0.0667402 
1 1:-0.99858 2:-0.992638 3:-0.960617 4:-0.998858 5:-0.989809 6:-0.954936 7:-0.999853 8:-0.995897 9:-0.992978 10:-0.143011 11:-0.110986 12:-0.644501 13:-0.19564 14:-0.148298 15:-0.465592 16:0.0289776 17:-0.160815 18:-0.000551572 
1 1:-0.996344 2:-0.928932 3:-0.704508 4:-0.996509 5:-0.92757 6:-0.628176 7:-0.999642 8:-0.982787 9:-0.912808 10:-0.350243 11:-0.470423 12:-0.35422 13:-0.437602 14:-0.44951 15:-0.306882 16:-0.329688 17:-0.454134 18:-0.410921 
1 1:-0.998634 2:-0.987682 3:-0.951149 4:-0.998988 5:-0.98773 6:-0.942394 7:-0.999873 8:-0.996584 9:-0.990903 10:-0.235834 11:-0.389296 12:-0.589514 13:-0.184741 14:-0.278707 15:-0.471792 16:-0.00492072 17:-0.114383 18:-0.169333 
1 1:-0.998616 2:-0.985021 3:-0.953969 4:-0.998969 5:-0.987765 6:-0.942567 7:-0.999867 8:-0.996259 9:-0.990409 10:-0.243389 11:-0.500845 12:-0.590793 13:-0.226158 14:-0.272937 15:-0.484191 16:0.0136687 17:-0.165345 18:-0.186983 
1 1:-0.998689 2:-0.985406 3:-0.952692 4:-0.998997 5:-0.988291 6:-0.942673 7:-0.999869 8:-0.996414 9:-0.989333 10:-0.260658 11:-0.495211 12:-0.608696 13:-0.222888 14:-0.254472 15:-0.455673 16:-0.0770913 17:-0.189128 18:-0.235521 
1 1:-0.998724 2:-0.985416 3:-0.950544 4:-0.999042 5:-0.988374 6:-0.937514 7:-0.999878 8:-0.996352 9:-0.989853 10:-0.239072 11:-0.509859 12:-0.620205 13:-0.217439 14:-0.277553 15:-0.485431 16:-0.0344451 17:-0.236693 18:-0.261997 
1 1:-0.998537 2:-0.99341 3:-0.966762 4:-0.998702 5:-0.987411 6:-0.941288 7:-0.999818 8:-0.995453 9:-0.99091 10:-0.165677 11:-0.0332394 12:-0.523018 13:-0.20218 14:-0.216388 15:-0.484191 16:-0.154729 17:-0.217441 18:-0.123001 
1 1:-0.998464 2:-0.994928 3:-0.990199 4:-0.998923 5:-0.994992 6:-0.997522 7:-0.999844 8:-0.995937 9:-0.993462 10:-0.188343 11:-0.264225 12:-0.7289 13:-0.298093 14:-0.254472 15:-0.517669 16:0.0738108 17:-0.0906002 18:-0.47711 
1 1:-0.990445 2:-0.791879 3:-0.125658 4:-0.992009 5:-0.819926 6:-0.118996 7:-0.999165 8:-0.960788 9:-0.757646 10:-0.445224 11:-0.472676 12:-0.16624 13:-0.432153 14:-0.446047 15:-0.373838 16:-0.385457 17:-0.399773 18:-0.406509 
1 1:-0.991034 2:-0.798878 3:-0.157825 4:-0.992443 5:-0.825102 6:-0.153403 7:-0.999228 8:-0.962935 9:-0.76763 10:-0.434431 11:-0.470423 12:-0.162404 13:-0.400545 14:-0.439123 15:-0.375077 16:-0.343904 17:-0.371461 18:-0.393271 
1 1:-0.990839 2:-0.80358 3:-0.183826 4:-0.992213 5:-0.82092 6:-0.140432 7:-0.999195 8:-0.961813 9:-0.765476 10:-0.420399 11:-0.456901 12:-0.136829 13:-0.386376 14:-0.437969 15:-0.360198 16:-0.358119 17:-0.362401 18:-0.366795 
1 1:-0.990926 2:-0.800124 3:-0.165508 4:-0.992479 5:-0.82212 6:-0.135032 7:-0.999225 8:-0.961225 9:-0.75948 10:-0.405289 11:-0.453521 12:-0.158568 13:-0.389646 14:-0.434507 15:-0.371358 16:-0.328595 17:-0.372593 18:-0.37893 
1 1:-0.99611 2:-0.981403 3:-0.91375 4:-0.996039 5:-0.960695 6:-0.835191 7:-0.999506 8:-0.989811 9:-0.975883 10:0.0588235 11:0.0895775 12:-0.469309 13:-0.109537 14:-0.29371 15:-0.562306 16:-0.0464735 17:0.189128 18:-0.0579151 
1 1:-0.991709 2:-0.820458 3:-0.257919 4:-0.993548 5:-0.843146 6:-0.225942 7:-0.999348 8:-0.965459 9:-0.788339 10:-0.464652 11:-0.467042 12:-0.161125 13:-0.386376 14:-0.427582 15:-0.372598 16:-0.346091 17:-0.421291 18:-0.383343 
1 1:-0.990983 2:-0.801274 3:-0.180677 4:-0.992265 5:-0.828976 6:-0.177857 7:-0.999199 8:-0.962995 9:-0.772054 10:-0.412844 11:-0.464789 12:-0.179028 13:-0.404905 14:-0.411425 15:-0.351519 16:-0.36468 17:-0.354473 18:-0.335907 
1 1:-0.99331 2:-0.85737 3:-0.406593 4:-0.994516 5:-0.872602 6:-0.370801 7:-0.999433 8:-0.972228 9:-0.826665 10:-0.408527 11:-0.453521 12:-0.159847 13:-0.384196 14:-0.428736 15:-0.365158 16:-0.33953 17:-0.372593 18:-0.367899 
1 1:-0.994753 2:-0.882978 3:-0.520022 4:-0.995575 5:-0.902646 6:-0.508852 7:-0.999566 8:-0.978817 9:-0.86278 10:-0.422558 11:-0.462535 12:-0.159847 13:-0.408174 14:-0.416042 15:-0.356479 16:-0.323127 17:-0.390713 18:-0.348042 
1 1:-0.992098 2:-0.833953 3:-0.325146 4:-0.993883 5:-0.860029 6:-0.328584 7:-0.999384 8:-0.96866 9:-0.815175 10:-0.458176 11:-0.456901 12:-0.158568 13:-0.407084 14:-0.420658 15:-0.352759 16:-0.34281 17:-0.398641 18:-0.343629 
1 1:-0.995706 2:-0.970499 3:-0.893767 4:-0.996084 5:-0.960696 6:-0.804268 7:-0.999492 8:-0.988063 9:-0.970596 10:0.0599029 11:-0.230423 12:-0.48977 13:-0.104087 14:-0.315638 15:-0.533788 16:-0.0814653 17:0.0951302 18:-0.0932157 
1 1:-0.995623 2:-0.970984 3:-0.883161 4:-0.99601 5:-0.957964 6:-0.802076 7:-0.999493 8:-0.987746 9:-0.962378 10:0.0339989 11:-0.209014 12:-0.52046 13:-0.0953678 14:-0.330641 15:-0.551147 16:-0.0224166 17:0.103058 18:-0.209046 
1 1:-0.995715 2:-0.974196 3:-0.905162 4:-0.995664 5:-0.960331 6:-0.823707 7:-0.999462 8:-0.98814 9:-0.965059 10:0.0480302 11:-0.125634 12:-0.484655 13:-0.0724796 14:-0.285632 15:-0.543707 16:-0.0574084 17:0.197055 18:-0.214562 
1 1:-0.994712 2:-0.954945 3:-0.801935 4:-0.994991 5:-0.943886 6:-0.711532 7:-0.999402 8:-0.984864 9:-0.942576 10:-0.0706962 11:-0.344225 12:-0.563939 13:-0.2 14:-0.42989 15:-0.604464 16:-0.105522 17:-0.0317101 18:-0.375621 
1 1:-0.994382 2:-0.957028 3:-0.808539 4:-0.994438 5:-0.940424 6:-0.722669 7:-0.999329 8:-0.982725 9:-0.935958 10:0.0318403 11:-0.259718 12:-0.528133 13:-0.147684 14:-0.428736 15:-0.575945 16:-0.0399125 18:-0.412024 
1 1:-0.994559 2:-0.953257 3:-0.796895 4:-0.994494 5:-0.935513 6:-0.69741 7:-0.999371 8:-0.983112 9:-0.931598 10:-0.0447922 11:-0.328451 12:-0.537084 13:-0.244687 14:-0.480669 15:-0.592064 16:-0.0989612 17:-0.0792752 18:-0.4738 
1 1:-0.990015 2:-0.797489 3:-0.103634 4:-0.992536 5:-0.830784 6:-0.183275 7:-0.999218 8:-0.959624 9:-0.77586 10:-0.445224 11:-0.432113 12:-0.172634 13:-0.376567 14:-0.402193 15:-0.381277 16:-0.348278 17:-0.391846 18:-0.338114 
1 1:-0.98428 2:-0.809446 3:-0.308335 4:-0.993898 5:-0.861164 6:-0.318579 7:-0.999352 8:-0.966057 9:-0.82261 10:-0.712898 11:-0.454648 12:-0.199488 13:-0.377657 14:-0.41835 15:-0.389957 16:-0.311099 17:-0.361268 18:-0.354661 
1 1:-0.987842 2:-0.819078 3:-0.200973 4:-0.992744 5:-0.820706 6:-0.119807 7:-0.999299 8:-0.962603 9:-0.783871 10:-0.660011 11:-0.465915 12:-0.179028 13:-0.416894 14:-0.447201 15:-0.415995 16:-0.353745 17:-0.443941 18:-0.395477 
1 1:-0.994854 2:-0.96648 3:-0.863922 4:-0.995263 5:-0.960755 6:-0.8295 7:-0.999332 8:-0.986898 9:-0.964362 10:0.0739342 11:-0.101972 12:-0.386189 13:-0.0474114 14:-0.184074 15:-0.508989 16:-0.119738 17:0.288788 18:-0.0876999 
1 1:-0.994707 2:-0.969935 3:-0.882778 4:-0.995072 5:-0.961387 6:-0.838325 7:-0.999303 8:-0.987093 9:-0.968326 10:0.0998381 11:-0.0366197 12:-0.370844 13:-0.0735695 14:-0.152914 15:-0.485431 16:-0.106616 17:0.409966 18:0.0148924 
1 1:-0.994728 2:-0.958721 3:-0.805714 4:-0.99474 5:-0.937536 6:-0.699732 7:-0.999394 8:-0.984356 9:-0.933488 10:-0.0383162 11:-0.286761 12:-0.553708 13:-0.238147 14:-0.476053 15:-0.606944 16:-0.0836523 17:-0.0317101 18:-0.472697 
1 1:-0.99534 2:-0.97101 3:-0.865951 4:-0.995715 5:-0.957426 6:-0.825384 7:-0.999437 8:-0.988211 9:-0.965236 10:0.00593632 11:-0.0377465 12:-0.402813 13:-0.0822888 14:-0.223312 15:-0.49907 16:-0.0716238 17:0.271801 18:-0.100938 
1 1:-0.994488 2:-0.953782 3:-0.779067 4:-0.994896 5:-0.933752 6:-0.687672 7:-0.99938 8:-0.98372 9:-0.92857 10:-0.105235 11:-0.330704 12:-0.546036 13:-0.214169 14:-0.488748 15:-0.618103 16:-0.117551 17:-0.0305776 18:-0.467181 
1 1:-0.994618 2:-0.955668 3:-0.784519 4:-0.994655 5:-0.932237 6:-0.682438 7:-0.999391 8:-0.983472 9:-0.930774 10:-0.0976794 11:-0.302535 12:-0.553708 13:-0.240327 14:-0.510675 15:-0.609423 16:-0.0825588 17:-0.0838052 18:-0.45615 
1 1:-0.993149 2:-0.954272 3:-0.805261 4:-0.993245 5:-0.941186 6:-0.767783 7:-0.999105 8:-0.983087 9:-0.95126 10:0.114949 11:-0.0456338 12:-0.314578 13:-0.0376022 14:-0.201385 15:-0.473032 16:-0.0574084 17:0.326161 18:-0.0303365 
1 1:-0.992913 2:-0.956578 3:-0.810955 4:-0.992978 5:-0.942334 6:-0.771823 7:-0.999045 8:-0.983155 9:-0.951693 10:0.0512682 11:-0.035493 12:-0.317136 13:-0.0474114 14:-0.185228 15:-0.456913 16:-0.0858393 17:0.353341 18:-0.0490899 
1 1:-0.990944 2:-0.80183 3:-0.197527 4:-0.99261 5:-0.815278 6:-0.137081 7:-0.999225 8:-0.961883 9:-0.772124 10:-0.427955 11:-0.460282 12:-0.158568 13:-0.396185 14:-0.443739 15:-0.377557 16:-0.366867 17:-0.405436 18:-0.386652 
1 1:-0.995618 2:-0.953071 3:-0.688287 4:-0.995323 5:-0.929085 6:-0.687607 7:-0.999504 8:-0.987811 9:-0.951426 10:-0.172153 11:-0.358873 12:-0.549872 13:-0.266485 14:-0.477207 15:-0.569746 16:-0.184254 17:-0.0396376 18:-0.236624 
1 1:-0.991168 2:-0.809161 3:-0.245534 4:-0.993069 5:-0.831968 6:-0.210842 7:-0.999268 8:-0.965916 9:-0.790329 10:-0.420399 11:-0.456901 12:-0.16624 13:-0.366757 14:-0.427582 15:-0.368878 16:-0.31766 17:-0.351076 18:-0.370105 
1 1:-0.998465 2:-0.994139 3:-0.995476 4:-0.998919 5:-0.994296 6:-0.993631 7:-0.999848 8:-0.995755 9:-0.993742 10:-0.163519 11:-0.347606 12:-0.639386 13:-0.242507 14:-0.240623 15:-0.577185 16:0.16129 17:-0.0804077 18:-0.489244 
1 1:-0.99848 2:-0.994125 3:-0.996205 4:-0.998886 5:-0.993935 6:-0.991599 7:-0.999845 8:-0.995772 9:-0.995014 10:-0.110631 11:-0.344225 12:-0.62532 13:-0.251226 14:-0.326024 15:-0.631742 16:0.135046 17:-0.0498301 18:-0.389961 
1 1:-0.998545 2:-0.99405 3:-0.99677 4:-0.999012 5:-0.995489 6:-0.990202 7:-0.999854 8:-0.996259 9:-0.994769 10:-0.164598 11:-0.39493 12:-0.621483 13:-0.228338 14:-0.240623 15:-0.67018 16:0.104429 17:-0.0577576 18:-0.439603 
1 1:-0.992779 2:-0.951133 3:-0.572249 4:-0.99447 5:-0.985141 6:-0.982859 7:-0.999176 8:-0.984767 9:-0.980654 10:-0.212089 11:-0.624789 12:-0.920716 13:-0.0844687 14:0.224466 15:-0.549907 16:-0.113177 17:0.112118 18:-0.237728 
1 1:-0.992813 2:-0.95525 3:-0.595729 4:-0.994608 5:-0.985214 6:-0.981492 7:-0.999139 8:-0.985868 9:-0.982303 10:-0.172153 11:-0.594366 12:-0.919437 13:-0.0637602 14:0.18869 15:-0.558586 16:-0.116457 17:0.171008 18:-0.268616 
1 1:-0.99327 2:-0.94416 3:-0.586196 4:-0.99478 5:-0.983789 6:-0.983467 7:-0.999159 8:-0.985254 9:-0.980541 10:-0.189423 11:-0.68338 12:-0.921995 13:-0.0899183 14:-0.0017311 15:-0.49907 16:-0.203937 17:0.00226501 18:-0.264203 
1 1:-0.993056 2:-0.949295 3:-0.576044 4:-0.994782 5:-0.984048 6:-0.984439 7:-0.999238 8:-0.985461 9:-0.980808 10:-0.190502 11:-0.639437 12:-0.925831 13:-0.100817 14:0.0767455 15:-0.486671 16:-0.0300711 17:0.0736127 18:-0.291782 
1 1:-0.992808 2:-0.937948 3:-0.567773 4:-0.994796 5:-0.983407 6:-0.983157 7:-0.999226 8:-0.985268 9:-0.98054 10:-0.181867 11:-0.699155 12:-0.928389 13:-0.0997275 14:0.00288517 15:-0.512709 16:-0.0967742 17:0.0486976 18:-0.246553 
1 1:-0.992717 2:-0.946477 3:-0.591862 4:-0.994339 5:-0.984424 6:-0.984639 7:-0.999166 8:-0.985759 9:-0.983416 10:-0.16136 11:-0.650704 12:-0.924552 13:-0.0724796 14:0.236007 15:-0.513949 16:-0.0552214 17:0.125708 18:-0.118588 
1 1:-0.991737 2:-0.946641 3:-0.634126 4:-0.993557 5:-0.984421 6:-0.986431 7:-0.998971 8:-0.984377 9:-0.981956 10:-0.127901 11:-0.606761 12:-0.913043 13:-0.0245232 14:0.376803 15:-0.319281 16:-0.0956807 17:0.285391 18:-0.0568119 
1 1:-0.990728 2:-0.954865 3:-0.696818 4:-0.991309 5:-0.984006 6:-0.988108 7:-0.998635 8:-0.983076 9:-0.984606 10:-0.0221263 11:-0.498592 12:-0.901535 13:-0.0561308 14:0.705713 15:-0.153131 16:-0.11099 17:0.429219 18:0.198014 
1 1:-0.990428 2:-0.955416 3:-0.703738 4:-0.991169 5:-0.983612 6:-0.987987 7:-0.998498 8:-0.982977 9:-0.984603 10:-0.011333 11:-0.498592 12:-0.897698 13:-0.0474114 14:0.643393 15:-0.132052 16:-0.187534 17:0.442809 18:0.253172 
1 1:-0.990243 2:-0.956109 3:-0.711254 4:-0.99095 5:-0.98285 6:-0.987836 7:-0.998509 8:-0.982585 9:-0.984091 10:-0.0167296 11:-0.486197 12:-0.891304 13:-0.0190736 14:0.620312 15:-0.0303782 16:-0.154729 17:0.540204 18:0.252068 
1 1:-0.990213 2:-0.95537 3:-0.72871 4:-0.990879 5:-0.982745 6:-0.987174 7:-0.998509 8:-0.98197 9:-0.982832 10:-0.00593632 11:-0.487324 12:-0.893862 13:-0.0201635 14:0.757646 15:-0.155611 16:-0.142701 17:0.473386 18:0.257584 
1 1:-0.990428 2:-0.943203 3:-0.697191 4:-0.991081 5:-0.983242 6:-0.987253 7:-0.998615 8:-0.982577 9:-0.983237 10:-0.0221263 11:-0.605634 12:-0.901535 13:-0.0277929 14:0.633006 15:-0.223807 16:-0.112083 17:0.506229 18:0.153889 
-1 1:-0.997937 2:-0.974769 3:-0.95159 4:-0.998791 5:-0.986946 6:-0.97916 7:-0.999787 8:-0.989211 9:-0.97307 10:-0.533729 11:-0.743099 12:-0.826087 13:-0.510627 14:-0.716099 15:-0.845009 16:-0.47403 17:-0.762174 18:-0.844457 
1 1:-0.992567 2:-0.825606 3:0.360789 4:-0.997228 5:-0.958371 6:-0.890555 7:-0.999597 8:-0.987199 9:-0.944684 10:-0.70966 11:-0.867042 12:-0.960358 13:-0.46376 14:-0.695326 15:-0.740856 16:-0.38655 17:-0.465459 18:-0.733039 
1 1:-0.989565 2:-0.949582 3:-0.805186 4:-0.988738 5:-0.926732 6:-0.719744 7:-0.99819 8:-0.97608 9:-0.9346 10:0.0372369 11:-0.143662 12:-0.498721 13:-0.102997 14:-0.384882 15:-0.551147 16:-0.259705 17:0.16761 18:-0.260894 
1 1:-0.987221 2:-0.967861 3:-0.919536 4:-0.986248 5:-0.974063 6:-0.971177 7:-0.997457 8:-0.976776 9:-0.973533 10:0.116028 11:0.0557746 12:-0.693095 13:0.00708447 14:0.25101 15:-0.49659 16:-0.187534 17:0.519819 18:0.0435742 
1 1:-0.987242 2:-0.969011 3:-0.921224 4:-0.98637 5:-0.973911 6:-0.97087 7:-0.997425 8:-0.976713 9:-0.974583 10:0.113869 11:0.0985915 12:-0.689258 13:-0.00163488 14:0.245239 15:-0.466832 16:-0.224713 17:0.472254 18:0.160507 
1 1:-0.986645 2:-0.967631 3:-0.915321 4:-0.985576 5:-0.974303 6:-0.9706 7:-0.997227 8:-0.975642 9:-0.973555 10:0.125742 11:0.114366 12:-0.682864 13:-0.00381471 14:0.297173 15:-0.399876 16:-0.191908 17:0.525481 18:0.153889 
1 1:-0.987282 2:-0.967646 3:-0.91903 4:-0.985848 5:-0.974425 6:-0.970868 7:-0.997329 8:-0.976786 9:-0.97417 10:0.149487 11:0.0501408 12:-0.675192 13:0.0114441 14:0.272937 15:-0.434594 16:-0.220339 17:0.533409 18:0.0943188 
1 1:-0.986731 2:-0.969333 3:-0.92299 4:-0.985429 5:-0.973996 6:-0.971821 7:-0.997315 8:-0.976301 9:-0.975129 10:0.122504 11:0.163944 12:-0.677749 13:0.0103542 14:0.290248 15:-0.474272 16:-0.206124 17:0.499434 18:0.12631 
1 1:-0.986889 2:-0.968394 3:-0.919965 4:-0.985598 5:-0.97397 6:-0.970768 7:-0.997343 8:-0.976293 9:-0.973776 10:0.139773 11:0.096338 12:-0.670077 13:0.0147139 14:0.278707 15:-0.408555 16:-0.180973 17:0.536806 18:0.107557 
1 1:-0.986628 2:-0.966991 3:-0.919707 4:-0.985069 5:-0.972739 6:-0.969323 7:-0.997156 8:-0.97561 9:-0.972747 10:0.140853 11:0.124507 12:-0.689258 13:0.0168937 14:0.257934 15:-0.474272 16:-0.214872 17:0.509626 18:0.102041 
1 1:-0.996933 2:-0.988674 3:-0.957602 4:-0.997447 5:-0.985617 6:-0.952873 7:-0.999656 8:-0.992204 9:-0.989043 10:-0.0393956 11:0.0828169 12:-0.590793 13:-0.114986 14:0.0640508 15:-0.420955 16:0.0082012 17:0.0419026 18:0.0998345 
1 1:-0.997206 2:-0.984001 3:-0.948148 4:-0.997741 5:-0.983588 6:-0.939274 7:-0.999703 8:-0.993347 9:-0.987459 10:-0.107393 11:-0.254085 12:-0.529412 13:-0.120436 14:-0.0940565 15:-0.423435 16:-0.0420995 17:0.0645527 18:-0.0435742 
1 1:-0.997159 2:-0.981006 3:-0.950714 4:-0.997691 5:-0.983829 6:-0.939479 7:-0.999701 8:-0.992875 9:-0.986775 10:-0.0976794 11:-0.369014 12:-0.533248 13:-0.138965 14:-0.0663589 15:-0.435834 16:-0.00601422 17:0.0464326 18:-0.0523993 
1 1:-0.996836 2:-0.98925 3:-0.964087 4:-0.997127 5:-0.983125 6:-0.938303 7:-0.9996 8:-0.991341 9:-0.986904 10:-0.0188883 11:0.179718 12:-0.473146 13:-0.142234 14:-0.00634737 15:-0.433354 16:-0.145981 17:-0.0203851 18:0.003861 
1 1:-0.996634 2:-0.990719 3:-0.987917 4:-0.997362 5:-0.990761 6:-0.995123 7:-0.999619 8:-0.992058 9:-0.989597 10:-0.0458716 11:-0.0535211 12:-0.647059 13:-0.179292 14:0.000577034 15:-0.365158 16:-0.00164024 17:0.0962627 18:-0.320463 
1 1:-0.986735 2:-0.784017 3:-0.118543 4:-0.987731 5:-0.811433 6:-0.105913 7:-0.99833 8:-0.954211 9:-0.750045 10:-0.33837 11:-0.441127 12:-0.163683 13:-0.354768 14:-0.407963 15:-0.362678 16:-0.445599 17:-0.281993 18:-0.386652 
1 1:-0.987477 2:-0.792429 3:-0.150198 4:-0.988284 5:-0.818349 6:-0.142599 7:-0.998371 8:-0.956963 9:-0.76106 10:-0.316784 11:-0.434366 12:-0.154731 13:-0.32861 14:-0.39296 15:-0.366398 16:-0.442318 17:-0.262741 18:-0.366795 
1 1:-0.987155 2:-0.795789 3:-0.172502 4:-0.987993 5:-0.812551 6:-0.126295 7:-0.998314 8:-0.955268 9:-0.758955 10:-0.312466 11:-0.419718 12:-0.127877 13:-0.323161 14:-0.398731 15:-0.355239 16:-0.456534 17:-0.254813 18:-0.334804 
1 1:-0.987341 2:-0.792483 3:-0.154143 4:-0.988467 5:-0.81343 6:-0.126438 7:-0.998449 8:-0.954839 9:-0.754298 10:-0.296276 11:-0.419718 12:-0.153453 13:-0.320981 14:-0.391806 15:-0.362678 16:-0.402952 17:-0.259343 18:-0.348042 
1 1:-0.992143 2:-0.974832 3:-0.908811 4:-0.991306 5:-0.954036 6:-0.830829 7:-0.998644 8:-0.982794 9:-0.969788 10:0.0642202 11:0.225915 12:-0.40665 13:-0.0702997 14:-0.152914 15:-0.523869 16:-0.246583 17:0.387316 18:0.0788748 
1 1:-0.988612 2:-0.812873 3:-0.245681 4:-0.989887 5:-0.835667 6:-0.212517 7:-0.998666 8:-0.95967 9:-0.780211 10:-0.362115 11:-0.43662 12:-0.152174 13:-0.349319 14:-0.38142 15:-0.362678 16:-0.447786 17:-0.320498 18:-0.359073 
1 1:-0.987496 2:-0.793151 3:-0.166899 4:-0.98817 5:-0.821213 6:-0.168168 7:-0.99824 8:-0.957144 9:-0.763909 10:-0.30599 11:-0.429859 12:-0.173913 13:-0.32752 14:-0.364108 15:-0.33912 16:-0.487151 17:-0.240091 18:-0.31936 
1 1:-0.990497 2:-0.850802 3:-0.395985 4:-0.991186 5:-0.86608 6:-0.359769 7:-0.998798 8:-0.966588 9:-0.820037 10:-0.30707 11:-0.411831 12:-0.159847 13:-0.323161 14:-0.377957 15:-0.358958 16:-0.447786 17:-0.263873 18:-0.334804 
1 1:-0.992546 2:-0.877223 3:-0.511032 4:-0.992942 5:-0.896713 6:-0.501723 7:-0.999179 8:-0.974279 9:-0.856001 10:-0.311387 11:-0.424225 12:-0.152174 13:-0.373297 14:-0.357184 15:-0.33788 16:-0.3614 17:-0.284258 18:-0.323773 
1 1:-0.989111 2:-0.826838 3:-0.315809 4:-0.990458 5:-0.853671 6:-0.319404 7:-0.998651 8:-0.963316 9:-0.810813 10:-0.356719 11:-0.414085 12:-0.150895 13:-0.355858 14:-0.380265 15:-0.3416 16:-0.494806 17:-0.301246 18:-0.305019 
1 1:-0.991609 2:-0.963729 3:-0.888672 4:-0.991395 5:-0.953736 6:-0.799381 7:-0.998622 8:-0.981165 9:-0.964195 10:0.0825688 11:-0.0760563 12:-0.443734 13:-0.0681199 14:-0.175995 15:-0.50527 16:-0.249863 17:0.280861 18:0.0281302 
1 1:-0.991794 2:-0.964055 3:-0.877356 4:-0.991472 5:-0.951058 6:-0.797053 7:-0.998756 8:-0.980827 9:-0.956187 10:0.0782515 11:-0.0625352 12:-0.475703 13:-0.0746594 14:-0.189844 15:-0.521389 16:-0.159103 17:0.271801 18:-0.0921125 
1 1:-0.991342 2:-0.96703 3:-0.899904 4:-0.990361 5:-0.953306 6:-0.818254 7:-0.998456 8:-0.980635 9:-0.957826 10:0.0825688 11:0.0332394 12:-0.425831 13:-0.0365123 14:-0.124062 15:-0.50651 16:-0.255331 17:0.411099 18:-0.0766685 
1 1:-0.990639 2:-0.947752 3:-0.795418 4:-0.989807 5:-0.936315 6:-0.705152 7:-0.998491 8:-0.977633 9:-0.937115 10:0.0167296 11:-0.227042 12:-0.538363 13:-0.120436 14:-0.320254 15:-0.582145 16:-0.244396 17:0.16308 18:-0.302813 
1 1:-0.989369 2:-0.949329 3:-0.802873 4:-0.98845 5:-0.93222 6:-0.7154 7:-0.998207 8:-0.975197 9:-0.9295 10:0.0717755 11:-0.138028 12:-0.503836 13:-0.0692098 14:-0.317946 15:-0.548667 16:-0.198469 17:0.209513 18:-0.334804 
1 1:-0.990243 2:-0.946003 3:-0.790446 4:-0.98935 5:-0.927841 6:-0.689696 7:-0.998449 8:-0.976215 9:-0.925638 10:0.0134916 11:-0.206761 12:-0.511509 13:-0.119346 14:-0.383728 15:-0.572226 16:-0.234554 17:0.0860702 18:-0.410921 
1 1:-0.986579 2:-0.789258 3:-0.0906794 4:-0.988334 5:-0.82319 6:-0.173724 7:-0.998332 8:-0.953286 9:-0.769493 10:-0.341608 11:-0.39831 12:-0.168798 13:-0.304632 14:-0.354876 15:-0.371358 16:-0.467469 17:-0.277463 18:-0.306122 
1 1:-0.981102 2:-0.802539 3:-0.29838 4:-0.990156 5:-0.854869 6:-0.310206 7:-0.99871 8:-0.960237 9:-0.814637 10:-0.625472 11:-0.417465 12:-0.184143 13:-0.324251 14:-0.371033 15:-0.380037 16:-0.366867 17:-0.251416 18:-0.327082 
1 1:-0.984689 2:-0.811506 3:-0.192031 4:-0.988997 5:-0.813262 6:-0.105335 7:-0.998635 8:-0.95653 9:-0.77402 10:-0.560712 11:-0.432113 12:-0.173913 13:-0.348229 14:-0.410271 15:-0.413515 16:-0.421542 17:-0.342016 18:-0.374517 
1 1:-0.989902 2:-0.958766 3:-0.857416 4:-0.989425 5:-0.952469 6:-0.823317 7:-0.998221 8:-0.979003 9:-0.957103 10:0.0814895 11:0.0523944 12:-0.340153 13:-0.0495913 14:-0.0225043 15:-0.460632 16:-0.234554 17:0.481314 18:0.0479868 
1 1:-0.989952 2:-0.962268 3:-0.876784 4:-0.989034 5:-0.953483 6:-0.832345 7:-0.998194 8:-0.97865 9:-0.96079 10:0.124663 11:0.132394 12:-0.310742 13:-0.0376022 14:0.0213503 15:-0.430874 16:-0.211591 17:0.540204 18:0.195808 
1 1:-0.990062 2:-0.951862 3:-0.79966 4:-0.989102 5:-0.929728 6:-0.693981 7:-0.998364 8:-0.976781 9:-0.925874 10:0.0275229 11:-0.168451 12:-0.515345 13:-0.129155 14:-0.374495 15:-0.580905 16:-0.240022 17:0.183465 18:-0.403199 
1 1:-0.991 2:-0.963915 3:-0.858482 4:-0.99063 5:-0.949609 6:-0.820286 7:-0.998524 8:-0.980877 9:-0.959074 10:0.0318403 11:0.148169 12:-0.347826 13:-0.0746594 14:-0.0617426 15:-0.458153 16:-0.225806 17:0.405436 18:0.0380585 
1 1:-0.990313 2:-0.946618 3:-0.772854 4:-0.989666 5:-0.926459 6:-0.68022 7:-0.998378 8:-0.977032 9:-0.921145 10:-0.021047 11:-0.219155 12:-0.519182 13:-0.124796 14:-0.397576 15:-0.592064 16:-0.27064 17:0.17667 18:-0.393271 
1 1:-0.990381 2:-0.948764 3:-0.779036 4:-0.989485 5:-0.924218 6:-0.675251 7:-0.998484 8:-0.976159 9:-0.923802 10:-0.0188883 11:-0.19662 12:-0.529412 13:-0.123706 14:-0.414887 15:-0.592064 16:-0.191908 17:0.0928652 18:-0.380033 
1 1:-0.986804 2:-0.945674 3:-0.799454 4:-0.985369 5:-0.932072 6:-0.761311 7:-0.997514 8:-0.973776 9:-0.942787 10:0.125742 11:0.108732 12:-0.282609 13:0.0190736 14:-0.0432776 15:-0.446993 16:-0.195189 17:0.506229 18:0.0810811 
1 1:-0.986425 2:-0.947928 3:-0.803445 4:-0.984788 5:-0.932804 6:-0.764797 7:-0.997219 8:-0.97412 9:-0.942532 10:0.107393 11:0.115493 12:-0.274936 13:0.0125341 14:-0.0432776 15:-0.420955 16:-0.264079 17:0.485844 18:0.0744622 
1 1:-0.987444 2:-0.793082 3:-0.186715 4:-0.988273 5:-0.807648 6:-0.125842 7:-0.99843 8:-0.955776 9:-0.763615 10:-0.329736 11:-0.428732 12:-0.141944 13:-0.33515 14:-0.399885 15:-0.366398 16:-0.444505 17:-0.297848 18:-0.35797 
1 1:-0.992186 2:-0.946809 3:-0.683194 4:-0.991183 5:-0.922263 6:-0.680765 7:-0.99883 8:-0.98165 9:-0.946011 10:-0.0944414 11:-0.246197 12:-0.529412 13:-0.20218 14:-0.383728 15:-0.551147 16:-0.269546 17:0.151755 18:-0.151682 
1 1:-0.987715 2:-0.802128 3:-0.235046 4:-0.989092 5:-0.824339 6:-0.196961 7:-0.998482 8:-0.959585 9:-0.781495 10:-0.311387 11:-0.419718 12:-0.15601 13:-0.303542 14:-0.384882 15:-0.361438 16:-0.420448 17:-0.235561 18:-0.34032 
1 1:-0.996572 2:-0.991071 3:-0.99305 4:-0.997431 5:-0.989062 6:-0.989013 7:-0.999616 8:-0.99181 9:-0.990139 10:-0.0642202 11:-0.0670423 12:-0.571611 13:-0.102997 14:-0.117138 15:-0.50155 16:0.00601422 17:0.189128 18:-0.33701 
1 1:-0.99665 2:-0.989855 3:-0.993031 4:-0.997365 5:-0.989959 6:-0.991196 7:-0.999626 8:-0.991689 9:-0.989561 10:-0.0156503 11:-0.143662 12:-0.533248 13:-0.118256 14:-0.0132718 15:-0.433354 16:0.0683434 17:0.127973 18:-0.293988 
1 1:-0.996568 2:-0.989782 3:-0.99345 4:-0.997194 5:-0.989457 6:-0.989237 7:-0.999612 8:-0.991556 9:-0.990834 10:0.0339989 11:-0.125634 12:-0.496164 13:-0.152044 14:-0.0825159 15:-0.520149 16:0.0913067 17:0.164213 18:-0.266409 
1 1:-0.996819 2:-0.989881 3:-0.9938 4:-0.997458 5:-0.991037 6:-0.987819 7:-0.999637 8:-0.992406 9:-0.9907 10:-0.0232056 11:-0.187606 12:-0.508951 13:-0.116076 14:0.050202 15:-0.552387 16:0.038819 17:0.168743 18:-0.267512 
1 1:-0.988104 2:-0.944142 3:-0.566721 4:-0.988503 5:-0.978148 6:-0.97861 7:-0.998035 8:-0.977599 9:-0.974553 10:-0.0814895 11:-0.531268 12:-0.901535 13:-0.00381471 14:0.364108 15:-0.434594 16:-0.20175 17:0.284258 18:-0.0711528 
1 1:-0.988246 2:-0.948279 3:-0.590276 4:-0.988972 5:-0.978197 6:-0.977029 7:-0.998122 8:-0.978848 9:-0.976316 10:-0.0275229 11:-0.498592 12:-0.900256 13:-0.0321526 14:0.345643 15:-0.435834 16:-0.162384 17:0.351076 18:-0.127413 
1 1:-0.988944 2:-0.937434 3:-0.583227 4:-0.989491 5:-0.976878 6:-0.979477 7:-0.998115 8:-0.978012 9:-0.974013 10:-0.0296816 11:-0.598873 12:-0.904092 13:-0.0408719 14:0.190998 15:-0.368878 16:-0.253144 17:0.202718 18:-0.110866 
1 1:-0.988618 2:-0.942673 3:-0.568734 4:-0.989103 5:-0.977293 6:-0.979649 7:-0.998172 8:-0.978125 9:-0.975072 10:-0.0512682 11:-0.543662 12:-0.907928 13:-0.0506812 14:0.268321 15:-0.357719 16:-0.18316 17:0.305776 18:-0.129619 
1 1:-0.988235 2:-0.930739 3:-0.561064 4:-0.989209 5:-0.976312 6:-0.978541 7:-0.998127 8:-0.978278 9:-0.973924 10:-0.0372369 11:-0.624789 12:-0.910486 13:-0.0299728 14:0.202539 15:-0.370118 16:-0.20175 17:0.293318 18:-0.0987314 
1 1:-0.987982 2:-0.939336 3:-0.584005 4:-0.98875 5:-0.977429 6:-0.980712 7:-0.998071 8:-0.978621 9:-0.977302 10:-0.0372369 11:-0.560563 12:-0.907928 13:-0.0234332 14:0.384882 15:-0.408555 16:-0.166758 17:0.322763 18:0.0435742 
1 1:-0.98634 2:-0.938837 3:-0.629637 4:-0.98666 5:-0.97697 6:-0.981679 7:-0.997556 8:-0.97655 9:-0.975565 10:-0.0188883 11:-0.509859 12:-0.892583 13:0.0365123 14:0.536065 15:-0.177929 16:-0.189721 17:0.428086 18:0.0854937 
1 1:-0.984184 2:-0.945642 3:-0.689922 4:-0.98279 5:-0.975735 6:-0.982769 7:-0.996778 8:-0.974447 9:-0.976392 10:0.0858068 11:-0.374648 12:-0.87468 13:0.0692098 14:0.796884 15:-0.00929944 16:-0.173319 17:0.588901 18:0.354661 
1 1:-0.983805 2:-0.94665 3:-0.695265 4:-0.982301 5:-0.974967 6:-0.982251 7:-0.996328 8:-0.973996 9:-0.976406 10:0.0620615 11:-0.371268 12:-0.868286 13:0.0768392 14:0.740335 15:0.0427774 16:-0.245489 17:0.602492 18:0.372311 
1 1:-0.983277 2:-0.947261 3:-0.703357 4:-0.982001 5:-0.974265 6:-0.9825 7:-0.996245 8:-0.973602 9:-0.975444 10:0.0771722 11:-0.354366 12:-0.86445 13:0.0811989 14:0.73341 15:0.141971 16:-0.235648 17:0.665912 18:0.339217 
1 1:-0.983199 2:-0.946084 3:-0.722864 4:-0.981288 5:-0.973799 6:-0.982004 7:-0.996226 8:-0.972707 9:-0.974131 10:0.0912035 11:-0.350986 12:-0.86445 13:0.0844687 14:0.868436 15:-0.0117793 16:-0.214872 17:0.636467 18:0.356867 
1 1:-0.983556 2:-0.934759 3:-0.693466 4:-0.981845 5:-0.974085 6:-0.98202 7:-0.996577 8:-0.973686 9:-0.97451 10:0.0944414 11:-0.499718 12:-0.877238 13:0.0877384 14:0.680323 15:-0.103534 16:-0.175506 17:0.655719 18:0.237728 
-1 1:-0.994939 2:-0.893379 3:-0.24855 4:-0.998271 5:-0.988003 6:-0.97592 7:-0.999614 8:-0.988876 9:-0.973364 10:-0.818672 11:-0.922254 12:-0.971867 13:-0.706812 14:-0.716099 15:-0.852449 16:-0.731001 17:-0.767837 18:-0.7893 
-1 1:-0.994808 2:-0.901973 3:-0.257566 4:-0.998459 5:-0.989812 6:-0.978477 7:-0.999699 8:-0.990001 9:-0.975747 10:-0.827307 11:-0.915493 12:-0.978261 13:-0.701362 14:-0.70225 15:-0.83509 16:-0.675232 17:-0.766704 18:-0.776062 
-1 1:-0.995181 2:-0.899807 3:-0.235739 4:-0.998251 5:-0.987834 6:-0.978151 7:-0.999654 8:-0.990022 9:-0.974991 10:-0.80572 11:-0.915493 12:-0.973146 13:-0.700272 14:-0.724178 15:-0.845009 16:-0.690541 17:-0.738392 18:-0.783784 
-1 1:-0.996697 2:-0.971184 3:-0.949038 4:-0.997668 5:-0.98375 6:-0.977171 7:-0.999629 8:-0.986234 9:-0.970456 10:-0.368591 11:-0.665352 12:-0.785166 13:-0.415804 14:-0.601847 15:-0.792932 16:-0.363587 17:-0.637599 18:-0.784887 
-1 1:-0.994979 2:-0.89316 3:-0.18864 4:-0.998387 5:-0.988598 6:-0.978463 7:-0.999548 8:-0.988724 9:-0.971645 10:-0.804641 11:-0.913239 12:-0.974425 13:-0.676294 14:-0.698788 15:-0.84005 16:-0.765992 17:-0.765572 18:-0.797022 
-1 1:-0.995459 2:-0.91305 3:-0.265401 4:-0.998225 5:-0.988354 6:-0.975829 7:-0.999549 8:-0.991403 9:-0.976911 10:-0.79061 11:-0.900845 12:-0.974425 13:-0.682834 14:-0.69648 15:-0.843769 16:-0.755057 17:-0.695357 18:-0.756205 
1 1:-0.977325 2:-0.957285 3:-0.912595 4:-0.973481 5:-0.963296 6:-0.964881 7:-0.993256 8:-0.96531 9:-0.963048 10:0.171074 11:0.204507 12:-0.622762 13:0.153134 14:0.427582 15:-0.378797 16:-0.276107 17:0.634202 18:0.198014 
1 1:-0.976984 2:-0.958498 3:-0.91385 4:-0.973574 5:-0.96303 6:-0.963969 7:-0.993366 8:-0.964914 9:-0.964193 10:0.179709 11:0.257465 12:-0.622762 13:0.132425 14:0.42989 15:-0.33788 16:-0.280481 17:0.594564 18:0.316051 
1 1:-0.976232 2:-0.956972 3:-0.907552 4:-0.972616 5:-0.963085 6:-0.96432 7:-0.9927 8:-0.96323 9:-0.962589 10:0.189423 11:0.281127 12:-0.620205 13:0.168392 14:0.477207 15:-0.270924 16:-0.278294 17:0.653454 18:0.309432 
1 1:-0.977147 2:-0.957006 3:-0.912198 4:-0.972615 5:-0.96408 6:-0.964069 7:-0.992785 8:-0.965235 9:-0.964851 10:0.202375 11:0.193239 12:-0.609974 13:0.159673 14:0.396422 15:-0.32796 16:-0.288136 17:0.618347 18:0.269719 
1 1:-0.976361 2:-0.958759 3:-0.917118 4:-0.972296 5:-0.9634 6:-0.965733 7:-0.993298 8:-0.965131 9:-0.965344 10:0.207771 11:0.339718 12:-0.612532 13:0.156403 14:0.432198 15:-0.353999 16:-0.24877 17:0.657984 18:0.268616 
1 1:-0.976672 2:-0.957934 3:-0.913171 4:-0.972515 5:-0.963422 6:-0.963947 7:-0.992953 8:-0.964866 9:-0.963625 10:0.168915 11:0.252958 12:-0.594629 13:0.164033 14:0.439123 15:-0.258524 16:-0.280481 17:0.686297 18:0.205736 
1 1:-0.976373 2:-0.955831 3:-0.91331 4:-0.971934 5:-0.962167 6:-0.962142 7:-0.992766 8:-0.963546 9:-0.962596 10:0.220723 11:0.300282 12:-0.629156 13:0.168392 14:0.427582 15:-0.345319 16:-0.267359 17:0.627407 18:0.235521 
1 1:-0.994584 2:-0.98414 3:-0.954577 4:-0.994786 5:-0.980962 6:-0.949027 7:-0.999255 8:-0.987468 9:-0.985073 10:0.0339989 11:0.214648 12:-0.540921 13:-0.093188 14:0.236007 15:-0.347799 16:-0.113177 17:0.189128 18:0.228902 
1 1:-0.994213 2:-0.984706 3:-0.960493 4:-0.994283 5:-0.978017 6:-0.933876 7:-0.999146 8:-0.986467 9:-0.982769 10:0.0339989 11:0.323944 12:-0.407928 13:-0.0975477 14:0.18292 15:-0.393676 16:-0.199563 17:0.14043 18:0.0899062 
1 1:-0.993996 2:-0.98582 3:-0.984447 4:-0.994467 5:-0.985785 6:-0.992064 7:-0.999156 8:-0.987134 9:-0.984996 10:0.0275229 11:0.103099 12:-0.560102 13:-0.121526 14:0.200231 15:-0.230006 16:-0.104429 17:0.285391 18:-0.175951 
1 1:-0.981188 2:-0.775414 3:-0.104905 4:-0.981185 5:-0.803647 6:-0.0933065 7:-0.996291 8:-0.946316 9:-0.741028 10:-0.255262 11:-0.406197 12:-0.148338 13:-0.286104 14:-0.365263 15:-0.355239 16:-0.52105 17:-0.169875 18:-0.364589 
1 1:-0.982084 2:-0.783801 3:-0.135201 4:-0.981546 5:-0.810106 6:-0.131362 7:-0.996405 8:-0.949185 9:-0.753791 10:-0.239072 11:-0.40169 12:-0.147059 13:-0.259946 14:-0.349106 15:-0.355239 16:-0.523237 17:-0.148358 18:-0.342526 
1 1:-0.981701 2:-0.786987 3:-0.163701 4:-0.981041 5:-0.804073 6:-0.114488 7:-0.996423 8:-0.947276 9:-0.750583 10:-0.219644 11:-0.378028 12:-0.121483 13:-0.263215 14:-0.357184 15:-0.344079 16:-0.503554 17:-0.138165 18:-0.307226 
1 1:-0.981977 2:-0.7843 3:-0.143139 4:-0.981641 5:-0.805063 6:-0.115985 7:-0.996552 8:-0.947245 9:-0.74622 10:-0.212089 11:-0.383662 12:-0.141944 13:-0.250136 14:-0.346797 15:-0.350279 16:-0.486058 17:-0.151755 18:-0.318257 
1 1:-0.986172 2:-0.967209 3:-0.902864 4:-0.983132 5:-0.945793 6:-0.824918 7:-0.996747 8:-0.97456 9:-0.962408 10:0.101997 11:0.354366 12:-0.359335 13:0.00599455 14:-0.0213503 15:-0.479231 16:-0.31766 17:0.497169 18:0.215665 
1 1:-0.983952 2:-0.804486 3:-0.235515 4:-0.984221 5:-0.827689 6:-0.202126 7:-0.997068 8:-0.952769 9:-0.77148 10:-0.27361 11:-0.399437 12:-0.138107 13:-0.295913 14:-0.334103 15:-0.355239 16:-0.5462 17:-0.202718 18:-0.333701 
1 1:-0.982002 2:-0.785259 3:-0.155026 4:-0.981602 5:-0.811618 6:-0.159149 7:-0.996525 8:-0.949833 9:-0.754878 10:-0.237992 11:-0.389296 12:-0.16624 13:-0.268665 14:-0.323716 15:-0.32796 16:-0.512302 17:-0.134768 18:-0.281853 
1 1:-0.985582 2:-0.9559 3:-0.882197 4:-0.983166 5:-0.945489 6:-0.793562 7:-0.996692 8:-0.972874 9:-0.956577 10:0.0890448 11:0.04 12:-0.386189 13:-0.000544959 14:-0.0432776 15:-0.468072 16:-0.326408 17:0.414496 18:0.130723 
1 1:-0.985628 2:-0.955965 3:-0.872195 4:-0.983221 5:-0.942766 6:-0.789289 7:-0.996742 8:-0.972749 9:-0.947873 10:0.0760928 11:0.0670423 12:-0.434783 13:0.0125341 14:-0.0386613 15:-0.489151 16:-0.324221 17:0.459796 18:0.00827358 
1 1:-0.984646 2:-0.959126 3:-0.894058 4:-0.981881 5:-0.944881 6:-0.81244 7:-0.996435 8:-0.971511 9:-0.950993 10:0.0933621 11:0.167324 12:-0.372123 13:0.0365123 14:0.0328909 15:-0.463112 16:-0.282668 17:0.535674 18:0.019305 
1 1:-0.981377 2:-0.940079 3:-0.795491 4:-0.97829 5:-0.922848 6:-0.705592 7:-0.995531 8:-0.965262 9:-0.921304 10:0.0858068 11:-0.00619718 12:-0.466752 13:0.0332425 14:-0.206001 15:-0.510229 16:-0.287042 17:0.370328 18:-0.241037 
1 1:-0.981226 2:-0.779537 3:-0.0765323 4:-0.981335 5:-0.814283 6:-0.160417 7:-0.996393 8:-0.944991 9:-0.761327 10:-0.237992 11:-0.357746 12:-0.157289 13:-0.238147 14:-0.311021 15:-0.357719 16:-0.504647 17:-0.160815 18:-0.282956 
1 1:-0.979933 2:-0.8036 3:-0.179221 4:-0.983033 5:-0.805102 6:-0.0976808 7:-0.99735 8:-0.949349 9:-0.765095 10:-0.457097 11:-0.391549 12:-0.164962 13:-0.276294 14:-0.364108 15:-0.401116 16:-0.45544 17:-0.234428 18:-0.343629 
1 1:-0.982444 2:-0.949887 3:-0.8502 4:-0.979471 5:-0.943023 6:-0.815541 7:-0.995527 8:-0.969297 9:-0.948233 10:0.108473 11:0.189859 12:-0.289003 13:0.0354223 14:0.137911 15:-0.417235 16:-0.310005 17:0.604757 18:0.142857 
1 1:-0.98201 2:-0.95336 3:-0.869926 4:-0.979043 5:-0.944112 6:-0.825252 7:-0.995398 8:-0.968266 9:-0.952452 10:0.139773 11:0.27662 12:-0.23913 13:0.0659401 14:0.172533 15:-0.380037 16:-0.294697 17:0.635334 18:0.292885 
1 1:-0.983995 2:-0.95536 3:-0.85185 4:-0.981864 5:-0.940744 6:-0.812854 7:-0.996365 8:-0.971952 9:-0.951139 10:0.0642202 11:0.304789 12:-0.295396 13:0.0103542 14:0.0686671 15:-0.409795 16:-0.314379 17:0.532276 18:0.137341 
1 1:-0.977017 2:-0.934626 3:-0.789337 4:-0.972559 5:-0.921078 6:-0.75081 7:-0.9936 8:-0.962554 9:-0.933208 10:0.154884 11:0.249577 12:-0.23913 13:0.153134 14:0.0917484 15:-0.397396 16:-0.265172 17:0.617214 18:0.174848 
1 1:-0.976361 2:-0.937608 3:-0.796998 4:-0.972405 5:-0.92155 6:-0.755866 7:-0.993156 8:-0.962609 9:-0.931296 10:0.140853 11:0.255211 12:-0.230179 13:0.155313 14:0.084824 15:-0.370118 16:-0.315473 17:0.629672 18:0.189189 
1 1:-0.982163 2:-0.78476 3:-0.17676 4:-0.981935 5:-0.798424 6:-0.113719 7:-0.996612 8:-0.948174 9:-0.754368 10:-0.252024 11:-0.39493 12:-0.134271 13:-0.281744 14:-0.353722 15:-0.353999 16:-0.516676 17:-0.197055 18:-0.333701 
1 1:-0.982685 2:-0.794205 3:-0.222965 4:-0.982644 5:-0.816222 6:-0.186866 7:-0.996746 8:-0.951913 9:-0.773641 10:-0.230437 11:-0.384789 12:-0.140665 13:-0.240327 14:-0.336411 15:-0.350279 16:-0.489338 17:-0.114383 18:-0.309432 
1 1:-0.994023 2:-0.985094 3:-0.989438 4:-0.994388 5:-0.984552 6:-0.988339 7:-0.999166 8:-0.986739 9:-0.984792 10:0.0620615 11:0.0276056 12:-0.441176 13:-0.0735695 14:0.18869 15:-0.33044 16:-0.0530344 17:0.288788 18:-0.149476 
1 1:-0.976626 2:-0.931442 3:-0.557638 4:-0.973228 5:-0.965068 6:-0.970266 7:-0.993621 8:-0.963348 9:-0.962547 10:0.109552 11:-0.382535 12:-0.870844 13:0.174932 14:0.564916 15:-0.230006 16:-0.255331 17:0.539071 18:0.131826 
1 1:-0.976746 2:-0.936015 3:-0.578828 4:-0.974351 5:-0.965182 6:-0.968618 7:-0.993716 8:-0.96493 9:-0.964366 10:0.105235 11:-0.331831 12:-0.868286 13:0.178202 14:0.512983 15:-0.267204 16:-0.265172 17:0.565119 18:0.0700496 
1 1:-0.977965 2:-0.924933 3:-0.575033 4:-0.975233 5:-0.964354 6:-0.970917 7:-0.994029 8:-0.964354 9:-0.962512 10:0.131139 11:-0.469296 12:-0.87468 13:0.152044 14:0.405655 15:-0.180409 16:-0.283762 17:0.517554 18:0.10535 
1 1:-0.977626 2:-0.929149 3:-0.559161 4:-0.974677 5:-0.964363 6:-0.971907 7:-0.994031 8:-0.964204 9:-0.963109 10:0.116028 11:-0.407324 12:-0.879795 13:0.166213 14:0.451818 15:-0.16553 16:-0.247676 17:0.526614 18:0.0457805 
1 1:-0.97693 2:-0.918247 3:-0.551309 4:-0.974626 5:-0.963506 6:-0.970484 7:-0.993828 8:-0.964473 9:-0.961471 10:0.113869 11:-0.500845 12:-0.882353 13:0.150954 14:0.386036 15:-0.189089 16:-0.265172 17:0.497169 18:0.0689465 
1 1:-0.976109 2:-0.926526 3:-0.572747 4:-0.97375 5:-0.964018 6:-0.972737 7:-0.993423 8:-0.964771 9:-0.965134 10:0.103076 11:-0.418592 12:-0.877238 13:0.170572 14:0.586844 15:-0.211407 16:-0.254237 17:0.563986 18:0.253172 
1 1:-0.972309 2:-0.924917 3:-0.619782 4:-0.96926 5:-0.962945 6:-0.972448 7:-0.991772 8:-0.96117 9:-0.961914 10:0.143011 11:-0.354366 12:-0.852941 13:0.221798 14:0.683785 15:0.00557967 16:-0.255331 17:0.596829 18:0.28075 
1 1:-0.96796 2:-0.929971 3:-0.675781 4:-0.962365 5:-0.959723 6:-0.972974 7:-0.988854 8:-0.957086 9:-0.961914 10:0.223961 11:-0.183099 12:-0.83376 13:0.305722 14:0.83843 15:0.207688 16:-0.237835 17:0.712344 18:0.452841 
1 1:-0.966609 2:-0.930852 3:-0.68322 4:-0.960554 5:-0.958764 6:-0.971617 7:-0.987914 8:-0.956593 9:-0.960767 10:0.212089 11:-0.184225 12:-0.822251 13:0.325341 14:0.841893 15:0.231246 16:-0.2269 17:0.740657 18:0.511307 
1 1:-0.966353 2:-0.930785 3:-0.692164 4:-0.96046 5:-0.957578 6:-0.971711 7:-0.98767 8:-0.95588 9:-0.959708 10:0.218564 11:-0.157183 12:-0.818414 13:0.317711 14:0.779573 15:0.33292 16:-0.242209 17:0.80068 18:0.437397 
1 1:-0.965282 2:-0.929564 3:-0.713603 4:-0.95947 5:-0.957291 6:-0.970823 7:-0.987038 8:-0.954426 9:-0.957649 10:0.254182 11:-0.166197 12:-0.819693 13:0.33515 14:0.909983 15:0.208927 16:-0.232367 17:0.747452 18:0.495863 
1 1:-0.96684 2:-0.918737 3:-0.682593 4:-0.961055 5:-0.957763 6:-0.971409 7:-0.988079 8:-0.956082 9:-0.959064 10:0.232596 11:-0.339718 12:-0.832481 13:0.319891 14:0.765724 15:0.0936144 16:-0.245489 17:0.793884 18:0.442912 
-1 1:-0.993109 2:-0.888197 3:-0.239796 4:-0.996539 5:-0.983987 6:-0.973338 7:-0.999214 8:-0.984598 9:-0.968694 10:-0.692391 11:-0.882817 12:-0.962916 13:-0.590191 14:-0.564916 15:-0.797892 16:-0.699289 17:-0.618347 18:-0.699945 
-1 1:-0.992924 2:-0.896657 3:-0.250123 4:-0.996833 5:-0.985891 6:-0.975708 7:-0.999303 8:-0.986478 9:-0.972181 10:-0.713977 11:-0.877183 12:-0.969309 13:-0.583651 14:-0.527986 15:-0.780533 16:-0.6807 17:-0.594564 18:-0.675676 
-1 1:-0.993264 2:-0.895754 3:-0.229439 4:-0.9965 5:-0.983421 6:-0.975499 7:-0.999315 8:-0.986432 9:-0.970483 10:-0.678359 11:-0.87493 12:-0.962916 13:-0.573842 14:-0.569533 15:-0.784253 16:-0.638054 17:-0.562854 18:-0.703254 
-1 1:-0.993795 2:-0.965085 3:-0.945404 4:-0.994672 5:-0.977856 6:-0.973834 7:-0.999125 8:-0.980165 9:-0.964831 10:-0.205613 11:-0.557183 12:-0.745524 13:-0.290463 14:-0.435661 15:-0.708617 16:-0.360306 17:-0.453001 18:-0.697739 
-1 1:-0.993005 2:-0.88846 3:-0.175654 4:-0.99668 5:-0.984002 6:-0.975358 7:-0.999108 8:-0.98497 9:-0.967161 10:-0.679439 11:-0.873803 12:-0.966752 13:-0.564033 14:-0.551068 15:-0.786733 16:-0.733188 17:-0.613817 18:-0.719801 
-1 1:-0.99331 2:-0.907964 3:-0.259262 4:-0.996404 5:-0.983853 6:-0.97321 7:-0.999059 8:-0.987158 9:-0.973089 10:-0.663249 11:-0.856901 12:-0.964194 13:-0.559673 14:-0.534911 15:-0.783013 16:-0.733188 17:-0.516421 18:-0.663541 
1 1:-0.964485 2:-0.923782 3:-0.786727 4:-0.957376 5:-0.898882 6:-0.699034 7:-0.984992 8:-0.949234 9:-0.911032 10:0.184026 11:0.149296 12:-0.402813 13:0.182561 14:-0.117138 15:-0.474272 16:-0.355932 17:0.492639 18:-0.0380585 
1 1:-0.954445 2:-0.937562 3:-0.900261 4:-0.946657 5:-0.943352 6:-0.952767 7:-0.978133 8:-0.943014 9:-0.943743 10:0.298435 11:0.373521 12:-0.503836 13:0.392916 14:0.579919 15:-0.181649 16:-0.233461 17:0.727067 18:0.367899 
1 1:-0.952689 2:-0.938647 3:-0.900522 4:-0.94616 5:-0.943014 6:-0.951835 7:-0.977783 8:-0.94253 9:-0.943836 10:0.309228 11:0.435493 12:-0.498721 13:0.389646 14:0.624928 15:-0.155611 16:-0.231274 17:0.734994 18:0.425262 
1 1:-0.951639 2:-0.936771 3:-0.893429 4:-0.944684 5:-0.94331 6:-0.951492 7:-0.9764 8:-0.940238 9:-0.942784 10:0.299514 11:0.491831 12:-0.505115 13:0.405995 14:0.599538 15:-0.0613763 16:-0.20175 17:0.751982 18:0.481522 
1 1:-0.952938 2:-0.936831 3:-0.898559 4:-0.945786 5:-0.944389 6:-0.950509 7:-0.976782 8:-0.943263 9:-0.946716 10:0.299514 11:0.374648 12:-0.494885 13:0.411444 14:0.570687 15:-0.140732 16:-0.203937 17:0.725934 18:0.452841 
1 1:-0.951964 2:-0.938209 3:-0.904873 4:-0.944617 5:-0.942362 6:-0.953747 7:-0.978376 8:-0.942288 9:-0.945588 10:0.308149 11:0.505352 12:-0.492327 13:0.402725 14:0.618003 15:-0.16057 16:-0.185347 17:0.747452 18:0.418643 
1 1:-0.952475 2:-0.938224 3:-0.900371 4:-0.944796 5:-0.943771 6:-0.950723 7:-0.977661 8:-0.942959 9:-0.943954 10:0.30599 11:0.438873 12:-0.461637 13:0.411444 14:0.571841 15:-0.0365778 16:-0.207217 17:0.784824 18:0.36128 
1 1:-0.951335 2:-0.936132 3:-0.900967 4:-0.944228 5:-0.941251 6:-0.949394 7:-0.976705 8:-0.940494 9:-0.942887 10:0.337291 11:0.489577 12:-0.501279 13:0.410354 14:0.604155 15:-0.16925 16:-0.196282 17:0.733862 18:0.452841 
1 1:-0.987528 2:-0.977043 3:-0.979332 4:-0.986172 5:-0.976263 6:-0.986473 7:-0.997524 8:-0.977289 9:-0.976744 10:0.127901 11:0.299155 12:-0.411765 13:-0.0168937 14:0.433353 15:-0.0353379 16:-0.159103 17:0.501699 18:0.0402648 
1 1:-0.968672 2:-0.760215 3:-0.08876 4:-0.965766 5:-0.787585 6:-0.0722093 7:-0.989536 8:-0.931596 9:-0.723583 10:-0.147329 11:-0.354366 12:-0.132992 13:-0.158583 14:-0.300635 15:-0.33168 16:-0.550574 17:-0.011325 18:-0.329288 
1 1:-0.96975 2:-0.769586 3:-0.114626 4:-0.966335 5:-0.794734 6:-0.112821 7:-0.99016 8:-0.934587 9:-0.735372 10:-0.139773 11:-0.344225 12:-0.134271 13:-0.140054 14:-0.277553 15:-0.33292 16:-0.516676 17:0.00566251 18:-0.300607 
1 1:-0.96956 2:-0.772072 3:-0.146039 4:-0.966173 5:-0.787737 6:-0.0991413 7:-0.990105 8:-0.933001 9:-0.736663 10:-0.111711 11:-0.313803 12:-0.102302 13:-0.147684 14:-0.294864 15:-0.32796 16:-0.518863 17:0.0419026 18:-0.269719 
1 1:-0.969171 2:-0.769594 3:-0.128143 4:-0.966373 5:-0.788893 6:-0.0959605 7:-0.990061 8:-0.933152 9:-0.730293 10:-0.113869 11:-0.322817 12:-0.12532 13:-0.120436 14:-0.272937 15:-0.33664 16:-0.52433 17:0.0317101 18:-0.271925 
1 1:-0.971063 2:-0.952648 3:-0.891802 4:-0.964891 5:-0.930328 6:-0.814968 7:-0.989107 8:-0.957906 9:-0.949195 10:0.147329 11:0.513239 12:-0.263427 13:0.172752 14:0.184074 15:-0.412275 16:-0.346091 17:0.669309 18:0.343629 
1 1:-0.969282 2:-0.771428 3:-0.134386 4:-0.966312 5:-0.795881 6:-0.141261 7:-0.989797 8:-0.934462 9:-0.738787 10:-0.134377 11:-0.328451 12:-0.150895 13:-0.145504 14:-0.253318 15:-0.313081 16:-0.528704 17:0.0249151 18:-0.237728 
1 1:-0.970414 2:-0.941097 3:-0.870731 4:-0.964214 5:-0.929782 6:-0.78105 7:-0.989289 8:-0.9562 9:-0.942162 10:0.134377 11:0.232676 12:-0.29156 13:0.19891 14:0.162147 15:-0.401116 16:-0.334062 17:0.541336 18:0.244346 
1 1:-0.970508 2:-0.94144 3:-0.860809 4:-0.964053 5:-0.927122 6:-0.779169 7:-0.988654 8:-0.956166 9:-0.933111 10:0.138694 11:0.252958 12:-0.356777 13:0.191281 14:0.170225 15:-0.438314 16:-0.34281 17:0.608154 18:0.14727 
1 1:-0.968217 2:-0.942953 3:-0.882641 4:-0.961605 5:-0.927557 6:-0.801008 7:-0.987999 8:-0.954665 9:-0.935364 10:0.164598 11:0.357746 12:-0.285166 13:0.238147 14:0.241777 15:-0.389957 16:-0.304538 17:0.667044 18:0.222284 
1 1:-0.963 2:-0.922803 3:-0.781675 4:-0.955694 5:-0.904756 6:-0.693566 7:-0.98507 8:-0.947197 9:-0.903882 10:0.201295 11:0.172958 12:-0.405371 13:0.242507 14:-0.0398153 15:-0.459392 16:-0.304538 17:0.553794 18:-0.104247 
1 1:-0.968232 2:-0.764717 3:-0.0573993 4:-0.965806 5:-0.799735 6:-0.146265 7:-0.989364 8:-0.929789 9:-0.747134 10:-0.12898 11:-0.296901 12:-0.138107 13:-0.134605 14:-0.244085 15:-0.33912 16:-0.529798 17:-0.01812 18:-0.220077 
1 1:-0.964578 2:-0.932947 3:-0.837374 4:-0.957487 5:-0.925017 6:-0.804013 7:-0.985351 8:-0.95106 9:-0.931127 10:0.205613 11:0.336338 12:-0.195652 13:0.244687 14:0.327178 15:-0.345319 16:-0.311099 17:0.702152 18:0.285163 
1 1:-0.963149 2:-0.936091 3:-0.85633 4:-0.956644 5:-0.926146 6:-0.81307 7:-0.984432 8:-0.949273 9:-0.935002 10:0.234754 11:0.454648 12:-0.13555 13:0.288283 14:0.335257 15:-0.279603 16:-0.322034 17:0.728199 18:0.439603 
1 1:-0.967547 2:-0.939305 3:-0.839644 4:-0.961599 5:-0.923436 6:-0.800312 7:-0.988317 8:-0.954381 9:-0.934946 10:0.160281 11:0.487324 12:-0.214834 13:0.186921 14:0.255626 15:-0.33292 16:-0.315473 17:0.627407 18:0.303916 
1 1:-0.953859 2:-0.915219 3:-0.777959 4:-0.945814 5:-0.900302 6:-0.73739 7:-0.979079 8:-0.940222 9:-0.913615 10:0.262817 11:0.417465 12:-0.154731 13:0.355858 14:0.279862 15:-0.33292 16:-0.238928 17:0.715742 18:0.293988 
1 1:-0.953659 2:-0.917382 3:-0.779846 4:-0.945597 5:-0.900138 6:-0.738712 7:-0.978159 8:-0.940699 9:-0.911978 10:0.250944 11:0.438873 12:-0.143223 13:0.342779 14:0.267167 15:-0.290763 16:-0.261892 17:0.720272 18:0.290678 
1 1:-0.970097 2:-0.769267 3:-0.1603 4:-0.96762 5:-0.783148 6:-0.0953489 7:-0.990605 8:-0.934144 9:-0.738658 10:-0.171074 11:-0.331831 12:-0.11509 13:-0.182561 14:-0.284478 15:-0.33292 16:-0.5462 17:-0.0543601 18:-0.285163 
1 1:-0.970675 2:-0.778992 3:-0.20682 4:-0.967882 5:-0.800903 6:-0.167554 7:-0.990372 8:-0.937679 9:-0.759276 10:-0.131139 11:-0.32169 12:-0.12532 13:-0.125886 14:-0.264859 15:-0.33044 16:-0.537452 17:0.0407701 18:-0.269719 
0.80729350349428419 1:-0.987234 2:-0.976887 3:-0.984555 4:-0.98617 5:-0.97451 6:-0.979857 7:-0.997487 8:-0.977063 9:-0.977655 10:0.101997 11:0.327324 12:-0.310742 13:0.0288828 14:0.292556 15:-0.261004 16:-0.170038 17:0.550396 18:0.0159956 
1 1:-0.987347 2:-0.975974 3:-0.983158 4:-0.986059 5:-0.974966 6:-0.98247 7:-0.997283 8:-0.976959 9:-0.976138 10:0.122504 11:0.223662 12:-0.242967 13:0.0376022 14:0.391806 15:-0.127092 16:-0.207217 17:0.531144 18:0.034749 
1 1:-0.98691 2:-0.97509 3:-0.984334 4:-0.985282 5:-0.975053 6:-0.980083 7:-0.997346 8:-0.976364 9:-0.97788 10:0.144091 11:0.255211 12:-0.234015 13:0.00381471 14:0.3191 15:-0.262244 16:-0.164571 17:0.559456 18:0.0810811 
1 1:-0.987632 2:-0.976052 3:-0.984773 4:-0.98636 5:-0.976893 6:-0.978424 7:-0.997455 8:-0.978154 9:-0.977045 10:0.107393 11:0.193239 12:-0.2289 13:0.0365123 14:0.422966 15:-0.316801 16:-0.196282 17:0.501699 18:0.0932157 
1 1:-0.961217 2:-0.91735 3:-0.546788 4:-0.954236 5:-0.951583 6:-0.962126 7:-0.984572 8:-0.947711 9:-0.949529 10:0.232596 11:-0.258592 12:-0.842711 13:0.342779 14:0.695326 15:-0.0985741 16:-0.219245 17:0.617214 18:0.307226 
1 1:-0.961784 2:-0.92232 3:-0.565773 4:-0.955905 5:-0.951649 6:-0.959746 7:-0.985154 8:-0.949851 9:-0.951105 10:0.227199 11:-0.192113 12:-0.838875 13:0.343869 14:0.603001 15:-0.132052 16:-0.24877 17:0.680634 18:0.190292 
1 1:-0.963269 2:-0.911657 3:-0.56613 4:-0.957527 5:-0.950659 6:-0.961447 7:-0.985764 8:-0.950397 9:-0.949904 10:0.229358 11:-0.349859 12:-0.845269 13:0.33951 14:0.5176 15:-0.0117793 16:-0.236741 17:0.592299 18:0.257584 
1 1:-0.962557 2:-0.915446 3:-0.546377 4:-0.95655 5:-0.950908 6:-0.963021 7:-0.985513 8:-0.949364 9:-0.951045 10:0.231516 11:-0.269859 12:-0.851662 13:0.33515 14:0.547605 15:-0.00309981 16:-0.242209 17:0.631937 18:0.213458 
1 1:-0.961595 2:-0.904659 3:-0.539808 4:-0.956134 5:-0.949942 6:-0.961964 7:-0.985037 8:-0.949525 9:-0.948486 10:0.255262 11:-0.391549 12:-0.85422 13:0.348229 14:0.504905 15:-0.0539368 16:-0.258611 17:0.639864 18:0.230006 
1 1:-0.959959 2:-0.912221 3:-0.56153 4:-0.955448 5:-0.950271 6:-0.963514 7:-0.983943 8:-0.949907 9:-0.952102 10:0.207771 11:-0.292394 12:-0.846547 13:0.374387 14:0.675707 15:-0.0440174 16:-0.24877 17:0.673839 18:0.341423 
1 1:-0.954594 2:-0.909787 3:-0.611691 4:-0.948796 5:-0.947502 6:-0.962212 7:-0.980457 8:-0.944371 9:-0.947358 10:0.27469 11:-0.225915 12:-0.818414 13:0.373297 14:0.72764 15:0.182889 16:-0.206124 17:0.679502 18:0.403199 
1 1:-0.946509 2:-0.912576 3:-0.662822 4:-0.938386 5:-0.943308 6:-0.961371 7:-0.972762 8:-0.937704 9:-0.943777 10:0.336212 11:-0.0174648 12:-0.790281 13:0.452861 14:0.873053 15:0.321761 16:-0.160197 17:0.727067 18:0.47711 
1 1:-0.944241 2:-0.913607 3:-0.669167 4:-0.936499 5:-0.941209 6:-0.960649 7:-0.971851 8:-0.937558 9:-0.944275 10:0.343767 11:-0.0253521 12:-0.778772 13:0.480109 14:0.852279 15:0.365158 16:-0.155823 17:0.8188 18:0.506895 
1 1:-0.943614 2:-0.913089 3:-0.679787 4:-0.936342 5:-0.940473 6:-0.96019 7:-0.971724 8:-0.936249 9:-0.941808 10:0.337291 11:0.0107042 12:-0.774936 13:0.47248 14:0.844201 15:0.535028 16:-0.148168 17:0.812005 18:0.526751 
1 1:-0.942762 2:-0.911483 3:-0.699769 4:-0.934701 5:-0.938909 6:-0.959092 7:-0.970455 8:-0.934121 9:-0.938892 10:0.378305 11:-0.016338 12:-0.769821 13:0.4703 14:0.922677 15:0.316801 16:-0.133953 17:0.783692 18:0.521236 
1 1:-0.945229 2:-0.900897 3:-0.672769 4:-0.936905 5:-0.939848 6:-0.959674 7:-0.972929 8:-0.936265 9:-0.941423 10:0.330815 11:-0.192113 12:-0.790281 13:0.46158 14:0.817657 15:0.218847 16:-0.165664 17:0.847112 18:0.523442 
-1 1:-0.990877 2:-0.883773 3:-0.230873 4:-0.99423 5:-0.980099 6:-0.970715 7:-0.998485 8:-0.980317 9:-0.964591 10:-0.600648 11:-0.854648 12:-0.955243 13:-0.536785 14:-0.462204 15:-0.747055 16:-0.725533 17:-0.508494 18:-0.639272 
-1 1:-0.990873 2:-0.892087 3:-0.240793 4:-0.994756 5:-0.981884 6:-0.973037 7:-0.99854 8:-0.982699 9:-0.968931 10:-0.636266 11:-0.844507 12:-0.961637 13:-0.526975 14:-0.416042 15:-0.717297 16:-0.744122 17:-0.486976 18:-0.6139 
-1 1:-0.991145 2:-0.891264 3:-0.219754 4:-0.994141 5:-0.979418 6:-0.972928 7:-0.99864 8:-0.982938 9:-0.967317 10:-0.587696 11:-0.84338 12:-0.956522 13:-0.525886 14:-0.46105 15:-0.732176 16:-0.692728 17:-0.446206 18:-0.646994 
-1 1:-0.990266 2:-0.959477 3:-0.941401 4:-0.990531 5:-0.972194 6:-0.97028 7:-0.998239 8:-0.97428 9:-0.959912 10:-0.135456 11:-0.468169 12:-0.696931 13:-0.221798 14:-0.305251 15:-0.639182 16:-0.406233 17:-0.310306 18:-0.624931 
-1 1:-0.974267 2:-0.906681 3:-0.704607 4:-0.971288 5:-0.893131 6:-0.741051 7:-0.991541 8:-0.937046 9:-0.852168 10:-0.133297 11:-0.269859 12:-0.526854 13:-0.134605 14:-0.241777 15:-0.347799 16:-0.527611 17:-0.217441 18:-0.450634 
-1 1:-0.983601 2:-0.9457 3:-0.837149 4:-0.980622 5:-0.934342 6:-0.823744 7:-0.995414 8:-0.961838 9:-0.907135 10:-0.109552 11:-0.118873 12:-0.471867 13:-0.20327 14:-0.163301 15:-0.321761 16:-0.523237 17:-0.0588901 18:-0.398787 
-1 1:-0.990917 2:-0.884044 3:-0.162998 4:-0.994493 5:-0.980067 6:-0.97281 7:-0.998463 8:-0.981086 9:-0.963617 10:-0.592013 11:-0.844507 12:-0.960358 13:-0.510627 14:-0.443739 15:-0.737136 16:-0.741935 17:-0.507361 18:-0.663541 
-1 1:-0.990941 2:-0.903529 3:-0.252227 4:-0.994073 5:-0.979621 6:-0.970736 7:-0.998305 8:-0.983434 9:-0.969501 10:-0.584458 11:-0.820845 12:-0.956522 13:-0.492098 14:-0.42989 15:-0.732176 16:-0.74959 17:-0.373726 18:-0.596249 
1 1:-0.942419 2:-0.905426 3:-0.773726 4:-0.933066 5:-0.879681 6:-0.684381 7:-0.967872 8:-0.92971 9:-0.893781 10:0.25742 11:0.268732 12:-0.342711 13:0.33297 14:0.00403924 15:-0.425914 16:-0.272827 17:0.604757 18:0.0601213 
-1 1:-0.98709 2:-0.845964 3:0.269782 4:-0.990806 5:-0.945384 6:-0.859652 7:-0.997685 8:-0.979214 9:-0.934876 10:-0.62871 11:-0.824225 12:-0.952685 13:-0.570572 14:-0.644547 15:-0.754495 16:-0.736468 17:-0.385051 18:-0.683398 
1 1:-0.925829 2:-0.915971 3:-0.885426 4:-0.916962 5:-0.921721 6:-0.940341 7:-0.953141 8:-0.918952 9:-0.921194 10:0.433351 11:0.483944 12:-0.382353 13:0.524796 14:0.669937 15:-0.0229386 16:-0.0858393 17:0.773499 18:0.468285 
1 1:-0.924321 2:-0.91729 3:-0.887915 4:-0.916453 5:-0.921472 6:-0.938137 7:-0.952162 8:-0.918418 9:-0.923063 10:0.412844 11:0.544789 12:-0.395141 13:0.516076 14:0.720716 15:0.0142591 16:-0.0858393 17:0.813137 18:0.535576 
1 1:-0.922783 2:-0.913949 3:-0.878729 4:-0.91454 5:-0.92141 6:-0.937103 7:-0.950442 8:-0.914664 9:-0.920116 10:0.430113 11:0.570704 12:-0.390026 13:0.546594 14:0.694172 15:0.118413 16:-0.0311646 17:0.784824 18:0.504688 
1 1:-0.923954 2:-0.915851 3:-0.88531 4:-0.915647 5:-0.922754 6:-0.936155 7:-0.950019 8:-0.9185 9:-0.924399 10:0.412844 11:0.486197 12:-0.375959 13:0.560763 14:0.621466 15:0.000619963 16:-0.049754 17:0.773499 18:0.539989 
1 1:-0.92321 2:-0.915648 3:-0.892014 4:-0.914722 5:-0.92095 6:-0.939884 7:-0.951892 8:-0.918133 9:-0.923406 10:0.398813 11:0.574085 12:-0.379795 13:0.555313 14:0.694172 15:-0.0117793 16:-0.0344451 17:0.80068 18:0.53668 
1 1:-0.922796 2:-0.916583 3:-0.886436 4:-0.914801 5:-0.921946 6:-0.935709 7:-0.951422 8:-0.918898 9:-0.922723 10:0.424717 11:0.559437 12:-0.34399 13:0.544414 14:0.651471 15:0.110973 16:-0.0606889 17:0.799547 18:0.487038 
1 1:-0.921082 2:-0.913504 3:-0.889204 4:-0.913967 5:-0.918997 6:-0.935431 7:-0.949637 8:-0.915118 9:-0.920649 10:0.426875 11:0.607887 12:-0.397698 13:0.544414 14:0.689556 15:-0.0254185 16:-0.0442865 17:0.792752 18:0.507998 
1 1:-0.978629 2:-0.967672 3:-0.973264 4:-0.974469 5:-0.965936 6:-0.981138 7:-0.993842 8:-0.96729 9:-0.968179 10:0.180788 11:0.435493 12:-0.300512 13:0.137875 14:0.503751 15:0.115933 16:-0.261892 17:0.602492 18:0.166023 
1 1:-0.953146 2:-0.744981 3:-0.0710915 4:-0.948641 5:-0.772081 6:-0.0506297 7:-0.978237 8:-0.91694 9:-0.707999 10:-0.0782515 11:-0.304789 12:-0.120205 13:-0.0299728 14:-0.247548 15:-0.316801 16:-0.488245 17:0.11325 18:-0.297297 
1 1:-0.954452 2:-0.754678 3:-0.0911989 4:-0.948919 5:-0.77939 6:-0.0958715 7:-0.979119 8:-0.919504 9:-0.719443 10:-0.0674582 11:-0.299155 12:-0.117647 13:-0.0419619 14:-0.217542 15:-0.311841 16:-0.479497 17:0.127973 18:-0.268616 
1 1:-0.954282 2:-0.756967 3:-0.126512 4:-0.94866 5:-0.771482 6:-0.0782115 7:-0.978422 8:-0.91828 9:-0.720164 10:-0.0372369 11:-0.258592 12:-0.084399 13:-0.0419619 14:-0.234853 15:-0.309361 16:-0.495899 17:0.17214 18:-0.236624 
1 1:-0.953534 2:-0.754175 3:-0.107448 4:-0.949082 5:-0.771947 6:-0.0774704 7:-0.978799 8:-0.917772 9:-0.713417 10:-0.0545062 11:-0.275493 12:-0.111253 13:-0.0027248 14:-0.21408 15:-0.320521 16:-0.476217 17:0.134768 18:-0.222284 
1 1:-0.951921 2:-0.937053 3:-0.880356 4:-0.94282 5:-0.913653 6:-0.802809 7:-0.974866 8:-0.940345 9:-0.934189 10:0.218564 11:0.581972 12:-0.175192 13:0.318801 14:0.330641 15:-0.346559 16:-0.287042 17:0.696489 18:0.431881 
1 1:-0.953635 2:-0.756273 3:-0.112889 4:-0.947712 5:-0.778477 6:-0.121615 7:-0.978587 8:-0.918487 9:-0.723004 10:-0.0447922 11:-0.275493 12:-0.136829 13:-0.0310627 14:-0.189844 15:-0.296962 16:-0.47403 17:0.138165 18:-0.190292 
1 1:-0.950501 2:-0.925106 3:-0.85854 4:-0.942334 5:-0.913464 6:-0.767981 7:-0.974702 8:-0.938839 9:-0.925911 10:0.219644 11:0.362254 12:-0.209719 13:0.33406 14:0.312175 15:-0.33788 16:-0.271733 17:0.620612 18:0.328185 
1 1:-0.95075 2:-0.925702 3:-0.848997 4:-0.941729 5:-0.9105 6:-0.766067 7:-0.97381 8:-0.938352 9:-0.916582 10:0.228278 11:0.374648 12:-0.282609 13:0.341689 14:0.322562 15:-0.382517 16:-0.266266 17:0.682899 18:0.273028 
1 1:-0.947465 2:-0.925922 3:-0.870825 4:-0.937328 5:-0.910613 6:-0.789686 7:-0.971671 8:-0.93516 9:-0.917843 10:0.263896 11:0.465915 12:-0.195652 13:0.375477 14:0.388344 15:-0.3292 16:-0.223619 17:0.732729 18:0.348042 
1 1:-0.939999 2:-0.904191 3:-0.767705 4:-0.930345 5:-0.885055 6:-0.676245 7:-0.965978 8:-0.927872 9:-0.886429 10:0.279007 11:0.285634 12:-0.347826 13:0.356948 14:0.0905943 15:-0.412275 16:-0.236741 17:0.614949 18:0.0336459 
1 1:-0.952297 2:-0.74817 3:-0.0396757 4:-0.947335 5:-0.783256 6:-0.12774 7:-0.977645 8:-0.913828 9:-0.73094 10:-0.0501889 11:-0.240563 12:-0.12532 13:-0.0147139 14:-0.170225 15:-0.324241 16:-0.472936 17:0.103058 18:-0.161611 
1 1:-0.941301 2:-0.915081 3:-0.822591 4:-0.932761 5:-0.905869 6:-0.789881 7:-0.967455 8:-0.930991 9:-0.91332 10:0.302752 11:0.447887 12:-0.12532 13:0.398365 14:0.465666 15:-0.269684 16:-0.215965 17:0.771234 18:0.406509 
1 1:-0.939326 2:-0.917293 3:-0.842206 4:-0.931115 5:-0.906084 6:-0.798904 7:-0.965254 8:-0.928746 9:-0.916686 10:0.33945 11:0.567324 12:-0.0421995 13:0.421253 14:0.437969 15:-0.201488 16:-0.209404 17:0.751982 18:0.553227 
1 1:-0.946663 2:-0.922637 3:-0.826918 4:-0.938431 5:-0.905837 6:-0.786821 7:-0.972623 8:-0.935688 9:-0.917962 10:0.246627 11:0.585352 12:-0.12532 13:0.317711 14:0.407963 15:-0.263484 16:-0.25205 17:0.684032 18:0.501379 
1 1:-0.92593 2:-0.893906 3:-0.761101 4:-0.917299 5:-0.877917 6:-0.720375 7:-0.954395 8:-0.917114 9:-0.890868 10:0.358877 11:0.551549 12:-0.07289 13:0.480109 14:0.428736 15:-0.272164 16:-0.105522 17:0.757644 18:0.383343 
1 1:-0.925479 2:-0.895339 3:-0.765112 4:-0.91615 5:-0.877161 6:-0.720162 7:-0.95279 8:-0.915823 9:-0.888736 10:0.33837 11:0.56507 12:-0.0613811 13:0.480109 14:0.39296 15:-0.207688 16:-0.117551 17:0.783692 18:0.416437 
1 1:-0.955176 2:-0.754859 3:-0.139952 4:-0.950464 5:-0.76817 6:-0.076822 7:-0.979489 8:-0.919766 9:-0.72287 10:-0.0955208 11:-0.281127 12:-0.101023 13:-0.053951 14:-0.221004 15:-0.314321 16:-0.517769 17:0.0520951 18:-0.250965 
1 1:-0.954788 2:-0.764774 3:-0.18829 4:-0.950344 5:-0.785442 6:-0.151296 7:-0.979161 8:-0.92212 9:-0.74559 10:-0.0577442 11:-0.268732 12:-0.108696 13:-0.0027248 14:-0.202539 15:-0.309361 16:-0.498086 17:0.146093 18:-0.236624 
1 1:-0.978293 2:-0.963582 3:-0.976429 4:-0.973846 5:-0.964278 6:-0.975464 7:-0.993702 8:-0.96529 9:-0.968355 10:0.212089 11:0.163944 12:-0.122762 13:0.181471 14:0.432198 15:-0.0390577 16:-0.232367 17:0.626274 18:0.267512 
1 1:-0.97827 2:-0.967619 3:-0.978262 4:-0.974664 5:-0.964749 6:-0.974017 7:-0.994003 8:-0.966755 9:-0.9686 10:0.153805 11:0.487324 12:-0.191816 13:0.19673 14:0.466821 15:-0.124613 16:-0.222526 17:0.665912 18:0.153889 
1 1:-0.978346 2:-0.966441 3:-0.97693 4:-0.974141 5:-0.964744 6:-0.976772 7:-0.993882 8:-0.96626 9:-0.966862 10:0.189423 11:0.361127 12:-0.101023 13:0.186921 14:0.5603 15:0.0588965 16:-0.213778 17:0.662514 18:0.177055 
1 1:-0.977482 2:-0.965132 3:-0.977573 4:-0.973737 5:-0.964978 6:-0.973985 7:-0.993549 8:-0.965513 9:-0.967678 10:0.198057 11:0.400563 12:-0.111253 13:0.162943 14:0.448355 15:-0.104774 16:-0.222526 17:0.677237 18:0.211252 
-0.68319661856043112 1:-0.977757 2:-0.930407 3:-0.869246 4:-0.976777 5:-0.953322 6:-0.86069 7:-0.994558 8:-0.965455 9:-0.946948 10:-0.201295 11:-0.444507 12:-0.556266 13:-0.0583106 14:0.112522 15:-0.420955 16:-0.401859 17:0.161948 18:-0.162714 
1 1:-0.947573 2:-0.905986 3:-0.538528 4:-0.938815 5:-0.940506 6:-0.955025 7:-0.974566 8:-0.935318 9:-0.938136 10:0.2898 11:-0.167324 12:-0.818414 13:0.434332 14:0.755338 15:0.00433974 16:-0.15801 17:0.664779 18:0.389961 
1 1:-0.947993 2:-0.911642 3:-0.554453 4:-0.94045 5:-0.940231 6:-0.952463 7:-0.975158 8:-0.937445 9:-0.940456 10:0.30707 11:-0.0952113 12:-0.817136 13:0.46703 14:0.633006 15:-0.0440174 16:-0.184254 17:0.720272 18:0.269719 
1 1:-0.949908 2:-0.901677 3:-0.560451 4:-0.943237 5:-0.939849 6:-0.954969 7:-0.976314 8:-0.939214 9:-0.938965 10:0.30707 11:-0.264225 12:-0.824808 13:0.451771 14:0.609925 15:0.0700558 16:-0.178786 17:0.637599 18:0.338114 
1 1:-0.949294 2:-0.904739 3:-0.539056 4:-0.9415 5:-0.940075 6:-0.95644 7:-0.975257 8:-0.936918 9:-0.940662 10:0.30707 11:-0.180845 12:-0.832481 13:0.426703 14:0.638777 15:0.0874148 16:-0.185347 17:0.720272 18:0.295091 
1 1:-0.948277 2:-0.893691 3:-0.530408 4:-0.94077 5:-0.938778 6:-0.954557 7:-0.974835 8:-0.93686 9:-0.936297 10:0.32218 11:-0.301408 12:-0.83376 13:0.444142 14:0.574149 15:0.0365778 16:-0.187534 17:0.674972 18:0.292885 
1 1:-0.945778 2:-0.901392 3:-0.553178 4:-0.939511 5:-0.938789 6:-0.956538 7:-0.973106 8:-0.937977 9:-0.941659 10:0.283324 11:-0.198873 12:-0.824808 13:0.473569 14:0.735718 15:0.0514569 16:-0.172225 17:0.748584 18:0.426365 
1 1:-0.939348 2:-0.897168 3:-0.601636 4:-0.931736 5:-0.935414 6:-0.953875 7:-0.96723 8:-0.93095 9:-0.935995 10:0.371829 11:-0.132394 12:-0.794118 13:0.475749 14:0.778419 15:0.270924 16:-0.129579 17:0.759909 18:0.462769 
1 1:-0.928162 2:-0.898492 3:-0.653033 4:-0.919851 5:-0.92935 6:-0.952488 7:-0.956841 8:-0.92264 9:-0.930889 10:0.406368 11:0.0783099 12:-0.759591 13:0.532425 14:0.928448 15:0.409795 16:-0.0803718 17:0.784824 18:0.53337 
1 1:-0.925212 2:-0.899906 3:-0.656739 4:-0.917012 5:-0.926729 6:-0.950977 7:-0.955735 8:-0.922586 9:-0.930191 10:0.423637 11:0.0783099 12:-0.748082 13:0.552044 14:0.884593 15:0.435834 16:-0.0672499 17:0.81427 18:0.563155 
1 1:-0.925313 2:-0.899322 3:-0.668811 4:-0.917105 5:-0.925928 6:-0.950396 7:-0.95522 8:-0.920669 9:-0.928343 10:0.421479 11:0.121127 12:-0.73913 13:0.554223 14:0.848817 15:0.561066 16:-0.0399125 17:0.813137 18:0.543298 
1 1:-0.923466 2:-0.896714 3:-0.690794 4:-0.915389 5:-0.923581 6:-0.950548 7:-0.95247 8:-0.917495 9:-0.923667 10:0.446303 11:0.0861972 12:-0.734015 13:0.573842 14:0.935372 15:0.402356 16:-0.0333516 17:0.84145 18:0.546608 
1 1:-0.926872 2:-0.886843 3:-0.664116 4:-0.918472 5:-0.925793 6:-0.951184 7:-0.956154 8:-0.921336 9:-0.927582 10:0.416082 11:-0.0895775 12:-0.753197 13:0.535695 14:0.862666 15:0.303162 16:-0.0705303 17:0.901472 18:0.560949 
-1 1:-0.988754 2:-0.879932 3:-0.226458 4:-0.992021 5:-0.977014 6:-0.968879 7:-0.997791 8:-0.977111 9:-0.961691 10:-0.539126 11:-0.830986 12:-0.950128 13:-0.474659 14:-0.386036 15:-0.706138 16:-0.72444 17:-0.421291 18:-0.583012 
-1 1:-0.988741 2:-0.888402 3:-0.233162 4:-0.992524 5:-0.978631 6:-0.970729 7:-0.997841 8:-0.979544 9:-0.965833 10:-0.573664 11:-0.821972 12:-0.956522 13:-0.483379 14:-0.336411 15:-0.686299 16:-0.735375 17:-0.394111 18:-0.567568 
-1 1:-0.989194 2:-0.887446 3:-0.216626 4:-0.991925 5:-0.976186 6:-0.971212 7:-0.997969 8:-0.979592 9:-0.964004 10:-0.525094 11:-0.817465 12:-0.951407 13:-0.46812 14:-0.382574 15:-0.688779 16:-0.694915 17:-0.351076 18:-0.59294 
-1 1:-0.986746 2:-0.95478 3:-0.938084 4:-0.985957 5:-0.967515 6:-0.967062 7:-0.996999 8:-0.9692 9:-0.955908 10:-0.0760928 11:-0.39831 12:-0.658568 13:-0.150954 14:-0.21408 15:-0.585865 16:-0.432477 17:-0.193658 18:-0.564258 
-1 1:-0.965883 2:-0.89895 3:-0.697015 4:-0.960604 5:-0.884559 6:-0.733617 7:-0.986096 8:-0.928005 9:-0.84275 10:-0.0814895 11:-0.219155 12:-0.507673 13:-0.0343324 14:-0.193306 15:-0.32548 16:-0.505741 17:-0.14949 18:-0.421953 
-1 1:-0.977178 2:-0.939406 3:-0.8312 4:-0.972828 5:-0.927239 6:-0.816883 7:-0.991953 8:-0.954727 9:-0.899281 10:-0.0976794 11:-0.0580282 12:-0.441176 13:-0.128065 14:-0.0963647 15:-0.292002 16:-0.531985 17:0.0362401 18:-0.351351 
-1 1:-0.988804 2:-0.881139 3:-0.156152 4:-0.992234 5:-0.977069 6:-0.970823 7:-0.997764 8:-0.977476 9:-0.961049 10:-0.53157 11:-0.823099 12:-0.953964 13:-0.46267 14:-0.380265 15:-0.697458 16:-0.732094 17:-0.423556 18:-0.611693 
-1 1:-0.988807 2:-0.899798 3:-0.243221 4:-0.991785 5:-0.976037 6:-0.968641 7:-0.997579 8:-0.979954 9:-0.966277 10:-0.521856 11:-0.79493 12:-0.951407 13:-0.436512 14:-0.347952 15:-0.688779 16:-0.737562 17:-0.283126 18:-0.532267 
-1 1:-0.983992 2:-0.841494 3:0.27468 4:-0.987024 5:-0.94132 6:-0.856632 7:-0.996343 8:-0.975122 9:-0.929753 10:-0.58122 11:-0.803944 12:-0.948849 13:-0.528065 14:-0.598384 15:-0.735896 16:-0.735375 17:-0.309173 18:-0.65251 
1 1:-0.903643 2:-0.898728 3:-0.873568 4:-0.894216 5:-0.904084 6:-0.92943 7:-0.928468 8:-0.899931 9:-0.904135 10:0.502428 11:0.540282 12:-0.303069 13:0.585831 14:0.72187 15:0.0898946 16:0.0311646 17:0.828992 18:0.506895 
1 1:-0.90119 2:-0.899941 3:-0.876021 4:-0.89399 5:-0.903858 6:-0.925787 7:-0.926454 8:-0.899592 9:-0.905708 10:0.486239 11:0.598873 12:-0.306905 13:0.59346 14:0.780727 15:0.122133 16:0.049754 17:0.784824 18:0.616106 
1 1:-0.89891 2:-0.895959 3:-0.866525 4:-0.891623 5:-0.9038 6:-0.925203 7:-0.924909 8:-0.895345 9:-0.902485 10:0.505666 11:0.629296 12:-0.328645 13:0.618529 14:0.72764 15:0.246125 16:0.0869328 17:0.795017 18:0.617209 
1 1:-0.899417 2:-0.898787 3:-0.872522 4:-0.893272 5:-0.905243 6:-0.924438 7:-0.924417 8:-0.899631 9:-0.908 10:0.489477 11:0.532394 12:-0.290281 13:0.617439 14:0.684939 15:0.0886547 16:0.0628759 17:0.807475 18:0.586321 
1 1:-0.89948 2:-0.898368 3:-0.88111 4:-0.892071 5:-0.903646 6:-0.929717 7:-0.926752 8:-0.898954 9:-0.905577 10:0.476525 11:0.621408 12:-0.296675 13:0.60327 14:0.729948 15:0.0750155 16:0.0770913 17:0.798414 18:0.576393 
1 1:-0.899987 2:-0.898389 3:-0.875711 4:-0.891524 5:-0.90466 6:-0.923489 7:-0.926505 8:-0.899207 9:-0.904255 10:0.487318 11:0.611268 12:-0.246803 13:0.60654 14:0.708021 15:0.210167 16:0.0420995 17:0.816535 18:0.534473 
1 1:-0.897495 2:-0.895268 3:-0.878643 4:-0.890922 5:-0.901347 6:-0.923066 7:-0.923722 8:-0.895307 9:-0.902229 10:0.493794 11:0.675493 12:-0.314578 13:0.60436 14:0.740335 15:0.0787353 16:0.0891197 17:0.843715 18:0.577496 
-1 1:-0.966324 2:-0.89644 3:-0.718691 4:-0.962877 5:-0.893505 6:-0.617689 7:-0.985608 8:-0.94667 9:-0.889882 10:-0.122504 11:-0.175211 12:-0.242967 13:-0.122616 14:-0.135603 15:-0.304402 16:-0.549481 17:0.174405 18:-0.140651 
0.90217893794773119 1:-0.940366 2:-0.742329 3:-0.0957121 4:-0.9351 5:-0.759901 6:-0.0639031 7:-0.967204 8:-0.906227 9:-0.700493 10:0.0156503 11:-0.236056 12:-0.0997442 13:0.0757493 14:-0.166763 15:-0.306882 16:-0.422635 17:0.200453 18:-0.201324 
1 1:-0.93528 2:-0.924444 3:-0.871423 4:-0.925035 5:-0.900707 6:-0.792628 7:-0.959915 8:-0.92731 9:-0.921817 10:0.279007 11:0.620282 12:-0.108696 13:0.403815 14:0.425274 15:-0.279603 16:-0.214872 17:0.732729 18:0.496966 
-1 1:-0.96008 2:-0.880086 3:-0.580412 4:-0.956978 5:-0.861106 6:-0.46151 7:-0.980546 8:-0.941692 9:-0.866734 10:-0.175391 11:-0.24507 12:-0.396419 13:-0.179292 14:-0.217542 15:-0.295722 16:-0.597594 17:0.0985277 18:-0.252068 
-1 1:-0.957349 2:-0.844222 3:-0.566363 4:-0.954499 5:-0.857322 6:-0.453264 7:-0.979675 8:-0.934 9:-0.855354 10:-0.187264 11:-0.31831 12:-0.355499 13:-0.165123 14:-0.185228 15:-0.309361 16:-0.574631 17:0.0758777 18:-0.235521 
1 1:-0.933597 2:-0.912174 3:-0.849172 4:-0.924886 5:-0.900305 6:-0.759305 7:-0.959762 8:-0.924346 9:-0.913031 10:0.276848 11:0.433239 12:-0.15601 13:0.425613 14:0.410271 15:-0.290763 16:-0.191908 17:0.686297 18:0.373414 
1 1:-0.933694 2:-0.912685 3:-0.840422 4:-0.924298 5:-0.897474 6:-0.755779 7:-0.95845 8:-0.924438 9:-0.902787 10:0.298435 11:0.450141 12:-0.223785 13:0.414714 14:0.406809 15:-0.346559 16:-0.187534 17:0.680634 18:0.352454 
1 1:-0.929339 2:-0.912789 3:-0.861949 4:-0.918107 5:-0.895959 6:-0.781107 7:-0.954131 8:-0.920567 9:-0.90507 10:0.349164 11:0.526761 12:-0.147059 13:0.47248 14:0.459896 15:-0.283323 16:-0.125205 17:0.775764 18:0.405405 
1 1:-0.920291 2:-0.889459 3:-0.75526 4:-0.909768 5:-0.870054 6:-0.664407 7:-0.946415 8:-0.911563 9:-0.872027 10:0.337291 11:0.364507 12:-0.310742 13:0.438692 14:0.172533 15:-0.367638 16:-0.133953 17:0.652322 18:0.0943188 
1 1:-0.938899 2:-0.735964 3:-0.0225871 4:-0.933203 5:-0.770106 6:-0.115779 7:-0.96656 8:-0.90184 9:-0.716759 10:0.014571 11:-0.201127 12:-0.118926 13:0.0735695 14:-0.135603 15:-0.318041 16:-0.418261 17:0.180068 18:-0.134032 
1 1:-0.921833 2:-0.899796 3:-0.810981 4:-0.912733 5:-0.891108 6:-0.779064 7:-0.948927 8:-0.915199 9:-0.897976 10:0.382623 11:0.543662 12:-0.056266 13:0.46485 14:0.555684 15:-0.207688 16:-0.108803 17:0.782559 18:0.491451 
1 1:-0.919811 2:-0.902573 3:-0.831085 4:-0.91131 5:-0.890645 6:-0.78747 7:-0.946699 8:-0.912218 9:-0.902474 10:0.405289 11:0.640563 12:0.0358056 13:0.505177 14:0.5176 15:-0.139492 16:-0.0836523 17:0.772367 18:0.580805 
1 1:-0.929079 2:-0.908669 3:-0.816342 4:-0.919612 5:-0.891538 6:-0.776749 7:-0.956518 8:-0.920678 9:-0.905322 10:0.311387 11:0.650704 12:-0.0652174 13:0.411444 14:0.479515 15:-0.212647 16:-0.15801 17:0.727067 18:0.570877 
1 1:-0.903375 2:-0.876506 3:-0.74739 4:-0.895758 5:-0.86057 6:-0.7065 7:-0.929938 8:-0.898376 9:-0.872947 10:0.422558 11:0.610141 12:-0.0102302 13:0.555313 14:0.52914 15:-0.226286 16:0.000546747 17:0.813137 18:0.452841 
1 1:-0.901495 2:-0.878462 3:-0.752478 4:-0.894145 5:-0.859047 6:-0.707154 7:-0.929301 8:-0.897272 9:-0.87061 10:0.424717 11:0.622535 12:0.00767263 13:0.550954 14:0.464512 15:-0.15933 16:0.00492072 17:0.817667 18:0.501379 
1 1:-0.96963 2:-0.958535 3:-0.971118 4:-0.963604 5:-0.956092 6:-0.971248 7:-0.989021 8:-0.956994 9:-0.959388 10:0.254182 11:0.43662 12:0.00255754 13:0.278474 14:0.606463 15:0.153131 16:-0.225806 17:0.693092 18:0.277441 
-1 1:-0.97429 2:-0.946246 3:-0.888976 4:-0.968774 5:-0.947758 6:-0.880608 7:-0.990967 8:-0.961151 9:-0.948239 10:0.021047 11:-0.0478873 12:-0.493606 13:0.0201635 14:0.143681 15:-0.396156 16:-0.412794 17:0.375991 18:0.00827358 
-1 1:-0.975167 2:-0.951449 3:-0.884918 4:-0.969859 5:-0.946041 6:-0.876603 7:-0.991348 8:-0.962099 9:-0.952523 10:0.00269833 11:0.063662 12:-0.539642 13:-0.013624 14:0.0963647 15:-0.387477 16:-0.435757 17:0.314836 18:0.0821842 
-1 1:-0.973517 2:-0.943715 3:-0.866886 4:-0.969093 5:-0.94658 6:-0.853935 7:-0.991369 8:-0.959532 9:-0.939624 10:-0.000539665 11:-0.035493 12:-0.548593 13:-0.0114441 14:0.130987 15:-0.475511 16:-0.394204 17:0.323896 18:-0.141754 
-1 1:-0.973425 2:-0.944465 3:-0.878921 4:-0.968156 5:-0.943435 6:-0.857188 7:-0.990718 8:-0.958649 9:-0.945288 10:0.0275229 11:-0.0287324 12:-0.511509 13:0.00708447 14:0.0790537 15:-0.49659 16:-0.410607 17:0.274066 18:-0.0832874 
-1 1:-0.970414 2:-0.922803 3:-0.862754 4:-0.967848 5:-0.945803 6:-0.854341 7:-0.99046 8:-0.957759 9:-0.93969 10:-0.122504 11:-0.380282 12:-0.52046 13:0.0288828 14:0.177149 15:-0.382517 16:-0.418261 17:0.235561 18:-0.111969 
-1 1:-0.975207 2:-0.949153 3:-0.89171 4:-0.970538 5:-0.950532 6:-0.882288 7:-0.991591 8:-0.963187 9:-0.951068 10:-0.011333 11:-0.0287324 12:-0.521739 13:-0.00599455 14:0.180612 15:-0.399876 16:-0.429196 17:0.321631 18:0.0623276 
-1 1:-0.978524 2:-0.954131 3:-0.91967 4:-0.975266 5:-0.954005 6:-0.856772 7:-0.993183 8:-0.967865 9:-0.956075 10:-0.0901241 11:-0.0478873 12:-0.356777 13:-0.0811989 14:0.212926 15:-0.33168 16:-0.484964 17:0.330691 18:0.0226145 
1 1:-0.923532 2:-0.887089 3:-0.524968 4:-0.913214 5:-0.922067 6:-0.943359 7:-0.952044 8:-0.914006 9:-0.920578 10:0.400971 11:-0.035493 12:-0.783887 13:0.554223 14:0.779573 15:0.134532 16:-0.0333516 17:0.759909 18:0.488141 
1 1:-0.923578 2:-0.893882 3:-0.539744 4:-0.915205 5:-0.92183 6:-0.93999 7:-0.952384 8:-0.917919 9:-0.922074 10:0.410685 11:0.0433803 12:-0.778772 13:0.576022 14:0.706867 15:0.0762554 16:-0.0628759 17:0.755379 18:0.388858 
1 1:-0.926593 2:-0.883678 3:-0.547877 4:-0.918496 5:-0.921409 6:-0.942148 7:-0.955092 8:-0.919687 9:-0.922799 10:0.402051 11:-0.136901 12:-0.789003 13:0.591281 14:0.666474 15:0.197768 16:-0.0639694 17:0.688562 18:0.492554 
1 1:-0.92581 2:-0.885968 3:-0.527742 4:-0.916543 5:-0.921451 6:-0.94499 7:-0.952939 8:-0.917429 9:-0.923815 10:0.427955 11:-0.0501408 12:-0.797954 13:0.542234 14:0.689556 15:0.225046 16:-0.043193 17:0.80974 18:0.371208 
1 1:-0.923449 2:-0.876453 3:-0.520146 4:-0.916465 5:-0.919918 6:-0.942932 7:-0.953192 8:-0.917298 9:-0.917547 10:0.424717 11:-0.178592 12:-0.797954 13:0.561853 14:0.648009 15:0.185369 16:-0.051941 17:0.755379 18:0.427468 
1 1:-0.920162 2:-0.882294 3:-0.543593 4:-0.913678 5:-0.919464 6:-0.944548 7:-0.950378 8:-0.917339 9:-0.923807 10:0.420399 11:-0.0715493 12:-0.790281 13:0.590191 14:0.776111 15:0.210167 16:-0.0464735 17:0.808607 18:0.482625 
1 1:-0.911313 2:-0.876294 3:-0.58862 4:-0.904439 5:-0.914802 6:-0.940691 7:-0.941091 8:-0.907475 9:-0.915558 10:0.462493 11:-0.00732394 12:-0.754476 13:0.553134 14:0.818811 15:0.396156 16:0.0355385 17:0.774632 18:0.558742 
1 1:-0.897421 2:-0.874568 3:-0.638418 4:-0.890782 5:-0.905847 6:-0.936189 7:-0.924145 8:-0.897353 9:-0.907988 10:0.526174 11:0.227042 12:-0.709719 13:0.613079 14:0.934218 15:0.435834 16:0.0847458 17:0.849377 18:0.648097 
1 1:-0.892921 2:-0.876926 3:-0.638754 4:-0.886563 5:-0.903491 6:-0.934977 7:-0.921545 8:-0.896664 9:-0.906866 10:0.524015 11:0.239437 12:-0.693095 13:0.635967 14:0.905366 15:0.512709 16:0.108803 17:0.83239 18:0.643685 
1 1:-0.893507 2:-0.875815 3:-0.65502 4:-0.886509 5:-0.901676 6:-0.934434 7:-0.922034 8:-0.89522 9:-0.903641 10:0.533729 11:0.273239 12:-0.684143 13:0.628338 14:0.849971 15:0.704898 16:0.129579 17:0.856172 18:0.621622 
1 1:-0.89144 2:-0.87336 3:-0.676709 4:-0.883873 5:-0.899346 6:-0.933577 7:-0.917025 8:-0.891749 9:-0.898584 10:0.53157 11:0.218028 12:-0.677749 13:0.651226 14:0.979227 15:0.458153 16:0.151449 17:0.83692 18:0.623828 
1 1:-0.89507 2:-0.864298 3:-0.651151 4:-0.888027 5:-0.901365 6:-0.935327 7:-0.922511 8:-0.895444 9:-0.905113 10:0.513222 11:0.0478873 12:-0.705882 13:0.643597 14:0.837276 15:0.378797 16:0.117551 17:0.893545 18:0.677882 
-1 1:-0.984449 2:-0.874442 3:-0.219784 4:-0.987501 5:-0.971276 6:-0.965185 7:-0.996318 8:-0.971031 9:-0.955996 10:-0.449541 11:-0.79493 12:-0.939898 13:-0.383106 14:-0.260242 15:-0.647861 16:-0.694915 17:-0.293318 18:-0.506895 
-1 1:-0.98474 2:-0.882066 3:-0.225461 4:-0.988128 5:-0.973126 6:-0.967768 7:-0.996184 8:-0.973654 9:-0.960659 10:-0.486239 11:-0.783662 12:-0.94757 13:-0.386376 14:-0.217542 15:-0.624303 16:-0.721159 17:-0.251416 18:-0.488141 
-1 1:-0.985132 2:-0.882139 3:-0.208848 4:-0.987206 5:-0.970585 6:-0.967869 7:-0.996319 8:-0.97361 9:-0.95767 10:-0.422558 11:-0.778028 12:-0.941176 13:-0.379837 14:-0.260242 15:-0.630502 16:-0.682887 17:-0.206116 18:-0.525648 
-1 1:-0.979369 2:-0.946762 3:-0.933178 4:-0.976791 5:-0.959676 6:-0.962917 7:-0.99396 8:-0.960407 9:-0.948786 10:-0.014571 11:-0.295775 12:-0.601023 13:-0.0147139 14:-0.103289 15:-0.50031 16:-0.431383 17:-0.0600227 18:-0.474903 
-1 1:-0.949883 2:-0.884777 3:-0.681277 4:-0.942619 5:-0.870491 6:-0.722532 7:-0.973911 8:-0.911986 9:-0.828627 10:-0.00809498 11:-0.131268 12:-0.466752 13:0.116076 14:-0.113676 15:-0.282083 16:-0.446692 17:-0.0373726 18:-0.352454 
-1 1:-0.965535 2:-0.928969 3:-0.822065 4:-0.958971 5:-0.9156 6:-0.807022 7:-0.984478 8:-0.942965 9:-0.887245 10:-0.0469509 11:0.0321127 12:-0.398977 13:0.00381471 14:-0.00980958 15:-0.244885 16:-0.501367 17:0.1359 18:-0.292885 
-1 1:-0.985058 2:-0.874298 3:-0.143792 4:-0.98754 5:-0.971429 6:-0.967358 7:-0.996275 8:-0.971665 9:-0.95483 10:-0.440907 11:-0.788169 12:-0.945013 13:-0.373297 14:-0.263705 15:-0.636702 16:-0.713505 17:-0.289921 18:-0.537783 
-1 1:-0.984598 2:-0.894326 3:-0.234959 4:-0.986928 5:-0.970269 6:-0.965364 7:-0.995763 8:-0.973877 9:-0.960261 10:-0.434431 11:-0.753239 12:-0.941176 13:-0.350409 14:-0.236007 15:-0.637942 16:-0.723346 17:-0.129105 18:-0.452841 
-1 1:-0.978396 2:-0.834825 3:0.286793 4:-0.980586 5:-0.933871 6:-0.84903 7:-0.993599 8:-0.968416 9:-0.921403 10:-0.504587 11:-0.772394 12:-0.941176 13:-0.46267 14:-0.538373 15:-0.712337 16:-0.716785 17:-0.192525 18:-0.603971 
1 1:-0.864726 2:-0.869369 3:-0.85463 4:-0.858119 5:-0.875953 6:-0.911391 7:-0.882974 8:-0.868727 9:-0.875458 10:0.582299 11:0.604507 12:-0.173913 13:0.671935 14:0.769186 15:0.212647 16:0.25205 17:0.885617 18:0.549917 
1 1:-0.863745 2:-0.871752 3:-0.858193 4:-0.859085 5:-0.874256 6:-0.906437 7:-0.882592 8:-0.869077 9:-0.875311 10:0.570426 11:0.689014 12:-0.184143 13:0.659946 14:0.815349 15:0.215127 16:0.207217 17:0.833522 18:0.672366 
1 1:-0.85853 2:-0.86567 3:-0.84684 4:-0.854864 5:-0.875098 6:-0.904667 7:-0.880881 8:-0.862772 9:-0.871909 10:0.59741 11:0.723944 12:-0.207161 13:0.680654 14:0.806117 15:0.3354 16:0.267359 17:0.819932 18:0.672366 
1 1:-0.860464 2:-0.869746 3:-0.855321 4:-0.8573 5:-0.8767 6:-0.903313 7:-0.87851 8:-0.867875 9:-0.880076 10:0.599568 11:0.606761 12:-0.163683 13:0.671935 14:0.750721 15:0.186609 16:0.259705 17:0.834655 18:0.63155 
1 1:-0.860882 2:-0.86787 3:-0.86116 4:-0.856206 5:-0.873473 6:-0.911443 7:-0.880435 8:-0.866223 9:-0.875596 10:0.553157 11:0.701408 12:-0.157289 13:0.671935 14:0.781881 15:0.187849 16:0.241115 17:0.815402 18:0.63155 
1 1:-0.861905 2:-0.869434 3:-0.855626 4:-0.855862 5:-0.875221 6:-0.903821 7:-0.88038 8:-0.867287 9:-0.874625 10:0.582299 11:0.709296 12:-0.112532 13:0.670845 14:0.735718 15:0.368878 16:0.25205 17:0.797282 18:0.587424 
1 1:-0.857981 2:-0.865515 3:-0.860656 4:-0.855101 5:-0.871543 6:-0.904133 7:-0.875378 8:-0.863995 9:-0.870761 10:0.574744 11:0.731831 12:-0.18798 13:0.680654 14:0.791114 15:0.213887 16:0.287042 17:0.849377 18:0.639272 
-1 1:-0.948758 2:-0.876177 3:-0.65997 4:-0.942553 5:-0.874342 6:-0.570511 7:-0.97238 8:-0.929092 9:-0.865576 10:-0.00485699 11:-0.0523944 12:-0.191816 13:0.0201635 14:-0.000577034 15:-0.220087 16:-0.45544 17:0.288788 18:-0.0976282 
-1 1:-0.948295 2:-0.872758 3:-0.653221 4:-0.942353 5:-0.871586 6:-0.569767 7:-0.972131 8:-0.928052 9:-0.857353 10:0.0264436 11:-0.04 12:-0.230179 13:0.0681199 14:-0.050202 15:-0.213887 16:-0.443412 17:0.248018 18:-0.111969 
-1 1:-0.950537 2:-0.883247 3:-0.706016 4:-0.946352 5:-0.879619 6:-0.603523 7:-0.973758 8:-0.932932 9:-0.876427 10:-0.0717755 11:-0.106479 12:-0.209719 13:-0.0147139 14:-0.0709752 15:-0.275883 16:-0.488245 17:0.258211 18:-0.0843905 
1 1:-0.907283 2:-0.902779 3:-0.85798 4:-0.896392 5:-0.877968 6:-0.777089 7:-0.930557 8:-0.904098 9:-0.901341 10:0.367512 11:0.654085 12:-0.016624 13:0.513896 14:0.542989 15:-0.200248 16:-0.0552214 17:0.746319 18:0.559846 
-1 1:-0.94271 2:-0.864644 3:-0.565272 4:-0.938857 5:-0.845314 6:-0.444365 7:-0.96557 8:-0.926146 9:-0.850587 10:-0.11279 11:-0.179718 12:-0.372123 13:-0.0735695 14:-0.150606 15:-0.274644 16:-0.535265 17:0.1812 18:-0.193602 
-1 1:-0.939939 2:-0.827633 3:-0.551548 4:-0.936121 5:-0.842024 6:-0.434546 7:-0.964709 8:-0.918385 9:-0.839185 10:-0.101997 11:-0.251831 12:-0.323529 13:-0.039782 14:-0.113676 15:-0.284563 16:-0.49918 17:0.17667 18:-0.16492 
1 1:-0.903716 2:-0.890936 3:-0.832723 4:-0.896892 5:-0.878405 6:-0.741553 7:-0.930731 8:-0.900692 9:-0.890532 10:0.38694 11:0.51662 12:-0.056266 13:0.505177 14:0.515291 15:-0.227526 16:-0.049754 17:0.686297 18:0.431881 
0.1898280173739974 1:-0.905033 2:-0.8909 3:-0.825249 4:-0.895504 5:-0.874674 6:-0.74 7:-0.929585 8:-0.899998 9:-0.880114 10:0.372909 11:0.529014 12:-0.149616 13:0.488828 14:0.515291 15:-0.283323 16:-0.0574084 17:0.713477 18:0.455047 
1 1:-0.898503 2:-0.889644 3:-0.845722 4:-0.888317 5:-0.873223 6:-0.76522 7:-0.920724 8:-0.895786 9:-0.882678 10:0.43551 11:0.583099 12:-0.0485934 13:0.560763 14:0.572995 15:-0.202728 16:0.0202296 17:0.772367 18:0.468285 
